{"learner":{"attributes":{"scikit_learn":"{\"_estimator_type\": \"regressor\"}"},"feature_names":[],"feature_types":[],"gradient_booster":{"model":{"gbtree_model_param":{"num_parallel_tree":"1","num_trees":"435"},"iteration_indptr":[0,1,2,3,4,5,6,7,8,9,10,11,12,13,14,15,16,17,18,19,20,21,22,23,24,25,26,27,28,29,30,31,32,33,34,35,36,37,38,39,40,41,42,43,44,45,46,47,48,49,50,51,52,53,54,55,56,57,58,59,60,61,62,63,64,65,66,67,68,69,70,71,72,73,74,75,76,77,78,79,80,81,82,83,84,85,86,87,88,89,90,91,92,93,94,95,96,97,98,99,100,101,102,103,104,105,106,107,108,109,110,111,112,113,114,115,116,117,118,119,120,121,122,123,124,125,126,127,128,129,130,131,132,133,134,135,136,137,138,139,140,141,142,143,144,145,146,147,148,149,150,151,152,153,154,155,156,157,158,159,160,161,162,163,164,165,166,167,168,169,170,171,172,173,174,175,176,177,178,179,180,181,182,183,184,185,186,187,188,189,190,191,192,193,194,195,196,197,198,199,200,201,202,203,204,205,206,207,208,209,210,211,212,213,214,215,216,217,218,219,220,221,222,223,224,225,226,227,228,229,230,231,232,233,234,235,236,237,238,239,240,241,242,243,244,245,246,247,248,249,250,251,252,253,254,255,256,257,258,259,260,261,262,263,264,265,266,267,268,269,270,271,272,273,274,275,276,277,278,279,280,281,282,283,284,285,286,287,288,289,290,291,292,293,294,295,296,297,298,299,300,301,302,303,304,305,306,307,308,309,310,311,312,313,314,315,316,317,318,319,320,321,322,323,324,325,326,327,328,329,330,331,332,333,334,335,336,337,338,339,340,341,342,343,344,345,346,347,348,349,350,351,352,353,354,355,356,357,358,359,360,361,362,363,364,365,366,367,368,369,370,371,372,373,374,375,376,377,378,379,380,381,382,383,384,385,386,387,388,389,390,391,392,393,394,395,396,397,398,399,400,401,402,403,404,405,406,407,408,409,410,411,412,413,414,415,416,417,418,419,420,421,422,423,424,425,426,427,428,429,430,431,432,433,434,435],"tree_info":[0,0,0,0,0,0,0,0,0,0,0,0,0,0,0,0,0,0,0,0,0,0,0,0,0,0,0,0,0,0,0,0,0,0,0,0,0,0,0,0,0,0,0,0,0,0,0,0,0,0,0,0,0,0,0,0,0,0,0,0,0,0,0,0,0,0,0,0,0,0,0,0,0,0,0,0,0,0,0,0,0,0,0,0,0,0,0,0,0,0,0,0,0,0,0,0,0,0,0,0,0,0,0,0,0,0,0,0,0,0,0,0,0,0,0,0,0,0,0,0,0,0,0,0,0,0,0,0,0,0,0,0,0,0,0,0,0,0,0,0,0,0,0,0,0,0,0,0,0,0,0,0,0,0,0,0,0,0,0,0,0,0,0,0,0,0,0,0,0,0,0,0,0,0,0,0,0,0,0,0,0,0,0,0,0,0,0,0,0,0,0,0,0,0,0,0,0,0,0,0,0,0,0,0,0,0,0,0,0,0,0,0,0,0,0,0,0,0,0,0,0,0,0,0,0,0,0,0,0,0,0,0,0,0,0,0,0,0,0,0,0,0,0,0,0,0,0,0,0,0,0,0,0,0,0,0,0,0,0,0,0,0,0,0,0,0,0,0,0,0,0,0,0,0,0,0,0,0,0,0,0,0,0,0,0,0,0,0,0,0,0,0,0,0,0,0,0,0,0,0,0,0,0,0,0,0,0,0,0,0,0,0,0,0,0,0,0,0,0,0,0,0,0,0,0,0,0,0,0,0,0,0,0,0,0,0,0,0,0,0,0,0,0,0,0,0,0,0,0,0,0,0,0,0,0,0,0,0,0,0,0,0,0,0,0,0,0,0,0,0,0,0,0,0,0,0,0,0,0,0,0,0,0,0,0,0,0,0,0,0,0,0,0,0,0,0,0,0,0,0,0,0,0,0,0,0,0,0,0,0,0,0,0,0,0,0,0,0,0,0,0,0,0,0,0,0,0,0,0,0,0,0,0,0,0],"trees":[{"base_weights":[7.612897E-1,1.949347E2,-2.7954445E1,2.0394928E1,-8.057049E0,-1.4086096E2,-2.7550595E0,8.034617E-1,-2.8809378E0,-1.3112878E1,2.4325826E0,1.1912662E0,-4.889607E0],"categories":[],"categories_nodes":[],"categories_segments":[],"categories_sizes":[],"default_left":[0,0,0,0,0,0,0,0,0,0,0,0,0],"id":0,"left_children":[1,3,5,-1,7,9,11,-1,-1,-1,-1,-1,-1],"loss_changes":[1.1477147E7,1.884831E6,5.101859E6,0E0,1.643834E4,3.85081E5,1.2430296E6,0E0,0E0,0E0,0E0,0E0,0E0],"parents":[2147483647,0,0,1,1,2,2,4,4,5,5,6,6],"right_children":[2,4,6,-1,8,10,12,-1,-1,-1,-1,-1,-1],"split_conditions":[-6.9462955E-1,1.3403733E-1,1.01E2,2.0394928E1,5.2344006E-1,8.426776E-2,3.306165E-1,8.034617E-1,-2.8809378E0,-1.3112878E1,2.4325826E0,1.1912662E0,-4.889607E0],"split_indices":[4101,3109,4099,0,1561,3758,2188,0,0,0,0,0,0],"split_type":[0,0,0,0,0,0,0,0,0,0,0,0,0],"sum_hessian":[2.058E3,2.65E2,1.793E3,2.26E2,3.9E1,3.27E2,1.466E3,2.3E1,1.6E1,3.14E2,1.3E1,1.12E3,3.46E2],"tree_param":{"num_deleted":"0","num_feature":"4105","num_nodes":"13","size_leaf_vector":"1"}},{"base_weights":[9.824903E-1,1.7700073E2,-2.5200874E1,-7.915535E0,1.8587557E1,-1.26732895E2,-2.586405E0,7.327777E-1,-2.6302035E0,-1.1967755E1,5.468283E-1,7.696604E-1,-6.0839257E0],"categories":[],"categories_nodes":[],"categories_segments":[],"categories_sizes":[],"default_left":[0,0,0,0,0,0,0,0,0,0,0,0,0],"id":1,"left_children":[1,3,5,7,-1,9,11,-1,-1,-1,-1,-1,-1],"loss_changes":[9.509566E6,1.6092255E6,4.124151E6,1.4179998E4,0E0,3.56593E5,1.0924445E6,0E0,0E0,0E0,0E0,0E0,0E0],"parents":[2147483647,0,0,1,1,2,2,3,3,5,5,6,6],"right_children":[2,4,6,8,-1,10,12,-1,-1,-1,-1,-1,-1],"split_conditions":[-6.9462955E-1,1.4911531E-2,3.8175E3,1.8052529E-1,1.8587557E1,1.1750123E-1,2.007983E0,7.327777E-1,-2.6302035E0,-1.1967755E1,5.468283E-1,7.696604E-1,-6.0839257E0],"split_indices":[4101,2194,4096,1559,0,3150,2999,0,0,0,0,0,0],"split_type":[0,0,0,0,0,0,0,0,0,0,0,0,0],"sum_hessian":[2.063E3,2.67E2,1.796E3,4E1,2.27E2,3.27E2,1.469E3,2.3E1,1.7E1,3.08E2,1.9E1,1.255E3,2.14E2],"tree_param":{"num_deleted":"0","num_feature":"4105","num_nodes":"13","size_leaf_vector":"1"}},{"base_weights":[8.351142E-1,1.6171638E2,-2.2632025E1,1.693977E1,-7.0832086E0,-1.1903519E2,-2.1318803E0,-2.3978236E0,6.6806126E-1,-7.189553E0,-1.176773E1,-4.163434E-1,2.0001852E1],"categories":[],"categories_nodes":[],"categories_segments":[],"categories_sizes":[],"default_left":[0,0,0,0,0,0,0,0,0,0,0,0,0],"id":2,"left_children":[1,3,5,-1,7,9,11,-1,-1,-1,-1,-1,-1],"loss_changes":[7.6277615E6,1.2709875E6,3.484501E6,0E0,1.1174349E4,1.58121E5,8.4835994E5,0E0,0E0,0E0,0E0,0E0,0E0],"parents":[2147483647,0,0,1,1,2,2,4,4,5,5,6,6],"right_children":[2,4,6,-1,8,10,12,-1,-1,-1,-1,-1,-1],"split_conditions":[-6.9462955E-1,2.5136005E-2,3.8175E3,1.693977E1,1.6904381E-1,5.319782E-1,3.7161082E-1,-2.3978236E0,6.6806126E-1,-7.189553E0,-1.176773E1,-4.163434E-1,2.0001852E1],"split_indices":[4101,3445,4096,0,306,1538,178,0,0,0,0,0,0],"split_type":[0,0,0,0,0,0,0,0,0,0,0,0,0],"sum_hessian":[2.02E3,2.57E2,1.763E3,2.19E2,3.8E1,3.09E2,1.454E3,1.6E1,2.2E1,8.2E1,2.27E2,1.438E3,1.6E1],"tree_param":{"num_deleted":"0","num_feature":"4105","num_nodes":"13","size_leaf_vector":"1"}},{"base_weights":[-8.3177495E-1,1.4750793E2,-2.1965954E1,1.5438576E1,-5.6284733E0,-8.191834E1,6.644752E0,6.095411E-1,-2.1859174E0,-9.658569E0,-3.0736618E0,3.1991175E-1,1.8422112E1],"categories":[],"categories_nodes":[],"categories_segments":[],"categories_sizes":[],"default_left":[0,0,0,0,0,0,0,0,0,0,0,0,0],"id":3,"left_children":[1,3,5,-1,7,9,11,-1,-1,-1,-1,-1,-1],"loss_changes":[6.4656495E6,1.046006E6,3.096509E6,0E0,9.110709E3,7.4287625E5,7.463513E5,0E0,0E0,0E0,0E0,0E0,0E0],"parents":[2147483647,0,0,1,1,2,2,4,4,5,5,6,6],"right_children":[2,4,6,-1,8,10,12,-1,-1,-1,-1,-1,-1],"split_conditions":[-6.9462955E-1,1.4214006E-1,4.4824532E-4,1.5438576E1,2.2446387E-1,2.9054969E-3,3.7161082E-1,6.095411E-1,-2.1859174E0,-9.658569E0,-3.0736618E0,3.1991175E-1,1.8422112E1],"split_indices":[4101,2488,3736,0,2486,4046,178,0,0,0,0,0,0],"split_type":[0,0,0,0,0,0,0,0,0,0,0,0,0],"sum_hessian":[2.062E3,2.57E2,1.805E3,2.19E2,3.8E1,5.83E2,1.222E3,2.3E1,1.5E1,3.71E2,2.12E2,1.204E3,1.8E1],"tree_param":{"num_deleted":"0","num_feature":"4105","num_nodes":"13","size_leaf_vector":"1"}},{"base_weights":[-1.2926857E0,1.3032617E2,-1.8674387E1,-6.421371E0,1.4069129E1,-7.432965E1,6.5699697E0,5.559173E-1,-1.9986117E0,-8.79457E0,-2.7215805E0,3.1583267E-1,1.6787458E1],"categories":[],"categories_nodes":[],"categories_segments":[],"categories_sizes":[],"default_left":[0,0,0,0,0,0,0,0,0,0,0,0,0],"id":4,"left_children":[1,3,5,7,-1,9,11,-1,-1,-1,-1,-1,-1],"loss_changes":[4.690796E6,9.2570525E5,2.5447802E6,8.44791E3,0E0,6.1178575E5,6.8498025E5,0E0,0E0,0E0,0E0,0E0,0E0],"parents":[2147483647,0,0,1,1,2,2,3,3,5,5,6,6],"right_children":[2,4,6,8,-1,10,12,-1,-1,-1,-1,-1,-1],"split_conditions":[-6.9462955E-1,4.664223E-3,4.4824532E-4,1.9492112E-1,1.4069129E1,4.7175363E-2,3.7161082E-1,5.559173E-1,-1.9986117E0,-8.79457E0,-2.7215805E0,3.1583267E-1,1.6787458E1],"split_indices":[4101,3157,3736,1884,0,4023,178,0,0,0,0,0,0],"split_type":[0,0,0,0,0,0,0,0,0,0,0,0,0],"sum_hessian":[2.05E3,2.39E2,1.811E3,4.1E1,1.98E2,5.65E2,1.246E3,2.3E1,1.8E1,3.6E2,2.05E2,1.226E3,2E1],"tree_param":{"num_deleted":"0","num_feature":"4105","num_nodes":"13","size_leaf_vector":"1"}},{"base_weights":[2.8546804E-1,1.2149379E2,-1.7380764E1,1.2823958E1,-5.858384E0,-6.377797E1,8.917014E0,5.0701064E-1,-1.8231832E0,-7.709344E0,-1.8406415E0,5.2093714E-1,1.616381E1],"categories":[],"categories_nodes":[],"categories_segments":[],"categories_sizes":[],"default_left":[0,0,0,0,0,0,0,0,0,0,0,0,0],"id":5,"left_children":[1,3,5,-1,7,9,11,-1,-1,-1,-1,-1,-1],"loss_changes":[4.4975235E6,7.858295E5,2.236862E6,0E0,7.0293174E3,6.599585E5,6.171178E5,0E0,0E0,0E0,0E0,0E0,0E0],"parents":[2147483647,0,0,1,1,2,2,4,4,5,5,6,6],"right_children":[2,4,6,-1,8,10,12,-1,-1,-1,-1,-1,-1],"split_conditions":[-6.9462955E-1,6.6986516E-2,2.4353983E-1,1.2823958E1,2.4124554E-4,1.24482565E-1,2.1351824E-2,5.0701064E-1,-1.8231832E0,-7.709344E0,-1.8406415E0,5.2093714E-1,1.616381E1],"split_indices":[4101,3104,3505,0,2173,1240,2298,0,0,0,0,0,0],"split_type":[0,0,0,0,0,0,0,0,0,0,0,0,0],"sum_hessian":[2.1E3,2.67E2,1.833E3,2.26E2,4.1E1,6.63E2,1.17E3,2.3E1,1.8E1,4.31E2,2.32E2,1.15E3,2E1],"tree_param":{"num_deleted":"0","num_feature":"4105","num_nodes":"13","size_leaf_vector":"1"}},{"base_weights":[7.399636E-1,1.1017076E2,-1.5687712E1,1.1687387E1,-5.0934463E0,-5.577757E1,1.0347928E1,4.6256855E-1,-1.6631529E0,-1.3204252E0,-7.046387E0,7.4645245E-1,1.372211E1],"categories":[],"categories_nodes":[],"categories_segments":[],"categories_sizes":[],"default_left":[0,0,0,0,0,0,0,0,0,0,0,0,0],"id":6,"left_children":[1,3,5,-1,7,9,11,-1,-1,-1,-1,-1,-1],"loss_changes":[3.6661652E6,6.6280825E5,1.8509026E6,0E0,5.9586846E3,6.754405E5,2.996392E5,0E0,0E0,0E0,0E0,0E0,0E0],"parents":[2147483647,0,0,1,1,2,2,4,4,5,5,6,6],"right_children":[2,4,6,-1,8,10,12,-1,-1,-1,-1,-1,-1],"split_conditions":[-6.9462955E-1,4.363346E-2,1.76E2,1.1687387E1,1.3276635E-4,5.383783E-4,1.15178436E-1,4.6256855E-1,-1.6631529E0,-1.3204252E0,-7.046387E0,7.4645245E-1,1.372211E1],"split_indices":[4101,4069,4099,0,2497,2904,2515,0,0,0,0,0,0],"split_type":[0,0,0,0,0,0,0,0,0,0,0,0,0],"sum_hessian":[2.039E3,2.66E2,1.773E3,2.24E2,4.2E1,6.98E2,1.075E3,2.4E1,1.8E1,2.56E2,4.42E2,1.061E3,1.4E1],"tree_param":{"num_deleted":"0","num_feature":"4105","num_nodes":"13","size_leaf_vector":"1"}},{"base_weights":[-2.2523676E-1,2.938595E1,-4.5055283E1,1.2843438E1,1.20440506E2,-7.5535706E1,-8.931496E0,6.793953E-1,1.1100356E1,1.3879885E1,1.0490597E1,-6.981513E0,1.3275365E0,-5.64529E0,-2.081103E-1],"categories":[],"categories_nodes":[],"categories_segments":[],"categories_sizes":[],"default_left":[0,0,0,0,0,0,0,0,0,0,0,0,0,0,0],"id":7,"left_children":[1,3,5,7,9,11,13,-1,-1,-1,-1,-1,-1,-1,-1],"loss_changes":[2.7271262E6,1.8632462E6,8.996515E5,6.0944456E5,1.133875E4,1.27657E5,1.3479581E5,0E0,0E0,0E0,0E0,0E0,0E0,0E0,0E0],"parents":[2147483647,0,0,1,1,2,2,3,3,4,4,5,5,6,6],"right_children":[2,4,6,8,10,12,14,-1,-1,-1,-1,-1,-1,-1,-1],"split_conditions":[4.0996468E-1,3.9910853E-1,1.4004406E-1,4.7830233E-1,6.54257E-5,7.311928E-4,4.2769957E-2,6.793953E-1,1.1100356E1,1.3879885E1,1.0490597E1,-6.981513E0,1.3275365E0,-5.64529E0,-2.081103E-1],"split_indices":[1949,2137,1240,3025,3138,2396,3558,0,0,0,0,0,0,0,0],"split_type":[0,0,0,0,0,0,0,0,0,0,0,0,0,0,0],"sum_hessian":[2.054E3,1.237E3,8.17E2,1.047E3,1.9E2,4.43E2,3.74E2,1.001E3,4.6E1,1E1,1.8E2,4.28E2,1.5E1,4E1,3.34E2],"tree_param":{"num_deleted":"0","num_feature":"4105","num_nodes":"15","size_leaf_vector":"1"}},{"base_weights":[-2.0563927E-1,9.344651E1,-1.35780945E1,9.710614E0,-5.4933248E0,-7.1199165E1,-4.1799727E-1,4.2283958E-1,-1.4979805E0,-6.806343E0,2.3442833E0,5.5237633E-1,-4.7335477E0],"categories":[],"categories_nodes":[],"categories_segments":[],"categories_sizes":[],"default_left":[0,0,0,0,0,0,0,0,0,0,0,0,0],"id":8,"left_children":[1,3,5,-1,7,9,11,-1,-1,-1,-1,-1,-1],"loss_changes":[2.5878482E6,4.09744E5,1.3711402E6,0E0,4.246918E3,1.821755E5,5.181176E5,0E0,0E0,0E0,0E0,0E0,0E0],"parents":[2147483647,0,0,1,1,2,2,4,4,5,5,6,6],"right_children":[2,4,6,-1,8,10,12,-1,-1,-1,-1,-1,-1],"split_conditions":[-6.9462955E-1,9.598793E-3,1.01E2,9.710614E0,1.7213619E-1,1.1750123E-1,8.025478E-1,4.2283958E-1,-1.4979805E0,-6.806343E0,2.3442833E0,5.5237633E-1,-4.7335477E0],"split_indices":[4101,3769,4099,0,2191,3150,508,0,0,0,0,0,0],"split_type":[0,0,0,0,0,0,0,0,0,0,0,0,0],"sum_hessian":[2.066E3,2.58E2,1.808E3,2.22E2,3.6E1,3.36E2,1.472E3,1.9E1,1.7E1,3.18E2,1.8E1,1.308E3,1.64E2],"tree_param":{"num_deleted":"0","num_feature":"4105","num_nodes":"13","size_leaf_vector":"1"}},{"base_weights":[8.49481E-1,8.507397E1,-1.0987556E1,8.84894E0,-5.233766E0,-5.8982146E-1,-7.038837E1,3.9323217E-1,-1.3665749E0,-1.8270494E0,1.4599677E0,-6.556708E0,-4.3469687E0],"categories":[],"categories_nodes":[],"categories_segments":[],"categories_sizes":[],"default_left":[0,0,0,0,0,0,0,0,0,0,0,0,0],"id":9,"left_children":[1,3,5,-1,7,9,11,-1,-1,-1,-1,-1,-1],"loss_changes":[2.0242128E6,3.3207625E5,1.0994952E6,0E0,3.4740312E3,5.1698578E5,1.9354E4,0E0,0E0,0E0,0E0,0E0,0E0],"parents":[2147483647,0,0,1,1,2,2,4,4,5,5,6,6],"right_children":[2,4,6,-1,8,10,12,-1,-1,-1,-1,-1,-1],"split_conditions":[-6.9462955E-1,2.5136005E-2,7.3969954E-1,8.84894E0,2.0732908E-2,2.7936742E-1,7.472161E-3,3.9323217E-1,-1.3665749E0,-1.8270494E0,1.4599677E0,-6.556708E0,-4.3469687E0],"split_indices":[4101,3445,3428,0,2478,441,3132,0,0,0,0,0,0],"split_type":[0,0,0,0,0,0,0,0,0,0,0,0,0],"sum_hessian":[2.03E3,2.5E2,1.78E3,2.15E2,3.5E1,1.515E3,2.65E2,1.8E1,1.7E1,6.97E2,8.18E2,2.27E2,3.8E1],"tree_param":{"num_deleted":"0","num_feature":"4105","num_nodes":"13","size_leaf_vector":"1"}},{"base_weights":[-3.068056E-1,7.62652E1,-1.1036219E1,-5.359183E0,8.070883E0,5.347264E0,-4.478548E1,-1.2487737E0,3.4296504E-1,3.0119365E-1,1.3407685E1,-7.824538E-1,-5.1954174E0],"categories":[],"categories_nodes":[],"categories_segments":[],"categories_sizes":[],"default_left":[0,0,0,0,0,0,0,0,0,0,0,0,0],"id":10,"left_children":[1,3,5,7,-1,9,11,-1,-1,-1,-1,-1,-1],"loss_changes":[1.7058972E6,3.0690762E5,1.0070369E6,3.1633071E3,0E0,3.488204E5,2.9507975E5,0E0,0E0,0E0,0E0,0E0,0E0],"parents":[2147483647,0,0,1,1,2,2,3,3,5,5,6,6],"right_children":[2,4,6,8,-1,10,12,-1,-1,-1,-1,-1,-1],"split_conditions":[-6.9462955E-1,1.433342E-1,1.9611824E-1,2.3747747E-1,8.070883E0,2.813616E-1,2.1698603E-1,-1.2487737E0,3.4296504E-1,3.0119365E-1,1.3407685E1,-7.824538E-1,-5.1954174E0],"split_indices":[4101,2820,3641,2499,0,3906,3175,0,0,0,0,0,0],"split_type":[0,0,0,0,0,0,0,0,0,0,0,0,0],"sum_hessian":[2.076E3,2.55E2,1.821E3,3.9E1,2.16E2,1.226E3,5.95E2,2E1,1.9E1,1.21E3,1.6E1,1.65E2,4.3E2],"tree_param":{"num_deleted":"0","num_feature":"4105","num_nodes":"13","size_leaf_vector":"1"}},{"base_weights":[4.674828E-1,-2.0873417E1,3.5176937E1,-4.501711E1,3.0147939E0,7.798577E1,1.625191E1,-4.343773E0,3.642761E0,8.836177E0,1.16378516E-1,7.6581798E0,-2.8685586E0,1.5562983E0,-2.9002924E0],"categories":[],"categories_nodes":[],"categories_segments":[],"categories_sizes":[],"default_left":[0,0,0,0,0,0,0,0,0,0,0,0,0,0,0],"id":11,"left_children":[1,3,5,7,9,11,13,-1,-1,-1,-1,-1,-1,-1,-1],"loss_changes":[1.5372958E6,7.4125894E5,6.3993644E5,2.180955E5,1.0626692E5,2.2380338E5,3.4845594E4,0E0,0E0,0E0,0E0,0E0,0E0,0E0,0E0],"parents":[2147483647,0,0,1,1,2,2,3,3,4,4,5,5,6,6],"right_children":[2,4,6,8,10,12,14,-1,-1,-1,-1,-1,-1,-1,-1],"split_conditions":[5.9574944E-1,1.19635E4,-2.9297597E0,4.512763E-2,2.6532043E-2,2.3283179E-1,1.0973027E-1,-4.343773E0,3.642761E0,8.836177E0,1.16378516E-1,7.6581798E0,-2.8685586E0,1.5562983E0,-2.9002924E0],"split_indices":[441,4096,4103,3040,1871,655,2812,0,0,0,0,0,0,0,0],"split_type":[0,0,0,0,0,0,0,0,0,0,0,0,0,0,0],"sum_hessian":[2.075E3,1.285E3,7.9E2,6.39E2,6.46E2,2.42E2,5.48E2,6.11E2,2.8E1,1.1E1,6.35E2,2.25E2,1.7E1,5.34E2,1.4E1],"tree_param":{"num_deleted":"0","num_feature":"4105","num_nodes":"15","size_leaf_vector":"1"}},{"base_weights":[5.009324E-1,6.426867E1,-8.730164E0,6.6828046E0,-1.0725615E0,2.274883E0,-4.493781E1,-7.8196967E-1,3.084078E-1,1.5590687E1,9.928969E-2,-4.9081903E0,-1.0026752E-1],"categories":[],"categories_nodes":[],"categories_segments":[],"categories_sizes":[],"default_left":[0,0,0,0,0,0,0,0,0,0,0,0,0],"id":12,"left_children":[1,3,5,-1,7,9,11,-1,-1,-1,-1,-1,-1],"loss_changes":[1.2204818E6,1.8977425E5,7.21719E5,0E0,1.3513759E3,2.7845147E5,1.9232325E5,0E0,0E0,0E0,0E0,0E0,0E0],"parents":[2147483647,0,0,1,1,2,2,4,4,5,5,6,6],"right_children":[2,4,6,-1,8,10,12,-1,-1,-1,-1,-1,-1],"split_conditions":[-6.9462955E-1,2.5136005E-2,1.6206914E0,6.6828046E0,1.5605554E-1,2.638634E-2,1.2457021E-1,-7.8196967E-1,3.084078E-1,1.5590687E1,9.928969E-2,-4.9081903E0,-1.0026752E-1],"split_indices":[4101,3445,2716,0,940,3192,4091,0,0,0,0,0,0],"split_type":[0,0,0,0,0,0,0,0,0,0,0,0,0],"sum_hessian":[2.073E3,2.62E2,1.811E3,2.24E2,3.8E1,1.389E3,4.22E2,1.4E1,2.4E1,9E0,1.38E3,3.41E2,8.1E1],"tree_param":{"num_deleted":"0","num_feature":"4105","num_nodes":"13","size_leaf_vector":"1"}},{"base_weights":[1.24423385E-1,-2.0860598E1,2.4308012E1,-4.458435E1,-3.2791958E0,9.024092E0,6.9985634E1,-4.2898836E0,6.8523866E-1,-1.1053319E-1,-4.5565004E0,-2.1892686E0,1.4349272E0,5.702367E0,1.1532837E1],"categories":[],"categories_nodes":[],"categories_segments":[],"categories_sizes":[],"default_left":[0,0,0,0,0,0,0,0,0,0,0,0,0,0,0],"id":13,"left_children":[1,3,5,7,9,11,13,-1,-1,-1,-1,-1,-1,-1,-1],"loss_changes":[1.02482025E6,4.5093166E5,6.5485944E5,9.1108375E4,6.07218E4,1.6964023E5,7.88285E4,0E0,0E0,0E0,0E0,0E0,0E0,0E0,0E0],"parents":[2147483647,0,0,1,1,2,2,3,3,4,4,5,5,6,6],"right_children":[2,4,6,8,10,12,14,-1,-1,-1,-1,-1,-1,-1,-1],"split_conditions":[2.4118389E-1,9.044772E-3,4.936942E-1,3.0096045E-1,3.9219233E-1,1.386141E-2,4.6849053E-2,-4.2898836E0,6.8523866E-1,-1.1053319E-1,-4.5565004E0,-2.1892686E0,1.4349272E0,5.702367E0,1.1532837E1],"split_indices":[1755,3443,294,3006,3648,3309,3860,0,0,0,0,0,0,0,0],"split_type":[0,0,0,0,0,0,0,0,0,0,0,0,0,0,0],"sum_hessian":[2.019E3,1.081E3,9.38E2,4.6E2,6.21E2,7.03E2,2.35E2,4.29E2,3.1E1,5.96E2,2.5E1,1.23E2,5.8E2,2.15E2,2E1],"tree_param":{"num_deleted":"0","num_feature":"4105","num_nodes":"15","size_leaf_vector":"1"}},{"base_weights":[1.7984125E-1,-1.9822115E1,2.2545385E1,-3.857031E1,-1.4084402E0,8.587533E0,6.4667656E1,-4.0868692E0,-5.660827E-1,5.560181E-1,-3.2791948E-1,1.1419344E0,-3.4054816E0,5.238212E0,1.0624268E1],"categories":[],"categories_nodes":[],"categories_segments":[],"categories_sizes":[],"default_left":[0,0,0,0,0,0,0,0,0,0,0,0,0,0,0],"id":14,"left_children":[1,3,5,7,9,11,13,-1,-1,-1,-1,-1,-1,-1,-1],"loss_changes":[9.221668E5,3.7565672E5,5.720665E5,1.3022925E5,9.653955E3,1.4736994E5,7.353875E4,0E0,0E0,0E0,0E0,0E0,0E0,0E0,0E0],"parents":[2147483647,0,0,1,1,2,2,3,3,4,4,5,5,6,6],"right_children":[2,4,6,8,10,12,14,-1,-1,-1,-1,-1,-1,-1,-1],"split_conditions":[2.4118389E-1,5.5116534E-2,4.936942E-1,7.333822E-2,3.3281895E-3,1.966917E-1,4.6849053E-2,-4.0868692E0,-5.660827E-1,5.560181E-1,-3.2791948E-1,1.1419344E0,-3.4054816E0,5.238212E0,1.0624268E1],"split_indices":[1755,3802,294,3517,2872,3562,3860,0,0,0,0,0,0,0,0],"split_type":[0,0,0,0,0,0,0,0,0,0,0,0,0,0,0],"sum_hessian":[2.061E3,1.088E3,9.73E2,5.39E2,5.49E2,7.31E2,2.42E2,4.37E2,1.02E2,1.26E2,4.23E2,6.7E2,6.1E1,2.2E2,2.2E1],"tree_param":{"num_deleted":"0","num_feature":"4105","num_nodes":"15","size_leaf_vector":"1"}},{"base_weights":[3.6905953E-1,-1.7520723E1,2.1968529E1,-3.840994E0,-3.8362865E1,9.48501E0,5.7405403E1,9.66E0,-4.9061438E-1,-1.2736045E0,-3.8457835E0,-8.4305197E-1,1.2154108E0,5.4301367E0,-9.661309E-1],"categories":[],"categories_nodes":[],"categories_segments":[],"categories_sizes":[],"default_left":[0,0,0,0,0,0,0,0,0,0,0,0,0,0,0],"id":15,"left_children":[1,3,5,7,9,11,13,-1,-1,-1,-1,-1,-1,-1,-1],"loss_changes":[8.061967E5,3.2534106E5,4.1802528E5,1.3146961E5,5.4111438E4,5.603074E4,6.4298E4,0E0,0E0,0E0,0E0,0E0,0E0,0E0,0E0],"parents":[2147483647,0,0,1,1,2,2,3,3,4,4,5,5,6,6],"right_children":[2,4,6,8,10,12,14,-1,-1,-1,-1,-1,-1,-1,-1],"split_conditions":[3.916297E-1,1.65713E-1,4.936942E-1,1.9424186E-4,4.2983726E-2,2.8087664E-1,3.7133655E-1,9.66E0,-4.9061438E-1,-1.2736045E0,-3.8457835E0,-8.4305197E-1,1.2154108E0,5.4301367E0,-9.661309E-1],"split_indices":[1145,1453,294,2588,3276,3134,1882,0,0,0,0,0,0,0,0],"split_type":[0,0,0,0,0,0,0,0,0,0,0,0,0,0,0],"sum_hessian":[2.086E3,1.141E3,9.45E2,6.89E2,4.52E2,6.99E2,2.46E2,1E1,6.79E2,7.8E1,3.74E2,1.27E2,5.72E2,2.33E2,1.3E1],"tree_param":{"num_deleted":"0","num_feature":"4105","num_nodes":"15","size_leaf_vector":"1"}},{"base_weights":[-1.4813368E-1,1.4147508E1,-2.146129E1,5.1629192E1,6.1599364E0,-3.8051743E1,-3.8345904E0,1.6447101E0,4.7040653E0,8.346316E0,3.9735767E-1,-3.5396926E0,1.4877641E0,-8.90929E-2,-2.6775968E0],"categories":[],"categories_nodes":[],"categories_segments":[],"categories_sizes":[],"default_left":[0,0,0,0,0,0,0,0,0,0,0,0,0,0,0],"id":16,"left_children":[1,3,5,7,9,11,13,-1,-1,-1,-1,-1,-1,-1,-1],"loss_changes":[6.323369E5,3.7183444E5,2.436249E5,9.9668125E3,1.5122608E5,4.3808562E4,3.0139719E4,0E0,0E0,0E0,0E0,0E0,0E0,0E0,0E0],"parents":[2147483647,0,0,1,1,2,2,3,3,4,4,5,5,6,6],"right_children":[2,4,6,8,10,12,14,-1,-1,-1,-1,-1,-1,-1,-1],"split_conditions":[4.0996468E-1,-6.9462955E-1,1.4004406E-1,1.5547399E-2,2.1920586E-2,7.311928E-4,3.2448232E-1,1.6447101E0,4.7040653E0,8.346316E0,3.9735767E-1,-3.5396926E0,1.4877641E0,-8.90929E-2,-2.6775968E0],"split_indices":[1949,4101,1240,951,3586,2396,3924,0,0,0,0,0,0,0,0],"split_type":[0,0,0,0,0,0,0,0,0,0,0,0,0,0,0],"sum_hessian":[2.075E3,1.242E3,8.33E2,2.18E2,1.024E3,4.29E2,4.04E2,9E0,2.09E2,1.9E1,1.005E3,4.15E2,1.4E1,3.65E2,3.9E1],"tree_param":{"num_deleted":"0","num_feature":"4105","num_nodes":"15","size_leaf_vector":"1"}},{"base_weights":[1.5769339E-1,-1.44165945E1,1.7819519E1,-3.59958E1,-4.532542E0,9.113739E0,4.6710213E1,-3.4791973E0,-1.9211733E0,7.1725554E0,-5.544674E-1,-1.2422765E0,1.0759803E0,4.4906254E0,-1.2188246E0],"categories":[],"categories_nodes":[],"categories_segments":[],"categories_sizes":[],"default_left":[0,0,0,0,0,0,0,0,0,0,0,0,0,0,0],"id":17,"left_children":[1,3,5,7,9,11,13,-1,-1,-1,-1,-1,-1,-1,-1],"loss_changes":[5.2675506E5,2.3910648E5,2.3261803E5,1.6147125E4,1.12996984E5,4.9644953E4,5.0878125E4,0E0,0E0,0E0,0E0,0E0,0E0,0E0,0E0],"parents":[2147483647,0,0,1,1,2,2,3,3,4,4,5,5,6,6],"right_children":[2,4,6,8,10,12,14,-1,-1,-1,-1,-1,-1,-1,-1],"split_conditions":[3.916297E-1,1.02901505E-2,4.936942E-1,2.0226037E-4,1.8968856E-2,4.314551E-1,5.251165E-2,-3.4791973E0,-1.9211733E0,7.1725554E0,-5.544674E-1,-1.2422765E0,1.0759803E0,4.4906254E0,-1.2188246E0],"split_indices":[1145,2411,294,3314,2750,2972,2210,0,0,0,0,0,0,0,0],"split_type":[0,0,0,0,0,0,0,0,0,0,0,0,0,0,0],"sum_hessian":[2.046E3,1.121E3,9.25E2,3.52E2,7.69E2,7.11E2,2.14E2,2.87E2,6.5E1,1.5E1,7.54E2,8.2E1,6.29E2,2.01E2,1.3E1],"tree_param":{"num_deleted":"0","num_feature":"4105","num_nodes":"15","size_leaf_vector":"1"}},{"base_weights":[-5.8172333E-1,-1.7908804E1,1.2370012E1,-3.6087727E1,-9.269639E0,6.071222E0,4.7269104E1,-4.121086E0,-3.013618E0,-2.1920657E0,-7.781233E-2,7.0715266E-1,-3.08661E0,7.3250628E0,3.8123896E0],"categories":[],"categories_nodes":[],"categories_segments":[],"categories_sizes":[],"default_left":[0,0,0,0,0,0,0,0,0,0,0,0,0,0,0],"id":18,"left_children":[1,3,5,7,9,11,13,-1,-1,-1,-1,-1,-1,-1,-1],"loss_changes":[4.596878E5,1.3754178E5,2.5761747E5,5.8798438E3,7.7012516E4,7.724053E4,2.6453094E4,0E0,0E0,0E0,0E0,0E0,0E0,0E0,0E0],"parents":[2147483647,0,0,1,1,2,2,3,3,4,4,5,5,6,6],"right_children":[2,4,6,8,10,12,14,-1,-1,-1,-1,-1,-1,-1,-1],"split_conditions":[7.2537646E-2,1.8419008E-1,6.4974475E-1,9.058164E-2,1.1158462E-1,4.388255E-1,1.8478705E-2,-4.121086E0,-3.013618E0,-2.1920657E0,-7.781233E-2,7.0715266E-1,-3.08661E0,7.3250628E0,3.8123896E0],"split_indices":[2722,3589,294,3138,2499,2305,2230,0,0,0,0,0,0,0,0],"split_type":[0,0,0,0,0,0,0,0,0,0,0,0,0,0,0],"sum_hessian":[2.048E3,8.76E2,1.172E3,2.82E2,5.94E2,9.93E2,1.79E2,4.7E1,2.35E2,2.09E2,3.85E2,9.49E2,4.4E1,1.9E1,1.6E2],"tree_param":{"num_deleted":"0","num_feature":"4105","num_nodes":"15","size_leaf_vector":"1"}},{"base_weights":[9.724227E-2,-1.312888E1,1.4847073E1,-2.7550255E1,-2.5326576E0,5.948039E0,3.9713726E1,1.030551E0,-2.6610932E0,-2.5422764E-3,-2.3887086E0,7.973855E-1,-2.3631427E0,1.001392E1,3.2234993E0],"categories":[],"categories_nodes":[],"categories_segments":[],"categories_sizes":[],"default_left":[0,0,0,0,0,0,0,0,0,0,0,0,0,0,0],"id":19,"left_children":[1,3,5,7,9,11,13,-1,-1,-1,-1,-1,-1,-1,-1],"loss_changes":[4.0116444E5,1.656632E5,2.1508908E5,4.4170562E4,3.819467E4,7.105074E4,6.2418125E4,0E0,0E0,0E0,0E0,0E0,0E0,0E0,0E0],"parents":[2147483647,0,0,1,1,2,2,3,3,4,4,5,5,6,6],"right_children":[2,4,6,8,10,12,14,-1,-1,-1,-1,-1,-1,-1,-1],"split_conditions":[2.2517297E-1,9.044772E-3,4.5547277E-1,7.741087E-2,2.4603608E-1,1.966917E-1,2.2433776E-2,1.030551E0,-2.6610932E0,-2.5422764E-3,-2.3887086E0,7.973855E-1,-2.3631427E0,1.001392E1,3.2234993E0],"split_indices":[1755,3443,294,3149,3924,3562,2499,0,0,0,0,0,0,0,0],"split_type":[0,0,0,0,0,0,0,0,0,0,0,0,0,0,0],"sum_hessian":[2.056E3,1.084E3,9.72E2,4.59E2,6.25E2,7.16E2,2.56E2,2.7E1,4.32E2,5.67E2,5.8E1,6.55E2,6.1E1,1.1E1,2.45E2],"tree_param":{"num_deleted":"0","num_feature":"4105","num_nodes":"15","size_leaf_vector":"1"}},{"base_weights":[7.516494E-2,-1.150302E1,1.4648661E1,-2.7739407E1,-3.7458613E0,7.464899E0,3.5822914E1,-2.5599144E0,6.874347E-1,-4.4314992E-1,7.774298E0,-1.8232009E-1,1.0718946E0,3.4810426E0,-1.0446168E0],"categories":[],"categories_nodes":[],"categories_segments":[],"categories_sizes":[],"default_left":[0,0,0,0,0,0,0,0,0,0,0,0,0,0,0],"id":20,"left_children":[1,3,5,7,9,11,13,-1,-1,-1,-1,-1,-1,-1,-1],"loss_changes":[3.3736428E5,1.4030969E5,1.345952E5,1.4388531E4,8.627239E4,2.9087871E4,3.662678E4,0E0,0E0,0E0,0E0,0E0,0E0,0E0,0E0],"parents":[2147483647,0,0,1,1,2,2,3,3,4,4,5,5,6,6],"right_children":[2,4,6,8,10,12,14,-1,-1,-1,-1,-1,-1,-1,-1],"split_conditions":[3.916297E-1,1.02901505E-2,4.936942E-1,6.581149E-1,3.6276434E-2,4.92525E-2,3.5270625E-1,-2.5599144E0,6.874347E-1,-4.4314992E-1,7.774298E0,-1.8232009E-1,1.0718946E0,3.4810426E0,-1.0446168E0],"split_indices":[1145,2411,294,2566,2942,3736,3251,0,0,0,0,0,0,0,0],"split_type":[0,0,0,0,0,0,0,0,0,0,0,0,0,0,0],"sum_hessian":[1.999E3,1.114E3,8.85E2,3.6E2,7.54E2,6.61E2,2.24E2,3.49E2,1.1E1,7.44E2,1E1,2.16E2,4.45E2,2.09E2,1.5E1],"tree_param":{"num_deleted":"0","num_feature":"4105","num_nodes":"15","size_leaf_vector":"1"}},{"base_weights":[-1.0358129E-1,-8.75134E0,1.5598658E1,-1.8677921E1,1.0893117E0,5.5013447E0,2.9329643E1,-2.3068843E0,-5.111277E-1,7.887385E-1,-1.8942118E-1,-3.0895374E0,8.4980583E-1,3.3977957E0,4.9650517E-1],"categories":[],"categories_nodes":[],"categories_segments":[],"categories_sizes":[],"default_left":[0,0,0,0,0,0,0,0,0,0,0,0,0,0,0],"id":21,"left_children":[1,3,5,7,9,11,13,-1,-1,-1,-1,-1,-1,-1,-1],"loss_changes":[2.8262853E5,1.3111472E5,1.0245425E5,6.3235688E4,1.6969781E4,7.019341E4,6.669275E4,0E0,0E0,0E0,0E0,0E0,0E0,0E0,0E0],"parents":[2147483647,0,0,1,1,2,2,3,3,4,4,5,5,6,6],"right_children":[2,4,6,8,10,12,14,-1,-1,-1,-1,-1,-1,-1,-1],"split_conditions":[4.1859275E-1,1.19635E4,2.5093349E-2,2.8340602E-1,8.745847E-1,4.8355E3,5.285887E-2,-2.3068843E0,-5.111277E-1,7.887385E-1,-1.8942118E-1,-3.0895374E0,8.4980583E-1,3.3977957E0,4.9650517E-1],"split_indices":[268,4096,3639,3811,1538,4096,2986,0,0,0,0,0,0,0,0],"split_type":[0,0,0,0,0,0,0,0,0,0,0,0,0,0,0],"sum_hessian":[2.081E3,1.342E3,7.39E2,6.68E2,6.74E2,4.26E2,3.13E2,4.26E2,2.42E2,1.97E2,4.77E2,3.9E1,3.87E2,2.27E2,8.6E1],"tree_param":{"num_deleted":"0","num_feature":"4105","num_nodes":"15","size_leaf_vector":"1"}},{"base_weights":[-2.1186689E-1,-1.2576063E1,8.730561E0,-1.0441859E0,-2.0083067E1,4.378151E0,3.398726E1,1.9038703E0,-4.90097E-1,-2.2295456E0,-8.986764E-1,3.9326482E0,2.9772037E-1,5.6294584E0,2.761445E0],"categories":[],"categories_nodes":[],"categories_segments":[],"categories_sizes":[],"default_left":[0,0,0,0,0,0,0,0,0,0,0,0,0,0,0],"id":22,"left_children":[1,3,5,7,9,11,13,-1,-1,-1,-1,-1,-1,-1,-1],"loss_changes":[2.2581736E5,7.42022E4,1.3025578E5,3.413613E4,2.6061453E4,4.1247484E4,1.4278141E4,0E0,0E0,0E0,0E0,0E0,0E0,0E0,0E0],"parents":[2147483647,0,0,1,1,2,2,3,3,4,4,5,5,6,6],"right_children":[2,4,6,8,10,12,14,-1,-1,-1,-1,-1,-1,-1,-1],"split_conditions":[7.2537646E-2,1.681797E-1,3.5895744E-1,1.6168686E-2,1.2684876E-1,8.477761E-3,1.2427589E-1,1.9038703E0,-4.90097E-1,-2.2295456E0,-8.986764E-1,3.9326482E0,2.9772037E-1,5.6294584E0,2.761445E0],"split_indices":[2722,601,3025,2259,1930,2606,935,0,0,0,0,0,0,0,0],"split_type":[0,0,0,0,0,0,0,0,0,0,0,0,0,0,0],"sum_hessian":[2.042E3,8.57E2,1.185E3,3.38E2,5.19E2,1.011E3,1.74E2,5.6E1,2.82E2,3.44E2,1.75E2,2.5E1,9.86E2,1.5E1,1.59E2],"tree_param":{"num_deleted":"0","num_feature":"4105","num_nodes":"15","size_leaf_vector":"1"}},{"base_weights":[-9.2836924E-2,-9.53185E0,1.0934002E1,-2.2652972E0,-2.0743877E1,4.443087E0,3.0636805E1,-1.7654432E0,-1.4977244E-2,-3.8149548E-1,-2.0381334E0,-2.2473485E0,5.944782E-1,8.943227E0,2.4321141E0],"categories":[],"categories_nodes":[],"categories_segments":[],"categories_sizes":[],"default_left":[0,0,0,0,0,0,0,0,0,0,0,0,0,0,0],"id":23,"left_children":[1,3,5,7,9,11,13,-1,-1,-1,-1,-1,-1,-1,-1],"loss_changes":[2.133043E5,8.995189E4,1.20852875E5,2.478198E4,1.5936703E4,4.7883664E4,5.2341312E4,0E0,0E0,0E0,0E0,0E0,0E0,0E0,0E0],"parents":[2147483647,0,0,1,1,2,2,3,3,4,4,5,5,6,6],"right_children":[2,4,6,8,10,12,14,-1,-1,-1,-1,-1,-1,-1,-1],"split_conditions":[2.4118389E-1,3.787529E-1,4.936942E-1,1.02901505E-2,1.9924894E-2,3.8175E3,2.3409743E0,-1.7654432E0,-1.4977244E-2,-3.8149548E-1,-2.0381334E0,-2.2473485E0,5.944782E-1,8.943227E0,2.4321141E0],"split_indices":[1755,1808,294,2411,1432,4096,140,0,0,0,0,0,0,0,0],"split_type":[0,0,0,0,0,0,0,0,0,0,0,0,0,0,0],"sum_hessian":[2.049E3,1.104E3,9.45E2,6.7E2,4.34E2,7.11E2,2.34E2,7.1E1,5.99E2,5.2E1,3.82E2,5E1,6.61E2,1E1,2.24E2],"tree_param":{"num_deleted":"0","num_feature":"4105","num_nodes":"15","size_leaf_vector":"1"}},{"base_weights":[2.965442E-1,-8.664609E0,1.0281862E1,-2.5804389E0,-1.949693E1,5.478534E0,2.5224934E1,-3.4609127E-1,2.75891E0,-1.8602008E0,4.5150512E-1,-1.3488245E-1,8.656634E-1,2.483221E0,-1.1327457E0],"categories":[],"categories_nodes":[],"categories_segments":[],"categories_sizes":[],"default_left":[0,0,0,0,0,0,0,0,0,0,0,0,0,0,0],"id":24,"left_children":[1,3,5,7,9,11,13,-1,-1,-1,-1,-1,-1,-1,-1],"loss_changes":[1.8373616E5,7.131235E4,6.968164E4,3.0881219E4,1.4143016E4,2.2033916E4,2.4944875E4,0E0,0E0,0E0,0E0,0E0,0E0,0E0,0E0],"parents":[2147483647,0,0,1,1,2,2,3,3,4,4,5,5,6,6],"right_children":[2,4,6,8,10,12,14,-1,-1,-1,-1,-1,-1,-1,-1],"split_conditions":[3.2608443E-1,7.220347E-2,4.961584E-1,6.9136304E-1,8.138707E-2,5.285906E-2,5.251165E-2,-3.4609127E-1,2.75891E0,-1.8602008E0,4.5150512E-1,-1.3488245E-1,8.656634E-1,2.483221E0,-1.1327457E0],"split_indices":[1145,1432,294,1863,3329,3736,2210,0,0,0,0,0,0,0,0],"split_type":[0,0,0,0,0,0,0,0,0,0,0,0,0,0,0],"sum_hessian":[2.053E3,1.082E3,9.71E2,6.93E2,3.89E2,7.35E2,2.36E2,6.67E2,2.6E1,3.67E2,2.2E1,2.79E2,4.56E2,2.2E2,1.6E1],"tree_param":{"num_deleted":"0","num_feature":"4105","num_nodes":"15","size_leaf_vector":"1"}},{"base_weights":[-7.935502E-3,-6.8746643E0,1.0390603E1,-1.4869095E1,1.2113128E0,5.9973106E0,2.5900845E1,-1.6809821E0,6.660494E-2,1.4528881E0,-4.6486177E-2,5.091159E0,4.5159194E-1,5.6439457E0,2.0978987E0],"categories":[],"categories_nodes":[],"categories_segments":[],"categories_sizes":[],"default_left":[0,0,0,0,0,0,0,0,0,0,0,0,0,0,0],"id":25,"left_children":[1,3,5,7,9,11,13,-1,-1,-1,-1,-1,-1,-1,-1],"loss_changes":[1.4904692E5,8.127192E4,5.6539805E4,4.032272E4,1.646009E4,3.0078568E4,1.525293E4,0E0,0E0,0E0,0E0,0E0,0E0,0E0,0E0],"parents":[2147483647,0,0,1,1,2,2,3,3,4,4,5,5,6,6],"right_children":[2,4,6,8,10,12,14,-1,-1,-1,-1,-1,-1,-1,-1],"split_conditions":[5.241059E-1,1.8254852E-1,3.938444E-1,7.886404E-1,2.85414E-1,4.2784188E-2,1.1497459E-2,-1.6809821E0,6.660494E-2,1.4528881E0,-4.6486177E-2,5.091159E0,4.5159194E-1,5.6439457E0,2.0978987E0],"split_indices":[441,4104,2137,2711,759,3901,1726,0,0,0,0,0,0,0,0],"split_type":[0,0,0,0,0,0,0,0,0,0,0,0,0,0,0],"sum_hessian":[2.087E3,1.257E3,8.3E2,6.32E2,6.25E2,6.47E2,1.83E2,5.01E2,1.31E2,6.4E1,5.61E2,1.1E1,6.36E2,1E1,1.73E2],"tree_param":{"num_deleted":"0","num_feature":"4105","num_nodes":"15","size_leaf_vector":"1"}},{"base_weights":[8.3917774E-2,-7.176269E0,8.352278E0,-1.4766822E1,1.149718E0,2.2375637E1,3.8510363E0,-1.600827E0,2.0111553E-2,2.0854015E0,-8.355395E-2,1.7932369E0,5.1949153E0,7.013417E-1,-1.9635111E-1],"categories":[],"categories_nodes":[],"categories_segments":[],"categories_sizes":[],"default_left":[0,0,0,0,0,0,0,0,0,0,0,0,0,0,0],"id":26,"left_children":[1,3,5,7,9,11,13,-1,-1,-1,-1,-1,-1,-1,-1],"loss_changes":[1.2482472E5,6.997661E4,6.1350086E4,2.8499336E4,2.4711154E4,1.8221242E4,1.8113754E4,0E0,0E0,0E0,0E0,0E0,0E0,0E0,0E0],"parents":[2147483647,0,0,1,1,2,2,3,3,4,4,5,5,6,6],"right_children":[2,4,6,8,10,12,14,-1,-1,-1,-1,-1,-1,-1,-1],"split_conditions":[4.9439654E-2,5.2173972E-2,-2.9297597E0,7.886404E-1,9.414944E-3,2.8085458E-1,2.9646003E-1,-1.600827E0,2.0111553E-2,2.0854015E0,-8.355395E-2,1.7932369E0,5.1949153E0,7.013417E-1,-1.9635111E-1],"split_indices":[3736,3967,4103,2711,3488,1735,734,0,0,0,0,0,0,0,0],"split_type":[0,0,0,0,0,0,0,0,0,0,0,0,0,0,0],"sum_hessian":[2.079E3,1.107E3,9.72E2,5.79E2,5.28E2,2.36E2,7.36E2,4.75E2,1.04E2,4.5E1,4.83E2,2.23E2,1.3E1,4.41E2,2.95E2],"tree_param":{"num_deleted":"0","num_feature":"4105","num_nodes":"15","size_leaf_vector":"1"}},{"base_weights":[-1.4118887E-1,-5.9994664E0,8.804234E0,-1.301646E1,3.102069E-1,4.552252E0,2.016121E1,-1.3068742E0,7.703306E-1,-1.0560228E-1,1.4993838E0,-2.077998E0,4.9586192E-1,6.397065E0,1.5870314E0],"categories":[],"categories_nodes":[],"categories_segments":[],"categories_sizes":[],"default_left":[0,0,0,0,0,0,0,0,0,0,0,0,0,0,0],"id":27,"left_children":[1,3,5,7,9,11,13,-1,-1,-1,-1,-1,-1,-1,-1],"loss_changes":[1.07554375E5,5.491036E4,3.920236E4,2.1914594E4,1.6272089E4,1.7200031E4,2.5824516E4,0E0,0E0,0E0,0E0,0E0,0E0,0E0,0E0],"parents":[2147483647,0,0,1,1,2,2,3,3,4,4,5,5,6,6],"right_children":[2,4,6,8,10,12,14,-1,-1,-1,-1,-1,-1,-1,-1],"split_conditions":[5.210038E-1,2.556122E-1,4.936942E-1,7.39858E-2,1.640386E-1,3.66E3,1.1815586E-1,-1.3068742E0,7.703306E-1,-1.0560228E-1,1.4993838E0,-2.077998E0,4.9586192E-1,6.397065E0,1.5870314E0],"split_indices":[441,2542,294,3017,2379,4096,935,0,0,0,0,0,0,0,0],"split_type":[0,0,0,0,0,0,0,0,0,0,0,0,0,0,0],"sum_hessian":[2.052E3,1.24E3,8.12E2,5.87E2,6.53E2,5.91E2,2.21E2,5.44E2,4.3E1,5.99E2,5.4E1,2.1E1,5.7E2,9E0,2.12E2],"tree_param":{"num_deleted":"0","num_feature":"4105","num_nodes":"15","size_leaf_vector":"1"}},{"base_weights":[4.01273E-2,-6.259294E0,6.9409347E0,-9.523485E-1,-1.2770879E1,2.9961412E0,1.5423443E1,2.9856877E0,-1.4396091E-1,-1.2537473E0,7.410713E-1,3.4965792E-1,-2.722622E0,1.7691545E0,3.9016616E-1],"categories":[],"categories_nodes":[],"categories_segments":[],"categories_sizes":[],"default_left":[0,0,0,0,0,0,0,0,0,0,0,0,0,0,0],"id":28,"left_children":[1,3,5,7,9,11,13,-1,-1,-1,-1,-1,-1,-1,-1],"loss_changes":[8.874093E4,3.6875797E4,3.2588855E4,1.3665496E4,1.3835242E4,2.122507E4,1.5399586E4,0E0,0E0,0E0,0E0,0E0,0E0,0E0,0E0],"parents":[2147483647,0,0,1,1,2,2,3,3,4,4,5,5,6,6],"right_children":[2,4,6,8,10,12,14,-1,-1,-1,-1,-1,-1,-1,-1],"split_conditions":[3.2608443E-1,5.1062703E-2,2.7936628E-1,9.414944E-3,7.311928E-4,1.13256395E-1,4.4956988E-1,2.9856877E0,-1.4396091E-1,-1.2537473E0,7.410713E-1,3.4965792E-1,-2.722622E0,1.7691545E0,3.9016616E-1],"split_indices":[1145,1432,1486,3488,2396,3296,3114,0,0,0,0,0,0,0,0],"split_type":[0,0,0,0,0,0,0,0,0,0,0,0,0,0,0],"sum_hessian":[2.041E3,1.067E3,9.74E2,5.88E2,4.79E2,6.65E2,3.09E2,1.1E1,5.77E2,4.5E2,2.9E1,6.47E2,1.8E1,2.19E2,9E1],"tree_param":{"num_deleted":"0","num_feature":"4105","num_nodes":"15","size_leaf_vector":"1"}},{"base_weights":[-3.9071728E-2,-4.594146E0,8.110213E0,-9.912548E0,8.4655505E-1,6.821366E0,7.1546526E0,6.4212686E-1,-1.0389715E0,-4.1554257E-2,7.3371536E-1,-2.2275646E0,7.611883E-1],"categories":[],"categories_nodes":[],"categories_segments":[],"categories_sizes":[],"default_left":[0,0,0,0,0,0,0,0,0,0,0,0,0],"id":29,"left_children":[1,3,5,7,9,-1,11,-1,-1,-1,-1,-1,-1],"loss_changes":[7.715056E4,3.8578746E4,4.8882504E4,2.0845992E4,6.4380425E3,0E0,3.390239E4,0E0,0E0,0E0,0E0,0E0,0E0],"parents":[2147483647,0,0,1,1,2,2,3,3,4,4,6,6],"right_children":[2,4,6,8,10,-1,12,-1,-1,-1,-1,-1,-1],"split_conditions":[4.1859275E-1,1.19635E4,2.638634E-2,7.98694E-5,1.3818487E0,6.821366E0,1.8231235E-3,6.4212686E-1,-1.0389715E0,-4.1554257E-2,7.3371536E-1,-2.2275646E0,7.611883E-1],"split_indices":[268,4096,3192,2674,4005,0,3134,0,0,0,0,0,0],"split_type":[0,0,0,0,0,0,0,0,0,0,0,0,0],"sum_hessian":[2.078E3,1.333E3,7.45E2,6.74E2,6.59E2,1E1,7.35E2,6.4E1,6.1E2,5.6E2,9.9E1,3.1E1,7.04E2],"tree_param":{"num_deleted":"0","num_feature":"4105","num_nodes":"13","size_leaf_vector":"1"}},{"base_weights":[2.5950419E-2,-5.014141E0,5.924692E0,-5.816592E0,3.7926334E1,1.6219707E1,2.6959345E0,-1.0033528E0,-1.6393015E-2,4.3875785E0,2.46626E0,1.2811004E0,3.9402306E0,-2.2704893E-1,4.928367E-1],"categories":[],"categories_nodes":[],"categories_segments":[],"categories_sizes":[],"default_left":[0,0,0,0,0,0,0,0,0,0,0,0,0,0,0],"id":30,"left_children":[1,3,5,7,9,11,13,-1,-1,-1,-1,-1,-1,-1,-1],"loss_changes":[6.060139E4,3.7916297E4,3.1210008E4,3.3400574E4,2.096459E3,1.1107086E4,1.0755168E4,0E0,0E0,0E0,0E0,0E0,0E0,0E0,0E0],"parents":[2147483647,0,0,1,1,2,2,3,3,4,4,5,5,6,6],"right_children":[2,4,6,8,10,12,14,-1,-1,-1,-1,-1,-1,-1,-1],"split_conditions":[4.9439654E-2,2.3544051E-1,-2.9297597E0,4.923113E-2,4.073477E-3,2.906334E-1,6.960332E-1,-1.0033528E0,-1.6393015E-2,4.3875785E0,2.46626E0,1.2811004E0,3.9402306E0,-2.2704893E-1,4.928367E-1],"split_indices":[3736,2570,4103,3967,1891,1735,3643,0,0,0,0,0,0,0,0],"split_type":[0,0,0,0,0,0,0,0,0,0,0,0,0,0,0],"sum_hessian":[2.038E3,1.099E3,9.39E2,1.079E3,2E1,2.24E2,7.15E2,5.46E2,5.33E2,9E0,1.1E1,2.11E2,1.3E1,2.52E2,4.63E2],"tree_param":{"num_deleted":"0","num_feature":"4105","num_nodes":"15","size_leaf_vector":"1"}},{"base_weights":[9.187076E-2,-4.800267E0,5.657624E0,-1.2785693E0,-1.2133356E1,5.1926184E0,5.0970445E0,8.874144E-3,-1.191972E0,-1.6935366E0,-8.561354E-1,1.2518616E0,2.02306E-1],"categories":[],"categories_nodes":[],"categories_segments":[],"categories_sizes":[],"default_left":[0,0,0,0,0,0,0,0,0,0,0,0,0],"id":31,"left_children":[1,3,5,7,9,-1,11,-1,-1,-1,-1,-1,-1],"loss_changes":[5.664543E4,2.8589797E4,2.8794174E4,1.2543528E4,6.1668984E3,0E0,2.4452066E4,0E0,0E0,0E0,0E0,0E0,0E0],"parents":[2147483647,0,0,1,1,2,2,3,3,4,4,6,6],"right_children":[2,4,6,8,10,-1,12,-1,-1,-1,-1,-1,-1],"split_conditions":[2.2517297E-1,4.7496268E-1,1.7109695E-3,5.416977E-1,1.2174085E-1,5.1926184E0,-6.9462955E-1,8.874144E-3,-1.191972E0,-1.6935366E0,-8.561354E-1,1.2518616E0,2.02306E-1],"split_indices":[1755,1808,2599,2901,2162,0,4101,0,0,0,0,0,0],"split_type":[0,0,0,0,0,0,0,0,0,0,0,0,0],"sum_hessian":[2.08E3,1.107E3,9.73E2,7.48E2,3.59E2,1E1,9.63E2,6.72E2,7.6E1,9.4E1,2.65E2,2.29E2,7.34E2],"tree_param":{"num_deleted":"0","num_feature":"4105","num_nodes":"13","size_leaf_vector":"1"}},{"base_weights":[8.806262E-2,-7.3266883E0,3.1393857E0,-1.0629777E1,-3.422561E-1,1.2063113E0,1.5525308E1,-8.3685184E-1,-2.0675347E0,-1.5654133E-1,9.01337E-1,-8.468942E-1,2.5453636E-1,1.1996517E0,3.231568E0],"categories":[],"categories_nodes":[],"categories_segments":[],"categories_sizes":[],"default_left":[0,0,0,0,0,0,0,0,0,0,0,0,0,0,0],"id":32,"left_children":[1,3,5,7,9,11,13,-1,-1,-1,-1,-1,-1,-1,-1],"loss_changes":[4.6887094E4,1.3937791E4,3.5148754E4,6.1719062E3,2.9051616E3,2.2728312E4,8.193008E3,0E0,0E0,0E0,0E0,0E0,0E0,0E0,0E0],"parents":[2147483647,0,0,1,1,2,2,3,3,4,4,5,5,6,6],"right_children":[2,4,6,8,10,12,14,-1,-1,-1,-1,-1,-1,-1,-1],"split_conditions":[1.065551E-3,9.668669E-3,3.5895744E-1,2.6638795E-2,1.5200484E-1,7.712438E-3,9.524616E-2,-8.3685184E-1,-2.0675347E0,-1.5654133E-1,9.01337E-1,-8.468942E-1,2.5453636E-1,1.1996517E0,3.231568E0],"split_indices":[2803,3153,3025,4008,4076,3622,3758,0,0,0,0,0,0,0,0],"split_type":[0,0,0,0,0,0,0,0,0,0,0,0,0,0,0],"sum_hessian":[2.072E3,6.04E2,1.468E3,4.1E2,1.94E2,1.27E3,1.98E2,3.75E2,3.5E1,1.71E2,2.3E1,1.7E2,1.1E3,1.81E2,1.7E1],"tree_param":{"num_deleted":"0","num_feature":"4105","num_nodes":"15","size_leaf_vector":"1"}},{"base_weights":[1.7364953E-2,-6.8148613E0,2.91082E0,-9.913864E0,-2.0033076E-1,4.827259E0,2.4716961E0,-7.534688E-1,-1.8153669E0,-8.9212716E-2,1.1584346E0,8.052335E-2,1.188279E0],"categories":[],"categories_nodes":[],"categories_segments":[],"categories_sizes":[],"default_left":[0,0,0,0,0,0,0,0,0,0,0,0,0],"id":33,"left_children":[1,3,5,7,9,-1,11,-1,-1,-1,-1,-1,-1],"loss_changes":[4.0612367E4,1.2527789E4,3.2619543E4,6.19859E3,2.0871274E3,0E0,2.4450258E4,0E0,0E0,0E0,0E0,0E0,0E0],"parents":[2147483647,0,0,1,1,2,2,3,3,4,4,6,6],"right_children":[2,4,6,8,10,-1,12,-1,-1,-1,-1,-1,-1],"split_conditions":[1.065551E-3,1.701092E-2,9.082173E-2,7.717978E-4,1.9211867E-1,4.827259E0,3.5895744E-1,-7.534688E-1,-1.8153669E0,-8.9212716E-2,1.1584346E0,8.052335E-2,1.188279E0],"split_indices":[2803,3489,3127,2623,2200,0,3025,0,0,0,0,0,0],"split_type":[0,0,0,0,0,0,0,0,0,0,0,0,0],"sum_hessian":[2.054E3,6.11E2,1.443E3,4.16E2,1.95E2,1.2E1,1.431E3,3.67E2,4.9E1,1.84E2,1.1E1,1.252E3,1.79E2],"tree_param":{"num_deleted":"0","num_feature":"4105","num_nodes":"13","size_leaf_vector":"1"}},{"base_weights":[2.5691777E-2,-4.0266027E0,4.684671E0,-4.587295E0,2.9311916E1,1.1846311E1,2.3182032E0,-9.3049663E-1,-1.9588676E-1,3.389021E0,1.7570102E0,9.111643E-1,2.465141E0,-1.0557261E-1,4.4200227E-1],"categories":[],"categories_nodes":[],"categories_segments":[],"categories_sizes":[],"default_left":[0,0,0,0,0,0,0,0,0,0,0,0,0,0,0],"id":34,"left_children":[1,3,5,7,9,11,13,-1,-1,-1,-1,-1,-1,-1,-1],"loss_changes":[3.876687E4,2.0552826E4,1.6182797E4,1.5164652E4,1.393456E3,5.896461E3,6.7166855E3,0E0,0E0,0E0,0E0,0E0,0E0,0E0,0E0],"parents":[2147483647,0,0,1,1,2,2,3,3,4,4,5,5,6,6],"right_children":[2,4,6,8,10,12,14,-1,-1,-1,-1,-1,-1,-1,-1],"split_conditions":[4.9439654E-2,2.3544051E-1,-2.9297597E0,2.3377955E-2,1.6505842E-1,2.6092336E-1,3.8326076E-1,-9.3049663E-1,-1.9588676E-1,3.389021E0,1.7570102E0,9.111643E-1,2.465141E0,-1.0557261E-1,4.4200227E-1],"split_indices":[3736,2570,4103,3451,316,1735,3527,0,0,0,0,0,0,0,0],"split_type":[0,0,0,0,0,0,0,0,0,0,0,0,0,0,0],"sum_hessian":[2.053E3,1.098E3,9.55E2,1.08E3,1.8E1,2.37E2,7.18E2,3.1E2,7.7E2,9E0,9E0,2.16E2,2.1E1,3.1E2,4.08E2],"tree_param":{"num_deleted":"0","num_feature":"4105","num_nodes":"15","size_leaf_vector":"1"}},{"base_weights":[1.6733726E-2,4.342434E0,-3.415949E0,3.9683282E0,3.9282017E0,-8.102916E0,1.7842723E-1,9.650785E-1,1.8049525E-1,1.338422E0,-7.922082E-1,-2.3243545E-2,2.7292128E0],"categories":[],"categories_nodes":[],"categories_segments":[],"categories_sizes":[],"default_left":[0,0,0,0,0,0,0,0,0,0,0,0,0],"id":35,"left_children":[1,3,5,-1,7,9,11,-1,-1,-1,-1,-1,-1],"loss_changes":[3.0445578E4,1.5146744E4,1.9259457E4,0E0,1.1818041E4,9.563229E3,8.72337E3,0E0,0E0,0E0,0E0,0E0,0E0],"parents":[2147483647,0,0,1,1,2,2,4,4,5,5,6,6],"right_children":[2,4,6,-1,8,10,12,-1,-1,-1,-1,-1,-1],"split_conditions":[2.507093E-1,2.2433776E-2,1.4004406E-1,3.9683282E0,-6.8279874E-1,1.9623898E-2,9.944489E-1,9.650785E-1,1.8049525E-1,1.338422E0,-7.922082E-1,-2.3243545E-2,2.7292128E0],"split_indices":[1949,2499,1240,0,4101,617,410,0,0,0,0,0,0],"split_type":[0,0,0,0,0,0,0,0,0,0,0,0,0],"sum_hessian":[2.05E3,9.07E2,1.143E3,9E0,8.98E2,4.96E2,6.47E2,1.92E2,7.06E2,1.7E1,4.79E2,6.38E2,9E0],"tree_param":{"num_deleted":"0","num_feature":"4105","num_nodes":"13","size_leaf_vector":"1"}},{"base_weights":[-9.3824655E-2,-3.2792335E0,3.7615094E0,-7.096748E0,3.7947384E-1,7.5089693E0,1.0034022E-1,-7.097182E-1,1.5943481E0,1.2363228E0,-6.1869696E-2,1.5341393E0,5.637169E-1,-1.801628E-1,3.150818E-1],"categories":[],"categories_nodes":[],"categories_segments":[],"categories_sizes":[],"default_left":[0,0,0,0,0,0,0,0,0,0,0,0,0,0,0],"id":36,"left_children":[1,3,5,7,9,11,13,-1,-1,-1,-1,-1,-1,-1,-1],"loss_changes":[2.5168027E4,1.5674477E4,1.2720777E4,1.2487389E4,8.372883E3,5.151004E3,3.4538284E3,0E0,0E0,0E0,0E0,0E0,0E0,0E0,0E0],"parents":[2147483647,0,0,1,1,2,2,3,3,4,4,5,5,6,6],"right_children":[2,4,6,8,10,12,14,-1,-1,-1,-1,-1,-1,-1,-1],"split_conditions":[5.285906E-2,4.923113E-2,4.006788E-1,4.512763E-2,9.414944E-3,1.5964197E-2,1.3718285E-1,-7.097182E-1,1.5943481E0,1.2363228E0,-6.1869696E-2,1.5341393E0,5.637169E-1,-1.801628E-1,3.150818E-1],"split_indices":[3736,3967,2581,3040,3488,3813,2956,0,0,0,0,0,0,0,0],"split_type":[0,0,0,0,0,0,0,0,0,0,0,0,0,0,0],"sum_hessian":[2.049E3,1.122E3,9.27E2,5.49E2,5.73E2,4.58E2,4.69E2,5.3E2,1.9E1,4.2E1,5.31E2,4.8E1,4.1E2,2.9E2,1.79E2],"tree_param":{"num_deleted":"0","num_feature":"4105","num_nodes":"15","size_leaf_vector":"1"}},{"base_weights":[1.3026893E-1,3.9101226E0,-1.0867716E-1,-5.603516E0,1.8908734E0,3.445467E-2,-7.060102E-1,5.373217E-1,-1.0087973E-1],"categories":[],"categories_nodes":[],"categories_segments":[],"categories_sizes":[],"default_left":[0,0,0,0,0,0,0,0,0],"id":37,"left_children":[1,-1,3,5,7,-1,-1,-1,-1],"loss_changes":[2.173408E4,0E0,2.2615842E4,7.7549375E3,1.9046012E4,0E0,0E0,0E0,0E0],"parents":[2147483647,0,0,2,2,3,3,4,4],"right_children":[2,-1,4,6,8,-1,-1,-1,-1],"split_conditions":[2.638634E-2,3.9101226E0,2.1743197E-2,1.5655628E-1,-2.3613503E0,3.445467E-2,-7.060102E-1,5.373217E-1,-1.0087973E-1],"split_indices":[3192,0,3197,3974,4102,0,0,0,0],"split_type":[0,0,0,0,0,0,0,0,0],"sum_hessian":[2.069E3,1.1E1,2.058E3,5.49E2,1.509E3,1.55E2,3.94E2,6.35E2,8.74E2],"tree_param":{"num_deleted":"0","num_feature":"4105","num_nodes":"9","size_leaf_vector":"1"}},{"base_weights":[2.4657374E-2,-2.801965E0,3.3978925E0,-3.22819E0,2.1750685E1,6.796828E0,4.2402878E-1,-3.6641085E-1,6.257981E-1,2.7304974E0,1.1705731E0,2.1082306E0,5.37567E-1,-1.297372E-1,2.7021965E-1],"categories":[],"categories_nodes":[],"categories_segments":[],"categories_sizes":[],"default_left":[0,0,0,0,0,0,0,0,0,0,0,0,0,0,0],"id":38,"left_children":[1,3,5,7,9,11,13,-1,-1,-1,-1,-1,-1,-1,-1],"loss_changes":[1.9683568E4,1.1766908E4,9.51278E3,1.0257962E4,1.4049033E3,5.4585996E3,2.4857568E3,0E0,0E0,0E0,0E0,0E0,0E0,0E0,0E0],"parents":[2147483647,0,0,1,1,2,2,3,3,4,4,5,5,6,6],"right_children":[2,4,6,8,10,12,14,-1,-1,-1,-1,-1,-1,-1,-1],"split_conditions":[5.285906E-2,2.3544051E-1,3.435022E-1,5.5790033E-2,4.2614292E-2,3.5169155E-3,1.3718285E-1,-3.6641085E-1,6.257981E-1,2.7304974E0,1.1705731E0,2.1082306E0,5.37567E-1,-1.297372E-1,2.7021965E-1],"split_indices":[3736,2570,2581,3017,339,227,2956,0,0,0,0,0,0,0,0],"split_type":[0,0,0,0,0,0,0,0,0,0,0,0,0,0,0],"sum_hessian":[2.064E3,1.123E3,9.41E2,1.104E3,1.9E1,4.39E2,5.02E2,1.015E3,8.9E1,9E0,1E1,1.8E1,4.21E2,2.92E2,2.1E2],"tree_param":{"num_deleted":"0","num_feature":"4105","num_nodes":"15","size_leaf_vector":"1"}},{"base_weights":[-4.6010306E-3,1.8764958E0,-4.4343276E0,1.6159427E0,3.742112E0,-1.5485184E1,-3.4175396E0,4.9177936E-1,-5.316595E-2,-1.9865055E0,-1.1761293E0,-4.9730685E-1,1.07023165E-1],"categories":[],"categories_nodes":[],"categories_segments":[],"categories_sizes":[],"default_left":[0,0,0,0,0,0,0,0,0,0,0,0,0],"id":39,"left_children":[1,3,5,7,-1,9,11,-1,-1,-1,-1,-1,-1],"loss_changes":[1.7002008E4,1.502957E4,6.823369E3,1.2387154E4,0E0,7.3020605E2,5.642266E3,0E0,0E0,0E0,0E0,0E0,0E0],"parents":[2147483647,0,0,1,1,2,2,3,3,5,5,6,6],"right_children":[2,4,6,8,-1,10,12,-1,-1,-1,-1,-1,-1],"split_conditions":[2.1067335E-1,7.9992265E-1,3.686316E-3,-2.465199E0,3.742112E0,6.7917615E-2,6.7412786E-2,4.9177936E-1,-5.316595E-2,-1.9865055E0,-1.1761293E0,-4.9730685E-1,1.07023165E-1],"split_indices":[1453,802,2294,4102,0,1301,1222,0,0,0,0,0,0],"split_type":[0,0,0,0,0,0,0,0,0,0,0,0,0],"sum_hessian":[2.04E3,1.432E3,6.08E2,1.423E3,9E0,5.1E1,5.57E2,5.13E2,9.1E2,1.2E1,3.9E1,3.78E2,1.79E2],"tree_param":{"num_deleted":"0","num_feature":"4105","num_nodes":"13","size_leaf_vector":"1"}},{"base_weights":[3.901608E-2,-3.926089E0,1.7402256E0,-6.0394583E0,2.2134435E-1,7.427681E0,2.901575E-1,-9.5477E-1,-3.5345304E-1,-7.29938E-2,4.7810084E-1,2.8629222E0,5.7905686E-1,1.2622385E-1,-6.092089E-1],"categories":[],"categories_nodes":[],"categories_segments":[],"categories_sizes":[],"default_left":[0,0,0,0,0,0,0,0,0,0,0,0,0,0,0],"id":40,"left_children":[1,3,5,7,9,11,13,-1,-1,-1,-1,-1,-1,-1,-1],"loss_changes":[1.3911677E4,5.427625E3,1.190166E4,3.9734268E3,1.1301588E3,6.510092E3,9.330191E3,0E0,0E0,0E0,0E0,0E0,0E0,0E0,0E0],"parents":[2147483647,0,0,1,1,2,2,3,3,4,4,5,5,6,6],"right_children":[2,4,6,8,10,12,14,-1,-1,-1,-1,-1,-1,-1,-1],"split_conditions":[1.2187916E-3,1.701092E-2,8.856674E-2,3.3076473E-2,5.901833E-4,1.0881138E-2,1.9649215E-1,-9.5477E-1,-3.5345304E-1,-7.29938E-2,4.7810084E-1,2.8629222E0,5.7905686E-1,1.2622385E-1,-6.092089E-1],"split_indices":[2803,3489,3144,3996,3431,1805,3402,0,0,0,0,0,0,0,0],"split_type":[0,0,0,0,0,0,0,0,0,0,0,0,0,0,0],"sum_hessian":[2.062E3,6.19E2,1.443E3,4.1E2,2.09E2,2.93E2,1.15E3,1.24E2,2.86E2,1.74E2,3.5E1,1E1,2.83E2,9.93E2,1.57E2],"tree_param":{"num_deleted":"0","num_feature":"4105","num_nodes":"15","size_leaf_vector":"1"}},{"base_weights":[-6.622463E-2,-1.8811142E0,3.417596E0,-4.8340054E0,1.2643151E0,1.2645279E1,1.9736971E0,-1.0927863E0,-3.1464386E-1,-6.634237E-2,3.2422516E-1,3.411081E0,8.4844977E-1,2.2047856E-1,-1.1654835E0],"categories":[],"categories_nodes":[],"categories_segments":[],"categories_sizes":[],"default_left":[0,0,0,0,0,0,0,0,0,0,0,0,0,0,0],"id":41,"left_children":[1,3,5,7,9,11,13,-1,-1,-1,-1,-1,-1,-1,-1],"loss_changes":[1.3128398E4,1.2681269E4,9.470687E3,6.7740664E3,3.182021E3,7.5753438E3,4.767169E3,0E0,0E0,0E0,0E0,0E0,0E0,0E0,0E0],"parents":[2147483647,0,0,1,1,2,2,3,3,4,4,5,5,6,6],"right_children":[2,4,6,8,10,12,14,-1,-1,-1,-1,-1,-1,-1,-1],"split_conditions":[3.171354E-1,1.19635E4,2.7485244E-2,2.5455935E-3,2.9978004E-1,1.9838179E-2,4.2541745E-1,-1.0927863E0,-3.1464386E-1,-6.634237E-2,3.2422516E-1,3.411081E0,8.4844977E-1,2.2047856E-1,-1.1654835E0],"split_indices":[842,4096,1193,2828,2901,1332,825,0,0,0,0,0,0,0,0],"split_type":[0,0,0,0,0,0,0,0,0,0,0,0,0,0,0],"sum_hessian":[2.076E3,1.365E3,7.11E2,7.04E2,6.61E2,9.6E1,6.15E2,1.03E2,6.01E2,3.59E2,3.02E2,1E1,8.6E1,5.95E2,2E1],"tree_param":{"num_deleted":"0","num_feature":"4105","num_nodes":"15","size_leaf_vector":"1"}},{"base_weights":[8.878284E-2,1.4428957E0,-4.0707397E0,-7.3908367E0,2.0911887E0,-5.716632E0,-5.641942E-1,-9.100269E-1,9.9504724E-2,1.6287975E-1,1.7958537E0,-4.128145E-1,-1.0900407E0,-1.3634928E-1,6.3928777E-1],"categories":[],"categories_nodes":[],"categories_segments":[],"categories_sizes":[],"default_left":[0,0,0,0,0,0,0,0,0,0,0,0,0,0,0],"id":42,"left_children":[1,3,5,7,9,11,13,-1,-1,-1,-1,-1,-1,-1,-1],"loss_changes":[1.1700732E4,8.977835E3,2.9437334E3,2.6204756E3,6.747698E3,2.4131748E3,1.2360697E3,0E0,0E0,0E0,0E0,0E0,0E0,0E0,0E0],"parents":[2147483647,0,0,1,1,2,2,3,3,4,4,5,5,6,6],"right_children":[2,4,6,8,10,12,14,-1,-1,-1,-1,-1,-1,-1,-1],"split_conditions":[5.019846E-1,1.661441E-2,4.223602E-1,1.5895315E-1,2.813616E-1,1.0068052E-2,6.32768E-1,-9.100269E-1,9.9504724E-2,1.6287975E-1,1.7958537E0,-4.128145E-1,-1.0900407E0,-1.3634928E-1,6.3928777E-1],"split_indices":[1635,644,1409,1894,3906,2942,824,0,0,0,0,0,0,0,0],"split_type":[0,0,0,0,0,0,0,0,0,0,0,0,0,0,0],"sum_hessian":[2.077E3,1.567E3,5.1E2,1.07E2,1.46E3,3.47E2,1.63E2,8E1,2.7E1,1.44E3,2E1,2.99E2,4.8E1,1.45E2,1.8E1],"tree_param":{"num_deleted":"0","num_feature":"4105","num_nodes":"15","size_leaf_vector":"1"}},{"base_weights":[9.692575E-3,2.6380255E0,-1.6836588E-1,-1.0080312E0,5.113427E0,-2.7669343E-1,8.873871E-2,6.069693E-1,-1.855915E-1],"categories":[],"categories_nodes":[],"categories_segments":[],"categories_sizes":[],"default_left":[0,0,0,0,0,0,0,0,0],"id":43,"left_children":[1,-1,3,5,7,-1,-1,-1,-1],"loss_changes":[1.0839805E4,0E0,9.026808E3,7.4487285E3,3.4828848E3,0E0,0E0,0E0,0E0],"parents":[2147483647,0,0,2,2,3,3,4,4],"right_children":[2,-1,4,6,8,-1,-1,-1,-1],"split_conditions":[2.638634E-2,2.6380255E0,7.332393E-1,1.1252781E-2,6.687475E-3,-2.7669343E-1,8.873871E-2,6.069693E-1,-1.855915E-1],"split_indices":[3192,0,1131,2526,3657,0,0,0,0],"split_type":[0,0,0,0,0,0,0,0,0],"sum_hessian":[2.047E3,1.2E1,2.035E3,1.756E3,2.79E2,8.56E2,9E2,2.25E2,5.4E1],"tree_param":{"num_deleted":"0","num_feature":"4105","num_nodes":"9","size_leaf_vector":"1"}},{"base_weights":[5.456469E-2,-6.259458E-1,6.9120173E0,-2.8139453E0,1.2991105E0,2.8376143E0,5.302597E0,-3.0477682E-1,7.235058E-1,3.0708367E-1,-8.8559456E-2,1.2954562E0,3.8583446E-1],"categories":[],"categories_nodes":[],"categories_segments":[],"categories_sizes":[],"default_left":[0,0,0,0,0,0,0,0,0,0,0,0,0],"id":44,"left_children":[1,3,5,7,9,-1,11,-1,-1,-1,-1,-1,-1],"loss_changes":[9.624322E3,7.903279E3,7.4825693E3,6.000346E3,4.9615713E3,0E0,1.5399233E3,0E0,0E0,0E0,0E0,0E0,0E0],"parents":[2147483647,0,0,1,1,2,2,3,3,4,4,6,6],"right_children":[2,4,6,8,10,-1,12,-1,-1,-1,-1,-1,-1],"split_conditions":[7.156383E-1,1.1252781E-2,9.543576E-2,5.5790033E-2,1.8322553E-1,2.8376143E0,1.1138686E-2,-3.0477682E-1,7.235058E-1,3.0708367E-1,-8.8559456E-2,1.2954562E0,3.8583446E-1],"split_indices":[410,2526,1705,3017,3591,0,922,0,0,0,0,0,0],"split_type":[0,0,0,0,0,0,0,0,0,0,0,0,0],"sum_hessian":[2.062E3,1.876E3,1.86E2,8.78E2,9.98E2,1.1E1,1.75E2,8.31E2,4.7E1,5.14E2,4.84E2,1.6E1,1.59E2],"tree_param":{"num_deleted":"0","num_feature":"4105","num_nodes":"13","size_leaf_vector":"1"}},{"base_weights":[1.834778E-2,1.9159718E0,-1.933893E0,4.193457E0,-5.261036E-1,-9.777735E0,-1.3729324E0,8.9229405E-1,2.7490342E-1,-5.0017726E-1,5.989453E-2,-1.0252366E0,3.5390474E-2,-2.7984118E-1,8.720851E-3],"categories":[],"categories_nodes":[],"categories_segments":[],"categories_sizes":[],"default_left":[0,0,0,0,0,0,0,0,0,0,0,0,0,0,0],"id":45,"left_children":[1,3,5,7,9,11,13,-1,-1,-1,-1,-1,-1,-1,-1],"loss_changes":[7.569935E3,5.7635737E3,4.4289023E3,3.435335E3,3.0734128E3,1.2191094E3,2.4652754E3,0E0,0E0,0E0,0E0,0E0,0E0,0E0,0E0],"parents":[2147483647,0,0,1,1,2,2,3,3,4,4,5,5,6,6],"right_children":[2,4,6,8,10,12,14,-1,-1,-1,-1,-1,-1,-1,-1],"split_conditions":[6.569466E-2,1.3004407E-1,7.551131E-3,1.1813241E-2,3.2198254E-2,1.7725314E-1,4.760131E-1,8.9229405E-1,2.7490342E-1,-5.0017726E-1,5.989453E-2,-1.0252366E0,3.5390474E-2,-2.7984118E-1,8.720851E-3],"split_indices":[832,76,3311,2144,3793,1266,1639,0,0,0,0,0,0,0,0],"split_type":[0,0,0,0,0,0,0,0,0,0,0,0,0,0,0],"sum_hessian":[2.043E3,1.036E3,1.007E3,5.36E2,5E2,6.7E1,9.4E2,8.4E1,4.52E2,9.5E1,4.05E2,5.7E1,1E1,4.25E2,5.15E2],"tree_param":{"num_deleted":"0","num_feature":"4105","num_nodes":"15","size_leaf_vector":"1"}},{"base_weights":[2.0016918E-2,-5.506029E-1,5.630211E0,-1.4658482E0,2.7662244E0,2.303896E0,4.580844E0,-3.0013618E-1,3.7344888E-2,1.374757E-1,7.795935E-1,5.182767E-1,-5.463598E-2],"categories":[],"categories_nodes":[],"categories_segments":[],"categories_sizes":[],"default_left":[0,0,0,0,0,0,0,0,0,0,0,0,0],"id":46,"left_children":[1,3,5,7,9,-1,11,-1,-1,-1,-1,-1,-1],"loss_changes":[6.5255425E3,5.617371E3,3.9944712E3,5.248731E3,2.9288962E3,0E0,1.1764202E3,0E0,0E0,0E0,0E0,0E0,0E0],"parents":[2147483647,0,0,1,1,2,2,3,3,4,4,6,6],"right_children":[2,4,6,8,10,-1,12,-1,-1,-1,-1,-1,-1],"split_conditions":[7.156383E-1,4.748008E-1,1.0374699E-1,1.20885E4,3.216698E-1,2.303896E0,1.1753194E-2,-3.0013618E-1,3.7344888E-2,1.374757E-1,7.795935E-1,5.182767E-1,-5.463598E-2],"split_indices":[410,1863,288,4096,2486,0,3862,0,0,0,0,0,0],"split_type":[0,0,0,0,0,0,0,0,0,0,0,0,0],"sum_hessian":[2.038E3,1.85E3,1.88E2,1.45E3,4E2,9E0,1.79E2,7.19E2,7.31E2,3.33E2,6.7E1,1.44E2,3.5E1],"tree_param":{"num_deleted":"0","num_feature":"4105","num_nodes":"13","size_leaf_vector":"1"}},{"base_weights":[-1.8933041E-2,-1.427813E0,2.1410267E0,-5.399215E0,-4.5129085E-1,7.0838394E0,7.281656E-1,-1.0639472E-1,-8.0707306E-1,3.2993302E-1,-9.761131E-2,1.6831452E0,5.2877873E-1,-4.034947E-1,1.4940448E-1],"categories":[],"categories_nodes":[],"categories_segments":[],"categories_sizes":[],"default_left":[0,0,0,0,0,0,0,0,0,0,0,0,0,0,0],"id":47,"left_children":[1,3,5,7,9,11,13,-1,-1,-1,-1,-1,-1,-1,-1],"loss_changes":[6.145201E3,4.7392393E3,5.5660034E3,3.7455605E3,2.6577502E3,2.3426553E3,3.131266E3,0E0,0E0,0E0,0E0,0E0,0E0,0E0,0E0],"parents":[2147483647,0,0,1,1,2,2,3,3,4,4,5,5,6,6],"right_children":[2,4,6,8,10,12,14,-1,-1,-1,-1,-1,-1,-1,-1],"split_conditions":[8.00762E-3,1.1542409E-1,1.10077515E-1,3.4633318E-1,5.3711414E-2,1.3640113E-1,1.6617015E-2,-1.0639472E-1,-8.0707306E-1,3.2993302E-1,-9.761131E-2,1.6831452E0,5.2877873E-1,-4.034947E-1,1.4940448E-1],"split_indices":[2419,644,2665,1224,3446,2004,3186,0,0,0,0,0,0,0,0],"split_type":[0,0,0,0,0,0,0,0,0,0,0,0,0,0,0],"sum_hessian":[2.019E3,1.222E3,7.97E2,2.41E2,9.81E2,1.77E2,6.2E2,1.13E2,1.28E2,1.32E2,8.49E2,1.5E1,1.62E2,9.5E1,5.25E2],"tree_param":{"num_deleted":"0","num_feature":"4105","num_nodes":"15","size_leaf_vector":"1"}},{"base_weights":[-2.8014677E-2,2.2224991E0,-1.6600445E-1,-2.0755234E0,1.2413533E0,-1.1155573E-1,-6.795631E-1,5.158722E-1,2.8946046E-2],"categories":[],"categories_nodes":[],"categories_segments":[],"categories_sizes":[],"default_left":[0,0,0,0,0,0,0,0,0],"id":48,"left_children":[1,-1,3,5,7,-1,-1,-1,-1],"loss_changes":[7.079666E3,0E0,5.467138E3,3.9412954E3,4.9020576E3,0E0,0E0,0E0,0E0],"parents":[2147483647,0,0,2,2,3,3,4,4],"right_children":[2,-1,4,6,8,-1,-1,-1,-1],"split_conditions":[3.3947475E-2,2.2224991E0,5.831314E-1,5.6566734E-2,-6.6430515E-1,-1.1155573E-1,-6.795631E-1,5.158722E-1,2.8946046E-2],"split_indices":[2362,0,2972,2202,4101,0,0,0,0],"split_type":[0,0,0,0,0,0,0,0,0],"sum_hessian":[2.045E3,1.1E1,2.034E3,8.63E2,1.171E3,7.53E2,1.1E2,1.95E2,9.76E2],"tree_param":{"num_deleted":"0","num_feature":"4105","num_nodes":"9","size_leaf_vector":"1"}},{"base_weights":[3.726361E-2,2.4513264E0,-8.808046E-2,-1.4568844E0,1.7368823E0,-5.305351E-1,-5.3160146E-2,2.0001648E-1,-4.3131644E-1],"categories":[],"categories_nodes":[],"categories_segments":[],"categories_sizes":[],"default_left":[0,0,0,0,0,0,0,0,0],"id":49,"left_children":[1,-1,3,5,7,-1,-1,-1,-1],"loss_changes":[7.031533E3,0E0,5.054429E3,4.485173E3,2.967755E3,0E0,0E0,0E0,0E0],"parents":[2147483647,0,0,2,2,3,3,4,4],"right_children":[2,-1,4,6,8,-1,-1,-1,-1],"split_conditions":[3.3947475E-2,2.4513264E0,1.8265969E-1,8.950898E-2,-6.02271E-1,-5.305351E-1,-5.3160146E-2,2.0001648E-1,-4.3131644E-1],"split_indices":[2362,0,1989,644,4101,0,0,0,0],"split_type":[0,0,0,0,0,0,0,0,0],"sum_hessian":[2.032E3,9E0,2.023E3,1.156E3,8.67E2,1.84E2,9.72E2,8.04E2,6.3E1],"tree_param":{"num_deleted":"0","num_feature":"4105","num_nodes":"9","size_leaf_vector":"1"}},{"base_weights":[5.7451975E-2,1.3225759E0,-1.989103E0,1.7069483E0,-6.1485214E0,-1.5448892E0,-9.256413E0,4.542727E-1,8.123952E-2,-8.5022086E-1,1.1379788E-2,-1.19183145E-1,-9.870581E-1,-1.0306363E0,2.121462E-2],"categories":[],"categories_nodes":[],"categories_segments":[],"categories_sizes":[],"default_left":[0,0,0,0,0,0,0,0,0,0,0,0,0,0,0],"id":50,"left_children":[1,3,5,7,9,11,13,-1,-1,-1,-1,-1,-1,-1,-1],"loss_changes":[5.321663E3,3.649449E3,2.5318052E3,3.2624119E3,1.3421992E3,1.4238593E3,1.014958E3,0E0,0E0,0E0,0E0,0E0,0E0,0E0,0E0],"parents":[2147483647,0,0,1,1,2,2,3,3,4,4,5,5,6,6],"right_children":[2,4,6,8,10,12,14,-1,-1,-1,-1,-1,-1,-1,-1],"split_conditions":[9.899795E-2,3.057083E-1,2.6448953E-1,5.032681E-1,6.7094326E-2,1.4729383E0,7.111574E-2,4.542727E-1,8.123952E-2,-8.5022086E-1,1.1379788E-2,-1.19183145E-1,-9.870581E-1,-1.0306363E0,2.121462E-2],"split_indices":[832,1853,2110,2317,958,1508,3114,0,0,0,0,0,0,0,0],"split_type":[0,0,0,0,0,0,0,0,0,0,0,0,0,0,0],"sum_hessian":[2.055E3,1.27E3,7.85E2,1.208E3,6.2E1,7.4E2,4.5E1,2.27E2,9.81E2,4E1,2.2E1,7.25E2,1.5E1,3.6E1,9E0],"tree_param":{"num_deleted":"0","num_feature":"4105","num_nodes":"15","size_leaf_vector":"1"}},{"base_weights":[3.184336E-2,-1.1719655E0,1.662248E0,1.5936713E0,-2.1959531E0,2.133179E0,-4.562577E0,7.3807734E-1,8.102278E-2,-8.0488056E-2,-4.2352846E-1,1.4834487E-1,6.9648725E-1,-2.8465375E-1,-6.8536294E-1],"categories":[],"categories_nodes":[],"categories_segments":[],"categories_sizes":[],"default_left":[0,0,0,0,0,0,0,0,0,0,0,0,0,0,0],"id":51,"left_children":[1,3,5,7,9,11,13,-1,-1,-1,-1,-1,-1,-1,-1],"loss_changes":[4.016426E3,3.3344482E3,2.549771E3,1.4543975E3,2.8542578E3,2.1266396E3,2.5707788E2,0E0,0E0,0E0,0E0,0E0,0E0,0E0,0E0],"parents":[2147483647,0,0,1,1,2,2,3,3,4,4,5,5,6,6],"right_children":[2,4,6,8,10,12,14,-1,-1,-1,-1,-1,-1,-1,-1],"split_conditions":[1.8265969E-1,1.4484057E-1,-6.02271E-1,1.1779297E-2,5.47781E-2,4.1048963E-2,4.6266355E-2,7.3807734E-1,8.102278E-2,-8.0488056E-2,-4.2352846E-1,1.4834487E-1,6.9648725E-1,-2.8465375E-1,-6.8536294E-1],"split_indices":[1989,536,4101,2259,4018,3653,1416,0,0,0,0,0,0,0,0],"split_type":[0,0,0,0,0,0,0,0,0,0,0,0,0,0,0],"sum_hessian":[2.046E3,1.177E3,8.69E2,3.18E2,8.59E2,8.08E2,6.1E1,2.9E1,2.89E2,5.73E2,2.86E2,7.48E2,6E1,4.3E1,1.8E1],"tree_param":{"num_deleted":"0","num_feature":"4105","num_nodes":"15","size_leaf_vector":"1"}},{"base_weights":[-2.780222E-2,-1.0919988E0,1.5976007E0,6.451448E0,-1.4148271E0,3.4895048E0,-3.428765E-1,1.7352828E0,3.100717E-1,-3.7106436E-1,-5.0850928E-2,4.059328E-1,-3.795331E-2,1.0653084E-1,-2.1346988E-1],"categories":[],"categories_nodes":[],"categories_segments":[],"categories_sizes":[],"default_left":[0,0,0,0,0,0,0,0,0,0,0,0,0,0,0],"id":52,"left_children":[1,3,5,7,9,11,13,-1,-1,-1,-1,-1,-1,-1,-1],"loss_changes":[3.4981943E3,2.977918E3,2.9379556E3,1.9316228E3,2.7305208E3,1.7261265E3,1.2598607E3,0E0,0E0,0E0,0E0,0E0,0E0,0E0,0E0],"parents":[2147483647,0,0,1,1,2,2,3,3,4,4,5,5,6,6],"right_children":[2,4,6,8,10,12,14,-1,-1,-1,-1,-1,-1,-1,-1],"split_conditions":[8.00762E-3,4.467155E-2,1.9196188E-1,7.72929E-2,1.1848237E-2,3.0688933E-1,1.3149257E-1,1.7352828E0,3.100717E-1,-3.7106436E-1,-5.0850928E-2,4.059328E-1,-3.795331E-2,1.0653084E-1,-2.1346988E-1],"split_indices":[2419,3149,3233,1761,3321,2588,2677,0,0,0,0,0,0,0,0],"split_type":[0,0,0,0,0,0,0,0,0,0,0,0,0,0,0],"sum_hessian":[2.022E3,1.222E3,8E2,5E1,1.172E3,4.05E2,3.95E2,9E0,4.1E1,2.73E2,8.99E2,3.17E2,8.8E1,2.26E2,1.69E2],"tree_param":{"num_deleted":"0","num_feature":"4105","num_nodes":"15","size_leaf_vector":"1"}},{"base_weights":[-5.5541534E-2,6.5569717E-1,-2.3079576E0,8.29023E-1,-8.487522E0,-5.224789E0,-1.2776611E0,3.0617145E-1,2.061832E-2,-4.6445072E-1,-1.370651E0,-8.6163306E-1,-3.19449E-1,-1.570551E-1,2.742964E-1],"categories":[],"categories_nodes":[],"categories_segments":[],"categories_sizes":[],"default_left":[0,0,0,0,0,0,0,0,0,0,0,0,0,0,0],"id":53,"left_children":[1,3,5,7,9,11,13,-1,-1,-1,-1,-1,-1,-1,-1],"loss_changes":[3.3055667E3,2.4863335E3,1.4867183E3,2.4081567E3,6.452251E2,9.345215E2,7.900396E2,0E0,0E0,0E0,0E0,0E0,0E0,0E0,0E0],"parents":[2147483647,0,0,1,1,2,2,3,3,4,4,5,5,6,6],"right_children":[2,4,6,8,10,12,14,-1,-1,-1,-1,-1,-1,-1,-1],"split_conditions":[5.019846E-1,1.2546656E0,1.01519E0,2.8671777E-1,1.2403264E-1,1.0372577E-1,7.493551E-1,3.0617145E-1,2.061832E-2,-4.6445072E-1,-1.370651E0,-8.6163306E-1,-3.19449E-1,-1.570551E-1,2.742964E-1],"split_indices":[1635,2107,595,2314,622,3557,1628,0,0,0,0,0,0,0,0],"split_type":[0,0,0,0,0,0,0,0,0,0,0,0,0,0,0],"sum_hessian":[2.063E3,1.568E3,4.95E2,1.539E3,2.9E1,1.29E2,3.66E2,2.85E2,1.254E3,2E1,9E0,3.4E1,9.5E1,3.29E2,3.7E1],"tree_param":{"num_deleted":"0","num_feature":"4105","num_nodes":"15","size_leaf_vector":"1"}},{"base_weights":[5.821339E-3,-6.489285E-1,2.4417346E0,-1.9746243E0,7.4699813E-1,1.2805722E1,1.8617213E0,-3.9951056E-1,-1.0632721E-1,2.2997431E-1,-2.2485813E-2,7.672466E-1,1.5916393E0,1.2393035E0,1.3257092E-1],"categories":[],"categories_nodes":[],"categories_segments":[],"categories_sizes":[],"default_left":[0,0,0,0,0,0,0,0,0,0,0,0,0,0,0],"id":54,"left_children":[1,3,5,7,9,11,13,-1,-1,-1,-1,-1,-1,-1,-1],"loss_changes":[3.2989275E3,3.0170947E3,2.6291917E3,1.6399436E3,1.4668801E3,4.6522534E2,1.841315E3,0E0,0E0,0E0,0E0,0E0,0E0,0E0,0E0],"parents":[2147483647,0,0,1,1,2,2,3,3,4,4,5,5,6,6],"right_children":[2,4,6,8,10,12,14,-1,-1,-1,-1,-1,-1,-1,-1],"split_conditions":[4.853595E-1,1.8430582E-1,1.9769111E-1,3.3076473E-2,1.9073624E-2,2.5283828E-2,4.3426626E-3,-3.9951056E-1,-1.0632721E-1,2.2997431E-1,-2.2485813E-2,7.672466E-1,1.5916393E0,1.2393035E0,1.3257092E-1],"split_indices":[1863,218,2223,3996,531,1555,1844,0,0,0,0,0,0,0,0],"split_type":[0,0,0,0,0,0,0,0,0,0,0,0,0,0,0],"sum_hessian":[2.068E3,1.63E3,4.38E2,8.36E2,7.94E2,2.3E1,4.15E2,1.96E2,6.4E2,2.79E2,5.15E2,1.3E1,1E1,1.2E1,4.03E2],"tree_param":{"num_deleted":"0","num_feature":"4105","num_nodes":"15","size_leaf_vector":"1"}},{"base_weights":[-5.409216E-2,-1.1181834E0,1.221402E0,-1.3502288E0,7.9449677E0,2.260708E0,-1.1827238E0,-6.8705755E-1,-9.6001804E-2,1.1160977E0,2.2063017E-1,1.5964128E-1,5.9106785E-1,-5.8697855E-1,-4.111994E-2],"categories":[],"categories_nodes":[],"categories_segments":[],"categories_sizes":[],"default_left":[0,0,0,0,0,0,0,0,0,0,0,0,0,0,0],"id":55,"left_children":[1,3,5,7,9,11,13,-1,-1,-1,-1,-1,-1,-1,-1],"loss_changes":[2.8086458E3,2.3745105E3,2.3522073E3,1.8830671E3,7.072865E2,1.3310847E3,1.1099978E3,0E0,0E0,0E0,0E0,0E0,0E0,0E0,0E0],"parents":[2147483647,0,0,1,1,2,2,3,3,4,4,5,5,6,6],"right_children":[2,4,6,8,10,12,14,-1,-1,-1,-1,-1,-1,-1,-1],"split_conditions":[3.4735374E-2,8.7716386E-2,1.3287012E-1,5.498597E-3,2.6535118E-2,4.0201165E-2,2.4351678E-3,-6.8705755E-1,-9.6001804E-2,1.1160977E0,2.2063017E-1,1.5964128E-1,5.9106785E-1,-5.8697855E-1,-4.111994E-2],"split_indices":[3079,3162,2893,2232,1566,3653,328,0,0,0,0,0,0,0,0],"split_type":[0,0,0,0,0,0,0,0,0,0,0,0,0,0,0],"sum_hessian":[2.069E3,1.128E3,9.41E2,1.1E3,2.8E1,6.57E2,2.84E2,4.4E1,1.056E3,1.5E1,1.3E1,5.95E2,6.2E1,3.3E1,2.51E2],"tree_param":{"num_deleted":"0","num_feature":"4105","num_nodes":"15","size_leaf_vector":"1"}},{"base_weights":[1.9137828E-2,-5.890585E-1,1.9151937E0,4.4763354E-3,-3.0622983E0,1.5377315E0,1.6253134E0,3.8043526E-1,-3.580448E-2,-5.1283187E-1,-1.0682843E-1,-2.191759E-1,2.19404E-1],"categories":[],"categories_nodes":[],"categories_segments":[],"categories_sizes":[],"default_left":[0,0,0,0,0,0,0,0,0,0,0,0,0],"id":56,"left_children":[1,3,5,7,9,-1,11,-1,-1,-1,-1,-1,-1],"loss_changes":[2.370237E3,2.2844932E3,2.225828E3,2.1955266E3,1.5203137E3,0E0,1.7046476E3,0E0,0E0,0E0,0E0,0E0,0E0],"parents":[2147483647,0,0,1,1,2,2,3,3,4,4,6,6],"right_children":[2,4,6,8,10,-1,12,-1,-1,-1,-1,-1,-1],"split_conditions":[7.656718E-2,5.216718E-1,6.2583196E-3,1.2337875E-1,1.0210823E-1,1.5377315E0,7.657566E-1,3.8043526E-1,-3.580448E-2,-5.1283187E-1,-1.0682843E-1,-2.191759E-1,2.19404E-1],"split_indices":[807,2901,1332,3974,2950,0,3404,0,0,0,0,0,0],"split_type":[0,0,0,0,0,0,0,0,0,0,0,0,0],"sum_hessian":[2.055E3,1.556E3,4.99E2,1.255E3,3.01E2,9E0,4.9E2,1.09E2,1.146E3,1.22E2,1.79E2,8.4E1,4.06E2],"tree_param":{"num_deleted":"0","num_feature":"4105","num_nodes":"13","size_leaf_vector":"1"}},{"base_weights":[-5.3867756E-4,-4.518049E-1,2.4780035E0,-2.994092E-1,-8.062775E0,2.07676E0,1.2884809E0,-3.6925774E-2,7.9924923E-1,-8.6160713E-1,-3.5393342E-1,2.6698017E-1,-1.299302E-1],"categories":[],"categories_nodes":[],"categories_segments":[],"categories_sizes":[],"default_left":[0,0,0,0,0,0,0,0,0,0,0,0,0],"id":57,"left_children":[1,3,5,7,9,11,-1,-1,-1,-1,-1,-1,-1],"loss_changes":[2.303327E3,2.0200625E3,1.5273519E3,1.8598264E3,2.222561E2,1.01625903E3,0E0,0E0,0E0,0E0,0E0,0E0,0E0],"parents":[2147483647,0,0,1,1,2,2,3,3,4,4,5,5],"right_children":[2,4,6,8,10,12,-1,-1,-1,-1,-1,-1,-1],"split_conditions":[3.1193203E-1,2.0314834E-1,8.06527E-1,9.944489E-1,1.7538534E-1,4.5454018E-2,1.2884809E0,-3.6925774E-2,7.9924923E-1,-8.6160713E-1,-3.5393342E-1,2.6698017E-1,-1.299302E-1],"split_indices":[2593,3291,1280,410,1979,3881,0,0,0,0,0,0,0],"split_type":[0,0,0,0,0,0,0,0,0,0,0,0,0],"sum_hessian":[2.059E3,1.742E3,3.17E2,1.708E3,3.4E1,3.07E2,1E1,1.687E3,2.1E1,2.4E1,1E1,2.43E2,6.4E1],"tree_param":{"num_deleted":"0","num_feature":"4105","num_nodes":"13","size_leaf_vector":"1"}},{"base_weights":[5.4805275E-2,-1.0100875E-1,7.1594677E0,-3.0888495E0,2.4083471E-1,1.2352259E0,5.3004313E0,-6.471292E-1,-1.5055324E-1,9.818237E-3,6.853761E-1,2.3955002E-1,6.093532E-1],"categories":[],"categories_nodes":[],"categories_segments":[],"categories_sizes":[],"default_left":[0,0,0,0,0,0,0,0,0,0,0,0,0],"id":58,"left_children":[1,3,5,7,9,-1,11,-1,-1,-1,-1,-1,-1],"loss_changes":[2.2278193E3,2.0114904E3,5.288999E2,1.1810596E3,1.7213726E3,0E0,1.3576758E2,0E0,0E0,0E0,0E0,0E0,0E0],"parents":[2147483647,0,0,1,1,2,2,3,3,4,4,6,6],"right_children":[2,4,6,8,10,-1,12,-1,-1,-1,-1,-1,-1],"split_conditions":[4.512643E-2,1.7916396E-1,4.403741E-3,1.2990285E-4,7.140005E-1,1.2352259E0,4.831817E-1,-6.471292E-1,-1.5055324E-1,9.818237E-3,6.853761E-1,2.3955002E-1,6.093532E-1],"split_indices":[2298,3572,97,2374,419,0,342,0,0,0,0,0,0],"split_type":[0,0,0,0,0,0,0,0,0,0,0,0,0],"sum_hessian":[2.012E3,1.969E3,4.3E1,2.02E2,1.767E3,9E0,3.4E1,5E1,1.52E2,1.737E3,3E1,1.3E1,2.1E1],"tree_param":{"num_deleted":"0","num_feature":"4105","num_nodes":"13","size_leaf_vector":"1"}},{"base_weights":[2.9432768E-2,2.0493762E0,-4.5483792E-1,1.5081149E0,1.0450126E1,-3.4283738E0,-5.876812E-2,3.5409847E-1,5.6964323E-2,1.5429326E0,3.9081642E-1,-1.365827E-1,-5.220052E-1,2.3380453E-2,-3.5214236E-1],"categories":[],"categories_nodes":[],"categories_segments":[],"categories_sizes":[],"default_left":[0,0,0,0,0,0,0,0,0,0,0,0,0,0,0],"id":59,"left_children":[1,3,5,7,9,11,13,-1,-1,-1,-1,-1,-1,-1,-1],"loss_changes":[2.0242957E3,1.8163822E3,1.9657244E3,8.08567E2,1.0003865E3,9.083982E2,1.8578846E3,0E0,0E0,0E0,0E0,0E0,0E0,0E0,0E0],"parents":[2147483647,0,0,1,1,2,2,3,3,4,4,5,5,6,6],"right_children":[2,4,6,8,10,12,14,-1,-1,-1,-1,-1,-1,-1,-1],"split_conditions":[1.6687274E-1,9.841779E-1,1.7916396E-1,1.1214256E-2,8.688428E-4,2.9273403E-1,7.0629585E-1,3.5409847E-1,5.6964323E-2,1.5429326E0,3.9081642E-1,-1.365827E-1,-5.220052E-1,2.3380453E-2,-3.5214236E-1],"split_indices":[1224,803,3572,3419,2837,1542,2901,0,0,0,0,0,0,0,0],"split_type":[0,0,0,0,0,0,0,0,0,0,0,0,0,0,0],"sum_hessian":[2.069E3,4E2,1.669E3,3.76E2,2.4E1,1.96E2,1.473E3,9.7E1,2.79E2,1.1E1,1.3E1,1.11E2,8.5E1,1.361E3,1.12E2],"tree_param":{"num_deleted":"0","num_feature":"4105","num_nodes":"15","size_leaf_vector":"1"}},{"base_weights":[2.7231467E-3,1.1244546E0,-8.125981E-1,-1.8286091E0,1.9114015E0,-1.0103011E-1,-2.5687723E0,-8.611648E-2,-8.51278E-1,7.239634E-1,1.350521E-1,8.768816E-1,-1.9678568E-2,-5.128446E-1,-1.2993719E-1],"categories":[],"categories_nodes":[],"categories_segments":[],"categories_sizes":[],"default_left":[0,0,0,0,0,0,0,0,0,0,0,0,0,0,0],"id":60,"left_children":[1,3,5,7,9,11,13,-1,-1,-1,-1,-1,-1,-1,-1],"loss_changes":[1.8907725E3,2.022898E3,1.4959355E3,1.2186514E3,1.6673533E3,1.0286168E3,1.2225383E3,0E0,0E0,0E0,0E0,0E0,0E0,0E0,0E0],"parents":[2147483647,0,0,1,1,2,2,3,3,4,4,5,5,6,6],"right_children":[2,4,6,8,10,12,14,-1,-1,-1,-1,-1,-1,-1,-1],"split_conditions":[6.2132743E-3,1.065551E-3,6.606293E-1,2.363354E-1,6.3622214E-2,1.1689779E-2,7.767472E-4,-8.611648E-2,-8.51278E-1,7.239634E-1,1.350521E-1,8.768816E-1,-1.9678568E-2,-5.128446E-1,-1.2993719E-1],"split_indices":[2113,2803,2513,336,1107,1844,3573,0,0,0,0,0,0,0,0],"split_type":[0,0,0,0,0,0,0,0,0,0,0,0,0,0,0],"sum_hessian":[2.067E3,8.7E2,1.197E3,1.83E2,6.87E2,8.52E2,3.45E2,1.65E2,1.8E1,4E1,6.47E2,1E1,8.42E2,8.8E1,2.57E2],"tree_param":{"num_deleted":"0","num_feature":"4105","num_nodes":"15","size_leaf_vector":"1"}},{"base_weights":[-1.2091591E-2,1.6997609E0,-4.989213E-1,1.0671117E0,1.3449072E0,-2.2498617E0,3.388903E-3,2.3614728E-1,-3.6112545E-3,-1.3370392E-1,-6.807217E-1,5.4605808E-2,-1.6606563E-1],"categories":[],"categories_nodes":[],"categories_segments":[],"categories_sizes":[],"default_left":[0,0,0,0,0,0,0,0,0,0,0,0,0],"id":61,"left_children":[1,3,5,-1,7,9,11,-1,-1,-1,-1,-1,-1],"loss_changes":[1.724552E3,1.6763827E3,1.417123E3,0E0,8.0916925E2,1.4442428E3,1.4382168E3,0E0,0E0,0E0,0E0,0E0,0E0],"parents":[2147483647,0,0,1,1,2,2,4,4,5,5,6,6],"right_children":[2,4,6,-1,8,10,12,-1,-1,-1,-1,-1,-1],"split_conditions":[1.811282E-1,5.3935945E-2,1.43505E-2,1.0671117E0,4.5060854E-2,1.0353527E-3,3.0812797E-1,2.3614728E-1,-3.6112545E-3,-1.3370392E-1,-6.807217E-1,5.4605808E-2,-1.6606563E-1],"split_indices":[1224,85,3321,0,3419,2515,2114,0,0,0,0,0,0],"split_type":[0,0,0,0,0,0,0,0,0,0,0,0,0],"sum_hessian":[2.069E3,4.58E2,1.611E3,1.5E1,4.43E2,3.59E2,1.252E3,2.27E2,2.16E2,3.16E2,4.3E1,9.44E2,3.08E2],"tree_param":{"num_deleted":"0","num_feature":"4105","num_nodes":"13","size_leaf_vector":"1"}},{"base_weights":[-1.7434995E-4,-4.6190098E-1,1.696739E0,1.6228598E0,-9.225979E-1,9.5235837E-1,1.3767363E0,5.323343E-1,8.4645934E-2,-1.0532236E-1,1.8317616E-1,-1.5942106E-1,1.7505723E-1],"categories":[],"categories_nodes":[],"categories_segments":[],"categories_sizes":[],"default_left":[0,0,0,0,0,0,0,0,0,0,0,0,0],"id":62,"left_children":[1,3,5,7,9,-1,11,-1,-1,-1,-1,-1,-1],"loss_changes":[1.6307491E3,1.571731E3,1.2848406E3,8.6580896E2,1.0609813E3,0E0,8.1577893E2,0E0,0E0,0E0,0E0,0E0,0E0],"parents":[2147483647,0,0,1,1,2,2,3,3,4,4,6,6],"right_children":[2,4,6,8,10,-1,12,-1,-1,-1,-1,-1,-1],"split_conditions":[8.554161E-2,5.929199E-2,5.1970333E-3,3.419606E-2,3.6182344E-1,9.5235837E-1,6.543267E-2,5.323343E-1,8.4645934E-2,-1.0532236E-1,1.8317616E-1,-1.5942106E-1,1.7505723E-1],"split_indices":[807,2256,3606,3186,3532,0,2297,0,0,0,0,0,0],"split_type":[0,0,0,0,0,0,0,0,0,0,0,0,0],"sum_hessian":[2.081E3,1.636E3,4.45E2,2.96E2,1.34E3,1.5E1,4.3E2,3.9E1,2.57E2,1.231E3,1.09E2,6.8E1,3.62E2],"tree_param":{"num_deleted":"0","num_feature":"4105","num_nodes":"13","size_leaf_vector":"1"}},{"base_weights":[-1.264385E-3,-4.5262754E-1,1.6797618E0,-3.6526928E0,-1.9323677E-1,1.2303141E0,1.3618792E0,-1.75688E-1,-7.7963424E-1,-1.6710162E-1,1.6741605E-2,5.79027E-2,3.6453632E-1],"categories":[],"categories_nodes":[],"categories_segments":[],"categories_sizes":[],"default_left":[0,0,0,0,0,0,0,0,0,0,0,0,0],"id":63,"left_children":[1,3,5,7,9,-1,11,-1,-1,-1,-1,-1,-1],"loss_changes":[1.5814977E3,1.3637273E3,1.7058425E3,1.0545122E3,9.819181E2,0E0,8.3761365E2,0E0,0E0,0E0,0E0,0E0,0E0],"parents":[2147483647,0,0,1,1,2,2,3,3,4,4,6,6],"right_children":[2,4,6,8,10,-1,12,-1,-1,-1,-1,-1,-1],"split_conditions":[4.853595E-1,8.251261E-3,1.2274995E-4,1.897564E-2,9.545659E-3,1.2303141E0,6.0996998E-2,-1.75688E-1,-7.7963424E-1,-1.6710162E-1,1.6741605E-2,5.79027E-2,3.6453632E-1],"split_indices":[1863,38,3075,1085,3205,0,2472,0,0,0,0,0,0],"split_type":[0,0,0,0,0,0,0,0,0,0,0,0,0],"sum_hessian":[2.084E3,1.643E3,4.41E2,1.23E2,1.52E3,1.1E1,4.3E2,9.3E1,3E1,2.8E2,1.24E3,3.42E2,8.8E1],"tree_param":{"num_deleted":"0","num_feature":"4105","num_nodes":"13","size_leaf_vector":"1"}},{"base_weights":[-2.022713E-2,9.0944743E-1,-7.193343E-1,1.1248851E0,-4.933415E0,-3.7581077E0,-3.6324805E-1,8.51876E-1,8.50636E-2,-1.7599715E-1,-7.1078616E-1,-1.3749316E-1,-5.7855797E-1,-1.5914414E-2,-4.7312614E-1],"categories":[],"categories_nodes":[],"categories_segments":[],"categories_sizes":[],"default_left":[0,0,0,0,0,0,0,0,0,0,0,0,0,0,0],"id":64,"left_children":[1,3,5,7,9,11,13,-1,-1,-1,-1,-1,-1,-1,-1],"loss_changes":[1.3267734E3,1.1038745E3,1.260449E3,1.1865332E3,2.800739E2,7.437986E2,9.5292145E2,0E0,0E0,0E0,0E0,0E0,0E0,0E0,0E0],"parents":[2147483647,0,0,1,1,2,2,3,3,4,4,5,5,6,6],"right_children":[2,4,6,8,10,12,14,-1,-1,-1,-1,-1,-1,-1,-1],"split_conditions":[6.2132743E-3,1.2546656E0,1.4738939E-3,6.598026E-4,3.916297E-1,3.900256E-1,4.488087E-1,8.51876E-1,8.50636E-2,-1.7599715E-1,-7.1078616E-1,-1.3749316E-1,-5.7855797E-1,-1.5914414E-2,-4.7312614E-1],"split_indices":[2113,2107,3186,1841,1145,1428,2599,0,0,0,0,0,0,0,0],"split_type":[0,0,0,0,0,0,0,0,0,0,0,0,0,0,0],"sum_hessian":[2.041E3,8.76E2,1.165E3,8.45E2,3.1E1,1.22E2,1.043E3,1.6E1,8.29E2,1.6E1,1.5E1,6.8E1,5.4E1,1.006E3,3.7E1],"tree_param":{"num_deleted":"0","num_feature":"4105","num_nodes":"15","size_leaf_vector":"1"}},{"base_weights":[-1.0261411E-2,-2.2670782E-1,3.1697087E0,6.249936E-1,-1.0457062E0,5.8012033E0,1.0973309E0,1.4208876E-1,-4.5412265E-2,-1.3294621E-1,1.5734513E-1,4.1056976E-1,9.965407E-1,-4.5990795E-2,2.062949E-1],"categories":[],"categories_nodes":[],"categories_segments":[],"categories_sizes":[],"default_left":[0,0,0,0,0,0,0,0,0,0,0,0,0,0,0],"id":65,"left_children":[1,3,5,7,9,11,13,-1,-1,-1,-1,-1,-1,-1,-1],"loss_changes":[1.4277115E3,1.3548925E3,7.1950964E2,1.0578922E3,1.2658147E3,3.6046057E2,1.4754752E2,0E0,0E0,0E0,0E0,0E0,0E0,0E0,0E0],"parents":[2147483647,0,0,1,1,2,2,3,3,4,4,5,5,6,6],"right_children":[2,4,6,8,10,12,14,-1,-1,-1,-1,-1,-1,-1,-1],"split_conditions":[1.8600915E-1,8.7379664E-2,2.8274579E-2,3.104183E-1,3.7914118E-1,4.2726976E-1,3.2183075E-1,1.4208876E-1,-4.5412265E-2,-1.3294621E-1,1.5734513E-1,4.1056976E-1,9.965407E-1,-4.5990795E-2,2.062949E-1],"split_indices":[2452,2207,3479,3754,2503,1225,219,0,0,0,0,0,0,0,0],"split_type":[0,0,0,0,0,0,0,0,0,0,0,0,0,0,0],"sum_hessian":[2.074E3,1.942E3,1.32E2,9.52E2,9.9E2,5.8E1,7.4E1,5.12E2,4.4E2,8.53E2,1.37E2,4.8E1,1E1,3.2E1,4.2E1],"tree_param":{"num_deleted":"0","num_feature":"4105","num_nodes":"15","size_leaf_vector":"1"}},{"base_weights":[-6.1940555E-3,-6.7487724E-2,1.2068733E0,-1.7884848E0,2.3502354E-1,-8.250049E-2,-4.041088E-1,6.773939E-2,-8.025878E-2],"categories":[],"categories_nodes":[],"categories_segments":[],"categories_sizes":[],"default_left":[0,0,0,0,0,0,0,0,0],"id":66,"left_children":[1,3,-1,5,7,-1,-1,-1,-1],"loss_changes":[1.7104961E3,1.0628042E3,0E0,7.240536E2,1.0464689E3,0E0,0E0,0E0,0E0],"parents":[2147483647,0,0,1,1,3,3,4,4],"right_children":[2,4,-1,6,8,-1,-1,-1,-1],"split_conditions":[1.3817028E0,2.8368217E-1,1.2068733E0,1.1454563E-1,4.027636E-2,-8.250049E-2,-4.041088E-1,6.773939E-2,-8.025878E-2],"split_indices":[203,3572,0,3562,3372,0,0,0,0],"split_type":[0,0,0,0,0,0,0,0,0],"sum_hessian":[2.05E3,2.041E3,9E0,3.05E2,1.736E3,2.33E2,7.2E1,1.186E3,5.5E2],"tree_param":{"num_deleted":"0","num_feature":"4105","num_nodes":"9","size_leaf_vector":"1"}},{"base_weights":[-2.876402E-2,-4.1926062E-1,1.3169692E0,1.7899858E0,-6.8502116E-1,7.5037163E-1,1.0589223E0,8.878764E-2,4.2121777E-1,-5.808901E-1,-5.1808137E-2,3.8051374E-2,3.2912314E-1],"categories":[],"categories_nodes":[],"categories_segments":[],"categories_sizes":[],"default_left":[0,0,0,0,0,0,0,0,0,0,0,0,0],"id":67,"left_children":[1,3,5,7,9,-1,11,-1,-1,-1,-1,-1,-1],"loss_changes":[1.0869236E3,9.414849E2,8.555261E2,4.009367E2,8.4603326E2,0E0,7.4991205E2,0E0,0E0,0E0,0E0,0E0,0E0],"parents":[2147483647,0,0,1,1,2,2,3,3,4,4,6,6],"right_children":[2,4,6,8,10,-1,12,-1,-1,-1,-1,-1,-1],"split_conditions":[4.853595E-1,1.942478E-2,6.099215E-2,7.36715E-2,7.42646E-3,7.5037163E-1,3.121301E-1,8.878764E-2,4.2121777E-1,-5.808901E-1,-5.1808137E-2,3.8051374E-2,3.2912314E-1],"split_indices":[1863,1759,1107,3575,3241,0,3378,0,0,0,0,0,0],"split_type":[0,0,0,0,0,0,0,0,0,0,0,0,0],"sum_hessian":[2.068E3,1.603E3,4.65E2,1.72E2,1.431E3,1.6E1,4.49E2,1.36E2,3.6E1,2.4E1,1.407E3,3.63E2,8.6E1],"tree_param":{"num_deleted":"0","num_feature":"4105","num_nodes":"13","size_leaf_vector":"1"}},{"base_weights":[8.0453806E-2,1.1308506E0,-3.82592E-1,6.9850717E0,7.918934E-1,-1.7583078E-1,-3.1019857E0,1.3306104E0,3.5542098E-1,5.3767767E-2,7.9109764E-1,-9.524424E-2,3.7982512E-2,-1.4300485E-1,-6.115809E-1],"categories":[],"categories_nodes":[],"categories_segments":[],"categories_sizes":[],"default_left":[0,0,0,0,0,0,0,0,0,0,0,0,0,0,0],"id":68,"left_children":[1,3,5,7,9,11,13,-1,-1,-1,-1,-1,-1,-1,-1],"loss_changes":[9.9387036E2,1.2393408E3,7.9721265E2,8.043694E2,8.909415E2,7.1515027E2,5.6382904E2,0E0,0E0,0E0,0E0,0E0,0E0,0E0,0E0],"parents":[2147483647,0,0,1,1,2,2,3,3,4,4,5,5,6,6],"right_children":[2,4,6,8,10,12,14,-1,-1,-1,-1,-1,-1,-1,-1],"split_conditions":[1.290767E-1,1.9769111E-1,6.952943E-1,1.3029794E-1,7.7101827E-1,6.8853356E-2,3.0851477E-1,1.3306104E0,3.5542098E-1,5.3767767E-2,7.9109764E-1,-9.524424E-2,3.7982512E-2,-1.4300485E-1,-6.115809E-1],"split_indices":[3122,2223,2901,1272,1280,2902,316,0,0,0,0,0,0,0,0],"split_type":[0,0,0,0,0,0,0,0,0,0,0,0,0,0,0],"sum_hessian":[2.043E3,6.25E2,1.418E3,3.4E1,5.91E2,1.318E3,1E2,9E0,2.5E1,5.78E2,1.3E1,5.3E2,7.88E2,7.2E1,2.8E1],"tree_param":{"num_deleted":"0","num_feature":"4105","num_nodes":"15","size_leaf_vector":"1"}},{"base_weights":[-7.4299704E-3,9.6000266E-1,-5.911315E-1,9.4004947E-1,7.6689553E-1,-1.2590415E-2,-1.8675896E0,5.6260034E-2,6.846153E-1,-6.8089396E-1,1.0773551E-2,-5.004751E-2,-2.99794E-1],"categories":[],"categories_nodes":[],"categories_segments":[],"categories_sizes":[],"default_left":[0,0,0,0,0,0,0,0,0,0,0,0,0],"id":69,"left_children":[1,3,5,-1,7,9,11,-1,-1,-1,-1,-1,-1],"loss_changes":[1.1617759E3,1.4391553E3,9.4756213E2,0E0,6.9865735E2,9.0777625E2,7.883894E2,0E0,0E0,0E0,0E0,0E0,0E0],"parents":[2147483647,0,0,1,1,2,2,4,4,5,5,6,6],"right_children":[2,4,6,-1,8,10,12,-1,-1,-1,-1,-1,-1],"split_conditions":[3.0838262E-2,4.349296E-2,-2.2609563E0,9.4004947E-1,3.6574417E-1,6.9873817E-3,7.7144154E-3,5.6260034E-2,6.846153E-1,-6.8089396E-1,1.0773551E-2,-5.004751E-2,-2.99794E-1],"split_indices":[339,3062,4102,0,2180,1131,3116,0,0,0,0,0,0],"split_type":[0,0,0,0,0,0,0,0,0,0,0,0,0],"sum_hessian":[2.057E3,7.74E2,1.283E3,1.5E1,7.59E2,8.83E2,4E2,7.45E2,1.4E1,1.5E1,8.68E2,2.15E2,1.85E2],"tree_param":{"num_deleted":"0","num_feature":"4105","num_nodes":"13","size_leaf_vector":"1"}},{"base_weights":[-1.0559721E-2,-1.8658327E-1,2.4191318E0,-5.6246333E-2,-3.323439E0,4.5311775E0,6.334143E-1,-2.7975757E-2,1.3620158E-1,-6.843243E-1,-1.3710769E-1,3.2138166E-1,8.769795E-1,1.0868877E-1,-2.5048825E-1],"categories":[],"categories_nodes":[],"categories_segments":[],"categories_sizes":[],"default_left":[0,0,0,0,0,0,0,0,0,0,0,0,0,0,0],"id":70,"left_children":[1,3,5,7,9,11,13,-1,-1,-1,-1,-1,-1,-1,-1],"loss_changes":[8.875519E2,7.910779E2,5.280525E2,7.666586E2,6.0014606E2,3.0499976E2,1.5655933E2,0E0,0E0,0E0,0E0,0E0,0E0,0E0,0E0],"parents":[2147483647,0,0,1,1,2,2,3,3,4,4,5,5,6,6],"right_children":[2,4,6,8,10,12,14,-1,-1,-1,-1,-1,-1,-1,-1],"split_conditions":[1.8600915E-1,6.872961E-1,1.0738843E-2,3.1655562E-1,9.222194E-2,7.348484E-2,3.6743665E-1,-2.7975757E-2,1.3620158E-1,-6.843243E-1,-1.3710769E-1,3.2138166E-1,8.769795E-1,1.0868877E-1,-2.5048825E-1],"split_indices":[2452,1224,2213,2593,1783,379,1565,0,0,0,0,0,0,0,0],"split_type":[0,0,0,0,0,0,0,0,0,0,0,0,0,0,0],"sum_hessian":[2.075E3,1.935E3,1.4E2,1.858E3,7.7E1,6.4E1,7.6E1,1.598E3,2.6E2,2.2E1,5.5E1,5.5E1,9E0,6.5E1,1.1E1],"tree_param":{"num_deleted":"0","num_feature":"4105","num_nodes":"15","size_leaf_vector":"1"}},{"base_weights":[6.6071833E-3,3.3059103E0,-1.3315837E-1,1.2598373E0,1.9654185E0,-1.637274E0,2.0318058E-1,3.6197522E-1,-1.9196603E-2,-2.3603973E-1,1.3016036E-1,-6.268013E-3,1.6893546E-1],"categories":[],"categories_nodes":[],"categories_segments":[],"categories_sizes":[],"default_left":[0,0,0,0,0,0,0,0,0,0,0,0,0],"id":71,"left_children":[1,3,5,-1,7,9,11,-1,-1,-1,-1,-1,-1],"loss_changes":[9.552481E2,1.2242175E3,1.00540314E3,0E0,3.4733917E2,1.1553851E3,7.568584E2,0E0,0E0,0E0,0E0,0E0,0E0],"parents":[2147483647,0,0,1,1,2,2,4,4,5,5,6,6],"right_children":[2,4,6,-1,8,10,12,-1,-1,-1,-1,-1,-1],"split_conditions":[1.4361507E-3,5.5861004E-2,5.8102477E-3,1.2598373E0,6.5729976E-2,3.246833E-1,2.2427483E-1,3.6197522E-1,-1.9196603E-2,-2.3603973E-1,1.3016036E-1,-6.268013E-3,1.6893546E-1],"split_indices":[4068,951,3768,0,1551,1819,2664,0,0,0,0,0,0],"split_type":[0,0,0,0,0,0,0,0,0,0,0,0,0],"sum_hessian":[2.071E3,8.4E1,1.987E3,9E0,7.5E1,3.63E2,1.624E3,3.8E1,3.7E1,2.73E2,9E1,1.399E3,2.25E2],"tree_param":{"num_deleted":"0","num_feature":"4105","num_nodes":"13","size_leaf_vector":"1"}},{"base_weights":[2.8291529E-2,1.6897668E0,-2.0866913E-1,1.2240614E0,7.557345E-1,-4.268246E0,-9.341888E-2,6.363276E-2,3.9570928E-1,-2.611421E-1,-5.758911E-1,2.9408967E-2,-1.09852836E-1],"categories":[],"categories_nodes":[],"categories_segments":[],"categories_sizes":[],"default_left":[0,0,0,0,0,0,0,0,0,0,0,0,0],"id":72,"left_children":[1,3,5,7,-1,9,11,-1,-1,-1,-1,-1,-1],"loss_changes":[8.017601E2,8.0638763E2,8.3364264E2,3.899325E2,0E0,1.4103412E2,8.435749E2,0E0,0E0,0E0,0E0,0E0,0E0],"parents":[2147483647,0,0,1,1,2,2,3,3,5,5,6,6],"right_children":[2,4,6,8,-1,10,12,-1,-1,-1,-1,-1,-1],"split_conditions":[1.3388152E-1,3.6899018E-1,4.9326316E-2,8.172555E-1,7.557345E-1,2.737161E-2,-2.2609563E0,6.363276E-2,3.9570928E-1,-2.611421E-1,-5.758911E-1,2.9408967E-2,-1.09852836E-1],"split_indices":[1224,669,3572,1692,0,1360,4102,0,0,0,0,0,0],"split_type":[0,0,0,0,0,0,0,0,0,0,0,0,0],"sum_hessian":[2.036E3,2.54E2,1.782E3,2.38E2,1.6E1,4.9E1,1.733E3,2.06E2,3.2E1,3.1E1,1.8E1,1.264E3,4.69E2],"tree_param":{"num_deleted":"0","num_feature":"4105","num_nodes":"13","size_leaf_vector":"1"}},{"base_weights":[5.9063073E-2,-6.1577134E0,1.2583192E-1,-3.0842996E-1,-7.744824E-1,4.9218427E-2,5.291669E0,-1.6381925E-2,1.5454392E-1,8.956248E-1,9.01255E-2],"categories":[],"categories_nodes":[],"categories_segments":[],"categories_sizes":[],"default_left":[0,0,0,0,0,0,0,0,0,0,0],"id":73,"left_children":[1,3,5,-1,-1,7,9,-1,-1,-1,-1],"loss_changes":[8.6677435E2,1.470531E2,8.175576E2,0E0,0E0,8.065566E2,6.1811444E2,0E0,0E0,0E0,0E0],"parents":[2147483647,0,0,1,1,2,2,5,5,6,6],"right_children":[2,4,6,-1,-1,8,10,-1,-1,-1,-1],"split_conditions":[6.9873817E-3,9.092415E-2,3.8111103E-1,-3.0842996E-1,-7.744824E-1,2.2427483E-1,6.950802E-2,-1.6381925E-2,1.5454392E-1,8.956248E-1,9.01255E-2],"split_indices":[1131,305,1092,0,0,2664,4071,0,0,0,0],"split_type":[0,0,0,0,0,0,0,0,0,0,0],"sum_hessian":[2.088E3,2.2E1,2.066E3,1.1E1,1.1E1,2.036E3,3E1,1.789E3,2.47E2,1.4E1,1.6E1],"tree_param":{"num_deleted":"0","num_feature":"4105","num_nodes":"11","size_leaf_vector":"1"}},{"base_weights":[-3.722065E-2,2.8931668E-1,-1.2147692E0,-9.839749E-2,1.8110614E0,-8.655929E-1,-5.307579E0,-2.4709421E-1,7.514184E-3,3.7530726E-1,9.785021E-2,-2.5326875E-1,-3.4902845E-2,-7.398796E-1,-3.2537368E-1],"categories":[],"categories_nodes":[],"categories_segments":[],"categories_sizes":[],"default_left":[0,0,0,0,0,0,0,0,0,0,0,0,0,0,0],"id":74,"left_children":[1,3,5,7,9,11,13,-1,-1,-1,-1,-1,-1,-1,-1],"loss_changes":[7.937982E2,9.536314E2,6.3948926E2,6.340508E2,5.6124866E2,3.8784933E2,1.6893097E2,0E0,0E0,0E0,0E0,0E0,0E0,0E0,0E0],"parents":[2147483647,0,0,1,1,2,2,3,3,4,4,5,5,6,6],"right_children":[2,4,6,8,10,12,14,-1,-1,-1,-1,-1,-1,-1,-1],"split_conditions":[5.1183814E-1,1.04391485E-1,1.2210022E0,2.3839588E-3,1.3218564E-2,1.4577751E-2,2.0262535E-1,-2.4709421E-1,7.514184E-3,3.7530726E-1,9.785021E-2,-2.5326875E-1,-3.4902845E-2,-7.398796E-1,-3.2537368E-1],"split_indices":[1587,2393,1865,1618,1425,3172,858,0,0,0,0,0,0,0,0],"split_type":[0,0,0,0,0,0,0,0,0,0,0,0,0,0,0],"sum_hessian":[2.064E3,1.616E3,4.48E2,1.288E3,3.28E2,4.13E2,3.5E1,8.2E1,1.206E3,7.4E1,2.54E2,7.9E1,3.34E2,1.2E1,2.3E1],"tree_param":{"num_deleted":"0","num_feature":"4105","num_nodes":"15","size_leaf_vector":"1"}},{"base_weights":[-2.0463845E-2,5.819782E0,-8.109973E-2,9.247853E-1,1.9998366E-1,4.1820925E-1,-7.8493226E-1,5.0792404E-2,-2.7530476E-1,-9.2195526E-2,2.311863E-1],"categories":[],"categories_nodes":[],"categories_segments":[],"categories_sizes":[],"default_left":[0,0,0,0,0,0,0,0,0,0,0],"id":75,"left_children":[1,3,5,-1,-1,7,9,-1,-1,-1,-1],"loss_changes":[7.302244E2,3.4322845E2,7.1740607E2,0E0,0E0,6.498915E2,7.317627E2,0E0,0E0,0E0,0E0],"parents":[2147483647,0,0,1,1,2,2,5,5,6,6],"right_children":[2,4,6,-1,-1,8,10,-1,-1,-1,-1],"split_conditions":[4.3426626E-3,1.5310039E-1,5.483617E-1,9.247853E-1,1.9998366E-1,3.8303235E-1,3.6182344E-1,5.0792404E-2,-2.7530476E-1,-9.2195526E-2,2.311863E-1],"split_indices":[1844,941,3847,0,0,1759,3532,0,0,0,0],"split_type":[0,0,0,0,0,0,0,0,0,0,0],"sum_hessian":[2.062E3,2.1E1,2.041E3,9E0,1.2E1,1.194E3,8.47E2,1.144E3,5E1,7.88E2,5.9E1],"tree_param":{"num_deleted":"0","num_feature":"4105","num_nodes":"11","size_leaf_vector":"1"}},{"base_weights":[2.6194401E-2,6.702484E-1,-4.7609583E-1,2.3733845E0,2.243809E-1,-6.405011E-1,2.0099103E0,1.10864095E-1,4.9952346E-1,6.482756E-2,-1.1554189E-1,-6.487422E-2,3.1503734E-1,3.0300388E-1,5.2546374E-2],"categories":[],"categories_nodes":[],"categories_segments":[],"categories_sizes":[],"default_left":[0,0,0,0,0,0,0,0,0,0,0,0,0,0,0],"id":76,"left_children":[1,3,5,7,9,11,13,-1,-1,-1,-1,-1,-1,-1,-1],"loss_changes":[6.6977545E2,6.887289E2,4.7561835E2,6.8740735E2,5.564403E2,4.163526E2,1.434176E2,0E0,0E0,0E0,0E0,0E0,0E0,0E0,0E0],"parents":[2147483647,0,0,1,1,2,2,3,3,4,4,5,5,6,6],"right_children":[2,4,6,8,10,12,14,-1,-1,-1,-1,-1,-1,-1,-1],"split_conditions":[6.424144E-3,7.869549E-3,4.484295E-2,4.2476004E-1,4.803621E-1,5.165691E-1,6.815208E-2,1.10864095E-1,4.9952346E-1,6.482756E-2,-1.1554189E-1,-6.487422E-2,3.1503734E-1,3.0300388E-1,5.2546374E-2],"split_indices":[786,1554,3530,945,1808,1805,1840,0,0,0,0,0,0,0,0],"split_type":[0,0,0,0,0,0,0,0,0,0,0,0,0,0,0],"sum_hessian":[2.07E3,9.07E2,1.163E3,1.88E2,7.19E2,1.091E3,7.2E1,1.4E2,4.8E1,5.4E2,1.79E2,1.068E3,2.3E1,3.6E1,3.6E1],"tree_param":{"num_deleted":"0","num_feature":"4105","num_nodes":"15","size_leaf_vector":"1"}},{"base_weights":[3.0920569E-2,1.9936838E0,-1.3789852E-1,9.2357224E-1,1.1280458E0,-4.1912952E-1,1.2473942E0,2.2283326E-1,6.189948E-3,-2.1021042E-2,-2.4605948E-1,3.3333874E-1,5.2558605E-2],"categories":[],"categories_nodes":[],"categories_segments":[],"categories_sizes":[],"default_left":[0,0,0,0,0,0,0,0,0,0,0,0,0],"id":77,"left_children":[1,3,5,-1,7,9,11,-1,-1,-1,-1,-1,-1],"loss_changes":[6.8274615E2,1.1867935E3,7.3919836E2,0E0,2.1698723E2,6.7629346E2,5.25907E2,0E0,0E0,0E0,0E0,0E0,0E0],"parents":[2147483647,0,0,1,1,2,2,4,4,5,5,6,6],"right_children":[2,4,6,-1,8,10,12,-1,-1,-1,-1,-1,-1],"split_conditions":[5.852863E-2,1.72843E-2,4.7594082E-1,9.2357224E-1,4.464204E-1,4.1477764E-1,2.0393282E-1,2.2283326E-1,6.189948E-3,-2.1021042E-2,-2.4605948E-1,3.3333874E-1,5.2558605E-2],"split_indices":[3149,1890,1375,0,2123,2599,3106,0,0,0,0,0,0],"split_type":[0,0,0,0,0,0,0,0,0,0,0,0,0],"sum_hessian":[2.06E3,1.63E2,1.897E3,1.5E1,1.48E2,1.577E3,3.2E2,6.4E1,8.4E1,1.464E3,1.13E2,6.6E1,2.54E2],"tree_param":{"num_deleted":"0","num_feature":"4105","num_nodes":"13","size_leaf_vector":"1"}},{"base_weights":[2.1461528E-2,-5.280463E0,7.355445E-2,-2.6079E-1,-6.307159E-1,-3.5272408E-1,7.4360585E-1,-4.3576956E-2,2.8376177E-1,3.9075193E-1,5.1423684E-2],"categories":[],"categories_nodes":[],"categories_segments":[],"categories_sizes":[],"default_left":[0,0,0,0,0,0,0,0,0,0,0],"id":78,"left_children":[1,3,5,-1,-1,7,9,-1,-1,-1,-1],"loss_changes":[5.730943E2,8.2283264E1,5.8707996E2,0E0,0E0,6.1857947E2,4.7885486E2,0E0,0E0,0E0,0E0],"parents":[2147483647,0,0,1,1,2,2,5,5,6,6],"right_children":[2,4,6,-1,-1,8,10,-1,-1,-1,-1],"split_conditions":[6.9873817E-3,1.5425359E-1,9.974389E-3,-2.6079E-1,-6.307159E-1,3.5765213E-3,4.6540964E-1,-4.3576956E-2,2.8376177E-1,3.9075193E-1,5.1423684E-2],"split_indices":[1131,622,3017,0,0,2397,2457,0,0,0,0],"split_type":[0,0,0,0,0,0,0,0,0,0,0],"sum_hessian":[2.075E3,2E1,2.055E3,9E0,1.1E1,1.256E3,7.99E2,1.209E3,4.7E1,3.4E1,7.65E2],"tree_param":{"num_deleted":"0","num_feature":"4105","num_nodes":"11","size_leaf_vector":"1"}},{"base_weights":[6.250342E-2,2.5855241E-2,7.300872E-1,1.1338198E-1,-4.039429E0,1.7605387E-2,-2.7260077E-1,-2.2661704E-1,-6.8945074E-1],"categories":[],"categories_nodes":[],"categories_segments":[],"categories_sizes":[],"default_left":[0,0,0,0,0,0,0,0,0],"id":79,"left_children":[1,3,-1,5,7,-1,-1,-1,-1],"loss_changes":[6.159181E2,7.2913226E2,0E0,5.441753E2,2.3536615E2,0E0,0E0,0E0,0E0],"parents":[2147483647,0,0,1,1,3,3,4,4],"right_children":[2,4,-1,6,8,-1,-1,-1,-1],"split_conditions":[1.3817028E0,1.7853207E-3,7.300872E-1,3.8161013E-1,9.4060704E-2,1.7605387E-2,-2.7260077E-1,-2.2661704E-1,-6.8945074E-1],"split_indices":[203,2688,0,3321,1196,0,0,0,0],"split_type":[0,0,0,0,0,0,0,0,0],"sum_hessian":[2.058E3,2.049E3,9E0,2.006E3,4.3E1,1.954E3,5.2E1,3.1E1,1.2E1],"tree_param":{"num_deleted":"0","num_feature":"4105","num_nodes":"9","size_leaf_vector":"1"}},{"base_weights":[-8.744523E-3,8.858414E-1,-3.0451602E-1,1.8723414E0,-8.586821E-2,-2.3141453E-1,-5.312373E0,1.3328008E-1,5.644918E-1,-2.4436975E-2,4.4662458E-1,-3.9651815E-2,1.0427261E-1,-5.61747E-1,-3.538976E-1],"categories":[],"categories_nodes":[],"categories_segments":[],"categories_sizes":[],"default_left":[0,0,0,0,0,0,0,0,0,0,0,0,0,0,0],"id":80,"left_children":[1,3,5,7,9,11,13,-1,-1,-1,-1,-1,-1,-1,-1],"loss_changes":[5.432958E2,4.89138E2,5.645617E2,4.1844226E2,2.4993303E2,4.6162488E2,2.492688E1,0E0,0E0,0E0,0E0,0E0,0E0,0E0,0E0],"parents":[2147483647,0,0,1,1,2,2,3,3,4,4,5,5,6,6],"right_children":[2,4,6,8,10,12,14,-1,-1,-1,-1,-1,-1,-1,-1],"split_conditions":[7.069215E-3,8.079369E-2,9.3427837E-1,5.6151073E-2,2.8109226E-1,3.1193203E-1,1.825709E-1,1.3328008E-1,5.644918E-1,-2.4436975E-2,4.4662458E-1,-3.9651815E-2,1.0427261E-1,-5.61747E-1,-3.538976E-1],"split_indices":[653,1084,2045,3634,97,2593,1237,0,0,0,0,0,0,0,0],"split_type":[0,0,0,0,0,0,0,0,0,0,0,0,0,0,0],"sum_hessian":[2.053E3,5.1E2,1.543E3,2.53E2,2.57E2,1.521E3,2.2E1,2.34E2,1.9E1,2.48E2,9E0,1.319E3,2.02E2,1.2E1,1E1],"tree_param":{"num_deleted":"0","num_feature":"4105","num_nodes":"15","size_leaf_vector":"1"}},{"base_weights":[-9.809005E-3,-2.8959656E0,8.9365184E-2,-7.220386E-1,-1.8598661E0,1.1880045E0,-1.5344395E-1,3.2571092E-2,-2.7142107E-1,3.337486E-1,5.3738493E-2,-5.808353E-1,-8.611654E-3],"categories":[],"categories_nodes":[],"categories_segments":[],"categories_sizes":[],"default_left":[0,0,0,0,0,0,0,0,0,0,0,0,0],"id":81,"left_children":[1,3,5,-1,7,9,11,-1,-1,-1,-1,-1,-1],"loss_changes":[5.875221E2,3.6742462E2,5.29362E2,0E0,1.5315059E2,5.378446E2,5.854003E2,0E0,0E0,0E0,0E0,0E0,0E0],"parents":[2147483647,0,0,1,1,2,2,4,4,5,5,6,6],"right_children":[2,4,6,-1,8,10,12,-1,-1,-1,-1,-1,-1],"split_conditions":[5.818449E-3,2.534442E-4,2.282266E-1,-7.220386E-1,2.550123E-2,3.528523E-2,7.42646E-3,3.2571092E-2,-2.7142107E-1,3.337486E-1,5.3738493E-2,-5.808353E-1,-8.611654E-3],"split_indices":[1621,38,1809,0,2035,1934,3241,0,0,0,0,0,0],"split_type":[0,0,0,0,0,0,0,0,0,0,0,0,0],"sum_hessian":[2.052E3,6.8E1,1.984E3,1.1E1,5.7E1,3.59E2,1.625E3,2E1,3.7E1,6.6E1,2.93E2,1.4E1,1.611E3],"tree_param":{"num_deleted":"0","num_feature":"4105","num_nodes":"13","size_leaf_vector":"1"}},{"base_weights":[3.866206E-2,6.443418E-1,-3.734499E-1,8.4548163E-1,-1.9284455E0,-2.2140951E-1,-2.7947495E0,2.8583892E-2,1.8223801E-1,-5.942587E-1,-9.586909E-2,1.0540673E-3,-1.6867417E-1,-4.366916E-1,-6.2833086E-2],"categories":[],"categories_nodes":[],"categories_segments":[],"categories_sizes":[],"default_left":[0,0,0,0,0,0,0,0,0,0,0,0,0,0,0],"id":82,"left_children":[1,3,5,7,9,11,13,-1,-1,-1,-1,-1,-1,-1,-1],"loss_changes":[5.197829E2,4.3662244E2,4.559964E2,4.9466357E2,2.4589629E2,4.572018E2,3.2424725E2,0E0,0E0,0E0,0E0,0E0,0E0,0E0,0E0],"parents":[2147483647,0,0,1,1,2,2,3,3,4,4,5,5,6,6],"right_children":[2,4,6,8,10,12,14,-1,-1,-1,-1,-1,-1,-1,-1],"split_conditions":[4.8892694E-3,1.3107999E-1,3.640363E-2,3.9350605E-3,9.942282E-2,1.6587982E-1,3.0019844E-1,2.8583892E-2,1.8223801E-1,-5.942587E-1,-9.586909E-2,1.0540673E-3,-1.6867417E-1,-4.366916E-1,-6.2833086E-2],"split_indices":[786,2892,1085,3352,1739,4073,494,0,0,0,0,0,0,0,0],"split_type":[0,0,0,0,0,0,0,0,0,0,0,0,0,0,0],"sum_hessian":[2.082E3,8.43E2,1.239E3,7.82E2,6.1E1,1.166E3,7.3E1,5.46E2,2.36E2,9E0,5.2E1,1.024E3,1.42E2,3.6E1,3.7E1],"tree_param":{"num_deleted":"0","num_feature":"4105","num_nodes":"15","size_leaf_vector":"1"}},{"base_weights":[-4.3646168E-2,6.2011534E-1,-4.480711E-1,5.9594285E-1,5.1327395E-1,-1.6756937E-1,-1.9228747E0,2.8320256E-1,2.9291438E-2,-3.2394654E-1,-4.540175E-3,-1.4580347E-1,-6.3155425E-1],"categories":[],"categories_nodes":[],"categories_segments":[],"categories_sizes":[],"default_left":[0,0,0,0,0,0,0,0,0,0,0,0,0],"id":83,"left_children":[1,3,5,-1,7,9,11,-1,-1,-1,-1,-1,-1],"loss_changes":[5.4396173E2,4.990718E2,5.20794E2,0E0,3.6961084E2,4.2903076E2,2.893369E2,0E0,0E0,0E0,0E0,0E0,0E0],"parents":[2147483647,0,0,1,1,2,2,4,4,5,5,6,6],"right_children":[2,4,6,-1,8,10,12,-1,-1,-1,-1,-1,-1],"split_conditions":[3.0019198E-2,4.349296E-2,6.2626415E-1,5.9594285E-1,1.293972E-1,4.9326316E-2,1.2204862E0,2.8320256E-1,2.9291438E-2,-3.2394654E-1,-4.540175E-3,-1.4580347E-1,-6.3155425E-1],"split_indices":[339,3062,510,0,1953,3572,1055,0,0,0,0,0,0],"split_type":[0,0,0,0,0,0,0,0,0,0,0,0,0],"sum_hessian":[2.026E3,7.67E2,1.259E3,1.3E1,7.54E2,1.058E3,2.01E2,4.8E1,7.06E2,3.4E1,1.024E3,1.91E2,1E1],"tree_param":{"num_deleted":"0","num_feature":"4105","num_nodes":"13","size_leaf_vector":"1"}},{"base_weights":[7.946807E-3,5.467235E-1,-4.0856674E-1,6.983437E-1,4.55716E-1,-2.358806E-1,-2.947789E0,3.394899E-2,6.061058E-1,-1.0865028E-1,6.7372345E-3,-4.726686E-1,-1.2686579E-1],"categories":[],"categories_nodes":[],"categories_segments":[],"categories_sizes":[],"default_left":[0,0,0,0,0,0,0,0,0,0,0,0,0],"id":84,"left_children":[1,3,5,-1,7,9,11,-1,-1,-1,-1,-1,-1],"loss_changes":[4.699979E2,6.0801495E2,5.177262E2,0E0,4.191314E2,3.4123715E2,2.700843E2,0E0,0E0,0E0,0E0,0E0,0E0],"parents":[2147483647,0,0,1,1,2,2,4,4,5,5,6,6],"right_children":[2,4,6,-1,8,10,12,-1,-1,-1,-1,-1,-1],"split_conditions":[6.424144E-3,6.376337E-2,3.640363E-2,6.983437E-1,8.06527E-1,4.5420043E-2,2.0785147E-2,3.394899E-2,6.061058E-1,-1.0865028E-1,6.7372345E-3,-4.726686E-1,-1.2686579E-1],"split_indices":[786,3608,1085,0,1280,2902,1944,0,0,0,0,0,0],"split_type":[0,0,0,0,0,0,0,0,0,0,0,0,0],"sum_hessian":[2.094E3,9.13E2,1.181E3,1.1E1,9.02E2,1.106E3,7.5E1,8.92E2,1E1,2.65E2,8.41E2,2.9E1,4.6E1],"tree_param":{"num_deleted":"0","num_feature":"4105","num_nodes":"13","size_leaf_vector":"1"}},{"base_weights":[-1.2055412E-2,-5.08451E-1,4.0962988E-1,-2.784736E-1,-3.1576898E0,8.3966523E-1,-7.805975E-1,5.704757E-1,-3.168152E-2,-2.1438023E-1,-7.5443363E-1,4.3668368E-1,6.305278E-2,-2.6583258E-2,-3.5943684E-1],"categories":[],"categories_nodes":[],"categories_segments":[],"categories_sizes":[],"default_left":[0,0,0,0,0,0,0,0,0,0,0,0,0,0,0],"id":85,"left_children":[1,3,5,7,9,11,13,-1,-1,-1,-1,-1,-1,-1,-1],"loss_changes":[4.3484467E2,5.811014E2,5.7501807E2,4.6416052E2,2.976419E2,4.331609E2,4.688284E2,0E0,0E0,0E0,0E0,0E0,0E0,0E0,0E0],"parents":[2147483647,0,0,1,1,2,2,3,3,4,4,5,5,6,6],"right_children":[2,4,6,8,10,12,14,-1,-1,-1,-1,-1,-1,-1,-1],"split_conditions":[1.3355065E-2,5.270988E-2,4.878834E-1,3.2386954E-3,2.4846561E-1,9.053209E-2,1.2125548E0,5.704757E-1,-3.168152E-2,-2.1438023E-1,-7.5443363E-1,4.3668368E-1,6.305278E-2,-2.6583258E-2,-3.5943684E-1],"split_indices":[3865,2823,1587,1380,1046,2548,1865,0,0,0,0,0,0,0,0],"split_type":[0,0,0,0,0,0,0,0,0,0,0,0,0,0,0],"sum_hessian":[2.077E3,9.54E2,1.123E3,8.78E2,7.6E1,8.25E2,2.98E2,1E1,8.68E2,6.7E1,9E0,2.5E1,8E2,2.6E2,3.8E1],"tree_param":{"num_deleted":"0","num_feature":"4105","num_nodes":"15","size_leaf_vector":"1"}},{"base_weights":[8.675926E-3,1.39409E-1,-1.4255173E0,-1.4298167E-2,1.6337461E0,-9.6256316E-1,-7.119857E-1,3.214514E-3,-3.5724577E-1,2.1406747E-1,-6.735638E-2,-1.8149295E-1,7.48499E-2],"categories":[],"categories_nodes":[],"categories_segments":[],"categories_sizes":[],"default_left":[0,0,0,0,0,0,0,0,0,0,0,0,0],"id":86,"left_children":[1,3,5,7,9,11,-1,-1,-1,-1,-1,-1,-1],"loss_changes":[3.842209E2,4.3144705E2,5.215194E2,3.4560352E2,3.2730057E2,3.1394293E2,0E0,0E0,0E0,0E0,0E0,0E0,0E0],"parents":[2147483647,0,0,1,1,2,2,3,3,4,4,5,5],"right_children":[2,4,6,8,10,12,-1,-1,-1,-1,-1,-1,-1],"split_conditions":[1.03666596E-1,2.9336515E-1,5.971892E-1,1.0192307E0,2.199997E-1,4.0500405E-1,-7.119857E-1,3.214514E-3,-3.5724577E-1,2.1406747E-1,-6.735638E-2,-1.8149295E-1,7.48499E-2],"split_indices":[2069,3415,121,4100,50,121,0,0,0,0,0,0,0],"split_type":[0,0,0,0,0,0,0,0,0,0,0,0,0],"sum_hessian":[2.049E3,1.878E3,1.71E2,1.703E3,1.75E2,1.6E2,1.1E1,1.682E3,2.1E1,1.32E2,4.3E1,1E2,6E1],"tree_param":{"num_deleted":"0","num_feature":"4105","num_nodes":"13","size_leaf_vector":"1"}},{"base_weights":[-1.0047875E-3,-2.3763604E0,7.663163E-2,-5.393699E-1,-1.3401989E0,2.9305834E-1,-8.824291E-1,4.010427E-4,-2.088458E-1,5.518553E-2,-3.510481E-2,-3.2708266E-1,-4.679724E-2],"categories":[],"categories_nodes":[],"categories_segments":[],"categories_sizes":[],"default_left":[0,0,0,0,0,0,0,0,0,0,0,0,0],"id":87,"left_children":[1,3,5,-1,7,9,11,-1,-1,-1,-1,-1,-1],"loss_changes":[3.7983572E2,2.4851547E2,4.139605E2,0E0,6.988878E1,3.6896698E2,3.650067E2,0E0,0E0,0E0,0E0,0E0,0E0],"parents":[2147483647,0,0,1,1,2,2,4,4,5,5,6,6],"right_children":[2,4,6,-1,8,10,12,-1,-1,-1,-1,-1,-1],"split_conditions":[5.818449E-3,6.7917615E-2,7.914605E-2,-5.393699E-1,2.907315E-2,1.19159736E-1,9.711364E-2,4.010427E-4,-2.088458E-1,5.518553E-2,