{"learner":{"attributes":{"scikit_learn":"{\"_estimator_type\": \"regressor\"}"},"feature_names":[],"feature_types":[],"gradient_booster":{"model":{"gbtree_model_param":{"num_parallel_tree":"1","num_trees":"435"},"iteration_indptr":[0,1,2,3,4,5,6,7,8,9,10,11,12,13,14,15,16,17,18,19,20,21,22,23,24,25,26,27,28,29,30,31,32,33,34,35,36,37,38,39,40,41,42,43,44,45,46,47,48,49,50,51,52,53,54,55,56,57,58,59,60,61,62,63,64,65,66,67,68,69,70,71,72,73,74,75,76,77,78,79,80,81,82,83,84,85,86,87,88,89,90,91,92,93,94,95,96,97,98,99,100,101,102,103,104,105,106,107,108,109,110,111,112,113,114,115,116,117,118,119,120,121,122,123,124,125,126,127,128,129,130,131,132,133,134,135,136,137,138,139,140,141,142,143,144,145,146,147,148,149,150,151,152,153,154,155,156,157,158,159,160,161,162,163,164,165,166,167,168,169,170,171,172,173,174,175,176,177,178,179,180,181,182,183,184,185,186,187,188,189,190,191,192,193,194,195,196,197,198,199,200,201,202,203,204,205,206,207,208,209,210,211,212,213,214,215,216,217,218,219,220,221,222,223,224,225,226,227,228,229,230,231,232,233,234,235,236,237,238,239,240,241,242,243,244,245,246,247,248,249,250,251,252,253,254,255,256,257,258,259,260,261,262,263,264,265,266,267,268,269,270,271,272,273,274,275,276,277,278,279,280,281,282,283,284,285,286,287,288,289,290,291,292,293,294,295,296,297,298,299,300,301,302,303,304,305,306,307,308,309,310,311,312,313,314,315,316,317,318,319,320,321,322,323,324,325,326,327,328,329,330,331,332,333,334,335,336,337,338,339,340,341,342,343,344,345,346,347,348,349,350,351,352,353,354,355,356,357,358,359,360,361,362,363,364,365,366,367,368,369,370,371,372,373,374,375,376,377,378,379,380,381,382,383,384,385,386,387,388,389,390,391,392,393,394,395,396,397,398,399,400,401,402,403,404,405,406,407,408,409,410,411,412,413,414,415,416,417,418,419,420,421,422,423,424,425,426,427,428,429,430,431,432,433,434,435],"tree_info":[0,0,0,0,0,0,0,0,0,0,0,0,0,0,0,0,0,0,0,0,0,0,0,0,0,0,0,0,0,0,0,0,0,0,0,0,0,0,0,0,0,0,0,0,0,0,0,0,0,0,0,0,0,0,0,0,0,0,0,0,0,0,0,0,0,0,0,0,0,0,0,0,0,0,0,0,0,0,0,0,0,0,0,0,0,0,0,0,0,0,0,0,0,0,0,0,0,0,0,0,0,0,0,0,0,0,0,0,0,0,0,0,0,0,0,0,0,0,0,0,0,0,0,0,0,0,0,0,0,0,0,0,0,0,0,0,0,0,0,0,0,0,0,0,0,0,0,0,0,0,0,0,0,0,0,0,0,0,0,0,0,0,0,0,0,0,0,0,0,0,0,0,0,0,0,0,0,0,0,0,0,0,0,0,0,0,0,0,0,0,0,0,0,0,0,0,0,0,0,0,0,0,0,0,0,0,0,0,0,0,0,0,0,0,0,0,0,0,0,0,0,0,0,0,0,0,0,0,0,0,0,0,0,0,0,0,0,0,0,0,0,0,0,0,0,0,0,0,0,0,0,0,0,0,0,0,0,0,0,0,0,0,0,0,0,0,0,0,0,0,0,0,0,0,0,0,0,0,0,0,0,0,0,0,0,0,0,0,0,0,0,0,0,0,0,0,0,0,0,0,0,0,0,0,0,0,0,0,0,0,0,0,0,0,0,0,0,0,0,0,0,0,0,0,0,0,0,0,0,0,0,0,0,0,0,0,0,0,0,0,0,0,0,0,0,0,0,0,0,0,0,0,0,0,0,0,0,0,0,0,0,0,0,0,0,0,0,0,0,0,0,0,0,0,0,0,0,0,0,0,0,0,0,0,0,0,0,0,0,0,0,0,0,0,0,0,0,0,0,0,0,0,0,0,0,0,0,0,0,0,0,0,0,0,0,0,0,0,0,0,0,0,0,0,0,0,0,0,0,0,0,0,0,0,0],"trees":[{"base_weights":[-1.14485085E-1,1.9127036E2,-2.643395E1,-3.30349E0,2.0313187E1,-1.4261108E2,-3.4011283E0,-2.9444902E0,7.2519463E-1,-1.3293312E1,3.3255202E-1,5.880221E-1,-8.264009E0],"categories":[],"categories_nodes":[],"categories_segments":[],"categories_sizes":[],"default_left":[0,0,0,0,0,0,0,0,0,0,0,0,0],"id":0,"left_children":[1,3,5,7,-1,9,11,-1,-1,-1,-1,-1,-1],"loss_changes":[1.0257533E7,1.80844E6,4.7902485E6,1.3843638E4,0E0,3.150005E5,1.3455952E6,0E0,0E0,0E0,0E0,0E0,0E0],"parents":[2147483647,0,0,1,1,2,2,3,3,5,5,6,6],"right_children":[2,4,6,8,-1,10,12,-1,-1,-1,-1,-1,-1],"split_conditions":[-6.9462955E-1,1.4911531E-2,3.8175E3,1.6882458E-1,2.0313187E1,1.1750123E-1,4.4133168E-1,-2.9444902E0,7.2519463E-1,-1.3293312E1,3.3255202E-1,5.880221E-1,-8.264009E0],"split_indices":[4101,2194,4096,306,0,3150,2305,0,0,0,0,0,0],"split_type":[0,0,0,0,0,0,0,0,0,0,0,0,0],"sum_hessian":[2.036E3,2.46E2,1.79E3,4E1,2.06E2,2.96E2,1.494E3,1.1E1,2.9E1,2.82E2,1.4E1,1.344E3,1.5E2],"tree_param":{"num_deleted":"0","num_feature":"4105","num_nodes":"13","size_leaf_vector":"1"}},{"base_weights":[-3.1483522E-1,1.7207848E2,-2.3171858E1,1.8512716E1,-3.4304018E0,-1.26998535E2,-1.9570857E0,-2.6915355E0,6.6143453E-1,-1.19965725E1,3.1559346E0,8.2717997E-1,-6.290435E0],"categories":[],"categories_nodes":[],"categories_segments":[],"categories_sizes":[],"default_left":[0,0,0,0,0,0,0,0,0,0,0,0,0],"id":1,"left_children":[1,3,5,-1,7,9,11,-1,-1,-1,-1,-1,-1],"loss_changes":[8.1857E6,1.5641045E6,4.0400425E6,0E0,1.2406545E4,4.186255E5,1.1853645E6,0E0,0E0,0E0,0E0,0E0,0E0],"parents":[2147483647,0,0,1,1,2,2,4,4,5,5,6,6],"right_children":[2,4,6,-1,8,10,12,-1,-1,-1,-1,-1,-1],"split_conditions":[-6.9462955E-1,2.3256646E-1,3.8175E3,1.8512716E1,1.6882458E-1,4.3836003E-3,2.007983E0,-2.6915355E0,6.6143453E-1,-1.19965725E1,3.1559346E0,8.2717997E-1,-6.290435E0],"split_indices":[4101,2181,4096,0,306,2795,2999,0,0,0,0,0,0],"split_type":[0,0,0,0,0,0,0,0,0,0,0,0,0],"sum_hessian":[2.077E3,2.43E2,1.834E3,2.01E2,4.2E1,3.11E2,1.523E3,1.2E1,3E1,2.96E2,1.5E1,1.309E3,2.14E2],"tree_param":{"num_deleted":"0","num_feature":"4105","num_nodes":"13","size_leaf_vector":"1"}},{"base_weights":[1.5240268E0,1.5767056E2,-2.0734957E1,1.6873215E1,-4.523866E0,-1.9484327E0,-1.1755325E2,6.0300195E-1,-2.4619808E0,-4.3205845E-1,1.9988167E1,-6.674249E0,-1.1828635E1],"categories":[],"categories_nodes":[],"categories_segments":[],"categories_sizes":[],"default_left":[0,0,0,0,0,0,0,0,0,0,0,0,0],"id":2,"left_children":[1,3,5,-1,7,9,11,-1,-1,-1,-1,-1,-1],"loss_changes":[7.164618E6,1.358639E6,3.2815552E6,0E0,1.139743E4,1.0041804E6,1.9417375E5,0E0,0E0,0E0,0E0,0E0,0E0],"parents":[2147483647,0,0,1,1,2,2,4,4,5,5,6,6],"right_children":[2,4,6,-1,8,10,12,-1,-1,-1,-1,-1,-1],"split_conditions":[-6.9462955E-1,8.4604144E-2,9.54904E-2,1.6873215E1,1.6246429E-1,3.7161082E-1,4.023702E-1,6.0300195E-1,-2.4619808E0,-4.3205845E-1,1.9988167E1,-6.674249E0,-1.1828635E1],"split_indices":[4101,3764,2916,0,2190,178,1570,0,0,0,0,0,0],"split_type":[0,0,0,0,0,0,0,0,0,0,0,0,0],"sum_hessian":[2.061E3,2.57E2,1.804E3,2.14E2,4.3E1,1.511E3,2.93E2,2.9E1,1.4E1,1.492E3,1.9E1,8E1,2.13E2],"tree_param":{"num_deleted":"0","num_feature":"4105","num_nodes":"13","size_leaf_vector":"1"}},{"base_weights":[1.1567281E-1,1.4397255E2,-1.938851E1,-3.8595097E0,1.5377421E1,-7.201341E1,1.141524E1,5.497348E-1,-2.2442098E0,-2.1801782E0,-8.903471E0,7.822922E-1,1.8204105E1],"categories":[],"categories_nodes":[],"categories_segments":[],"categories_sizes":[],"default_left":[0,0,0,0,0,0,0,0,0,0,0,0,0],"id":3,"left_children":[1,3,5,7,-1,9,11,-1,-1,-1,-1,-1,-1],"loss_changes":[5.809089E6,1.0744635E6,2.955627E6,8.912872E3,0E0,9.05375E5,5.782445E5,0E0,0E0,0E0,0E0,0E0,0E0],"parents":[2147483647,0,0,1,1,2,2,3,3,5,5,6,6],"right_children":[2,4,6,8,-1,10,12,-1,-1,-1,-1,-1,-1],"split_conditions":[-6.9462955E-1,1.4843707E-1,1.76E2,1.7213619E-1,1.5377421E1,5.383783E-4,1.15178436E-1,5.497348E-1,-2.2442098E0,-2.1801782E0,-8.903471E0,7.822922E-1,1.8204105E1],"split_indices":[4101,1546,4099,2191,0,2904,2515,0,0,0,0,0,0],"split_type":[0,0,0,0,0,0,0,0,0,0,0,0,0],"sum_hessian":[2.07E3,2.47E2,1.823E3,4.1E1,2.06E2,6.73E2,1.15E3,2.8E1,1.3E1,2.52E2,4.21E2,1.135E3,1.5E1],"tree_param":{"num_deleted":"0","num_feature":"4105","num_nodes":"13","size_leaf_vector":"1"}},{"base_weights":[-2.2124387E-2,1.3407835E2,-1.8608465E1,1.4015407E1,-2.7238903E0,-2.2412083E0,-1.00982574E2,-2.0426586E0,5.011754E-1,6.030146E-1,-5.0169506E0,-9.54077E0,-1.0438951E0],"categories":[],"categories_nodes":[],"categories_segments":[],"categories_sizes":[],"default_left":[0,0,0,0,0,0,0,0,0,0,0,0,0],"id":4,"left_children":[1,3,5,-1,7,9,11,-1,-1,-1,-1,-1,-1],"loss_changes":[5.225087E6,8.357645E5,2.4823155E6,0E0,6.5190166E3,7.544437E5,1.7903225E5,0E0,0E0,0E0,0E0,0E0,0E0],"parents":[2147483647,0,0,1,1,2,2,4,4,5,5,6,6],"right_children":[2,4,6,-1,8,10,12,-1,-1,-1,-1,-1,-1],"split_conditions":[-6.9462955E-1,8.4604144E-2,6.253612E-1,1.4015407E1,1.4598566E-1,2.007983E0,4.3938505E-3,-2.0426586E0,5.011754E-1,6.030146E-1,-5.0169506E0,-9.54077E0,-1.0438951E0],"split_indices":[4101,3764,2536,0,1556,2999,4074,0,0,0,0,0,0],"split_type":[0,0,0,0,0,0,0,0,0,0,0,0,0],"sum_hessian":[2.096E3,2.55E2,1.841E3,2.17E2,3.8E1,1.536E3,3.05E2,1.1E1,2.7E1,1.317E3,2.19E2,2.84E2,2.1E1],"tree_param":{"num_deleted":"0","num_feature":"4105","num_nodes":"13","size_leaf_vector":"1"}},{"base_weights":[6.119974E-1,1.239694E2,-1.5923896E1,1.27730055E1,-3.6468112E0,-9.774174E1,-1.2311573E0,-1.86454E0,4.56293E-1,-9.044835E0,-5.432924E0,-3.6118734E0,1.0285904E0],"categories":[],"categories_nodes":[],"categories_segments":[],"categories_sizes":[],"default_left":[0,0,0,0,0,0,0,0,0,0,0,0,0],"id":5,"left_children":[1,3,5,-1,7,9,11,-1,-1,-1,-1,-1,-1],"loss_changes":[4.1966805E6,6.22021E5,2.180862E6,0E0,5.090322E3,4.14845E4,7.79315E5,0E0,0E0,0E0,0E0,0E0,0E0],"parents":[2147483647,0,0,1,1,2,2,4,4,5,5,6,6],"right_children":[2,4,6,-1,8,10,12,-1,-1,-1,-1,-1,-1],"split_conditions":[-6.9462955E-1,9.598793E-3,3.66E3,1.27730055E1,2.2004777E-1,2.5246508E-2,2.4353983E-1,-1.86454E0,4.56293E-1,-9.044835E0,-5.432924E0,-3.6118734E0,1.0285904E0],"split_indices":[4101,3769,4096,0,1879,3129,3505,0,0,0,0,0,0],"split_type":[0,0,0,0,0,0,0,0,0,0,0,0,0],"sum_hessian":[2.057E3,2.43E2,1.814E3,2.1E2,3.3E1,2.76E2,1.538E3,1.1E1,2.2E1,2.47E2,2.9E1,3.77E2,1.161E3],"tree_param":{"num_deleted":"0","num_feature":"4105","num_nodes":"13","size_leaf_vector":"1"}},{"base_weights":[-3.7265863E-2,1.1213707E2,-1.5158167E1,1.1641255E1,-4.2514267E0,-5.4307507E1,9.142823E0,4.1616553E-1,-1.7064158E0,1.9320503E1,-5.1693172E0,6.1302966E-1,1.645201E1],"categories":[],"categories_nodes":[],"categories_segments":[],"categories_sizes":[],"default_left":[0,0,0,0,0,0,0,0,0,0,0,0,0],"id":6,"left_children":[1,3,5,-1,7,9,11,-1,-1,-1,-1,-1,-1],"loss_changes":[3.5439525E6,5.5217875E5,1.7517425E6,0E0,4.7341284E3,7.649869E5,4.468071E5,0E0,0E0,0E0,0E0,0E0,0E0],"parents":[2147483647,0,0,1,1,2,2,4,4,5,5,6,6],"right_children":[2,4,6,-1,8,10,12,-1,-1,-1,-1,-1,-1],"split_conditions":[-6.9462955E-1,8.217371E-2,1.76E2,1.1641255E1,1.5684374E-2,4.8744075E-2,1.15178436E-1,4.1616553E-1,-1.7064158E0,1.9320503E1,-5.1693172E0,6.1302966E-1,1.645201E1],"split_indices":[4101,2207,4099,0,951,4081,2515,0,0,0,0,0,0],"split_type":[0,0,0,0,0,0,0,0,0,0,0,0,0],"sum_hessian":[2.089E3,2.48E2,1.841E3,2.13E2,3.5E1,7.05E2,1.136E3,2.2E1,1.3E1,1E1,6.95E2,1.122E3,1.4E1],"tree_param":{"num_deleted":"0","num_feature":"4105","num_nodes":"13","size_leaf_vector":"1"}},{"base_weights":[-2.5535235E-1,9.923713E1,-1.3962609E1,-3.2242332E0,1.0609316E1,-8.298543E1,-6.996286E-1,3.8018498E-1,-1.5588362E0,-7.6067176E0,-4.7653306E-1,-2.0961316E0,1.5054966E0],"categories":[],"categories_nodes":[],"categories_segments":[],"categories_sizes":[],"default_left":[0,0,0,0,0,0,0,0,0,0,0,0,0],"id":7,"left_children":[1,3,5,7,-1,9,11,-1,-1,-1,-1,-1,-1],"loss_changes":[2.7839695E6,5.1617525E5,1.6424739E6,4.454031E3,0E0,6.2222E4,6.1013475E5,0E0,0E0,0E0,0E0,0E0,0E0],"parents":[2147483647,0,0,1,1,2,2,3,3,5,5,6,6],"right_children":[2,4,6,8,-1,10,12,-1,-1,-1,-1,-1,-1],"split_conditions":[-6.9462955E-1,1.4911531E-2,3.66E3,4.598029E-1,1.0609316E1,2.9029417E-1,2.8046134E-1,3.8018498E-1,-1.5588362E0,-7.6067176E0,-4.7653306E-1,-2.0961316E0,1.5054966E0],"split_indices":[4101,2194,4096,2510,0,578,441,0,0,0,0,0,0],"split_type":[0,0,0,0,0,0,0,0,0,0,0,0,0],"sum_hessian":[2.041E3,2.47E2,1.794E3,4.1E1,2.06E2,2.89E2,1.505E3,2.7E1,1.4E1,2.79E2,1E1,6.55E2,8.5E2],"tree_param":{"num_deleted":"0","num_feature":"4105","num_nodes":"13","size_leaf_vector":"1"}},{"base_weights":[-9.1652536E-1,2.5147903E1,-4.238935E1,1.0937819E1,1.09751785E2,-6.929917E1,-7.6706805E0,5.875404E-1,1.1867101E1,9.511866E0,1.3658626E1,-6.4675827E0,9.76858E-1,-5.112611E0,-2.199951E-1],"categories":[],"categories_nodes":[],"categories_segments":[],"categories_sizes":[],"default_left":[0,0,0,0,0,0,0,0,0,0,0,0,0,0,0],"id":8,"left_children":[1,3,5,7,9,11,13,-1,-1,-1,-1,-1,-1,-1,-1],"loss_changes":[2.193685E6,1.4979739E6,7.316099E5,5.6539606E5,1.677825E4,1.2839725E5,8.872449E4,0E0,0E0,0E0,0E0,0E0,0E0,0E0,0E0],"parents":[2147483647,0,0,1,1,2,2,3,3,4,4,5,5,6,6],"right_children":[2,4,6,8,10,12,14,-1,-1,-1,-1,-1,-1,-1,-1],"split_conditions":[4.0991575E-1,3.9910853E-1,1.3726446E-1,4.7830233E-1,1.1608916E-1,7.311928E-4,4.2769957E-2,5.875404E-1,1.1867101E1,9.511866E0,1.3658626E1,-6.4675827E0,9.76858E-1,-5.112611E0,-2.199951E-1],"split_indices":[1949,2137,1240,3025,3145,2396,3558,0,0,0,0,0,0,0,0],"split_type":[0,0,0,0,0,0,0,0,0,0,0,0,0,0,0],"sum_hessian":[2.029E3,1.246E3,7.83E2,1.067E3,1.79E2,4.41E2,3.42E2,1.031E3,3.6E1,1.7E2,9E0,4.22E2,1.9E1,3.2E1,3.1E2],"tree_param":{"num_deleted":"0","num_feature":"4105","num_nodes":"15","size_leaf_vector":"1"}},{"base_weights":[-9.258977E-1,-4.9528706E1,1.7973612E1,-7.1159836E1,-2.3834707E1,6.692691E0,9.878072E1,-6.556964E0,-3.2000887E0,-6.2019676E-1,-4.8379183E0,-1.0499719E0,1.9212339E0,9.531519E0,-4.2870995E-1],"categories":[],"categories_nodes":[],"categories_segments":[],"categories_sizes":[],"default_left":[0,0,0,0,0,0,0,0,0,0,0,0,0,0,0],"id":9,"left_children":[1,3,5,7,9,11,13,-1,-1,-1,-1,-1,-1,-1,-1],"loss_changes":[1.8870835E6,3.1936162E5,1.3482694E6,2.9790625E4,1.3605595E5,3.601258E5,1.6309462E5,0E0,0E0,0E0,0E0,0E0,0E0,0E0,0E0],"parents":[2147483647,0,0,1,1,2,2,3,3,4,4,5,5,6,6],"right_children":[2,4,6,8,10,12,14,-1,-1,-1,-1,-1,-1,-1,-1],"split_conditions":[4.4824532E-4,3.4186408E-2,7.438502E-1,3.7870446E-1,1.4326099E-1,3.736384E-1,2.5921816E-1,-6.556964E0,-3.2000887E0,-6.2019676E-1,-4.8379183E0,-1.0499719E0,1.9212339E0,9.531519E0,-4.2870995E-1],"split_indices":[3736,2943,294,1411,2136,441,2181,0,0,0,0,0,0,0,0],"split_type":[0,0,0,0,0,0,0,0,0,0,0,0,0,0,0],"sum_hessian":[2.054E3,5.75E2,1.479E3,3.12E2,2.63E2,1.298E3,1.81E2,2.89E2,2.3E1,1.7E2,9.3E1,5.8E2,7.18E2,1.67E2,1.4E1],"tree_param":{"num_deleted":"0","num_feature":"4105","num_nodes":"15","size_leaf_vector":"1"}},{"base_weights":[4.0738896E-1,7.790645E1,-1.0303897E1,9.170729E1,-1.6032076E0,5.184414E0,-4.504549E1,8.636758E0,7.926523E0,-1.3458719E0,4.4123483E-1,1.3843854E1,2.4047385E-1,-9.0970725E-1,-5.067716E0],"categories":[],"categories_nodes":[],"categories_segments":[],"categories_sizes":[],"default_left":[0,0,0,0,0,0,0,0,0,0,0,0,0,0,0],"id":10,"left_children":[1,3,5,7,9,11,13,-1,-1,-1,-1,-1,-1,-1,-1],"loss_changes":[1.7103462E6,2.7456238E5,9.74087E5,1.1795E3,3.3342498E3,4.67233E5,2.34667E5,0E0,0E0,0E0,0E0,0E0,0E0,0E0,0E0],"parents":[2147483647,0,0,1,1,2,2,3,3,4,4,5,5,6,6],"right_children":[2,4,6,8,10,12,14,-1,-1,-1,-1,-1,-1,-1,-1],"split_conditions":[-6.9462955E-1,9.598793E-3,1.9611824E-1,7.3344773E-1,1.6536453E-4,2.1920586E-2,2.1698603E-1,8.636758E0,7.926523E0,-1.3458719E0,4.4123483E-1,1.3843854E1,2.4047385E-1,-9.0970725E-1,-5.067716E0],"split_indices":[4101,3769,3641,294,638,3586,3175,0,0,0,0,0,0,0,0],"split_type":[0,0,0,0,0,0,0,0,0,0,0,0,0,0,0],"sum_hessian":[2.06E3,2.5E2,1.81E3,2.13E2,3.7E1,1.252E3,5.58E2,6E1,1.53E2,1.2E1,2.5E1,2E1,1.232E3,1.44E2,4.14E2],"tree_param":{"num_deleted":"0","num_feature":"4105","num_nodes":"15","size_leaf_vector":"1"}},{"base_weights":[-3.061318E-1,-4.1880566E1,1.5840088E1,-6.264509E1,-2.1016459E1,6.5631914E0,8.8045845E1,-5.718168E0,-3.8176486E0,-4.0045235E-1,-4.093653E0,3.3827254E-1,8.329024E0,7.4352837E0,1.1796182E1],"categories":[],"categories_nodes":[],"categories_segments":[],"categories_sizes":[],"default_left":[0,0,0,0,0,0,0,0,0,0,0,0,0,0,0],"id":11,"left_children":[1,3,5,7,9,11,13,-1,-1,-1,-1,-1,-1,-1,-1],"loss_changes":[1.3850824E6,2.4980675E5,9.95405E5,9.8145E3,1.1950144E5,3.1623175E5,2.995975E4,0E0,0E0,0E0,0E0,0E0,0E0,0E0,0E0],"parents":[2147483647,0,0,1,1,2,2,3,3,4,4,5,5,6,6],"right_children":[2,4,6,8,10,12,14,-1,-1,-1,-1,-1,-1,-1,-1],"split_conditions":[4.4824532E-4,2.8243463E-3,4.485774E-1,9.6439786E-2,1.4326099E-1,8.8934314E-1,1.840866E-2,-5.718168E0,-3.8176486E0,-4.0045235E-1,-4.093653E0,3.3827254E-1,8.329024E0,7.4352837E0,1.1796182E1],"split_indices":[3736,3228,3025,3457,2136,294,3453,0,0,0,0,0,0,0,0],"split_type":[0,0,0,0,0,0,0,0,0,0,0,0,0,0,0],"sum_hessian":[2.063E3,5.77E2,1.486E3,2.89E2,2.88E2,1.317E3,1.69E2,2.64E2,2.5E1,1.74E2,1.14E2,1.277E3,4E1,1.55E2,1.4E1],"tree_param":{"num_deleted":"0","num_feature":"4105","num_nodes":"15","size_leaf_vector":"1"}},{"base_weights":[3.761961E-1,-1.9740757E1,3.021004E1,-4.213965E1,1.633255E0,1.2120997E1,7.735008E1,-4.4080844E0,-2.9447305E-1,-1.8180635E-2,9.16545E0,-2.9855664E0,1.3816353E0,6.355063E0,1.3469672E1],"categories":[],"categories_nodes":[],"categories_segments":[],"categories_sizes":[],"default_left":[0,0,0,0,0,0,0,0,0,0,0,0,0,0,0],"id":12,"left_children":[1,3,5,7,9,11,13,-1,-1,-1,-1,-1,-1,-1,-1],"loss_changes":[1.2371684E6,5.894506E5,7.077379E5,1.7638188E5,1.17821875E5,9.5066664E4,9.5709625E4,0E0,0E0,0E0,0E0,0E0,0E0,0E0,0E0],"parents":[2147483647,0,0,1,1,2,2,3,3,4,4,5,5,6,6],"right_children":[2,4,6,8,10,12,14,-1,-1,-1,-1,-1,-1,-1,-1],"split_conditions":[5.4940474E-1,1.19635E4,4.936942E-1,8.179742E-1,2.3707055E-1,1.386141E-2,4.6849053E-2,-4.4080844E0,-2.9447305E-1,-1.8180635E-2,9.16545E0,-2.9855664E0,1.3816353E0,6.355063E0,1.3469672E1],"split_indices":[441,4096,294,2711,312,3309,3860,0,0,0,0,0,0,0,0],"split_type":[0,0,0,0,0,0,0,0,0,0,0,0,0,0,0],"sum_hessian":[2.061E3,1.231E3,8.3E2,6.01E2,6.3E2,6E2,2.3E2,5.03E2,9.8E1,6.19E2,1.1E1,4.2E1,5.58E2,2.14E2,1.6E1],"tree_param":{"num_deleted":"0","num_feature":"4105","num_nodes":"15","size_leaf_vector":"1"}},{"base_weights":[-3.713325E-1,-2.1679558E1,2.315884E1,-4.5203415E1,-3.6822915E0,8.016117E0,7.18043E1,-4.2712917E0,8.3173245E-1,-9.765597E-2,-3.419368E0,1.1036855E0,-3.688453E0,5.7734423E0,1.1687191E1],"categories":[],"categories_nodes":[],"categories_segments":[],"categories_sizes":[],"default_left":[0,0,0,0,0,0,0,0,0,0,0,0,0,0,0],"id":13,"left_children":[1,3,5,7,9,11,13,-1,-1,-1,-1,-1,-1,-1,-1],"loss_changes":[1.03204225E6,4.5728156E5,7.204474E5,7.555E4,5.509229E4,1.6396195E5,9.1822125E4,0E0,0E0,0E0,0E0,0E0,0E0,0E0,0E0],"parents":[2147483647,0,0,1,1,2,2,3,3,4,4,5,5,6,6],"right_children":[2,4,6,8,10,12,14,-1,-1,-1,-1,-1,-1,-1,-1],"split_conditions":[2.4489315E-1,9.044772E-3,4.936942E-1,3.0096045E-1,2.3295645E-1,1.966917E-1,4.6849053E-2,-4.2712917E0,8.3173245E-1,-9.765597E-2,-3.419368E0,1.1036855E0,-3.688453E0,5.7734423E0,1.1687191E1],"split_indices":[1755,3443,294,3006,2305,3562,3860,0,0,0,0,0,0,0,0],"split_type":[0,0,0,0,0,0,0,0,0,0,0,0,0,0,0],"sum_hessian":[2.058E3,1.08E3,9.78E2,4.68E2,6.12E2,7.46E2,2.32E2,4.44E2,2.4E1,5.7E2,4.2E1,6.85E2,6.1E1,2.09E2,2.3E1],"tree_param":{"num_deleted":"0","num_feature":"4105","num_nodes":"15","size_leaf_vector":"1"}},{"base_weights":[-4.0743258E-2,-1.9786694E1,2.235958E1,-4.604006E1,-6.814743E0,9.796326E0,6.1309204E1,-4.4761963E0,-2.2781663E0,9.195486E0,-7.442885E-1,-1.4262364E0,1.1203257E0,5.9661746E0,-1.6803119E0],"categories":[],"categories_nodes":[],"categories_segments":[],"categories_sizes":[],"default_left":[0,0,0,0,0,0,0,0,0,0,0,0,0,0,0],"id":14,"left_children":[1,3,5,7,9,11,13,-1,-1,-1,-1,-1,-1,-1,-1],"loss_changes":[8.989525E5,3.6780562E5,4.6582316E5,3.1937438E4,1.2614774E5,5.2866195E4,1.11229875E5,0E0,0E0,0E0,0E0,0E0,0E0,0E0,0E0],"parents":[2147483647,0,0,1,1,2,2,3,3,4,4,5,5,6,6],"right_children":[2,4,6,8,10,12,14,-1,-1,-1,-1,-1,-1,-1,-1],"split_conditions":[3.9852452E-1,1.02901505E-2,4.936942E-1,2.0226037E-4,1.8968856E-2,4.314551E-1,3.7121728E-1,-4.4761963E0,-2.2781663E0,9.195486E0,-7.442885E-1,-1.4262364E0,1.1203257E0,5.9661746E0,-1.6803119E0],"split_indices":[1145,2411,294,3314,2750,2972,1882,0,0,0,0,0,0,0,0],"split_type":[0,0,0,0,0,0,0,0,0,0,0,0,0,0,0],"sum_hessian":[2.032E3,1.08E3,9.52E2,3.57E2,7.23E2,7.2E2,2.32E2,2.93E2,6.4E1,1E1,7.13E2,7.1E1,6.49E2,2.16E2,1.6E1],"tree_param":{"num_deleted":"0","num_feature":"4105","num_nodes":"15","size_leaf_vector":"1"}},{"base_weights":[3.1088501E-2,-1.6954205E1,2.0676281E1,-4.097036E1,-6.007886E0,9.07262E0,5.5652077E1,-3.9707148E0,-1.4865646E0,-3.2991573E-2,-3.178537E0,-1.3119557E0,1.0413427E0,5.446183E0,-1.4738642E0],"categories":[],"categories_nodes":[],"categories_segments":[],"categories_sizes":[],"default_left":[0,0,0,0,0,0,0,0,0,0,0,0,0,0,0],"id":15,"left_children":[1,3,5,7,9,11,13,-1,-1,-1,-1,-1,-1,-1,-1],"loss_changes":[7.21099E5,2.9654012E5,3.7660584E5,3.2326625E4,1.3031405E5,4.442183E4,9.627556E4,0E0,0E0,0E0,0E0,0E0,0E0,0E0,0E0],"parents":[2147483647,0,0,1,1,2,2,3,3,4,4,5,5,6,6],"right_children":[2,4,6,8,10,12,14,-1,-1,-1,-1,-1,-1,-1,-1],"split_conditions":[3.9852452E-1,1.02901505E-2,4.7870457E-1,9.976761E-3,3.136809E-1,4.314551E-1,3.5270625E-1,-3.9707148E0,-1.4865646E0,-3.2991573E-2,-3.178537E0,-1.3119557E0,1.0413427E0,5.446183E0,-1.4738642E0],"split_indices":[1145,2411,294,2644,2305,2972,3251,0,0,0,0,0,0,0,0],"split_type":[0,0,0,0,0,0,0,0,0,0,0,0,0,0,0],"sum_hessian":[2.056E3,1.128E3,9.28E2,3.53E2,7.75E2,6.97E2,2.31E2,3.05E2,4.8E1,6.52E2,1.23E2,7E1,6.27E2,2.14E2,1.7E1],"tree_param":{"num_deleted":"0","num_feature":"4105","num_nodes":"15","size_leaf_vector":"1"}},{"base_weights":[2.638584E-1,-1.622853E1,1.7496021E1,-3.481841E1,-2.7158713E0,8.655955E0,5.6277485E1,-3.3171604E0,8.837322E-1,-7.379732E-2,-2.6622598E0,5.996044E-1,8.586785E0,7.8213325E0,4.752924E0],"categories":[],"categories_nodes":[],"categories_segments":[],"categories_sizes":[],"default_left":[0,0,0,0,0,0,0,0,0,0,0,0,0,0,0],"id":16,"left_children":[1,3,5,7,9,11,13,-1,-1,-1,-1,-1,-1,-1,-1],"loss_changes":[5.8300056E5,2.6328488E5,3.4383034E5,5.10605E4,3.122125E4,1.3644208E5,1.50879375E4,0E0,0E0,0E0,0E0,0E0,0E0,0E0,0E0],"parents":[2147483647,0,0,1,1,2,2,3,3,4,4,5,5,6,6],"right_children":[2,4,6,8,10,12,14,-1,-1,-1,-1,-1,-1,-1,-1],"split_conditions":[2.3856583E-1,9.044772E-3,3.938444E-1,3.0096045E-1,2.7734232E-1,2.813616E-1,6.1993618E-3,-3.3171604E0,8.837322E-1,-7.379732E-2,-2.6622598E0,5.996044E-1,8.586785E0,7.8213325E0,4.752924E0],"split_indices":[1755,3443,2137,3006,3935,3906,215,0,0,0,0,0,0,0,0],"split_type":[0,0,0,0,0,0,0,0,0,0,0,0,0,0,0],"sum_hessian":[2.051E3,1.048E3,1.003E3,4.41E2,6.07E2,8.17E2,1.86E2,4.17E2,2.4E1,5.68E2,3.9E1,8E2,1.7E1,1.4E1,1.72E2],"tree_param":{"num_deleted":"0","num_feature":"4105","num_nodes":"15","size_leaf_vector":"1"}},{"base_weights":[2.778304E-1,4.36964E1,-5.671522E0,1.977748E0,5.0004314E1,-2.5887537E1,2.9972496E0,-7.6592493E-1,5.317379E-1,6.651103E0,4.322703E0,-3.241918E0,-7.632854E-1,1.1056258E1,1.7090183E-1],"categories":[],"categories_nodes":[],"categories_segments":[],"categories_sizes":[],"default_left":[0,0,0,0,0,0,0,0,0,0,0,0,0,0,0],"id":17,"left_children":[1,3,5,7,9,11,13,-1,-1,-1,-1,-1,-1,-1,-1],"loss_changes":[5.384195E5,6.608231E4,3.2127794E5,1.4247576E3,6.219625E3,1.01329875E5,1.6705289E5,0E0,0E0,0E0,0E0,0E0,0E0,0E0,0E0],"parents":[2147483647,0,0,1,1,2,2,3,3,4,4,5,5,6,6],"right_children":[2,4,6,8,10,12,14,-1,-1,-1,-1,-1,-1,-1,-1],"split_conditions":[-6.9462955E-1,1.4911531E-2,4.4824532E-4,6.592656E-4,4.7444516E-1,2.9054969E-3,3.1142624E-3,-7.6592493E-1,5.317379E-1,6.651103E0,4.322703E0,-3.241918E0,-7.632854E-1,1.1056258E1,1.7090183E-1],"split_indices":[4101,2194,3736,2194,294,4046,2831,0,0,0,0,0,0,0,0],"split_type":[0,0,0,0,0,0,0,0,0,0,0,0,0,0,0],"sum_hessian":[2.084E3,2.51E2,1.833E3,3.3E1,2.18E2,5.5E2,1.283E3,9E0,2.4E1,1E1,2.08E2,3.4E2,2.1E2,1.1E1,1.272E3],"tree_param":{"num_deleted":"0","num_feature":"4105","num_nodes":"15","size_leaf_vector":"1"}},{"base_weights":[-9.885823E-2,-1.418231E1,1.5506448E1,-4.738206E0,-3.156717E1,7.117893E0,4.335388E1,5.785453E0,-5.46445E-1,-3.0592775E0,-1.2974753E0,-3.073703E0,7.788708E-1,4.2265553E0,-1.2198753E0],"categories":[],"categories_nodes":[],"categories_segments":[],"categories_sizes":[],"default_left":[0,0,0,0,0,0,0,0,0,0,0,0,0,0,0],"id":18,"left_children":[1,3,5,7,9,11,13,-1,-1,-1,-1,-1,-1,-1,-1],"loss_changes":[4.5875672E5,1.8011216E5,2.3124833E5,7.0865E4,1.9034625E4,5.2948992E4,5.6381688E4,0E0,0E0,0E0,0E0,0E0,0E0,0E0,0E0],"parents":[2147483647,0,0,1,1,2,2,3,3,4,4,5,5,6,6],"right_children":[2,4,6,8,10,12,14,-1,-1,-1,-1,-1,-1,-1,-1],"split_conditions":[3.6181647E-1,2.1598266E-1,4.936942E-1,1.3963124E-2,1.5937455E-1,2.7655626E-2,5.251165E-2,5.785453E0,-5.46445E-1,-3.0592775E0,-1.2974753E0,-3.073703E0,7.788708E-1,4.2265553E0,-1.2198753E0],"split_indices":[1145,1453,294,3679,2662,3182,2210,0,0,0,0,0,0,0,0],"split_type":[0,0,0,0,0,0,0,0,0,0,0,0,0,0,0],"sum_hessian":[2.087E3,1.097E3,9.9E2,7.11E2,3.86E2,7.61E2,2.29E2,1.4E1,6.97E2,3.29E2,5.7E1,2.9E1,7.32E2,2.13E2,1.6E1],"tree_param":{"num_deleted":"0","num_feature":"4105","num_nodes":"15","size_leaf_vector":"1"}},{"base_weights":[-4.2721623E-1,9.554885E0,-1.7658699E1,3.984368E1,4.074426E0,-2.896662E1,-2.5966058E0,3.6415179E0,1.2352371E0,7.261986E0,2.3896232E-1,-2.721104E0,1.1097875E0,8.795739E-2,-1.921834E0],"categories":[],"categories_nodes":[],"categories_segments":[],"categories_sizes":[],"default_left":[0,0,0,0,0,0,0,0,0,0,0,0,0,0,0],"id":19,"left_children":[1,3,5,7,9,11,13,-1,-1,-1,-1,-1,-1,-1,-1],"loss_changes":[3.531937E5,2.1579503E5,1.2826886E5,6.1499375E3,1.1820691E5,3.0627906E4,2.2121094E4,0E0,0E0,0E0,0E0,0E0,0E0,0E0,0E0],"parents":[2147483647,0,0,1,1,2,2,3,3,4,4,5,5,6,6],"right_children":[2,4,6,8,10,12,14,-1,-1,-1,-1,-1,-1,-1,-1],"split_conditions":[4.293279E-1,-6.9462955E-1,1.3726446E-1,1.1608916E-1,2.1920586E-2,7.311928E-4,3.5976854E-1,3.6415179E0,1.2352371E0,7.261986E0,2.3896232E-1,-2.721104E0,1.1097875E0,8.795739E-2,-1.921834E0],"split_indices":[1949,4101,1240,3145,3586,2396,3949,0,0,0,0,0,0,0,0],"split_type":[0,0,0,0,0,0,0,0,0,0,0,0,0,0,0],"sum_hessian":[2.053E3,1.3E3,7.53E2,1.99E2,1.101E3,4.3E2,3.23E2,1.9E2,9E0,1.9E1,1.082E3,4.13E2,1.7E1,2.72E2,5.1E1],"tree_param":{"num_deleted":"0","num_feature":"4105","num_nodes":"15","size_leaf_vector":"1"}},{"base_weights":[2.1897513E-1,-1.0469942E1,1.5071318E1,-2.2734709E1,9.3200785E-1,8.375353E0,3.8988506E1,-2.1835856E0,2.4035847E0,4.988267E0,-7.0149805E-3,7.829522E0,6.3426185E-1,7.09804E0,3.2688699E0],"categories":[],"categories_nodes":[],"categories_segments":[],"categories_sizes":[],"default_left":[0,0,0,0,0,0,0,0,0,0,0,0,0,0,0],"id":20,"left_children":[1,3,5,7,9,11,13,-1,-1,-1,-1,-1,-1,-1,-1],"loss_changes":[3.282074E5,1.6812134E5,1.3849597E5,5.4505438E4,3.485211E4,6.602786E4,1.60065E4,0E0,0E0,0E0,0E0,0E0,0E0,0E0,0E0],"parents":[2147483647,0,0,1,1,2,2,3,3,4,4,5,5,6,6],"right_children":[2,4,6,8,10,12,14,-1,-1,-1,-1,-1,-1,-1,-1],"split_conditions":[5.210038E-1,1.19635E4,3.938444E-1,4.512763E-2,2.6782045E-2,4.2784188E-2,1.1497459E-2,-2.1835856E0,2.4035847E0,4.988267E0,-7.0149805E-3,7.829522E0,6.3426185E-1,7.09804E0,3.2688699E0],"split_indices":[441,4096,2137,3040,1871,3901,1726,0,0,0,0,0,0,0,0],"split_type":[0,0,0,0,0,0,0,0,0,0,0,0,0,0,0],"sum_hessian":[2.067E3,1.202E3,8.65E2,5.79E2,6.23E2,6.76E2,1.89E2,5.58E2,2.1E1,1.1E1,6.12E2,1E1,6.66E2,9E0,1.8E2],"tree_param":{"num_deleted":"0","num_feature":"4105","num_nodes":"15","size_leaf_vector":"1"}},{"base_weights":[-1.5223108E-1,-9.6055355E0,1.430461E1,-2.6220846E1,-2.8916934E0,6.7120934E0,3.4225155E1,-2.5055082E0,-6.023772E-1,-3.9838046E-1,3.7835553E0,-3.3532557E0,7.204433E-1,2.7402985E0,7.084736E0],"categories":[],"categories_nodes":[],"categories_segments":[],"categories_sizes":[],"default_left":[0,0,0,0,0,0,0,0,0,0,0,0,0,0,0],"id":21,"left_children":[1,3,5,7,9,11,13,-1,-1,-1,-1,-1,-1,-1,-1],"loss_changes":[2.82128E5,1.392236E5,1.23401766E5,1.4111781E4,6.4831402E4,3.7180195E4,3.3761844E4,0E0,0E0,0E0,0E0,0E0,0E0,0E0,0E0],"parents":[2147483647,0,0,1,1,2,2,3,3,4,4,5,5,6,6],"right_children":[2,4,6,8,10,12,14,-1,-1,-1,-1,-1,-1,-1,-1],"split_conditions":[5.908436E-1,1.02901505E-2,4.936942E-1,9.4802E-1,1.6075478E0,3.66E3,4.6849053E-2,-2.5055082E0,-6.023772E-1,-3.9838046E-1,3.7835553E0,-3.3532557E0,7.204433E-1,2.7402985E0,7.084736E0],"split_indices":[441,2411,294,2851,4021,4096,3860,0,0,0,0,0,0,0,0],"split_type":[0,0,0,0,0,0,0,0,0,0,0,0,0,0,0],"sum_hessian":[2.064E3,1.248E3,8.16E2,3.59E2,8.89E2,5.91E2,2.25E2,3.25E2,3.4E1,8.59E2,3E1,1.8E1,5.73E2,2.1E2,1.5E1],"tree_param":{"num_deleted":"0","num_feature":"4105","num_nodes":"15","size_leaf_vector":"1"}},{"base_weights":[2.9649732E-1,-8.737375E0,1.2656803E1,-1.9128042E1,1.34894E0,6.122171E0,3.1237007E1,-1.8673902E0,2.001839E0,1.6280482E0,-1.0568728E-1,-2.9281192E0,6.71394E-1,8.043034E0,2.5219822E0],"categories":[],"categories_nodes":[],"categories_segments":[],"categories_sizes":[],"default_left":[0,0,0,0,0,0,0,0,0,0,0,0,0,0,0],"id":22,"left_children":[1,3,5,7,9,11,13,-1,-1,-1,-1,-1,-1,-1,-1],"loss_changes":[2.3196286E5,1.2578935E5,1.0646667E5,4.7562406E4,2.6324533E4,3.6820203E4,3.7531438E4,0E0,0E0,0E0,0E0,0E0,0E0,0E0,0E0],"parents":[2147483647,0,0,1,1,2,2,3,3,4,4,5,5,6,6],"right_children":[2,4,6,8,10,12,14,-1,-1,-1,-1,-1,-1,-1,-1],"split_conditions":[5.210038E-1,1.19635E4,4.936942E-1,4.512763E-2,1.16645925E-1,3.66E3,1.0562892E-3,-1.8673902E0,2.001839E0,1.6280482E0,-1.0568728E-1,-2.9281192E0,6.71394E-1,8.043034E0,2.5219822E0],"split_indices":[441,4096,294,3040,225,4096,2821,0,0,0,0,0,0,0,0],"split_type":[0,0,0,0,0,0,0,0,0,0,0,0,0,0,0],"sum_hessian":[2.077E3,1.2E3,8.77E2,5.91E2,6.09E2,6.49E2,2.28E2,5.65E2,2.6E1,7.9E1,5.3E2,2.3E1,6.26E2,1E1,2.18E2],"tree_param":{"num_deleted":"0","num_feature":"4105","num_nodes":"15","size_leaf_vector":"1"}},{"base_weights":[-3.0859122E-1,-9.286316E0,1.0361115E1,-2.7470026E0,-2.036835E1,2.6827408E1,5.376647E0,4.9455028E0,-3.3522597E-1,-2.0041707E0,-6.605332E-1,2.6212413E0,-1.5927004E-2,5.2928996E0,3.7317294E-1],"categories":[],"categories_nodes":[],"categories_segments":[],"categories_sizes":[],"default_left":[0,0,0,0,0,0,0,0,0,0,0,0,0,0,0],"id":23,"left_children":[1,3,5,7,9,11,13,-1,-1,-1,-1,-1,-1,-1,-1],"loss_changes":[1.9688403E5,8.087779E4,7.705655E4,4.245467E4,1.1889141E4,1.6063141E4,4.5740586E4,0E0,0E0,0E0,0E0,0E0,0E0,0E0,0E0],"parents":[2147483647,0,0,1,1,2,2,3,3,4,4,5,5,6,6],"right_children":[2,4,6,8,10,12,14,-1,-1,-1,-1,-1,-1,-1,-1],"split_conditions":[3.893912E-1,2.4079669E-1,-6.9462955E-1,2.8029857E-2,3.324589E-1,9.598793E-3,3.8237523E-3,4.9455028E0,-3.3522597E-1,-2.0041707E0,-6.605332E-1,2.6212413E0,-1.5927004E-2,5.2928996E0,3.7317294E-1],"split_indices":[1145,601,4101,121,2048,3769,3662,0,0,0,0,0,0,0,0],"split_type":[0,0,0,0,0,0,0,0,0,0,0,0,0,0,0],"sum_hessian":[2.055E3,1.116E3,9.39E2,7.02E2,4.14E2,2.18E2,7.21E2,1.2E1,6.9E2,3.53E2,6.1E1,1.98E2,2E1,1.5E1,7.06E2],"tree_param":{"num_deleted":"0","num_feature":"4105","num_nodes":"15","size_leaf_vector":"1"}},{"base_weights":[-4.0793574E-1,-1.1435853E1,7.3037496E0,-1.331752E0,-1.7666176E1,3.7518458E0,2.9059414E1,1.5957215E0,-4.5918587E-1,-1.9513165E0,-8.749538E-1,4.322399E-1,-2.2061706E0,5.3299236E0,2.1913502E0],"categories":[],"categories_nodes":[],"categories_segments":[],"categories_sizes":[],"default_left":[0,0,0,0,0,0,0,0,0,0,0,0,0,0,0],"id":24,"left_children":[1,3,5,7,9,11,13,-1,-1,-1,-1,-1,-1,-1,-1],"loss_changes":[1.7011958E5,5.181629E4,9.09447E4,2.3362062E4,1.7174328E4,3.2514742E4,2.2032656E4,0E0,0E0,0E0,0E0,0E0,0E0,0E0,0E0],"parents":[2147483647,0,0,1,1,2,2,3,3,4,4,5,5,6,6],"right_children":[2,4,6,8,10,12,14,-1,-1,-1,-1,-1,-1,-1,-1],"split_conditions":[7.2537646E-2,1.6767025E-1,6.5108234E-1,1.6168686E-2,8.6986795E-2,4.388255E-1,1.8478705E-2,1.5957215E0,-4.5918587E-1,-1.9513165E0,-8.749538E-1,4.322399E-1,-2.2061706E0,5.3299236E0,2.1913502E0],"split_indices":[2722,601,294,2259,4024,2305,2230,0,0,0,0,0,0,0,0],"split_type":[0,0,0,0,0,0,0,0,0,0,0,0,0,0,0],"sum_hessian":[2E3,8.23E2,1.177E3,3.14E2,5.09E2,1.012E3,1.65E2,5.2E1,2.62E2,3.27E2,1.82E2,9.74E2,3.8E1,2E1,1.45E2],"tree_param":{"num_deleted":"0","num_feature":"4105","num_nodes":"15","size_leaf_vector":"1"}},{"base_weights":[1.4303187E-1,-7.801556E0,8.820071E0,-1.5909513E1,8.7577444E-1,2.3811724E1,4.1138964E0,-1.5734717E0,3.3628783E0,-5.5174842E-2,3.3356507E0,4.118875E-1,2.3530736E0,6.873218E-1,-2.412932E-1],"categories":[],"categories_nodes":[],"categories_segments":[],"categories_sizes":[],"default_left":[0,0,0,0,0,0,0,0,0,0,0,0,0,0,0],"id":25,"left_children":[1,3,5,7,9,11,13,-1,-1,-1,-1,-1,-1,-1,-1],"loss_changes":[1.4079233E5,7.501519E4,6.885418E4,5.443339E4,2.8350283E4,1.2124328E4,1.8468492E4,0E0,0E0,0E0,0E0,0E0,0E0,0E0,0E0],"parents":[2147483647,0,0,1,1,2,2,3,3,4,4,5,5,6,6],"right_children":[2,4,6,8,10,12,14,-1,-1,-1,-1,-1,-1,-1,-1],"split_conditions":[4.9439654E-2,5.2173972E-2,-2.9297597E0,4.512763E-2,1.9293557E-1,1.15274586E-1,2.9646003E-1,-1.5734717E0,3.3628783E0,-5.5174842E-2,3.3356507E0,4.118875E-1,2.3530736E0,6.873218E-1,-2.412932E-1],"split_indices":[3736,3967,4103,3040,2934,2190,734,0,0,0,0,0,0,0,0],"split_type":[0,0,0,0,0,0,0,0,0,0,0,0,0,0,0],"sum_hessian":[2.042E3,1.066E3,9.76E2,5.51E2,5.15E2,2.33E2,7.43E2,5.33E2,1.8E1,4.95E2,2E1,2.9E1,2.04E2,4.85E2,2.58E2],"tree_param":{"num_deleted":"0","num_feature":"4105","num_nodes":"15","size_leaf_vector":"1"}},{"base_weights":[2.9046825E-1,-6.881952E0,8.610216E0,-1.3453519E0,-1.6442501E1,3.9196486E0,1.9655296E1,-2.3633982E-1,3.447458E0,-1.6100217E0,4.6170425E-2,4.1212338E-1,-3.4387388E0,1.874951E-2,2.168419E0],"categories":[],"categories_nodes":[],"categories_segments":[],"categories_sizes":[],"default_left":[0,0,0,0,0,0,0,0,0,0,0,0,0,0,0],"id":26,"left_children":[1,3,5,7,9,11,13,-1,-1,-1,-1,-1,-1,-1,-1],"loss_changes":[1.2247093E5,5.8337465E4,4.9211938E4,3.705886E4,1.1723906E4,2.0734465E4,2.6387117E4,0E0,0E0,0E0,0E0,0E0,0E0,0E0,0E0],"parents":[2147483647,0,0,1,1,2,2,3,3,4,4,5,5,6,6],"right_children":[2,4,6,8,10,12,14,-1,-1,-1,-1,-1,-1,-1,-1],"split_conditions":[3.893912E-1,7.40681E-2,4.008663E-1,1.09637275E-1,1.473751E-1,3.4127325E-1,2.2722661E-2,-2.3633982E-1,3.447458E0,-1.6100217E0,4.6170425E-2,4.1212338E-1,-3.4387388E0,1.874951E-2,2.168419E0],"split_indices":[1145,1432,294,312,3088,3315,3639,0,0,0,0,0,0,0,0],"split_type":[0,0,0,0,0,0,0,0,0,0,0,0,0,0,0],"sum_hessian":[2.052E3,1.102E3,9.5E2,6.98E2,4.04E2,6.67E2,2.83E2,6.76E2,2.2E1,3.67E2,3.7E1,6.56E2,1.1E1,5.6E1,2.27E2],"tree_param":{"num_deleted":"0","num_feature":"4105","num_nodes":"15","size_leaf_vector":"1"}},{"base_weights":[-1.1926482E-1,-6.9155655E0,7.1530275E0,-1.3999518E1,-4.7064433E-1,2.5441222E0,1.8864464E1,-1.4365364E0,1.9354738E-1,5.9641665E-1,-2.4650447E-1,4.45668E-1,-1.8373114E0,1.4760708E0,6.352275E0],"categories":[],"categories_nodes":[],"categories_segments":[],"categories_sizes":[],"default_left":[0,0,0,0,0,0,0,0,0,0,0,0,0,0,0],"id":27,"left_children":[1,3,5,7,9,11,13,-1,-1,-1,-1,-1,-1,-1,-1],"loss_changes":[1.007956E5,4.8127938E4,5.3167832E4,1.7857602E4,9.175237E3,4.082019E4,3.2390062E4,0E0,0E0,0E0,0E0,0E0,0E0,0E0,0E0],"parents":[2147483647,0,0,1,1,2,2,3,3,4,4,5,5,6,6],"right_children":[2,4,6,8,10,12,14,-1,-1,-1,-1,-1,-1,-1,-1],"split_conditions":[2.201811E-1,1.2093565E-1,4.008663E-1,1.0592947E0,-2.8197153E0,1.966917E-1,4.0828865E-2,-1.4365364E0,1.9354738E-1,5.9641665E-1,-2.4650447E-1,4.45668E-1,-1.8373114E0,1.4760708E0,6.352275E0],"split_indices":[1755,1240,294,738,4103,3562,4075,0,0,0,0,0,0,0,0],"split_type":[0,0,0,0,0,0,0,0,0,0,0,0,0,0,0],"sum_hessian":[2.039E3,1.054E3,9.85E2,5.02E2,5.52E2,7.07E2,2.78E2,4.42E2,6E1,1.34E2,4.18E2,6.39E2,6.8E1,2.67E2,1.1E1],"tree_param":{"num_deleted":"0","num_feature":"4105","num_nodes":"15","size_leaf_vector":"1"}},{"base_weights":[-3.1096846E-2,-5.911424E0,6.92389E0,-1.4560947E1,-1.7008727E0,1.779245E1,3.4918878E0,-1.4657259E0,1.847411E-1,2.8032422E0,-2.2103779E-1,1.7112478E0,-1.4395802E-1,3.8949874E-1,-2.897075E0],"categories":[],"categories_nodes":[],"categories_segments":[],"categories_sizes":[],"default_left":[0,0,0,0,0,0,0,0,0,0,0,0,0,0,0],"id":28,"left_children":[1,3,5,7,9,11,13,-1,-1,-1,-1,-1,-1,-1,-1],"loss_changes":[8.3037555E4,4.006298E4,3.468463E4,1.1782805E4,1.9519564E4,6.510453E3,2.3025082E4,0E0,0E0,0E0,0E0,0E0,0E0,0E0,0E0],"parents":[2147483647,0,0,1,1,2,2,3,3,4,4,5,5,6,6],"right_children":[2,4,6,8,10,12,14,-1,-1,-1,-1,-1,-1,-1,-1],"split_conditions":[3.9852452E-1,2.129695E-1,-6.9462955E-1,7.333822E-2,8.172191E-2,6.6986516E-2,1.13256395E-1,-1.4657259E0,1.847411E-1,2.8032422E0,-2.2103779E-1,1.7112478E0,-1.4395802E-1,3.8949874E-1,-2.897075E0],"split_indices":[1145,933,4101,3517,1158,3104,3296,0,0,0,0,0,0,0,0],"split_type":[0,0,0,0,0,0,0,0,0,0,0,0,0,0,0],"sum_hessian":[2.03E3,1.1E3,9.3E2,3.6E2,7.4E2,2.23E2,7.07E2,3.22E2,3.8E1,1.7E1,7.23E2,2.07E2,1.6E1,6.9E2,1.7E1],"tree_param":{"num_deleted":"0","num_feature":"4105","num_nodes":"15","size_leaf_vector":"1"}},{"base_weights":[1.6400553E-1,-5.504718E0,6.5135365E0,-6.352331E0,4.1909092E1,1.8193201E1,3.4727871E0,-1.1226579E0,-3.9926437E-3,4.421538E0,3.0128236E0,4.1611586E0,1.4334979E0,-1.7186627E-1,5.641264E-1],"categories":[],"categories_nodes":[],"categories_segments":[],"categories_sizes":[],"default_left":[0,0,0,0,0,0,0,0,0,0,0,0,0,0,0],"id":29,"left_children":[1,3,5,7,9,11,13,-1,-1,-1,-1,-1,-1,-1,-1],"loss_changes":[7.434066E4,4.3902695E4,3.458578E4,4.263819E4,8.8825E2,1.1592953E4,1.20815205E4,0E0,0E0,0E0,0E0,0E0,0E0,0E0,0E0],"parents":[2147483647,0,0,1,1,2,2,3,3,4,4,5,5,6,6],"right_children":[2,4,6,8,10,12,14,-1,-1,-1,-1,-1,-1,-1,-1],"split_conditions":[5.285906E-2,2.3544051E-1,-2.9480875E0,5.2173972E-2,3.813604E-2,6.516659E-3,2.3856583E-1,-1.1226579E0,-3.9926437E-3,4.421538E0,3.0128236E0,4.1611586E0,1.4334979E0,-1.7186627E-1,5.641264E-1],"split_indices":[3736,2570,4103,3967,315,1193,1755,0,0,0,0,0,0,0,0],"split_type":[0,0,0,0,0,0,0,0,0,0,0,0,0,0,0],"sum_hessian":[2.065E3,1.091E3,9.74E2,1.072E3,1.9E1,2.01E2,7.73E2,5.36E2,5.36E2,9E0,1E1,1.3E1,1.88E2,2.69E2,5.04E2],"tree_param":{"num_deleted":"0","num_feature":"4105","num_nodes":"15","size_leaf_vector":"1"}},{"base_weights":[-7.2285696E-3,-2.9176674E0,9.720232E0,-9.156549E0,1.9560237E0,1.6525095E1,1.9840081E0,-1.367258E0,-2.8473464E-1,5.4338014E-1,-1.6147667E-1,4.4965897E0,1.3100933E0,3.9708292E-1,-3.542675E-1],"categories":[],"categories_nodes":[],"categories_segments":[],"categories_sizes":[],"default_left":[0,0,0,0,0,0,0,0,0,0,0,0,0,0,0],"id":30,"left_children":[1,3,5,7,9,11,13,-1,-1,-1,-1,-1,-1,-1,-1],"loss_changes":[5.8048445E4,4.7990586E4,2.4851219E4,2.5750207E4,1.3959225E4,1.4916711E4,3.2997534E3,0E0,0E0,0E0,0E0,0E0,0E0,0E0,0E0],"parents":[2147483647,0,0,1,1,2,2,3,3,4,4,5,5,6,6],"right_children":[2,4,6,8,10,12,14,-1,-1,-1,-1,-1,-1,-1,-1],"split_conditions":[1.2703089E-2,1.18865E4,2.7680728E-1,6.1950944E-2,4.380318E-1,1.1497459E-2,-2.1881502E0,-1.367258E0,-2.8473464E-1,5.4338014E-1,-1.6147667E-1,4.4965897E0,1.3100933E0,3.9708292E-1,-3.542675E-1],"split_indices":[2638,4096,3251,4024,734,1726,4102,0,0,0,0,0,0,0,0],"split_type":[0,0,0,0,0,0,0,0,0,0,0,0,0,0,0],"sum_hessian":[2.05E3,1.578E3,4.72E2,6.92E2,8.86E2,2.51E2,2.21E2,3.37E2,3.55E2,4.21E2,4.65E2,1.2E1,2.39E2,1.56E2,6.5E1],"tree_param":{"num_deleted":"0","num_feature":"4105","num_nodes":"15","size_leaf_vector":"1"}},{"base_weights":[1.12378806E-1,-2.6269622E0,9.017127E0,-8.333243E0,1.7436608E0,2.2556782E0,1.5249733E1,-1.2536349E0,-2.2879818E-1,4.9779415E-1,-1.5914212E-1,3.993076E-1,-3.7984192E-1,1.1610333E0,3.276415E0],"categories":[],"categories_nodes":[],"categories_segments":[],"categories_sizes":[],"default_left":[0,0,0,0,0,0,0,0,0,0,0,0,0,0,0],"id":31,"left_children":[1,3,5,7,9,11,13,-1,-1,-1,-1,-1,-1,-1,-1],"loss_changes":[4.9063848E4,3.836534E4,1.993393E4,2.2260766E4,1.1926032E4,3.3403096E3,1.1439965E4,0E0,0E0,0E0,0E0,0E0,0E0,0E0,0E0],"parents":[2147483647,0,0,1,1,2,2,3,3,4,4,5,5,6,6],"right_children":[2,4,6,8,10,12,14,-1,-1,-1,-1,-1,-1,-1,-1],"split_conditions":[1.2703089E-2,1.18865E4,3.9463076E-1,6.1950944E-2,4.380318E-1,3.8245577E-1,1.594281E-2,-1.2536349E0,-2.2879818E-1,4.9779415E-1,-1.5914212E-1,3.993076E-1,-3.7984192E-1,1.1610333E0,3.276415E0],"split_indices":[2638,4096,294,4024,734,3313,2204,0,0,0,0,0,0,0,0],"split_type":[0,0,0,0,0,0,0,0,0,0,0,0,0,0,0],"sum_hessian":[2.011E3,1.538E3,4.73E2,6.67E2,8.71E2,2.27E2,2.46E2,3.32E2,3.35E2,4.16E2,4.55E2,1.69E2,5.8E1,2.24E2,2.2E1],"tree_param":{"num_deleted":"0","num_feature":"4105","num_nodes":"15","size_leaf_vector":"1"}},{"base_weights":[-9.598846E-2,-5.244749E0,4.318691E0,-6.421598E0,2.7094343E1,1.2728825E1,1.8200912E0,-6.933071E-1,8.2816625E-1,3.410059E0,1.537265E0,1.0226E0,3.403241E0,-1.38936E0,2.1073736E-1],"categories":[],"categories_nodes":[],"categories_segments":[],"categories_sizes":[],"default_left":[0,0,0,0,0,0,0,0,0,0,0,0,0,0,0],"id":32,"left_children":[1,3,5,7,9,11,13,-1,-1,-1,-1,-1,-1,-1,-1],"loss_changes":[4.64917E4,3.5966484E4,2.3135152E4,2.004575E4,3.550963E3,7.6719727E3,8.25983E3,0E0,0E0,0E0,0E0,0E0,0E0,0E0,0E0],"parents":[2147483647,0,0,1,1,2,2,3,3,4,4,5,5,6,6],"right_children":[2,4,6,8,10,12,14,-1,-1,-1,-1,-1,-1,-1,-1],"split_conditions":[3.459335E-2,1.9240545E-1,-2.8970315E0,5.144854E-2,3.568245E-1,2.9136306E-1,5.498597E-3,-6.933071E-1,8.2816625E-1,3.410059E0,1.537265E0,1.0226E0,3.403241E0,-1.38936E0,2.1073736E-1],"split_indices":[3736,3225,4103,3017,988,1735,2232,0,0,0,0,0,0,0,0],"split_type":[0,0,0,0,0,0,0,0,0,0,0,0,0,0,0],"sum_hessian":[2.045E3,9.44E2,1.101E3,9.11E2,3.3E1,2.52E2,8.49E2,8.37E2,7.4E1,1.5E1,1.8E1,2.41E2,1.1E1,2.6E1,8.23E2],"tree_param":{"num_deleted":"0","num_feature":"4105","num_nodes":"15","size_leaf_vector":"1"}},{"base_weights":[3.9654724E-2,-6.766961E0,2.8848789E0,-1.0331646E1,7.4889386E-1,1.0161663E1,2.9001558E-1,-7.5868654E-1,-1.9525605E0,-5.470468E-2,6.801935E-1,1.3302542E0,1.1566708E-2,-1.4235438E0,1.1673484E-1],"categories":[],"categories_nodes":[],"categories_segments":[],"categories_sizes":[],"default_left":[0,0,0,0,0,0,0,0,0,0,0,0,0,0,0],"id":33,"left_children":[1,3,5,7,9,11,13,-1,-1,-1,-1,-1,-1,-1,-1],"loss_changes":[3.9824457E4,1.62425E4,2.7382023E4,8.503961E3,1.8456553E3,1.8492055E4,1.7929941E4,0E0,0E0,0E0,0E0,0E0,0E0,0E0,0E0],"parents":[2147483647,0,0,1,1,2,2,3,3,4,4,5,5,6,6],"right_children":[2,4,6,8,10,12,14,-1,-1,-1,-1,-1,-1,-1,-1],"split_conditions":[1.065551E-3,5.0537966E-2,9.679861E-2,2.8015748E-2,3.655846E-1,5.4014914E-2,2.2767908E-4,-7.5868654E-1,-1.9525605E0,-5.470468E-2,6.801935E-1,1.3302542E0,1.1566708E-2,-1.4235438E0,1.1673484E-1],"split_indices":[2803,2879,2665,2679,660,2374,4051,0,0,0,0,0,0,0,0],"split_type":[0,0,0,0,0,0,0,0,0,0,0,0,0,0,0],"sum_hessian":[2.056E3,6.06E2,1.45E3,4.11E2,1.95E2,3.81E2,1.069E3,3.57E2,5.4E1,1.63E2,3.2E1,2.57E2,1.24E2,6.3E1,1.006E3],"tree_param":{"num_deleted":"0","num_feature":"4105","num_nodes":"15","size_leaf_vector":"1"}},{"base_weights":[6.485655E-2,-3.7268577E0,4.3987164E0,-7.9656987E0,7.11258E-1,1.0802067E1,2.267891E0,-7.882232E-1,1.8828452E0,1.1857448E0,-6.336201E-2,1.8515033E0,7.0189714E-1,3.9205825E-1,-1.3793677E-1],"categories":[],"categories_nodes":[],"categories_segments":[],"categories_sizes":[],"default_left":[0,0,0,0,0,0,0,0,0,0,0,0,0,0,0],"id":34,"left_children":[1,3,5,7,9,11,13,-1,-1,-1,-1,-1,-1,-1,-1],"loss_changes":[3.3742668E4,2.0604457E4,1.306898E4,1.5098895E4,9.659466E3,6.927369E3,5.9192656E3,0E0,0E0,0E0,0E0,0E0,0E0,0E0,0E0],"parents":[2147483647,0,0,1,1,2,2,3,3,4,4,5,5,6,6],"right_children":[2,4,6,8,10,12,14,-1,-1,-1,-1,-1,-1,-1,-1],"split_conditions":[5.285906E-2,5.2173972E-2,-2.9150412E0,4.512763E-2,4.464517E-3,3.6988772E-2,3.0213305E-1,-7.882232E-1,1.8828452E0,1.1857448E0,-6.336201E-2,1.8515033E0,7.0189714E-1,3.9205825E-1,-1.3793677E-1],"split_indices":[3736,3967,4103,3040,2144,1193,734,0,0,0,0,0,0,0,0],"split_type":[0,0,0,0,0,0,0,0,0,0,0,0,0,0,0],"sum_hessian":[2.053E3,1.095E3,9.58E2,5.6E2,5.35E2,2.39E2,7.19E2,5.43E2,1.7E1,5.4E1,4.81E2,5.3E1,1.86E2,4.6E2,2.59E2],"tree_param":{"num_deleted":"0","num_feature":"4105","num_nodes":"15","size_leaf_vector":"1"}},{"base_weights":[-4.223921E-2,3.8997426E0,-3.4262693E0,4.5397544E0,-1.6367018E1,-8.3248825E0,7.302808E-2,1.2481383E0,2.711781E-1,-1.8972663E0,-1.1624E0,-1.7483692E0,-5.480875E-1,1.6507692E0,-4.3748096E-2],"categories":[],"categories_nodes":[],"categories_segments":[],"categories_sizes":[],"default_left":[0,0,0,0,0,0,0,0,0,0,0,0,0,0,0],"id":35,"left_children":[1,3,5,7,9,11,13,-1,-1,-1,-1,-1,-1,-1,-1],"loss_changes":[2.7498326E4,1.2364545E4,1.9013709E4,1.3036492E4,4.2445557E2,1.1267986E4,6.79618E3,0E0,0E0,0E0,0E0,0E0,0E0,0E0,0E0],"parents":[2147483647,0,0,1,1,2,2,3,3,4,4,5,5,6,6],"right_children":[2,4,6,8,10,12,14,-1,-1,-1,-1,-1,-1,-1,-1],"split_conditions":[2.507093E-1,1.0822039E-1,1.2445168E-1,3.1873416E-2,6.1651666E-2,1.0532556E-2,2.9375326E-2,1.2481383E0,2.711781E-1,-1.8972663E0,-1.1624E0,-1.7483692E0,-5.480875E-1,1.6507692E0,-4.3748096E-2],"split_indices":[1949,3296,1240,2144,1265,3981,283,0,0,0,0,0,0,0,0],"split_type":[0,0,0,0,0,0,0,0,0,0,0,0,0,0,0],"sum_hessian":[2.061E3,9.52E2,1.109E3,9.23E2,2.9E1,4.62E2,6.47E2,1.24E2,7.99E2,1.1E1,1.8E1,7.3E1,3.89E2,1.9E1,6.28E2],"tree_param":{"num_deleted":"0","num_feature":"4105","num_nodes":"15","size_leaf_vector":"1"}},{"base_weights":[-6.342017E-2,4.3032E0,-3.28937E-1,-4.8360596E0,2.283134E0,-5.530339E-1,6.5595806E-1,5.168603E-1,-6.604277E-2],"categories":[],"categories_nodes":[],"categories_segments":[],"categories_sizes":[],"default_left":[0,0,0,0,0,0,0,0,0],"id":36,"left_children":[1,-1,3,5,7,-1,-1,-1,-1],"loss_changes":[2.654981E4,0E0,2.4103545E4,1.2863979E4,1.3910148E4,0E0,0E0,0E0,0E0],"parents":[2147483647,0,0,2,2,3,3,4,4],"right_children":[2,-1,4,6,8,-1,-1,-1,-1],"split_conditions":[2.638634E-2,4.3032E0,9.847692E-2,5.022407E-2,-2.3421E0,-5.530339E-1,6.5595806E-1,5.168603E-1,-6.604277E-2],"split_indices":[3192,0,2319,3017,4102,0,0,0,0],"split_type":[0,0,0,0,0,0,0,0,0],"sum_hessian":[2.058E3,1.1E1,2.047E3,7.51E2,1.296E3,6.74E2,7.7E1,5.97E2,6.99E2],"tree_param":{"num_deleted":"0","num_feature":"4105","num_nodes":"9","size_leaf_vector":"1"}},{"base_weights":[9.561895E-2,-4.7729893E0,2.0669482E0,-6.9885526E0,1.9807901E0,3.7799428E0,1.8081192E0,8.878146E-1,-6.916809E-1,1.182288E-1,9.3460387E-1,-1.1051583E0,2.1837622E-1],"categories":[],"categories_nodes":[],"categories_segments":[],"categories_sizes":[],"default_left":[0,0,0,0,0,0,0,0,0,0,0,0,0],"id":37,"left_children":[1,3,5,7,9,-1,11,-1,-1,-1,-1,-1,-1],"loss_changes":[1.9553979E4,8.789096E3,1.5204759E4,6.101297E3,8.018334E2,0E0,1.3452914E4,0E0,0E0,0E0,0E0,0E0,0E0],"parents":[2147483647,0,0,1,1,2,2,3,3,4,4,6,6],"right_children":[2,4,6,8,10,-1,12,-1,-1,-1,-1,-1,-1],"split_conditions":[4.6418638E-5,5.629919E-3,2.638634E-2,1.9594382E-3,4.6991006E-1,3.7799428E0,2.8173095E-3,8.878146E-1,-6.916809E-1,1.182288E-1,9.3460387E-1,-1.1051583E0,2.1837622E-1],"split_indices":[3733,2879,3192,3766,664,0,3016,0,0,0,0,0,0],"split_type":[0,0,0,0,0,0,0,0,0,0,0,0,0],"sum_hessian":[2.037E3,5.87E2,1.45E3,4.42E2,1.45E2,9E0,1.441E3,2E1,4.22E2,1.35E2,1E1,6.3E1,1.378E3],"tree_param":{"num_deleted":"0","num_feature":"4105","num_nodes":"13","size_leaf_vector":"1"}},{"base_weights":[3.7483966E-3,-3.0796144E0,3.1839452E0,-7.428736E-1,-7.920754E0,3.4011824E0,2.757792E0,-1.2697363E-1,9.003508E-1,-4.9198458E-1,-1.4241712E0,3.2634637E-1,-9.3749225E-1],"categories":[],"categories_nodes":[],"categories_segments":[],"categories_sizes":[],"default_left":[0,0,0,0,0,0,0,0,0,0,0,0,0],"id":38,"left_children":[1,3,5,7,9,-1,11,-1,-1,-1,-1,-1,-1],"loss_changes":[2.0301506E4,1.189023E4,1.5251173E4,5.323167E3,6.5916777E3,0E0,1.2377934E4,0E0,0E0,0E0,0E0,0E0,0E0],"parents":[2147483647,0,0,1,1,2,2,3,3,4,4,6,6],"right_children":[2,4,6,8,10,-1,12,-1,-1,-1,-1,-1,-1],"split_conditions":[2.1581545E-1,4.734919E-1,3.5110306E-2,4.4519924E-2,3.4965824E-2,3.4011824E0,1.966917E-1,-1.2697363E-1,9.003508E-1,-4.9198458E-1,-1.4241712E0,3.2634637E-1,-9.3749225E-1],"split_indices":[1755,1808,3126,4078,2196,0,3562,0,0,0,0,0,0],"split_type":[0,0,0,0,0,0,0,0,0,0,0,0,0],"sum_hessian":[2.07E3,1.051E3,1.019E3,7.09E2,3.42E2,1.2E1,1.007E3,6.67E2,4.2E1,2.65E2,7.7E1,9.42E2,6.5E1],"tree_param":{"num_deleted":"0","num_feature":"4105","num_nodes":"13","size_leaf_vector":"1"}},{"base_weights":[-4.659854E-2,-2.6293664E0,2.988597E0,-3.0697331E0,2.2207521E1,2.3311362E0,2.6038833E0,-6.8881583E-1,-1.1139972E-1,2.4076345E0,1.5380591E0,7.253997E-1,1.0651373E-1],"categories":[],"categories_nodes":[],"categories_segments":[],"categories_sizes":[],"default_left":[0,0,0,0,0,0,0,0,0,0,0,0,0],"id":39,"left_children":[1,3,5,7,9,-1,11,-1,-1,-1,-1,-1,-1],"loss_changes":[1.5963576E4,1.2045527E4,8.375915E3,9.20745E3,3.710703E2,0E0,7.2026787E3,0E0,0E0,0E0,0E0,0E0,0E0],"parents":[2147483647,0,0,1,1,2,2,3,3,4,4,6,6],"right_children":[2,4,6,8,10,-1,12,-1,-1,-1,-1,-1,-1],"split_conditions":[5.285906E-2,2.3544051E-1,4.3926076E-3,2.1463204E-2,7.0124164E-2,2.3311362E0,2.0725043E-1,-6.8881583E-1,-1.1139972E-1,2.4076345E0,1.5380591E0,7.253997E-1,1.0651373E-1],"split_indices":[3736,2570,2903,3451,1554,0,3974,0,0,0,0,0,0],"split_type":[0,0,0,0,0,0,0,0,0,0,0,0,0],"sum_hessian":[2.036E3,1.1E3,9.36E2,1.081E3,1.9E1,1.5E1,9.21E2,3.01E2,7.8E2,9E0,1E1,1.85E2,7.36E2],"tree_param":{"num_deleted":"0","num_feature":"4105","num_nodes":"13","size_leaf_vector":"1"}},{"base_weights":[-4.0936407E-2,-2.2671256E0,3.1357348E0,-5.8249373E0,-5.4438796E-2,1.6511382E0,8.85394E0,-3.9551866E-1,-1.4534751E0,-8.702071E-2,3.5809115E-1,2.9632422E-1,-1.8083343E-1,1.6009159E0,4.9254075E-1],"categories":[],"categories_nodes":[],"categories_segments":[],"categories_sizes":[],"default_left":[0,0,0,0,0,0,0,0,0,0,0,0,0,0,0],"id":40,"left_children":[1,3,5,7,9,11,13,-1,-1,-1,-1,-1,-1,-1,-1],"loss_changes":[1.4591926E4,9.550406E3,7.214423E3,6.695827E3,2.8375708E3,4.2111895E3,5.2979287E3,0E0,0E0,0E0,0E0,0E0,0E0,0E0,0E0],"parents":[2147483647,0,0,1,1,2,2,3,3,4,4,5,5,6,6],"right_children":[2,4,6,8,10,12,14,-1,-1,-1,-1,-1,-1,-1,-1],"split_conditions":[1.929926E-1,2.556122E-1,6.0368156E-1,1.023189E-4,3.80099E-1,8.666265E-1,3.1918336E-3,-3.9551866E-1,-1.4534751E0,-8.702071E-2,3.5809115E-1,2.9632422E-1,-1.8083343E-1,1.6009159E0,4.9254075E-1],"split_indices":[1989,2542,803,3072,1109,740,685,0,0,0,0,0,0,0,0],"split_type":[0,0,0,0,0,0,0,0,0,0,0,0,0,0,0],"sum_hessian":[2.063E3,1.213E3,8.5E2,4.65E2,7.48E2,6.75E2,1.75E2,4.12E2,5.3E1,6.1E2,1.38E2,4.63E2,2.12E2,4.6E1,1.29E2],"tree_param":{"num_deleted":"0","num_feature":"4105","num_nodes":"15","size_leaf_vector":"1"}},{"base_weights":[8.441932E-2,2.6528394E0,-2.156216E0,2.0333612E0,1.4498433E1,-5.18673E0,1.1143348E-1,-9.604981E-1,2.197573E-1,2.5691736E0,8.3450305E-1,-1.2529324E0,-3.2403818E-1,-2.4287356E-2,1.5908554E0],"categories":[],"categories_nodes":[],"categories_segments":[],"categories_sizes":[],"default_left":[0,0,0,0,0,0,0,0,0,0,0,0,0,0,0],"id":41,"left_children":[1,3,5,7,9,11,13,-1,-1,-1,-1,-1,-1,-1,-1],"loss_changes":[1.1736405E4,6.966585E3,7.485298E3,5.166207E3,3.4224707E3,6.3800693E3,4.2808804E3,0E0,0E0,0E0,0E0,0E0,0E0,0E0,0E0],"parents":[2147483647,0,0,1,1,2,2,3,3,4,4,5,5,6,6],"right_children":[2,4,6,8,10,12,14,-1,-1,-1,-1,-1,-1,-1,-1],"split_conditions":[2.507093E-1,3.0137566E-1,1.3726446E-1,3.8175E3,2.67494E-1,1.0532556E-2,7.209549E-1,-9.604981E-1,2.197573E-1,2.5691736E0,8.3450305E-1,-1.2529324E0,-3.2403818E-1,-2.4287356E-2,1.5908554E0],"split_indices":[1949,1360,1240,4096,1953,3981,419,0,0,0,0,0,0,0,0],"split_type":[0,0,0,0,0,0,0,0,0,0,0,0,0,0,0],"sum_hessian":[2.039E3,9.5E2,1.089E3,9.03E2,4.7E1,4.66E2,6.23E2,3E1,8.73E2,1.2E1,3.5E1,6.8E1,3.98E2,6.1E2,1.3E1],"tree_param":{"num_deleted":"0","num_feature":"4105","num_nodes":"15","size_leaf_vector":"1"}},{"base_weights":[9.978447E-2,-1.6664586E0,3.0928051E0,-1.9182242E0,1.7257241E0,2.734288E0,2.8680186E0,-4.5099515E-2,-4.3992192E-1,2.974256E-1,-7.3017395E-1],"categories":[],"categories_nodes":[],"categories_segments":[],"categories_sizes":[],"default_left":[0,0,0,0,0,0,0,0,0,0,0],"id":42,"left_children":[1,3,5,7,-1,9,-1,-1,-1,-1,-1],"loss_changes":[1.082856E4,6.8572754E3,7.952212E3,5.458797E3,0E0,5.1046157E3,0E0,0E0,0E0,0E0,0E0],"parents":[2147483647,0,0,1,1,2,2,3,3,5,5],"right_children":[2,4,6,8,-1,10,-1,-1,-1,-1,-1],"split_conditions":[5.201946E-1,4.5476395E-1,7.800798E-1,4.734919E-1,1.7257241E0,7.1872836E-1,2.8680186E0,-4.5099515E-2,-4.3992192E-1,2.974256E-1,-7.3017395E-1],"split_indices":[1755,300,802,1808,0,3959,0,0,0,0,0],"split_type":[0,0,0,0,0,0,0,0,0,0,0],"sum_hessian":[2.048E3,1.288E3,7.6E2,1.273E3,1.5E1,7.51E2,9E0,8.7E2,4.03E2,7.11E2,4E1],"tree_param":{"num_deleted":"0","num_feature":"4105","num_nodes":"11","size_leaf_vector":"1"}},{"base_weights":[-3.033305E-2,2.796172E0,-1.8777922E-1,-4.2719884E0,9.670308E-1,-5.415757E-1,1.555611E-1,3.035381E-1,-9.589132E-2],"categories":[],"categories_nodes":[],"categories_segments":[],"categories_sizes":[],"default_left":[0,0,0,0,0,0,0,0,0],"id":43,"left_children":[1,-1,3,5,7,-1,-1,-1,-1],"loss_changes":[1.0196257E4,0E0,9.632818E3,4.9773174E3,8.007276E3,0E0,0E0,0E0,0E0],"parents":[2147483647,0,0,2,2,3,3,4,4],"right_children":[2,-1,4,6,8,-1,-1,-1,-1],"split_conditions":[2.638634E-2,2.796172E0,1.43505E-2,4.4015042E-2,5.16763E-3,-5.415757E-1,1.555611E-1,3.035381E-1,-9.589132E-2],"split_indices":[3192,0,3321,3892,3420,0,0,0,0],"split_type":[0,0,0,0,0,0,0,0,0],"sum_hessian":[2.052E3,1E1,2.042E3,4.5E2,1.592E3,3.45E2,1.05E2,7.24E2,8.68E2],"tree_param":{"num_deleted":"0","num_feature":"4105","num_nodes":"9","size_leaf_vector":"1"}},{"base_weights":[3.5301067E-2,-3.1644692E0,1.3385154E0,-2.0572636E0,-9.880818E0,3.9875996E-1,7.930214E0,2.5339255E-2,-3.4280455E-1,-5.1507956E-1,-1.2251594E0,6.810883E-2,-1.2180725E0,2.0435262E0,5.6139195E-1],"categories":[],"categories_nodes":[],"categories_segments":[],"categories_sizes":[],"default_left":[0,0,0,0,0,0,0,0,0,0,0,0,0,0,0],"id":44,"left_children":[1,3,5,7,9,11,13,-1,-1,-1,-1,-1,-1,-1,-1],"loss_changes":[8.474954E3,4.3698555E3,8.945344E3,2.1399182E3,1.3168848E3,6.5963096E3,4.330048E3,0E0,0E0,0E0,0E0,0E0,0E0,0E0,0E0],"parents":[2147483647,0,0,1,1,2,2,3,3,4,4,5,5,6,6],"right_children":[2,4,6,8,10,12,14,-1,-1,-1,-1,-1,-1,-1,-1],"split_conditions":[1.065551E-3,1.4878717E-1,3.5895744E-1,3.117476E-1,2.8542036E-4,5.015733E-1,1.2427589E-1,2.5339255E-2,-3.4280455E-1,-5.1507956E-1,-1.2251594E0,6.810883E-2,-1.2180725E0,2.0435262E0,5.6139195E-1],"split_indices":[2803,2836,3025,2334,300,3513,935,0,0,0,0,0,0,0,0],"split_type":[0,0,0,0,0,0,0,0,0,0,0,0,0,0,0],"sum_hessian":[2.032E3,5.88E2,1.444E3,5.05E2,8.3E1,1.264E3,1.8E2,2.2E2,2.85E2,4.1E1,4.2E1,1.232E3,3.2E1,1.7E1,1.63E2],"tree_param":{"num_deleted":"0","num_feature":"4105","num_nodes":"15","size_leaf_vector":"1"}},{"base_weights":[-1.4803191E-2,5.256823E0,-7.854626E-1,1.8678981E0,4.5544543E0,-2.897142E0,7.791884E-1,1.7866181E-1,6.034925E-1,-3.1107748E-1,1.0695398E0,2.1382736E-1,-9.2750676E-2],"categories":[],"categories_nodes":[],"categories_segments":[],"categories_sizes":[],"default_left":[0,0,0,0,0,0,0,0,0,0,0,0,0],"id":45,"left_children":[1,3,5,-1,7,9,11,-1,-1,-1,-1,-1,-1],"loss_changes":[8.415137E3,2.9135635E3,5.971506E3,0E0,1.4439854E3,7.0260522E3,3.091728E3,0E0,0E0,0E0,0E0,0E0,0E0],"parents":[2147483647,0,0,1,1,2,2,4,4,5,5,6,6],"right_children":[2,4,6,-1,8,10,12,-1,-1,-1,-1,-1,-1],"split_conditions":[-6.862075E-1,6.2247086E-4,1.18865E4,1.8678981E0,2.6587865E-1,1.8600915E-1,6.04898E-1,1.7866181E-1,6.034925E-1,-3.1107748E-1,1.0695398E0,2.1382736E-1,-9.2750676E-2],"split_indices":[4101,1112,4096,0,3304,2452,734,0,0,0,0,0,0],"split_type":[0,0,0,0,0,0,0,0,0,0,0,0,0],"sum_hessian":[2.071E3,2.64E2,1.807E3,1.1E1,2.53E2,7.69E2,1.038E3,1.19E2,1.34E2,7.39E2,3E1,5.48E2,4.9E2],"tree_param":{"num_deleted":"0","num_feature":"4105","num_nodes":"13","size_leaf_vector":"1"}},{"base_weights":[9.690428E-2,2.6223235E0,-4.8689328E-2,4.745362E0,-7.683687E-1,9.9262E-1,3.318177E-1,-4.2253858E-1,8.587295E-3],"categories":[],"categories_nodes":[],"categories_segments":[],"categories_sizes":[],"default_left":[0,0,0,0,0,0,0,0,0],"id":46,"left_children":[1,-1,3,5,7,-1,-1,-1,-1],"loss_changes":[8.891551E3,0E0,7.11551E3,1.7343354E3,6.19903E3,0E0,0E0,0E0,0E0],"parents":[2147483647,0,0,2,2,3,3,4,4],"right_children":[2,-1,4,6,8,-1,-1,-1,-1],"split_conditions":[2.638634E-2,2.6223235E0,-6.862075E-1,3.1393546E-1,2.0513503E-2,9.9262E-1,3.318177E-1,-4.2253858E-1,8.587295E-3],"split_indices":[3192,0,4101,1869,3451,0,0,0,0],"split_type":[0,0,0,0,0,0,0,0,0],"sum_hessian":[2.072E3,1E1,2.062E3,2.69E2,1.793E3,3.6E1,2.33E2,3.19E2,1.474E3],"tree_param":{"num_deleted":"0","num_feature":"4105","num_nodes":"9","size_leaf_vector":"1"}},{"base_weights":[-7.3682438E-3,2.617675E0,-1.3898177E-1,-3.313803E0,7.991637E-1,-4.581346E-1,1.3105875E-1,4.773717E-1,2.8276017E-3],"categories":[],"categories_nodes":[],"categories_segments":[],"categories_sizes":[],"default_left":[0,0,0,0,0,0,0,0,0],"id":47,"left_children":[1,-1,3,5,7,-1,-1,-1,-1],"loss_changes":[8.043264E3,0E0,6.139699E3,4.172541E3,5.5951206E3,0E0,0E0,0E0,0E0],"parents":[2147483647,0,0,2,2,3,3,4,4],"right_children":[2,-1,4,6,8,-1,-1,-1,-1],"split_conditions":[2.638634E-2,2.617675E0,1.43505E-2,1.701092E-2,3.468454E-4,-4.581346E-1,1.3105875E-1,4.773717E-1,2.8276017E-3],"split_indices":[3192,0,3321,3489,3984,0,0,0,0],"split_type":[0,0,0,0,0,0,0,0,0],"sum_hessian":[2.07E3,9E0,2.061E3,4.7E2,1.591E3,3.39E2,1.31E2,2.28E2,1.363E3],"tree_param":{"num_deleted":"0","num_feature":"4105","num_nodes":"9","size_leaf_vector":"1"}},{"base_weights":[5.3993586E-2,-1.2030666E0,2.6611497E0,-1.5218837E0,7.7207355E0,2.1610608E0,2.3269124E0,-7.9201646E-2,-5.4279315E-1,4.8796967E-1,1.5099256E0,2.4420942E-1,-7.1523374E-1],"categories":[],"categories_nodes":[],"categories_segments":[],"categories_sizes":[],"default_left":[0,0,0,0,0,0,0,0,0,0,0,0,0],"id":48,"left_children":[1,3,5,7,9,-1,11,-1,-1,-1,-1,-1,-1],"loss_changes":[6.7821016E3,3.9743037E3,4.8720483E3,3.8973418E3,9.7657495E2,0E0,2.9425237E3,0E0,0E0,0E0,0E0,0E0,0E0],"parents":[2147483647,0,0,1,1,2,2,3,3,4,4,6,6],"right_children":[2,4,6,8,10,-1,12,-1,-1,-1,-1,-1,-1],"split_conditions":[6.2150943E-1,7.1310876E-3,8.6891375E-2,2.37854E-1,4.8112512E-1,2.1610608E0,1.7928123E-1,-7.9201646E-2,-5.4279315E-1,4.8796967E-1,1.5099256E0,2.4420942E-1,-7.1523374E-1],"split_indices":[1755,2103,3765,3839,1893,0,3147,0,0,0,0,0,0],"split_type":[0,0,0,0,0,0,0,0,0,0,0,0,0],"sum_hessian":[2.069E3,1.396E3,6.73E2,1.348E3,4.8E1,1E1,6.63E2,1.186E3,1.62E2,3.9E1,9E0,6.37E2,2.6E1],"tree_param":{"num_deleted":"0","num_feature":"4105","num_nodes":"13","size_leaf_vector":"1"}},{"base_weights":[-2.436346E-2,-1.6331889E-1,1.6337312E0,-1.9603795E0,1.1574947E0,-6.376775E-1,-8.817496E-2,4.3849397E-1,3.4869067E-2],"categories":[],"categories_nodes":[],"categories_segments":[],"categories_sizes":[],"default_left":[0,0,0,0,0,0,0,0,0],"id":49,"left_children":[1,3,-1,5,7,-1,-1,-1,-1],"loss_changes":[5.205774E3,4.7860386E3,0E0,4.314346E3,3.3629956E3,0E0,0E0,0E0,0E0],"parents":[2147483647,0,0,1,1,3,3,4,4],"right_children":[2,4,-1,6,8,-1,-1,-1,-1],"split_conditions":[2.813616E-1,5.831314E-1,1.6337312E0,3.605898E-2,-6.66154E-1,-6.376775E-1,-8.817496E-2,4.3849397E-1,3.4869067E-2],"split_indices":[3906,2972,0,3754,4101,0,0,0,0],"split_type":[0,0,0,0,0,0,0,0,0],"sum_hessian":[2.031E3,2.016E3,1.5E1,8.54E2,1.162E3,1.33E2,7.21E2,1.95E2,9.67E2],"tree_param":{"num_deleted":"0","num_feature":"4105","num_nodes":"9","size_leaf_vector":"1"}},{"base_weights":[-2.8762443E-2,-1.4267405E0,1.8712095E0,-6.3861656E0,-7.4961853E-1,1.4688519E0,1.5946369E0,-1.6976222E-2,-8.181861E-1,2.8053548E-2,-2.0525378E-1,1.9732992E-1,-3.681028E-1],"categories":[],"categories_nodes":[],"categories_segments":[],"categories_sizes":[],"default_left":[0,0,0,0,0,0,0,0,0,0,0,0,0],"id":50,"left_children":[1,3,5,7,9,-1,11,-1,-1,-1,-1,-1,-1],"loss_changes":[5.496505E3,4.0024487E3,3.5582751E3,2.5171885E3,1.749836E3,0E0,3.1192788E3,0E0,0E0,0E0,0E0,0E0,0E0],"parents":[2147483647,0,0,1,1,2,2,3,3,4,4,6,6],"right_children":[2,4,6,8,10,-1,12,-1,-1,-1,-1,-1,-1],"split_conditions":[1.8265969E-1,1.4738939E-3,4.046336E-2,4.7999737E-4,1.9773617E-1,1.4688519E0,-6.049808E-1,-1.6976222E-2,-8.181861E-1,2.8053548E-2,-2.0525378E-1,1.9732992E-1,-3.681028E-1],"split_indices":[1989,3186,472,3232,1762,0,4101,0,0,0,0,0,0],"split_type":[0,0,0,0,0,0,0,0,0,0,0,0,0],"sum_hessian":[2.069E3,1.192E3,8.77E2,1.43E2,1.049E3,1.6E1,8.61E2,4.5E1,9.8E1,6.24E2,4.25E2,7.76E2,8.5E1],"tree_param":{"num_deleted":"0","num_feature":"4105","num_nodes":"13","size_leaf_vector":"1"}},{"base_weights":[-2.65197E-2,-1.7609075E-1,1.5154109E1,3.034921E-2,-9.765363E0,1.7466853E0,8.2604593E-1,-2.7927765E-1,5.6235805E-2,-1.385131E0,-6.3392544E-1],"categories":[],"categories_nodes":[],"categories_segments":[],"categories_sizes":[],"default_left":[0,0,0,0,0,0,0,0,0,0,0],"id":51,"left_children":[1,3,5,7,9,-1,-1,-1,-1,-1,-1],"loss_changes":[4.698391E3,4.0568933E3,4.998584E2,3.8504485E3,6.399907E2,0E0,0E0,0E0,0E0,0E0,0E0],"parents":[2147483647,0,0,1,1,2,2,3,3,4,4],"right_children":[2,4,6,8,10,-1,-1,-1,-1,-1,-1],"split_conditions":[2.813616E-1,5.015733E-1,1.408327E-1,1.5922263E-1,3.771098E-1,1.7466853E0,8.2604593E-1,-2.7927765E-1,5.6235805E-2,-1.385131E0,-6.3392544E-1],"split_indices":[3906,3513,1883,3589,1949,0,0,0,0,0,0],"split_type":[0,0,0,0,0,0,0,0,0,0,0],"sum_hessian":[2.069E3,2.049E3,2E1,2.006E3,4.3E1,1.1E1,9E0,3.2E2,1.686E3,1.3E1,3E1],"tree_param":{"num_deleted":"0","num_feature":"4105","num_nodes":"11","size_leaf_vector":"1"}},{"base_weights":[-9.9830166E-2,-1.3019497E0,1.6887249E0,-4.9979663E0,-6.165652E-1,1.2017277E0,9.252274E0,-1.5405255E-2,-6.552384E-1,4.1596998E-2,-2.1560174E-1,4.2566213E-1,3.969713E-2,1.5447302E0,5.323966E-1],"categories":[],"categories_nodes":[],"categories_segments":[],"categories_sizes":[],"default_left":[0,0,0,0,0,0,0,0,0,0,0,0,0,0,0],"id":52,"left_children":[1,3,5,7,9,11,13,-1,-1,-1,-1,-1,-1,-1,-1],"loss_changes":[4.440679E3,3.1282483E3,3.055577E3,2.2265693E3,2.0527866E3,2.1161284E3,1.3111997E3,0E0,0E0,0E0,0E0,0E0,0E0,0E0,0E0],"parents":[2147483647,0,0,1,1,2,2,3,3,4,4,5,5,6,6],"right_children":[2,4,6,8,10,12,14,-1,-1,-1,-1,-1,-1,-1,-1],"split_conditions":[1.929926E-1,7.3676914E-2,4.1048963E-2,3.476816E-1,3.8732147E-1,2.0401677E-2,9.311318E-3,-1.5405255E-2,-6.552384E-1,4.1596998E-2,-2.1560174E-1,4.2566213E-1,3.969713E-2,1.5447302E0,5.323966E-1],"split_indices":[1989,644,3653,1224,1635,910,400,0,0,0,0,0,0,0,0],"split_type":[0,0,0,0,0,0,0,0,0,0,0,0,0,0,0],"sum_hessian":[2.065E3,1.235E3,8.3E2,1.93E2,1.042E3,7.8E2,5E1,6.4E1,1.29E2,6.52E2,3.9E2,1.35E2,6.45E2,1.4E1,3.6E1],"tree_param":{"num_deleted":"0","num_feature":"4105","num_nodes":"15","size_leaf_vector":"1"}},{"base_weights":[-2.175969E-2,1.2054223E0,-1.608395E0,-5.404764E-1,2.5886092E0,-6.8468175E0,-1.023445E0,5.134028E-1,-1.1062991E-1,6.8510324E-1,1.7662516E-1,-2.335388E-1,-8.9843374E-1,3.08317E-1,-1.2592055E-1],"categories":[],"categories_nodes":[],"categories_segments":[],"categories_sizes":[],"default_left":[0,0,0,0,0,0,0,0,0,0,0,0,0,0,0],"id":53,"left_children":[1,3,5,7,9,11,13,-1,-1,-1,-1,-1,-1,-1,-1],"loss_changes":[4.0545854E3,2.8358696E3,2.7813638E3,2.3237422E3,2.0064736E3,1.2559614E3,1.4578535E3,0E0,0E0,0E0,0E0,0E0,0E0,0E0,0E0],"parents":[2147483647,0,0,1,1,2,2,3,3,4,4,5,5,6,6],"right_children":[2,4,6,8,10,12,14,-1,-1,-1,-1,-1,-1,-1,-1],"split_conditions":[8.154059E-2,1.3638397E-1,1.4738939E-3,1.4361507E-3,4.1304633E-2,6.85011E-2,1.6400294E-1,5.134028E-1,-1.1062991E-1,6.8510324E-1,1.7662516E-1,-2.335388E-1,-8.9843374E-1,3.08317E-1,-1.2592055E-1],"split_indices":[832,3366,3186,4068,1541,2001,3163,0,0,0,0,0,0,0,0],"split_type":[0,0,0,0,0,0,0,0,0,0,0,0,0,0,0],"sum_hessian":[2.082E3,1.174E3,9.08E2,5.19E2,6.55E2,9.1E1,8.17E2,5.2E1,4.67E2,6.8E1,5.87E2,4E1,5.1E1,6.6E1,7.51E2],"tree_param":{"num_deleted":"0","num_feature":"4105","num_nodes":"15","size_leaf_vector":"1"}},{"base_weights":[2.883578E-2,-3.6871085E-1,4.3468103E0,-9.029658E-1,2.4039168E0,1.5194817E1,2.5703838E0,-3.439553E-1,-3.652547E-2,1.4009409E-1,7.6723915E-1,1.9304587E0,8.3388436E-1,5.2187985E-1,1.2571417E-1],"categories":[],"categories_nodes":[],"categories_segments":[],"categories_sizes":[],"default_left":[0,0,0,0,0,0,0,0,0,0,0,0,0,0,0],"id":54,"left_children":[1,3,5,7,9,11,13,-1,-1,-1,-1,-1,-1,-1,-1],"loss_changes":[3.5060166E3,2.770664E3,3.310375E3,2.2909915E3,1.5533256E3,8.812471E2,5.644087E2,0E0,0E0,0E0,0E0,0E0,0E0,0E0,0E0],"parents":[2147483647,0,0,1,1,2,2,3,3,4,4,5,5,6,6],"right_children":[2,4,6,8,10,12,14,-1,-1,-1,-1,-1,-1,-1,-1],"split_conditions":[7.1492803E-1,2.8461543E-1,3.1918336E-3,2.6990686E-4,1.831387E-2,2.2439833E-1,2.2050136E-1,-3.439553E-1,-3.652547E-2,1.4009409E-1,7.6723915E-1,1.9304587E0,8.3388436E-1,5.2187985E-1,1.2571417E-1],"split_indices":[410,2593,685,491,3878,643,3505,0,0,0,0,0,0,0,0],"split_type":[0,0,0,0,0,0,0,0,0,0,0,0,0,0,0],"sum_hessian":[2.042E3,1.87E3,1.72E2,1.568E3,3.02E2,2.4E1,1.48E2,2.22E2,1.346E3,2.67E2,3.5E1,1.1E1,1.3E1,3.8E1,1.1E2],"tree_param":{"num_deleted":"0","num_feature":"4105","num_nodes":"15","size_leaf_vector":"1"}},{"base_weights":[3.0188827E-2,-8.2338774E-1,1.8404055E0,-1.0815709E0,6.4347067E0,4.1408043E0,2.0023157E-1,-6.9501996E-1,-7.238342E-2,3.93899E-1,1.3129286E0,3.163745E-1,1.56268E0,-4.504076E-1,7.821364E-2],"categories":[],"categories_nodes":[],"categories_segments":[],"categories_sizes":[],"default_left":[0,0,0,0,0,0,0,0,0,0,0,0,0,0,0],"id":55,"left_children":[1,3,5,7,9,11,13,-1,-1,-1,-1,-1,-1,-1,-1],"loss_changes":[3.1882656E3,2.628766E3,2.4944353E3,2.4269138E3,7.9103906E2,2.1159463E3,1.3901062E3,0E0,0E0,0E0,0E0,0E0,0E0,0E0,0E0],"parents":[2147483647,0,0,1,1,2,2,3,3,4,4,5,5,6,6],"right_children":[2,4,6,8,10,12,14,-1,-1,-1,-1,-1,-1,-1,-1],"split_conditions":[6.2150943E-1,7.1310876E-3,1.2142984E-1,5.498597E-3,7.734847E-2,2.952563E-3,6.2858366E-4,-6.9501996E-1,-7.238342E-2,3.93899E-1,1.3129286E0,3.163745E-1,1.56268E0,-4.504076E-1,7.821364E-2],"split_indices":[1755,2103,1510,2232,556,2459,3504,0,0,0,0,0,0,0,0],"split_type":[0,0,0,0,0,0,0,0,0,0,0,0,0,0,0],"sum_hessian":[2.063E3,1.402E3,6.61E2,1.354E3,4.8E1,2.75E2,3.86E2,5.1E1,1.303E3,3.9E1,9E0,2.64E2,1.1E1,4.4E1,3.42E2],"tree_param":{"num_deleted":"0","num_feature":"4105","num_nodes":"15","size_leaf_vector":"1"}},{"base_weights":[2.0578475E-4,-9.2952794E-1,1.5403756E0,-3.9750547E0,-3.1750396E-1,1.3862264E0,1.3131676E0,-5.749226E-2,-5.722245E-1,2.3693264E-1,-8.3456025E-2,-2.9315958E-2,2.4933235E-1],"categories":[],"categories_nodes":[],"categories_segments":[],"categories_sizes":[],"default_left":[0,0,0,0,0,0,0,0,0,0,0,0,0],"id":56,"left_children":[1,3,5,7,9,-1,11,-1,-1,-1,-1,-1,-1],"loss_changes":[2.926026E3,2.3746592E3,2.4579019E3,1.7554651E3,1.9777079E3,0E0,1.8645244E3,0E0,0E0,0E0,0E0,0E0,0E0],"parents":[2147483647,0,0,1,1,2,2,3,3,4,4,6,6],"right_children":[2,4,6,8,10,-1,12,-1,-1,-1,-1,-1,-1],"split_conditions":[8.00762E-3,9.1435224E-2,4.3926076E-3,2.3377667E-1,5.2420083E-3,1.3862264E0,8.53729E-1,-5.749226E-2,-5.722245E-1,2.3693264E-1,-8.3456025E-2,-2.9315958E-2,2.4933235E-1],"split_indices":[2419,644,2903,232,3518,0,4021,0,0,0,0,0,0],"split_type":[0,0,0,0,0,0,0,0,0,0,0,0,0],"sum_hessian":[2.043E3,1.274E3,7.69E2,2.13E2,1.061E3,1.2E1,7.57E2,9.1E1,1.22E2,1.83E2,8.78E2,3.61E2,3.96E2],"tree_param":{"num_deleted":"0","num_feature":"4105","num_nodes":"13","size_leaf_vector":"1"}},{"base_weights":[3.8108423E-2,2.2399158E0,-5.7276756E-1,1.7601928E0,1.3268931E0,-4.017851E-1,-7.7930098E0,9.83418E-2,6.137235E-1,-5.0508507E-2,5.615461E-1,-1.0513514E0,-4.8935506E-1],"categories":[],"categories_nodes":[],"categories_segments":[],"categories_sizes":[],"default_left":[0,0,0,0,0,0,0,0,0,0,0,0,0],"id":57,"left_children":[1,3,5,7,-1,9,11,-1,-1,-1,-1,-1,-1],"loss_changes":[2.7632324E3,2.7173047E3,1.9845671E3,1.4441815E3,0E0,1.7742749E3,3.3086304E2,0E0,0E0,0E0,0E0,0E0,0E0],"parents":[2147483647,0,0,1,1,2,2,3,3,5,5,6,6],"right_children":[2,4,6,8,-1,10,12,-1,-1,-1,-1,-1,-1],"split_conditions":[2.3163358E-2,9.819901E-1,5.015733E-1,2.7654914E-2,1.3268931E0,4.9591295E-2,3.771098E-1,9.83418E-2,6.137235E-1,-5.0508507E-2,5.615461E-1,-1.0513514E0,-4.8935506E-1],"split_indices":[771,203,3513,3878,0,3530,1949,0,0,0,0,0,0],"split_type":[0,0,0,0,0,0,0,0,0,0,0,0,0],"sum_hessian":[2.054E3,4.46E2,1.608E3,4.3E2,1.6E1,1.571E3,3.7E1,3.82E2,4.8E1,1.533E3,3.8E1,1.3E1,2.4E1],"tree_param":{"num_deleted":"0","num_feature":"4105","num_nodes":"13","size_leaf_vector":"1"}},{"base_weights":[5.6370392E-2,1.2062144E0,-1.1312457E0,1.8061943E0,-2.2848306E0,-4.717141E0,-5.96942E-1,1.2744462E-1,6.9339615E-1,-3.566069E-1,1.0237609E-1,-6.830952E-1,-2.0389836E-1,-3.935333E-2,-8.7615484E-1],"categories":[],"categories_nodes":[],"categories_segments":[],"categories_sizes":[],"default_left":[0,0,0,0,0,0,0,0,0,0,0,0,0,0,0],"id":58,"left_children":[1,3,5,7,9,11,13,-1,-1,-1,-1,-1,-1,-1,-1],"loss_changes":[2.7876523E3,2.1732183E3,1.9233174E3,1.9629299E3,9.094026E2,9.3599634E2,1.2423496E3,0E0,0E0,0E0,0E0,0E0,0E0,0E0,0E0],"parents":[2147483647,0,0,1,1,2,2,3,3,4,4,5,5,6,6],"right_children":[2,4,6,8,10,12,14,-1,-1,-1,-1,-1,-1,-1,-1],"split_conditions":[6.539452E-2,1.0673136E0,1.8203151E-1,3.0137566E-1,3.5333097E-1,1.5891097E-1,1.465827E0,1.2744462E-1,6.9339615E-1,-3.566069E-1,1.0237609E-1,-6.830952E-1,-2.0389836E-1,-3.935333E-2,-8.7615484E-1],"split_indices":[832,2820,230,1360,1601,2243,1508,0,0,0,0,0,0,0,0],"split_type":[0,0,0,0,0,0,0,0,0,0,0,0,0,0,0],"sum_hessian":[2.041E3,1.037E3,1.004E3,8.85E2,1.52E2,1.3E2,8.74E2,8.34E2,5.1E1,1.01E2,5.1E1,5.8E1,7.2E1,8.6E2,1.4E1],"tree_param":{"num_deleted":"0","num_feature":"4105","num_nodes":"15","size_leaf_vector":"1"}},{"base_weights":[-8.100919E-2,-1.6156787E0,5.6270576E-1,-8.979321E-1,-5.5647492E0,8.619693E0,3.8492224E-1,-4.102973E-1,-3.733605E-2,-3.471164E-1,-9.591436E-1,1.4601647E0,4.6985063E-1,1.3467143E-1,-6.304035E-2],"categories":[],"categories_nodes":[],"categories_segments":[],"categories_sizes":[],"default_left":[0,0,0,0,0,0,0,0,0,0,0,0,0,0,0],"id":59,"left_children":[1,3,5,7,9,11,13,-1,-1,-1,-1,-1,-1,-1,-1],"loss_changes":[2.0265464E3,1.7170947E3,2.0692346E3,9.1205133E2,7.9933105E2,7.9567285E2,1.7564468E3,0E0,0E0,0E0,0E0,0E0,0E0,0E0,0E0],"parents":[2147483647,0,0,1,1,2,2,3,3,4,4,5,5,6,6],"right_children":[2,4,6,8,10,12,14,-1,-1,-1,-1,-1,-1,-1,-1],"split_conditions":[1.065551E-3,1.4878717E-1,2.3275847E-3,1.2148891E-2,3.893912E-1,5.940463E-2,6.0118833E-3,-4.102973E-1,-3.733605E-2,-3.471164E-1,-9.591436E-1,1.4601647E0,4.6985063E-1,1.3467143E-1,-6.304035E-2],"split_indices":[2803,2836,2435,72,1145,1577,2113,0,0,0,0,0,0,0,0],"split_type":[0,0,0,0,0,0,0,0,0,0,0,0,0,0,0],"sum_hessian":[2.051E3,6.06E2,1.445E3,5.13E2,9.3E1,3.1E1,1.414E3,5.8E1,4.55E2,7.1E1,2.2E1,9E0,2.2E1,6.95E2,7.19E2],"tree_param":{"num_deleted":"0","num_feature":"4105","num_nodes":"15","size_leaf_vector":"1"}},{"base_weights":[3.5919912E-2,-4.5879388E-1,2.1682162E0,6.260026E-1,-1.3725911E0,1.4010346E0,1.7969767E0,3.830711E-2,8.982394E-1,-4.9796355E-1,-8.79705E-2,3.816788E-1,7.0418395E-2],"categories":[],"categories_nodes":[],"categories_segments":[],"categories_sizes":[],"default_left":[0,0,0,0,0,0,0,0,0,0,0,0,0],"id":60,"left_children":[1,3,5,7,9,-1,11,-1,-1,-1,-1,-1,-1],"loss_changes":[2.157652E3,1.6458998E3,1.94292E3,1.3990621E3,1.4543003E3,0E0,9.424075E2,0E0,0E0,0E0,0E0,0E0,0E0],"parents":[2147483647,0,0,1,1,2,2,3,3,4,4,6,6],"right_children":[2,4,6,8,10,-1,12,-1,-1,-1,-1,-1,-1],"split_conditions":[2.8461543E-1,4.0218815E-2,1.4091563E-2,5.547987E-1,6.3510346E-3,1.4010346E0,1.6681612E-2,3.830711E-2,8.982394E-1,-4.9796355E-1,-8.79705E-2,3.816788E-1,7.0418395E-2],"split_indices":[2593,339,518,3026,3102,0,3907,0,0,0,0,0,0],"split_type":[0,0,0,0,0,0,0,0,0,0,0,0,0],"sum_hessian":[2.045E3,1.66E3,3.85E2,7.59E2,9.01E2,1E1,3.75E2,7.44E2,1.5E1,7.4E1,8.27E2,1.07E2,2.68E2],"tree_param":{"num_deleted":"0","num_feature":"4105","num_nodes":"13","size_leaf_vector":"1"}},{"base_weights":[-3.442725E-2,2.582491E-1,-3.1095915E0,1.2770051E0,-7.680927E-1,-1.6412971E0,-6.609166E0,9.612435E-2,9.0185386E-1,-3.7927162E-2,-3.5018626E-1,-1.0061364E-1,-6.09831E-1,-3.825354E-1,-6.882738E-1],"categories":[],"categories_nodes":[],"categories_segments":[],"categories_sizes":[],"default_left":[0,0,0,0,0,0,0,0,0,0,0,0,0,0,0],"id":61,"left_children":[1,3,5,7,9,11,13,-1,-1,-1,-1,-1,-1,-1,-1],"loss_changes":[1.8661511E3,1.9797007E3,9.2362756E2,1.6302607E3,1.0208218E3,3.358079E2,1.339253E2,0E0,0E0,0E0,0E0,0E0,0E0,0E0,0E0],"parents":[2147483647,0,0,1,1,2,2,3,3,4,4,5,5,6,6],"right_children":[2,4,6,8,10,12,14,-1,-1,-1,-1,-1,-1,-1,-1],"split_conditions":[4.1477764E-1,6.761676E-2,6.710749E-1,3.524145E-1,8.7320226E-1,4.2011812E-1,2.5706818E-2,9.612435E-2,9.0185386E-1,-3.7927162E-2,-3.5018626E-1,-1.0061364E-1,-6.09831E-1,-3.825354E-1,-6.882738E-1],"split_indices":[2599,2035,2522,1092,1057,798,1390,0,0,0,0,0,0,0,0],"split_type":[0,0,0,0,0,0,0,0,0,0,0,0,0,0,0],"sum_hessian":[2.073E3,1.893E3,1.8E2,9.5E2,9.43E2,1.27E2,5.3E1,9.3E2,2E1,8.52E2,9.1E1,1.16E2,1.1E1,1.8E1,3.5E1],"tree_param":{"num_deleted":"0","num_feature":"4105","num_nodes":"15","size_leaf_vector":"1"}},{"base_weights":[1.2379985E-2,1.0249491E0,-7.752871E-1,1.3593537E0,-3.2275162E0,-6.2399113E-1,-7.1081486E0,3.855656E-1,8.633005E-2,-7.0794E-1,-1.7054726E-1,-1.086642E-1,7.4790984E-2,-1.3920921E-1,-8.719742E-1],"categories":[],"categories_nodes":[],"categories_segments":[],"categories_sizes":[],"default_left":[0,0,0,0,0,0,0,0,0,0,0,0,0,0,0],"id":62,"left_children":[1,3,5,7,9,11,13,-1,-1,-1,-1,-1,-1,-1,-1],"loss_changes":[1.6536642E3,1.2908433E3,1.1163359E3,9.692395E2,4.0739862E2,1.00497253E3,4.0683728E2,0E0,0E0,0E0,0E0,0E0,0E0,0E0,0E0],"parents":[2147483647,0,0,1,1,2,2,3,3,4,4,5,5,6,6],"right_children":[2,4,6,8,10,12,14,-1,-1,-1,-1,-1,-1,-1,-1],"split_conditions":[6.103418E-2,1.3486312E-1,4.1913325E-1,1.3585883E-2,1.0469335E-2,4.0121168E-2,5.3407676E-3,3.855656E-1,8.633005E-2,-7.0794E-1,-1.7054726E-1,-1.086642E-1,7.4790984E-2,-1.3920921E-1,-8.719742E-1],"split_indices":[771,1760,3425,710,771,3293,1165,0,0,0,0,0,0,0,0],"split_type":[0,0,0,0,0,0,0,0,0,0,0,0,0,0,0],"sum_hessian":[2.073E3,9.07E2,1.166E3,8.41E2,6.6E1,1.139E3,2.7E1,9.6E1,7.45E2,1.4E1,5.2E1,8.08E2,3.31E2,9E0,1.8E1],"tree_param":{"num_deleted":"0","num_feature":"4105","num_nodes":"15","size_leaf_vector":"1"}},{"base_weights":[1.9220432E-2,9.3352485E-1,-6.804099E-2,9.2451054E-1,-8.1882316E-1,4.994301E-2,4.2476878E-1,-2.0483357E-1,1.2405592E-2],"categories":[],"categories_nodes":[],"categories_segments":[],"categories_sizes":[],"default_left":[0,0,0,0,0,0,0,0,0],"id":63,"left_children":[1,-1,3,5,7,-1,-1,-1,-1],"loss_changes":[1.9129087E3,0E0,1.542079E3,1.2441299E3,1.6837344E3,0E0,0E0,0E0,0E0],"parents":[2147483647,0,0,2,2,3,3,4,4],"right_children":[2,-1,4,6,8,-1,-1,-1,-1],"split_conditions":[4.5627058E-2,9.3352485E-1,2.7506036E-1,3.1452194E-1,5.448857E-2,4.994301E-2,4.2476878E-1,-2.0483357E-1,1.2405592E-2],"split_indices":[2314,0,1224,3415,1423,0,0,0,0],"split_type":[0,0,0,0,0,0,0,0,0],"sum_hessian":[2.086E3,1.7E1,2.069E3,8.91E2,1.178E3,8.15E2,7.6E1,4.61E2,7.17E2],"tree_param":{"num_deleted":"0","num_feature":"4105","num_nodes":"9","size_leaf_vector":"1"}},{"base_weights":[1.4199003E-2,5.190814E-1,-1.3624195E0,4.3551257E-1,1.1508827E0,-3.0267327E0,1.937233E-1,-3.719369E-1,5.6722477E-2,-2.233672E-1,-7.9838854E-1,5.2871203E-1,-2.5143117E-2],"categories":[],"categories_nodes":[],"categories_segments":[],"categories_sizes":[],"default_left":[0,0,0,0,0,0,0,0,0,0,0,0,0],"id":64,"left_children":[1,3,5,7,-1,9,11,-1,-1,-1,-1,-1,-1],"loss_changes":[1.4535521E3,1.5914839E3,1.4536097E3,1.4359447E3,0E0,8.191516E2,7.990932E2,0E0,0E0,0E0,0E0,0E0,0E0],"parents":[2147483647,0,0,1,1,2,2,3,3,5,5,6,6],"right_children":[2,4,6,8,-1,10,12,-1,-1,-1,-1,-1,-1],"split_conditions":[-2.2609563E0,9.949518E-1,3.8744252E-2,3.6890063E-4,1.1508827E0,2.9477662E-1,1.700919E-1,-3.719369E-1,5.6722477E-2,-2.233672E-1,-7.9838854E-1,5.2871203E-1,-2.5143117E-2],"split_indices":[4102,1203,2784,3451,0,604,3803,0,0,0,0,0,0],"split_type":[0,0,0,0,0,0,0,0,0,0,0,0,0],"sum_hessian":[2.091E3,1.53E3,5.61E2,1.52E3,1E1,2.71E2,2.9E2,6.4E1,1.456E3,2.5E2,2.1E1,2.2E1,2.68E2],"tree_param":{"num_deleted":"0","num_feature":"4105","num_nodes":"13","size_leaf_vector":"1"}},{"base_weights":[-4.399014E-2,8.8776153E-1,-1.1880465E-1,-9.5630896E-1,7.4283516E-1,4.6990854E-1,-1.0953765E-1,-2.2305919E-1,9.7821295E-2],"categories":[],"categories_nodes":[],"categories_segments":[],"categories_sizes":[],"default_left":[0,0,0,0,0,0,0,0,0],"id":65,"left_children":[1,-1,3,5,7,-1,-1,-1,-1],"loss_changes":[1.54646E3,0E0,1.4731167E3,1.8053359E3,1.1806759E3,0E0,0E0,0E0,0E0],"parents":[2147483647,0,0,2,2,3,3,4,4],"right_children":[2,-1,4,6,8,-1,-1,-1,-1],"split_conditions":[4.5627058E-2,8.8776153E-1,3.2853585E-2,4.467155E-2,4.334233E-3,4.6990854E-1,-1.0953765E-1,-2.2305919E-1,9.7821295E-2],"split_indices":[2314,0,3079,3149,2078,0,0,0,0],"split_type":[0,0,0,0,0,0,0,0,0],"sum_hessian":[2.056E3,1.5E1,2.041E3,1.035E3,1.006E3,4.4E1,9.91E2,1E2,9.06E2],"tree_param":{"num_deleted":"0","num_feature":"4105","num_nodes":"9","size_leaf_vector":"1"}},{"base_weights":[-2.3056835E-2,-3.668122E-1,2.024382E0,1.525834E-1,-1.7168307E0,1.6173742E0,1.3038952E0,1.9930443E-1,-2.8729798E-2,-3.2500336E-1,-7.221275E-2,2.8637692E-1,2.4895353E-2],"categories":[],"categories_nodes":[],"categories_segments":[],"categories_sizes":[],"default_left":[0,0,0,0,0,0,0,0,0,0,0,0,0],"id":66,"left_children":[1,3,5,7,9,11,-1,-1,-1,-1,-1,-1,-1],"loss_changes":[1.4500968E3,1.237127E3,1.5232466E3,1.2718337E3,8.6101086E2,6.18319E2,0E0,0E0,0E0,0E0,0E0,0E0,0E0],"parents":[2147483647,0,0,1,1,2,2,3,3,4,4,5,5],"right_children":[2,4,6,8,10,12,-1,-1,-1,-1,-1,-1,-1],"split_conditions":[6.253107E-1,5.141086E-1,6.1300644E-3,1.6400294E-1,6.330691E-3,1.4032242E-1,1.3038952E0,1.9930443E-1,-2.8729798E-2,-3.2500336E-1,-7.221275E-2,2.8637692E-1,2.4895353E-2],"split_indices":[660,1808,2406,3163,3036,611,0,0,0,0,0,0,0],"split_type":[0,0,0,0,0,0,0,0,0,0,0,0,0],"sum_hessian":[2.06E3,1.764E3,2.96E2,1.274E3,4.9E2,2.87E2,9E0,2.36E2,1.038E3,1.55E2,3.35E2,1.3E2,1.57E2],"tree_param":{"num_deleted":"0","num_feature":"4105","num_nodes":"13","size_leaf_vector":"1"}},{"base_weights":[-2.1844083E-2,8.5163176E-1,-7.451742E-1,6.4587426E-1,6.8786364E0,3.3884388E-1,-1.670811E0,9.237403E-2,-1.292864E-1,1.2480316E0,2.8234535E-1,-8.6125836E-2,1.9015387E-1,-4.573803E-1,-1.0689428E-1],"categories":[],"categories_nodes":[],"categories_segments":[],"categories_sizes":[],"default_left":[0,0,0,0,0,0,0,0,0,0,0,0,0,0,0],"id":67,"left_children":[1,3,5,7,9,11,13,-1,-1,-1,-1,-1,-1,-1,-1],"loss_changes":[1.2764955E3,1.1338984E3,1.1090948E3,7.368717E2,7.934614E2,1.2043279E3,9.663771E2,0E0,0E0,0E0,0E0,0E0,0E0,0E0,0E0],"parents":[2147483647,0,0,1,1,2,2,3,3,4,4,5,5,6,6],"right_children":[2,4,6,8,10,12,14,-1,-1,-1,-1,-1,-1,-1,-1],"split_conditions":[4.0218815E-2,1.0777869E0,1.6702926E-1,2.2255331E-1,9.679538E-2,2.0364563E-3,4.4971235E-2,9.237403E-2,-1.292864E-1,1.2480316E0,2.8234535E-1,-8.6125836E-2,1.9015387E-1,-4.573803E-1,-1.0689428E-1],"split_indices":[339,1131,2328,2715,1254,2965,1341,0,0,0,0,0,0,0,0],"split_type":[0,0,0,0,0,0,0,0,0,0,0,0,0,0,0],"sum_hessian":[2.02E3,9.15E2,1.105E3,8.85E2,3E1,5.09E2,5.96E2,7.45E2,1.4E2,1E1,2E1,2.95E2,2.14E2,7E1,5.26E2],"tree_param":{"num_deleted":"0","num_feature":"4105","num_nodes":"15","size_leaf_vector":"1"}},{"base_weights":[-4.9114432E-2,4.204148E-1,-1.1888764E0,1.04326226E-1,3.4877048E0,-1.6117651E0,1.933745E0,8.450957E-1,2.062913E-3,2.4837331E-1,7.878246E-1,-3.866448E-2,-2.52428E-1,2.1633781E-2,4.8149252E-1],"categories":[],"categories_nodes":[],"categories_segments":[],"categories_sizes":[],"default_left":[0,0,0,0,0,0,0,0,0,0,0,0,0,0,0],"id":68,"left_children":[1,3,5,7,9,11,13,-1,-1,-1,-1,-1,-1,-1,-1],"loss_changes":[1.0935295E3,1.4029417E3,7.8786053E2,1.00217523E3,4.963435E2,7.618661E2,4.2002554E2,0E0,0E0,0E0,0E0,0E0,0E0,0E0,0E0],"parents":[2147483647,0,0,1,1,2,2,3,3,4,4,5,5,6,6],"right_children":[2,4,6,8,10,12,14,-1,-1,-1,-1,-1,-1,-1,-1],"split_conditions":[2.1067335E-1,5.584061E-2,8.300088E-1,3.323285E-3,1.6309051E-1,4.286204E-2,3.2352045E-1,8.450957E-1,2.062913E-3,2.4837331E-1,7.878246E-1,-3.866448E-2,-2.52428E-1,2.1633781E-2,4.8149252E-1],"split_indices":[1453,3294,987,1844,1282,3584,1631,0,0,0,0,0,0,0,0],"split_type":[0,0,0,0,0,0,0,0,0,0,0,0,0,0,0],"sum_hessian":[2.043E3,1.447E3,5.96E2,1.312E3,1.35E2,5.25E2,7.1E1,1.1E1,1.301E3,1.2E2,1.5E1,2.69E2,2.56E2,4.8E1,2.3E1],"tree_param":{"num_deleted":"0","num_feature":"4105","num_nodes":"15","size_leaf_vector":"1"}},{"base_weights":[-1.611727E-2,-4.166111E0,1.12004355E-1,-8.062873E-1,-3.0738902E0,5.561439E-1,-1.0324187E0,-3.6068797E-1,-3.8087785E-2,8.469019E-2,-9.7860925E-2,-1.1787302E-1,4.4850498E-1],"categories":[],"categories_nodes":[],"categories_segments":[],"categories_sizes":[],"default_left":[0,0,0,0,0,0,0,0,0,0,0,0,0],"id":69,"left_children":[1,3,5,-1,7,9,11,-1,-1,-1,-1,-1,-1],"loss_changes":[1.104108E3,3.2889807E2,1.02387537E3,0E0,1.3393256E2,9.6032983E2,1.01808545E3,0E0,0E0,0E0,0E0,0E0,0E0],"parents":[2147483647,0,0,1,1,2,2,4,4,5,5,6,6],"right_children":[2,4,6,-1,8,10,12,-1,-1,-1,-1,-1,-1],"split_conditions":[5.818449E-3,1.2585837E-1,-2.2609563E0,-8.062873E-1,3.84847E-2,5.2926067E-2,1.7701304E-1,-3.6068797E-1,-3.8087785E-2,8.469019E-2,-9.7860925E-2,-1.1787302E-1,4.4850498E-1],"split_indices":[1621,526,4102,0,1848,2736,161,0,0,0,0,0,0],"split_type":[0,0,0,0,0,0,0,0,0,0,0,0,0],"sum_hessian":[2.076E3,6.2E1,2.014E3,1.1E1,5.1E1,1.451E3,5.63E2,3.7E1,1.4E1,1.17E3,2.81E2,5.37E2,2.6E1],"tree_param":{"num_deleted":"0","num_feature":"4105","num_nodes":"13","size_leaf_vector":"1"}},{"base_weights":[9.199786E-3,7.500379E0,-6.24403E-2,1.0528326E0,3.0316624E-1,-1.4370747E-1,6.0818186E0,-3.0663016E-1,1.4016761E-4,2.489465E-1,7.465664E-1],"categories":[],"categories_nodes":[],"categories_segments":[],"categories_sizes":[],"default_left":[0,0,0,0,0,0,0,0,0,0,0],"id":70,"left_children":[1,3,5,-1,-1,7,9,-1,-1,-1,-1],"loss_changes":[1.0871311E3,3.3425916E2,1.001759E3,0E0,0E0,9.5333905E2,1.9555768E2,0E0,0E0,0E0,0E0],"parents":[2147483647,0,0,1,1,2,2,5,5,6,6],"right_children":[2,4,6,-1,-1,8,10,-1,-1,-1,-1],"split_conditions":[4.3426626E-3,4.1717893E-1,9.657202E-1,1.0528326E0,3.0316624E-1,1.0096739E-1,2.5187706E-4,-3.0663016E-1,1.4016761E-4,2.489465E-1,7.465664E-1],"split_indices":[1844,1583,1385,0,0,3572,1,0,0,0,0],"split_type":[0,0,0,0,0,0,0,0,0,0,0],"sum_hessian":[2.025E3,1.9E1,2.006E3,9E0,1E1,1.98E3,2.6E1,8.3E1,1.897E3,1.1E1,1.5E1],"tree_param":{"num_deleted":"0","num_feature":"4105","num_nodes":"11","size_leaf_vector":"1"}},{"base_weights":[-5.5284854E-3,-5.734425E-2,9.285842E-1,-3.7574914E0,1.0223384E-1,-4.9228206E-1,-1.9695409E-1,-6.036651E-1,1.5711727E-2],"categories":[],"categories_nodes":[],"categories_segments":[],"categories_sizes":[],"default_left":[0,0,0,0,0,0,0,0,0],"id":71,"left_children":[1,3,-1,5,7,-1,-1,-1,-1],"loss_changes":[1.1234683E3,1.2166285E3,0E0,2.3219885E2,1.0221775E3,0E0,0E0,0E0,0E0],"parents":[2147483647,0,0,1,1,3,3,4,4],"right_children":[2,4,-1,6,8,-1,-1,-1,-1],"split_conditions":[1.3817028E0,1.0096739E-1,9.285842E-1,3.0473502E-2,6.9873817E-3,-4.9228206E-1,-1.9695409E-1,-6.036651E-1,1.5711727E-2],"split_indices":[203,3572,0,227,1131,0,0,0,0],"split_type":[0,0,0,0,0,0,0,0,0],"sum_hessian":[2.07E3,2.06E3,1E1,8.5E1,1.975E3,3.9E1,4.6E1,2.1E1,1.954E3],"tree_param":{"num_deleted":"0","num_feature":"4105","num_nodes":"9","size_leaf_vector":"1"}},{"base_weights":[1.4339523E-2,2.5753403E-1,-1.8323938E0,3.6188266E-1,-4.5364513E0,-9.45286E-1,-4.6340337E0,5.750457E-1,2.5008481E-2,-5.8654046E-1,-1.8351284E-1,-1.1186901E-2,-1.991113E-1,-2.3098683E-1,-6.6218144E-1],"categories":[],"categories_nodes":[],"categories_segments":[],"categories_sizes":[],"default_left":[0,0,0,0,0,0,0,0,0,0,0,0,0,0,0],"id":72,"left_children":[1,3,5,7,9,11,13,-1,-1,-1,-1,-1,-1,-1,-1],"loss_changes":[9.347435E2,9.2025146E2,6.0095807E2,8.802448E2,1.9798523E2,1.9596855E2,3.3052954E2,0E0,0E0,0E0,0E0,0E0,0E0,0E0,0E0],"parents":[2147483647,0,0,1,1,2,2,3,3,4,4,5,5,6,6],"right_children":[2,4,6,8,10,12,14,-1,-1,-1,-1,-1,-1,-1,-1],"split_conditions":[1.6352506E-1,5.015733E-1,7.19955E-2,1.3500457E-1,1.5588331E-1,8.785067E-2,2.2401488E-1,5.750457E-1,2.5008481E-2,-5.8654046E-1,-1.8351284E-1,-1.1186901E-2,-1.991113E-1,-2.3098683E-1,-6.6218144E-1],"split_indices":[4073,3513,877,2694,874,3345,3765,0,0,0,0,0,0,0,0],"split_type":[0,0,0,0,0,0,0,0,0,0,0,0,0,0,0],"sum_hessian":[2.081E3,1.839E3,2.42E2,1.8E3,3.9E1,1.84E2,5.8E1,2.3E1,1.777E3,2.1E1,1.8E1,1.13E2,7.1E1,3.4E1,2.4E1],"tree_param":{"num_deleted":"0","num_feature":"4105","num_nodes":"15","size_leaf_vector":"1"}},{"base_weights":[-9.881426E-3,8.484214E-1,-5.7156753E-2,-3.2912269E0,8.2037784E-2,1.5040551E-1,-3.5115466E-1,2.5711372E-2,-1.9926627E-1],"categories":[],"categories_nodes":[],"categories_segments":[],"categories_sizes":[],"default_left":[0,0,0,0,0,0,0,0,0],"id":73,"left_children":[1,-1,3,5,7,-1,-1,-1,-1],"loss_changes":[9.388057E2,0E0,9.29357E2,2.8505115E2,9.579967E2,0E0,0E0,0E0,0E0],"parents":[2147483647,0,0,2,2,3,3,4,4],"right_children":[2,-1,4,6,8,-1,-1,-1,-1],"split_conditions":[3.3947475E-2,8.484214E-1,1.0096739E-1,3.129394E-3,4.1477764E-1,1.5040551E-1,-3.5115466E-1,2.5711372E-2,-1.9926627E-1],"split_indices":[2362,0,3572,2045,2599,0,0,0,0],"split_type":[0,0,0,0,0,0,0,0,0],"sum_hessian":[2.074E3,1E1,2.064E3,8.5E1,1.979E3,1E1,7.5E1,1.817E3,1.62E2],"tree_param":{"num_deleted":"0","num_feature":"4105","num_nodes":"9","size_leaf_vector":"1"}},{"base_weights":[3.4478538E-2,1.1377587E0,-3.773991E-1,3.5125046E0,4.3447205E-1,-4.5312858E-1,6.2491196E-1,2.0744978E-1,8.0696166E-1,-6.3087624E-1,5.9535366E-2,-3.4510833E-1,-2.799965E-2],"categories":[],"categories_nodes":[],"categories_segments":[],"categories_sizes":[],"default_left":[0,0,0,0,0,0,0,0,0,0,0,0,0],"id":74,"left_children":[1,3,5,7,9,11,-1,-1,-1,-1,-1,-1,-1],"loss_changes":[9.381015E2,9.368692E2,8.4543317E2,8.3601245E2,7.747906E2,7.0285364E2,0E0,0E0,0E0,0E0,0E0,0E0,0E0],"parents":[2147483647,0,0,1,1,2,2,3,3,4,4,5,5],"right_children":[2,4,6,8,10,12,-1,-1,-1,-1,-1,-1,-1],"split_conditions":[2.4694952E-1,2.2487279E-2,2.0027845E0,6.781303E-1,1.4749465E-3,5.498597E-3,6.2491196E-1,2.0744978E-1,8.0696166E-1,-6.3087624E-1,5.9535366E-2,-3.4510833E-1,-2.799965E-2],"split_indices":[705,20,882,738,1927,2232,0,0,0,0,0,0,0],"split_type":[0,0,0,0,0,0,0,0,0,0,0,0,0],"sum_hessian":[2.064E3,5.61E2,1.503E3,1.28E2,4.33E2,1.488E3,1.5E1,1.06E2,2.2E1,1.3E1,4.2E2,5.7E1,1.431E3],"tree_param":{"num_deleted":"0","num_feature":"4105","num_nodes":"13","size_leaf_vector":"1"}},{"base_weights":[-2.6668884E-2,1.8334057E0,-2.696928E-1,7.4484015E0,1.0983205E0,-6.9749546E-1,9.798801E-1,3.3307758E-1,1.2007935E0,1.3254762E-1,-6.658856E-1,-3.628898E-2,-2.3429999E-1,3.3410102E-1,3.8485974E-2],"categories":[],"categories_nodes":[],"categories_segments":[],"categories_sizes":[],"default_left":[0,0,0,0,0,0,0,0,0,0,0,0,0,0,0],"id":75,"left_children":[1,3,5,7,9,11,13,-1,-1,-1,-1,-1,-1,-1,-1],"loss_changes":[9.200461E2,9.6898224E2,9.6244995E2,6.014629E2,7.1160297E2,7.515862E2,6.9827966E2,0E0,0E0,0E0,0E0,0E0,0E0,0E0,0E0],"parents":[2147483647,0,0,1,1,2,2,3,3,4,4,5,5,6,6],"right_children":[2,4,6,8,10,12,14,-1,-1,-1,-1,-1,-1,-1,-1],"split_conditions":[8.3161764E-2,3.002141E-1,7.728964E-2,2.1505429E-1,2.4549945E-1,4.8732016E-2,2.519776E-2,3.3307758E-1,1.2007935E0,1.3254762E-1,-6.658856E-1,-3.628898E-2,-2.3429999E-1,3.3410102E-1,3.8485974E-2],"split_indices":[3149,702,807,660,651,3494,1771,0,0,0,0,0,0,0,0],"split_type":[0,0,0,0,0,0,0,0,0,0,0,0,0,0,0],"sum_hessian":[2.035E3,2.35E2,1.8E3,2.7E1,2.08E2,1.341E3,4.59E2,1.7E1,1E1,1.99E2,9E0,1.168E3,1.73E2,7.5E1,3.84E2],"tree_param":{"num_deleted":"0","num_feature":"4105","num_nodes":"15","size_leaf_vector":"1"}},{"base_weights":[-3.3948738E-2,6.592946E-1,-5.948065E-1,4.276226E0,3.2292145E-1,-7.2058123E-1,4.17906E0,8.2645005E-1,2.1231507E-1,-9.080929E-2,6.741193E-2,-3.3865565E-1,-4.8937745E-2,1.924361E-1,4.7633296E-1],"categories":[],"categories_nodes":[],"categories_segments":[],"categories_sizes":[],"default_left":[0,0,0,0,0,0,0,0,0,0,0,0,0,0,0],"id":76,"left_children":[1,3,5,7,9,11,13,-1,-1,-1,-1,-1,-1,-1,-1],"loss_changes":[7.991522E2,1.1179441E3,6.8268567E2,7.375574E2,4.953305E2,5.7852795E2,6.748605E1,0E0,0E0,0E0,0E0,0E0,0E0,0E0,0E0],"parents":[2147483647,0,0,1,1,2,2,3,3,4,4,5,5,6,6],"right_children":[2,4,6,8,10,12,14,-1,-1,-1,-1,-1,-1,-1,-1],"split_conditions":[3.7998375E-2,3.2352135E-3,9.5328456E-1,8.743858E-2,7.384922E-2,1.0096739E-1,9.057297E-3,8.2645005E-1,2.1231507E-1,-9.080929E-2,6.741193E-2,-3.3865565E-1,-4.8937745E-2,1.924361E-1,4.7633296E-1],"split_indices":[339,2986,698,282,3559,3572,984,0,0,0,0,0,0,0,0],"split_type":[0,0,0,0,0,0,0,0,0,0,0,0,0,0,0],"sum_hessian":[2.055E3,9.19E2,1.136E3,7.8E1,8.41E2,1.107E3,2.9E1,2.1E1,5.7E1,2.06E2,6.35E2,5.7E1,1.05E3,1.1E1,1.8E1],"tree_param":{"num_deleted":"0","num_feature":"4105","num_nodes":"15","size_leaf_vector":"1"}},{"base_weights":[-1.21971555E-2,1.1925919E0,-3.173327E-1,9.742441E-1,9.235849E-1,-4.229072E-1,4.2774386E0,-6.602786E-2,1.69754E-1,-8.7626785E-2,4.088061E-2,5.533045E-1,2.6979208E-1],"categories":[],"categories_nodes":[],"categories_segments":[],"categories_sizes":[],"default_left":[0,0,0,0,0,0,0,0,0,0,0,0,0],"id":77,"left_children":[1,3,5,-1,7,9,11,-1,-1,-1,-1,-1,-1],"loss_changes":[7.62571E2,1.101919E3,8.0316113E2,0E0,6.745584E2,8.082037E2,8.6287415E1,0E0,0E0,0E0,0E0,0E0,0E0],"parents":[2147483647,0,0,1,1,2,2,4,4,5,5,6,6],"right_children":[2,4,6,-1,8,10,12,-1,-1,-1,-1,-1,-1],"split_conditions":[1.5728101E-1,1.358967E-2,4.9591295E-2,9.742441E-1,1.5266088E-1,6.624329E-2,8.668533E-1,-6.602786E-2,1.69754E-1,-8.7626785E-2,4.088061E-2,5.533045E-1,2.6979208E-1],"split_indices":[3149,1890,3530,0,2499,2856,1307,0,0,0,0,0,0],"split_type":[0,0,0,0,0,0,0,0,0,0,0,0,0],"sum_hessian":[2.074E3,4.19E2,1.655E3,1.1E1,4.08E2,1.618E3,3.7E1,1.52E2,2.56E2,9.87E2,6.31E2,1.4E1,2.3E1],"tree_param":{"num_deleted":"0","num_feature":"4105","num_nodes":"13","size_leaf_vector":"1"}},{"base_weights":[7.597159E-3,6.4215503E0,-4.9266726E-2,7.315301E-1,3.956543E-1,-3.32461E-1,1.1678988E0,-2.3554003E-2,-6.3314503E-1,9.2674416E-1,8.353018E-2],"categories":[],"categories_nodes":[],"categories_segments":[],"categories_sizes":[],"default_left":[0,0,0,0,0,0,0,0,0,0,0],"id":78,"left_children":[1,3,5,-1,-1,7,9,-1,-1,-1,-1],"loss_changes":[7.548995E2,5.7857178E1,7.070853E2,0E0,0E0,7.572126E2,8.104612E2,0E0,0E0,0E0,0E0],"parents":[2147483647,0,0,1,1,2,2,5,5,6,6],"right_children":[2,4,6,-1,-1,8,10,-1,-1,-1,-1],"split_conditions":[4.5627058E-2,1.4549561E-1,2.8426498E-1,7.315301E-1,3.956543E-1,5.6908816E-1,1.4091563E-2,-2.3554003E-2,-6.3314503E-1,9.2674416E-1,8.353018E-2],"split_indices":[2314,1276,2593,0,0,480,518,0,0,0,0],"split_type":[0,0,0,0,0,0,0,0,0,0,0],"sum_hessian":[2.069E3,1.8E1,2.051E3,9E0,9E0,1.664E3,3.87E2,1.648E3,1.6E1,9E0,3.78E2],"tree_param":{"num_deleted":"0","num_feature":"4105","num_nodes":"11","size_leaf_vector":"1"}},{"base_weights":[-3.5582192E-3,1.1360841E-1,-2.8153687E0,2.565408E-2,3.3892748E0,-1.0472112E-1,-5.2067037E0,1.5404928E-1,-1.4178852E-2,6.169468E-1,8.381663E-2,-1.2939882E-1,2.932718E-1,-3.3804166E-1,-6.71808E-1],"categories":[],"categories_nodes":[],"categories_segments":[],"categories_sizes":[],"default_left":[0,0,0,0,0,0,0,0,0,0,0,0,0,0,0],"id":79,"left_children":[1,3,5,7,9,11,13,-1,-1,-1,-1,-1,-1,-1,-1],"loss_changes":[6.851179E2,5.750177E2,5.3899896E2,6.172632E2,4.535146E2,1.8189272E2,1.402561E2,0E0,0E0,0E0,0E0,0E0,0E0,0E0,0E0],"parents":[2147483647,0,0,1,1,2,2,3,3,4,4,5,5,6,6],"right_children":[2,4,6,8,10,12,14,-1,-1,-1,-1,-1,-1,-1,-1],"split_conditions":[6.8492687E-1,7.026595E-1,1.7612854E-1,9.457231E-3,2.0291138E-1,1.5621713E-2,3.04343E-3,1.5404928E-1,-1.4178852E-2,6.169468E-1,8.381663E-2,-1.2939882E-1,2.932718E-1,-3.3804166E-1,-6.71808E-1],"split_indices":[1224,1385,2109,1297,3397,3440,1642,0,0,0,0,0,0,0,0],"split_type":[0,0,0,0,0,0,0,0,0,0,0,0,0,0,0],"sum_hessian":[2.079E3,1.996E3,8.3E1,1.944E3,5.2E1,3.9E1,4.4E1,1.9E2,1.754E3,2.1E1,3.1E1,2.8E1,1.1E1,2.8E1,1.6E1],"tree_param":{"num_deleted":"0","num_feature":"4105","num_nodes":"15","size_leaf_vector":"1"}},{"base_weights":[3.7536223E-3,6.3155216E-1,-5.2671945E-1,3.5702653E0,3.6209986E-1,2.2923937E0,-7.100431E-1,7.924548E-1,1.7422362E-1,1.1479493E-2,2.619422E-1,1.1081788E-1,5.873481E-1,-1.7767668E-2,-1.5871042E-1],"categories":[],"categories_nodes":[],"categories_segments":[],"categories_sizes":[],"default_left":[0,0,0,0,0,0,0,0,0,0,0,0,0,0,0],"id":80,"left_children":[1,3,5,7,9,11,13,-1,-1,-1,-1,-1,-1,-1,-1],"loss_changes":[6.858376E2,7.465143E2,5.77125E2,6.7861523E2,5.20867E2,3.061622E2,5.76553E2,0E0,0E0,0E0,0E0,0E0,0E0,0E0,0E0],"parents":[2147483647,0,0,1,1,2,2,3,3,4,4,5,5,6,6],"right_children":[2,4,6,8,10,12,14,-1,-1,-1,-1,-1,-1,-1,-1],"split_conditions":[4.0218815E-2,3.2352135E-3,3.1569044E-3,4.3840786E-3,3.7851933E-1,2.0162761E-2,-2.2609563E0,7.924548E-1,1.7422362E-1,1.1479493E-2,2.619422E-1,1.1081788E-1,5.873481E-1,-1.7767668E-2,-1.5871042E-1],"split_indices":[339,2986,818,476,237,1746,4102,0,0,0,0,0,0,0,0],"split_type":[0,0,0,0,0,0,0,0,0,0,0,0,0,0,0],"sum_hessian":[2.059E3,9.43E2,1.116E3,7.9E1,8.64E2,6.8E1,1.048E3,1.8E1,6.1E1,7.93E2,7.1E1,5.5E1,1.3E1,7.12E2,3.36E2],"tree_param":{"num_deleted":"0","num_feature":"4105","num_nodes":"15","size_leaf_vector":"1"}},{"base_weights":[-4.218634E-2,1.3843266E0,-2.5991595E-1,3.547017E0,6.462338E-1,-3.5268593E-1,3.5122185E0,7.1687126E-1,2.262475E-1,1.4858049E-1,-1.0249841E-2,-1.9126931E-1,-1.13263E-2,3.9720762E-1,6.7208424E-2],"categories":[],"categories_nodes":[],"categories_segments":[],"categories_sizes":[],"default_left":[0,0,0,0,0,0,0,0,0,0,0,0,0,0,0],"id":81,"left_children":[1,3,5,7,9,11,13,-1,-1,-1,-1,-1,-1,-1,-1],"loss_changes":[6.2905133E2,4.2756226E2,6.150665E2,3.039218E2,1.5699081E2,6.959607E2,1.1149432E2,0E0,0E0,0E0,0E0,0E0,0E0,0E0,0E0],"parents":[2147483647,0,0,1,1,2,2,3,3,4,4,5,5,6,6],"right_children":[2,4,6,8,10,12,14,-1,-1,-1,-1,-1,-1,-1,-1],"split_conditions":[1.7795486E-2,1.2284263E-2,4.9591295E-2,5.937082E-3,1.1045753E-1,1.4738939E-3,8.94544E-2,7.1687126E-1,2.262475E-1,1.4858049E-1,-1.0249841E-2,-1.9126931E-1,-1.13263E-2,3.9720762E-1,6.7208424E-2],"split_indices":[1759,1619,3530,227,2159,3186,1588,0,0,0,0,0,0,0,0],"split_type":[0,0,0,0,0,0,0,0,0,0,0,0,0,0,0],"sum_hessian":[2.025E3,2.68E2,1.757E3,6.8E1,2E2,1.715E3,4.2E1,1.2E1,5.6E1,8.5E1,1.15E2,1.9E2,1.525E3,3.1E1,1.1E1],"tree_param":{"num_deleted":"0","num_feature":"4105","num_nodes":"15","size_leaf_vector":"1"}},{"base_weights":[-9.840171E-3,7.530437E-1,-4.0491322E-1,2.3861291E0,3.2117268E-1,-7.5565884E-3,-1.4928734E0,1.3061251E-1,4.2468536E-1,-1.4441156E-1,6.2145475E-2,-1.1892229E-1,3.477654E-2,-1.5298513E-1,4.5884192E-1],"categories":[],"categories_nodes":[],"categories_segments":[],"categories_sizes":[],"default_left":[0,0,0,0,0,0,0,0,0,0,0,0,0,0,0],"id":82,"left_children":[1,3,5,7,9,11,13,-1,-1,-1,-1,-1,-1,-1,-1],"loss_changes":[6.1766376E2,4.9291266E2,5.836577E2,3.1929358E2,4.094089E2,5.271786E2,5.6006976E2,0E0,0E0,0E0,0E0,0E0,0E0,0E0,0E0],"parents":[2147483647,0,0,1,1,2,2,3,3,4,4,5,5,6,6],"right_children":[2,4,6,8,10,12,14,-1,-1,-1,-1,-1,-1,-1,-1],"split_conditions":[1.0246599E-1,2.0213073E-1,-2.2609563E0,1.2752476E-1,1.20915994E-1,2.8805354E-1,1.4496462E-1,1.3061251E-1,4.2468536E-1,-1.4441156E-1,6.2145475E-2,-1.1892229E-1,3.477654E-2,-1.5298513E-1,4.5884192E-1],"split_indices":[3173,1809,4102,517,2499,2694,161,0,0,0,0,0,0,0,0],"split_type":[0,0,0,0,0,0,0,0,0,0,0,0,0,0,0],"sum_hessian":[2.049E3,6.99E2,1.35E3,1.46E2,5.53E2,9.89E2,3.61E2,1.06E2,4E1,9E1,4.63E2,2.28E2,7.61E2,3.49E2,1.2E1],"tree_param":{"num_deleted":"0","num_feature":"4105","num_nodes":"15","size_leaf_vector":"1"}},{"base_weights":[5.4486025E-2,5.139277E0,3.978441E-3,1.6659676E-1,7.9841375E-1,4.4005516E-1,-6.1152923E-1,5.892882E-1,3.1911127E-2,-1.13219626E-1,3.7909202E-2],"categories":[],"categories_nodes":[],"categories_segments":[],"categories_sizes":[],"default_left":[0,0,0,0,0,0,0,0,0,0,0],"id":83,"left_children":[1,3,5,-1,-1,7,9,-1,-1,-1,-1],"loss_changes":[5.271676E2,2.5081702E2,5.4577185E2,0E0,0E0,5.9209845E2,5.8264246E2,0E0,0E0,0E0,0E0],"parents":[2147483647,0,0,1,1,2,2,5,5,6,6],"right_children":[2,4,6,-1,-1,8,10,-1,-1,-1,-1],"split_conditions":[4.3426626E-3,1.2114853E-1,8.378728E-2,1.6659676E-1,7.9841375E-1,1.3789327E-3,2.204596E-1,5.892882E-1,3.1911127E-2,-1.13219626E-1,3.7909202E-2],"split_indices":[1844,1270,305,0,0,2657,1008,0,0,0,0],"split_type":[0,0,0,0,0,0,0,0,0,0,0],"sum_hessian":[2.053E3,2E1,2.033E3,1.1E1,9E0,1.19E3,8.43E2,1.5E1,1.175E3,5.14E2,3.29E2],"tree_param":{"num_deleted":"0","num_feature":"4105","num_nodes":"11","size_leaf_vector":"1"}},{"base_weights":[8.00666E-3,-6.018909E-2,3.8947234E0,-7.464505E-1,3.1774017E-1,2.6089118E0,6.2077063E-1,-1.0540435E-1,8.058449E-2,3.401297E-2,-5.849435E-1,3.239233E-1,1.7604664E-1],"categories":[],"categories_nodes":[],"categories_segments":[],"categories_sizes":[],"default_left":[0,0,0,0,0,0,0,0,0,0,0,0,0],"id":84,"left_children":[1,3,5,7,9,11,-1,-1,-1,-1,-1,-1,-1],"loss_changes":[5.409082E2,5.2011786E2,1.3676038E2,5.2109705E2,5.879757E2,1.4887451E1,0E0,0E0,0E0,0E0,0E0,0E0,0E0],"parents":[2147483647,0,0,1,1,2,2,3,3,4,4,5,5],"right_children":[2,4,6,8,10,12,-1,-1,-1,-1,-1,-1,-1],"split_conditions":[7.0626736E-1,5.2817207E-2,4.615028E-3,8.951651E-1,5.6908816E-1,1.3980433E-1,6.2077063E-1,-1.0540435E-1,8.058449E-2,3.401297E-2,-5.849435E-1,3.239233E-1,1.7604664E-1],"split_indices":[419,635,1924,2972,480,935,0,0,0,0,0,0,0],"split_type":[0,0,0,0,0,0,0,0,0,0,0,0,0],"sum_hessian":[2.04E3,2.005E3,3.5E1,7.12E2,1.293E3,2.5E1,1E1,5.62E2,1.5E2,1.281E3,1.2E1,9E0,1.6E1],"tree_param":{"num_deleted":"0","num_feature":"4105","num_nodes":"13","size_leaf_vector":"1"}},{"base_weights":[3.5506424E-3,6.892949E-2,-3.5086539E0,2.2380687E-1,-1.4295574E0,-5.4982405E0,-1.3718722E0,2.5469447E-2,-3.4891367E-1,2.903435E-2,-2.7430055E-1,-4.1126156E-1,-5.473259E-1,-1.7026567E-1,-7.035003E-2],"categories":[],"categories_nodes":[],"categories_segments":[],"categories_sizes":[],"default_left":[0,0,0,0,0,0,0,0,0,0,0,0,0,0,0],"id":85,"left_children":[1,3,5,7,9,11,13,-1,-1,-1,-1,-1,-1,-1,-1],"loss_changes":[4.6728705E2,4.637732E2,1.5650406E2,4.7714252E2,5.471874E2,5.443054E0,5.410206E0,0E0,0E0,0E0,0E0,0E0,0E0,0E0,0E0],"parents":[2147483647,0,0,1,1,2,2,3,3,4,4,5,5,6,6],"right_children":[2,4,6,8,10,12,14,-1,-1,-1,-1,-1,-1,-1,-1],"split_conditions":[2.0314834E-1,1.2716787E-1,1.1503059E-1,7.675158E-1,1.2734202E-1,1.3172443E-1,5.8314472E-2,2.5469447E-2,-3.4891367E-1,2.903435E-2,-2.7430055E-1,-4.1126156E-1,-5.473259E-1,-1.7026567E-1,-7.035003E-2],"split_indices":[3291,388,1676,2272,409,617,307,0,0,0,0,0,0,0,0],"split_type":[0,0,0,0,0,0,0,0,0,0,0,0,0,0,0],"sum_hessian":[2.035E3,1.998E3,3.7E1,1.811E3,1.87E2,1.9E1,1.8E1,1.784E3,2.7E1,9.1E1,9.6E1,9E0,1E1,9E0,9E0],"tree_param":{"num_deleted":"0","num_feature":"4105","num_nodes":"15","size_leaf_vector":"1"}},{"base_weights":[-2.334921E-4,-4.29537E-2,5.0779456E-1,8.716035E-1,-2.966401E-1,1.0665346E-1,-1.6299911E-1,-3.572313E-2,1.9811112E-1],"categories":[],"categories_nodes":[],"categories_segments":[],"categories_sizes":[],"default_left":[0,0,0,0,0,0,0,0,0],"id":86,"left_children":[1,3,-1,5,7,-1,-1,-1,-1],"loss_changes":[5.015993E2,4.7245203E2,0E0,3.9677954E2,4.2817313E2,0E0,0E0,0E0,0E0],"parents":[2147483647,0,0,1,1,3,3,4,4],"right_children":[2,4,-1,6,8,-1,-1,-1,-1],"split_conditions":[7.692418E-1,1.3287766E-1,5.0779456E-1,8.81581E-2,3.008859E-1,1.0665346E-1,-1.6299911E-1,-3.572313E-2,1.9811112E-1],"split_indices":[443,1305,0,83,916,0,0,0,0],"split_type":[0,0,0,0,0,0,0,0,0],"sum_hessian":[2.051E3,2.036E3,1.5E1,4.42E2,1.594E3,3.94E2,4.8E1,1.53E3,6.4E1],"tree_param":{"num_deleted":"0","num_feature":"4105","num_nodes":"9","size_leaf_vector":"1"}},{"base_weights":[-1.0984186E-2,-3.1453307E0,5.4903455E-2,-9.201371E-1,-5.0559464E0,6.311624E-1,1.621827E-2,-1.3251029E-1,-1.7716412E-2,-5.4863065E-1,-3.31532E-1,1.3702878E-2,-1.3708225E-1],"categories":[],"categories_nodes":[],"categories_segments":[],"categories_sizes":[],"default_left":[0,0,0,0,0,0,0,0,0,0,0,0,0],"id":87,"left_children":[1,3,5,7,9,-1,11,-1,-1,-1,-1,-1,-1],"loss_changes":[4.3321075E2,1.8258798E2,5.609218E2,8.246962E0,2.990979E1,0E0,4.412356E2,0E0,0E0,0E0,0E0,0E0,0E0],"parents":[2147483647,0,0,1,1,2,2,3,3,4,4,6,6],"right_children":[2,4,6,8,10,-1,12,-1,-1,-1,-1,-1,-1],"split_conditions":[1.3278844E-3,5.4652426E-2,3.2386954E-3,3.4288946E-1,9.242433E-3,6.311624E-1,4.1477764E-1,-1.3251029E-1,-1.7716412E-2,-5.4863065E-1,-3.31532E-1,1.3702878E-2,-1.3708225E-1],"split_indices":[226,1074,1380,3759,968,0,2599,0,0,0,0,0,0],"split_type":[0,0,0,0,0,0,0,0,0,0,0,0,0],"sum_hessian":[2.097E3,4.3E1,2.054E3,2E1,2.3E1,1.1E1,2.043E3,1.1E1,9E0,1.2E1,1.1E1,1.877E3,1.66E2],"tree_param":{"num_deleted":"0","num_feature":"4105","num_nodes":"13","size_leaf_vector":"1"}},{"base_weights":[1.728858E-2,4.35934E-1,-5.8113486E-1,3.0267042E-1,3.9444337E0,-5.043537E-1,-6.6997254E-1,-1.43189E-3,1.3068847E-1,7.15731E-1,1.9294798E-1,5.6011957E-1,-5.1445685E-2],"categories":[],"categories_nodes":[],"categories_segments":[],"categories_sizes":[],"default_left":[0,0,0,0,0,0,0,0,0,0,0,0,0],"id":88,"left_children":[1,3,5,7,9,11,-1,-1,-1,-1,-1,-1,-1],"loss_changes":[5.144239E2,5.6456274E2,4.5155148E2,