{"learner":{"attributes":{"scikit_learn":"{\"_estimator_type\": \"regressor\"}"},"feature_names":[],"feature_types":[],"gradient_booster":{"model":{"gbtree_model_param":{"num_parallel_tree":"1","num_trees":"435"},"iteration_indptr":[0,1,2,3,4,5,6,7,8,9,10,11,12,13,14,15,16,17,18,19,20,21,22,23,24,25,26,27,28,29,30,31,32,33,34,35,36,37,38,39,40,41,42,43,44,45,46,47,48,49,50,51,52,53,54,55,56,57,58,59,60,61,62,63,64,65,66,67,68,69,70,71,72,73,74,75,76,77,78,79,80,81,82,83,84,85,86,87,88,89,90,91,92,93,94,95,96,97,98,99,100,101,102,103,104,105,106,107,108,109,110,111,112,113,114,115,116,117,118,119,120,121,122,123,124,125,126,127,128,129,130,131,132,133,134,135,136,137,138,139,140,141,142,143,144,145,146,147,148,149,150,151,152,153,154,155,156,157,158,159,160,161,162,163,164,165,166,167,168,169,170,171,172,173,174,175,176,177,178,179,180,181,182,183,184,185,186,187,188,189,190,191,192,193,194,195,196,197,198,199,200,201,202,203,204,205,206,207,208,209,210,211,212,213,214,215,216,217,218,219,220,221,222,223,224,225,226,227,228,229,230,231,232,233,234,235,236,237,238,239,240,241,242,243,244,245,246,247,248,249,250,251,252,253,254,255,256,257,258,259,260,261,262,263,264,265,266,267,268,269,270,271,272,273,274,275,276,277,278,279,280,281,282,283,284,285,286,287,288,289,290,291,292,293,294,295,296,297,298,299,300,301,302,303,304,305,306,307,308,309,310,311,312,313,314,315,316,317,318,319,320,321,322,323,324,325,326,327,328,329,330,331,332,333,334,335,336,337,338,339,340,341,342,343,344,345,346,347,348,349,350,351,352,353,354,355,356,357,358,359,360,361,362,363,364,365,366,367,368,369,370,371,372,373,374,375,376,377,378,379,380,381,382,383,384,385,386,387,388,389,390,391,392,393,394,395,396,397,398,399,400,401,402,403,404,405,406,407,408,409,410,411,412,413,414,415,416,417,418,419,420,421,422,423,424,425,426,427,428,429,430,431,432,433,434,435],"tree_info":[0,0,0,0,0,0,0,0,0,0,0,0,0,0,0,0,0,0,0,0,0,0,0,0,0,0,0,0,0,0,0,0,0,0,0,0,0,0,0,0,0,0,0,0,0,0,0,0,0,0,0,0,0,0,0,0,0,0,0,0,0,0,0,0,0,0,0,0,0,0,0,0,0,0,0,0,0,0,0,0,0,0,0,0,0,0,0,0,0,0,0,0,0,0,0,0,0,0,0,0,0,0,0,0,0,0,0,0,0,0,0,0,0,0,0,0,0,0,0,0,0,0,0,0,0,0,0,0,0,0,0,0,0,0,0,0,0,0,0,0,0,0,0,0,0,0,0,0,0,0,0,0,0,0,0,0,0,0,0,0,0,0,0,0,0,0,0,0,0,0,0,0,0,0,0,0,0,0,0,0,0,0,0,0,0,0,0,0,0,0,0,0,0,0,0,0,0,0,0,0,0,0,0,0,0,0,0,0,0,0,0,0,0,0,0,0,0,0,0,0,0,0,0,0,0,0,0,0,0,0,0,0,0,0,0,0,0,0,0,0,0,0,0,0,0,0,0,0,0,0,0,0,0,0,0,0,0,0,0,0,0,0,0,0,0,0,0,0,0,0,0,0,0,0,0,0,0,0,0,0,0,0,0,0,0,0,0,0,0,0,0,0,0,0,0,0,0,0,0,0,0,0,0,0,0,0,0,0,0,0,0,0,0,0,0,0,0,0,0,0,0,0,0,0,0,0,0,0,0,0,0,0,0,0,0,0,0,0,0,0,0,0,0,0,0,0,0,0,0,0,0,0,0,0,0,0,0,0,0,0,0,0,0,0,0,0,0,0,0,0,0,0,0,0,0,0,0,0,0,0,0,0,0,0,0,0,0,0,0,0,0,0,0,0,0,0,0,0,0,0,0,0,0,0,0,0,0,0,0,0,0,0,0,0,0,0,0,0,0,0,0,0,0,0,0,0,0,0,0,0,0,0,0,0,0],"trees":[{"base_weights":[-8.7650394E-1,1.8967172E2,-2.7838957E1,2.0305206E1,-5.83594E0,-1.4727257E2,-3.2387037E0,7.168253E-1,-2.9633648E0,-1.3454339E1,-2.48456E-1,9.590482E-1,-5.684901E0],"categories":[],"categories_nodes":[],"categories_segments":[],"categories_sizes":[],"default_left":[0,0,0,0,0,0,0,0,0,0,0,0,0],"id":0,"left_children":[1,3,5,-1,7,9,11,-1,-1,-1,-1,-1,-1],"loss_changes":[1.0410837E7,1.92822E6,5.215583E6,0E0,1.6242598E4,1.93428E5,1.2590129E6,0E0,0E0,0E0,0E0,0E0,0E0],"parents":[2147483647,0,0,1,1,2,2,4,4,5,5,6,6],"right_children":[2,4,6,-1,8,10,12,-1,-1,-1,-1,-1,-1],"split_conditions":[-6.9462955E-1,4.363346E-2,5.5847168E-2,2.0305206E1,1.8052529E-1,4.1632283E-1,4.6401078E-1,7.168253E-1,-2.9633648E0,-1.3454339E1,-2.48456E-1,9.590482E-1,-5.684901E0],"split_indices":[4101,4069,4104,0,1559,1023,2753,0,0,0,0,0,0],"split_type":[0,0,0,0,0,0,0,0,0,0,0,0,0],"sum_hessian":[2.026E3,2.51E2,1.775E3,2.09E2,4.2E1,3.03E2,1.472E3,2.8E1,1.4E1,2.94E2,9E0,1.196E3,2.76E2],"tree_param":{"num_deleted":"0","num_feature":"4105","num_nodes":"13","size_leaf_vector":"1"}},{"base_weights":[1.7051075E0,1.7238214E2,-2.448017E1,-7.5428023E0,1.8507235E1,-1.3377452E2,-2.768357E0,6.536715E-1,-2.7120798E0,-1.22583885E1,6.6493964E-1,9.5200294E-1,-5.2884507E0],"categories":[],"categories_nodes":[],"categories_segments":[],"categories_sizes":[],"default_left":[0,0,0,0,0,0,0,0,0,0,0,0,0],"id":1,"left_children":[1,3,5,7,-1,9,11,-1,-1,-1,-1,-1,-1],"loss_changes":[9.212718E6,1.789969E6,4.240887E6,1.5909154E4,0E0,1.85656E5,1.1448368E6,0E0,0E0,0E0,0E0,0E0,0E0],"parents":[2147483647,0,0,1,1,2,2,3,3,5,5,6,6],"right_children":[2,4,6,8,-1,10,12,-1,-1,-1,-1,-1,-1],"split_conditions":[-6.9462955E-1,1.433342E-1,3.66E3,9.408376E-2,1.8507235E1,1.0224449E-1,4.6401078E-1,6.536715E-1,-2.7120798E0,-1.22583885E1,6.6493964E-1,9.5200294E-1,-5.2884507E0],"split_indices":[4101,2820,4096,1253,0,1704,2753,0,0,0,0,0,0],"split_type":[0,0,0,0,0,0,0,0,0,0,0,0,0],"sum_hessian":[2.061E3,2.74E2,1.787E3,4.6E1,2.28E2,2.96E2,1.491E3,2.8E1,1.8E1,2.87E2,9E0,1.205E3,2.86E2],"tree_param":{"num_deleted":"0","num_feature":"4105","num_nodes":"13","size_leaf_vector":"1"}},{"base_weights":[-1.8953218E-1,-2.1094536E1,1.5858006E2,-1.2311393E2,-8.387494E-1,1.8962552E2,1.2028644E1,-1.18005085E1,-7.6191626E0,1.2678207E0,-4.1067333E0,1.303553E1,1.6985996E1,1.3225058E0,9.8998517E-1],"categories":[],"categories_nodes":[],"categories_segments":[],"categories_sizes":[],"default_left":[0,0,0,0,0,0,0,0,0,0,0,0,0,0,0],"id":2,"left_children":[1,3,5,7,9,11,13,-1,-1,-1,-1,-1,-1,-1,-1],"loss_changes":[6.851834E6,3.769633E6,1.092365E6,1.095045E5,1.04734875E6,1.0591E4,7.3342285E1,0E0,0E0,0E0,0E0,0E0,0E0,0E0,0E0],"parents":[2147483647,0,0,1,1,2,2,3,3,4,4,5,5,6,6],"right_children":[2,4,6,8,10,12,14,-1,-1,-1,-1,-1,-1,-1,-1],"split_conditions":[1.2330018E0,3.66E3,5.951804E-1,9.669477E-2,2.8835943E-1,6.805591E-4,1.5148656E-1,-1.18005085E1,-7.6191626E0,1.2678207E0,-4.1067333E0,1.303553E1,1.6985996E1,1.3225058E0,9.8998517E-1],"split_indices":[866,4096,2581,1561,2188,3427,0,0,0,0,0,0,0,0,0],"split_type":[0,0,0,0,0,0,0,0,0,0,0,0,0,0,0],"sum_hessian":[2.064E3,1.824E3,2.4E2,3.02E2,1.522E3,1.98E2,4.2E1,2.38E2,6.4E1,1.142E3,3.8E2,9E0,1.89E2,9E0,3.3E1],"tree_param":{"num_deleted":"0","num_feature":"4105","num_nodes":"15","size_leaf_vector":"1"}},{"base_weights":[-1.4504179E0,1.3958531E2,-2.2024248E1,-4.3443522E0,1.5554037E1,-1.10162224E2,-3.1168976E0,-2.1122596E0,4.8497158E-1,-1.0192995E1,4.263203E0,3.9099807E-1,-6.9117475E0],"categories":[],"categories_nodes":[],"categories_segments":[],"categories_sizes":[],"default_left":[0,0,0,0,0,0,0,0,0,0,0,0,0],"id":3,"left_children":[1,3,5,7,-1,9,11,-1,-1,-1,-1,-1,-1],"loss_changes":[5.839236E6,1.319399E6,2.9265428E6,9.804411E3,0E0,2.3458425E5,8.142052E5,0E0,0E0,0E0,0E0,0E0,0E0],"parents":[2147483647,0,0,1,1,2,2,3,3,5,5,6,6],"right_children":[2,4,6,8,-1,10,12,-1,-1,-1,-1,-1,-1],"split_conditions":[-6.9462955E-1,5.351931E-1,3.66E3,1.1744647E-1,1.5554037E1,1.0224449E-1,4.4133168E-1,-2.1122596E0,4.8497158E-1,-1.0192995E1,4.263203E0,3.9099807E-1,-6.9117475E0],"split_indices":[4101,2223,4096,2222,0,1704,2305,0,0,0,0,0,0],"split_type":[0,0,0,0,0,0,0,0,0,0,0,0,0],"sum_hessian":[2.012E3,2.56E2,1.756E3,5.1E1,2.05E2,3.1E2,1.446E3,1.7E1,3.4E1,3.01E2,9E0,1.314E3,1.32E2],"tree_param":{"num_deleted":"0","num_feature":"4105","num_nodes":"13","size_leaf_vector":"1"}},{"base_weights":[-9.611161E-2,-7.272413E1,2.9208551E1,-1.02221375E2,-3.1880692E1,1.073923E1,1.6431871E2,-6.2249746E0,-9.701369E0,-6.519171E0,-1.0967245E0,4.3047738E-1,1.4111167E1,1.4174254E1,1.8954462E1],"categories":[],"categories_nodes":[],"categories_segments":[],"categories_sizes":[],"default_left":[0,0,0,0,0,0,0,0,0,0,0,0,0,0,0],"id":4,"left_children":[1,3,5,7,9,11,13,-1,-1,-1,-1,-1,-1,-1,-1],"loss_changes":[4.37667E6,7.1162675E5,3.6558845E6,7.7231E4,2.0141345E5,1.1255718E6,3.2796E4,0E0,0E0,0E0,0E0,0E0,0E0,0E0,0E0],"parents":[2147483647,0,0,1,1,2,2,3,3,4,4,5,5,6,6],"right_children":[2,4,6,8,10,12,14,-1,-1,-1,-1,-1,-1,-1,-1],"split_conditions":[4.4824532E-4,2.108929E-3,4.485774E-1,1.6340186E-1,1.5451786E-1,9.6303E-1,7.128809E-2,-6.2249746E0,-9.701369E0,-6.519171E0,-1.0967245E0,4.3047738E-1,1.4111167E1,1.4174254E1,1.8954462E1],"split_indices":[3736,4046,3025,3455,2995,4085,2184,0,0,0,0,0,0,0,0],"split_type":[0,0,0,0,0,0,0,0,0,0,0,0,0,0,0],"sum_hessian":[2.056E3,5.91E2,1.465E3,3.43E2,2.48E2,1.289E3,1.76E2,6.3E1,2.8E2,7.9E1,1.69E2,1.24E3,4.9E1,1.62E2,1.4E1],"tree_param":{"num_deleted":"0","num_feature":"4105","num_nodes":"15","size_leaf_vector":"1"}},{"base_weights":[-5.2769494E-1,-1.7391882E1,1.2152187E2,-6.8648E1,7.690466E0,1.4486049E2,1.0108964E1,-8.292372E0,-2.7560196E0,2.2350033E-1,1.1468534E1,1.5768012E1,1.2699433E1,1.1555091E0,8.220279E-1],"categories":[],"categories_nodes":[],"categories_segments":[],"categories_sizes":[],"default_left":[0,0,0,0,0,0,0,0,0,0,0,0,0,0,0],"id":5,"left_children":[1,3,5,7,9,11,13,-1,-1,-1,-1,-1,-1,-1,-1],"loss_changes":[4.207883E6,2.3093245E6,6.45066E5,5.5040325E5,7.583924E5,6.5405E3,8.265967E1,0E0,0E0,0E0,0E0,0E0,0E0,0E0,0E0],"parents":[2147483647,0,0,1,1,2,2,3,3,4,4,5,5,6,6],"right_children":[2,4,6,8,10,12,14,-1,-1,-1,-1,-1,-1,-1,-1],"split_conditions":[1.1438271E0,4.4824532E-4,5.951804E-1,2.108929E-3,7.4436796E-1,9.880032E-3,4.5961298E-2,-8.292372E0,-2.7560196E0,2.2350033E-1,1.1468534E1,1.5768012E1,1.2699433E1,1.1555091E0,8.220279E-1],"split_indices":[866,3736,2581,4046,294,3828,1887,0,0,0,0,0,0,0,0],"split_type":[0,0,0,0,0,0,0,0,0,0,0,0,0,0,0],"sum_hessian":[2.044E3,1.796E3,2.48E2,5.9E2,1.206E3,2.05E2,4.3E1,3.55E2,2.35E2,1.157E3,4.9E1,9E0,1.96E2,9E0,3.4E1],"tree_param":{"num_deleted":"0","num_feature":"4105","num_nodes":"15","size_leaf_vector":"1"}},{"base_weights":[7.855607E-1,1.0930572E2,-1.5505416E1,1.3365463E2,-4.2301736E0,-1.516226E0,-8.72912E1,1.3201803E1,1.1636101E1,3.8413244E-1,-1.589978E0,-3.5858992E-1,1.697869E1,-4.0512434E-1,-8.004907E0],"categories":[],"categories_nodes":[],"categories_segments":[],"categories_sizes":[],"default_left":[0,0,0,0,0,0,0,0,0,0,0,0,0,0,0],"id":6,"left_children":[1,3,5,7,9,11,13,-1,-1,-1,-1,-1,-1,-1,-1],"loss_changes":[3.605403E6,7.3598275E5,1.7806529E6,4.5085E3,5.5479893E3,7.236873E5,7.07265E4,0E0,0E0,0E0,0E0,0E0,0E0,0E0,0E0],"parents":[2147483647,0,0,1,1,2,2,3,3,4,4,5,5,6,6],"right_children":[2,4,6,8,10,12,14,-1,-1,-1,-1,-1,-1,-1,-1],"split_conditions":[-6.9462955E-1,1.2824913E-2,6.815043E-1,1.2330018E0,1.5116125E-1,3.7161082E-1,2.0367165E-1,1.3201803E1,1.1636101E1,3.8413244E-1,-1.589978E0,-3.5858992E-1,1.697869E1,-4.0512434E-1,-8.004907E0],"split_indices":[4101,2833,2536,866,1874,178,2190,0,0,0,0,0,0,0,0],"split_type":[0,0,0,0,0,0,0,0,0,0,0,0,0,0,0],"sum_hessian":[2.039E3,2.66E2,1.773E3,2.19E2,4.7E1,1.484E3,2.89E2,2.9E1,1.9E2,2.9E1,1.8E1,1.465E3,1.9E1,1E1,2.79E2],"tree_param":{"num_deleted":"0","num_feature":"4105","num_nodes":"15","size_leaf_vector":"1"}},{"base_weights":[5.609753E-1,-1.9753239E1,6.8284515E1,-6.0584435E1,4.6864157E0,1.1191553E1,1.2049462E2,-7.220785E0,-2.8357136E0,7.07745E-1,-6.324171E0,-5.5917683E0,1.3006837E0,1.1272589E1,8.8629985E-1],"categories":[],"categories_nodes":[],"categories_segments":[],"categories_sizes":[],"default_left":[0,0,0,0,0,0,0,0,0,0,0,0,0,0,0],"id":7,"left_children":[1,3,5,7,9,11,13,-1,-1,-1,-1,-1,-1,-1,-1],"loss_changes":[2.833186E6,1.5809174E6,1.4161988E6,3.529875E5,2.4813175E5,5.8746594E4,1.8070225E5,0E0,0E0,0E0,0E0,0E0,0E0,0E0,0E0],"parents":[2147483647,0,0,1,1,2,2,3,3,4,4,5,5,6,6],"right_children":[2,4,6,8,10,12,14,-1,-1,-1,-1,-1,-1,-1,-1],"split_conditions":[1.2703089E-2,2.0220524E-3,4.0155524E-1,6.8127185E-2,1.3771937E0,5.987931E-4,2.7680728E-1,-7.220785E0,-2.8357136E0,7.07745E-1,-6.324171E0,-5.5917683E0,1.3006837E0,1.1272589E1,8.8629985E-1],"split_indices":[2638,2463,294,2313,2274,2806,3251,0,0,0,0,0,0,0,0],"split_type":[0,0,0,0,0,0,0,0,0,0,0,0,0,0,0],"sum_hessian":[2.059E3,1.584E3,4.75E2,5.93E2,9.91E2,2.27E2,2.48E2,3.43E2,2.5E2,9.5E2,4.1E1,1E1,2.17E2,2.34E2,1.4E1],"tree_param":{"num_deleted":"0","num_feature":"4105","num_nodes":"15","size_leaf_vector":"1"}},{"base_weights":[-9.708688E-1,-2.7916565E1,3.9725033E1,-5.7609127E1,1.1184253E0,2.0151258E1,1.1467072E2,-5.5471587E0,3.3295338E0,1.2512109E1,-8.623363E-2,1.2565387E0,1.0259638E1,1.5809691E1,9.797846E0],"categories":[],"categories_nodes":[],"categories_segments":[],"categories_sizes":[],"default_left":[0,0,0,0,0,0,0,0,0,0,0,0,0,0,0],"id":8,"left_children":[1,3,5,7,9,11,13,-1,-1,-1,-1,-1,-1,-1,-1],"loss_changes":[2.2495002E6,1.0640365E6,1.1983518E6,2.867925E5,1.8265827E5,3.7021766E5,4.15075E4,0E0,0E0,0E0,0E0,0E0,0E0,0E0,0E0],"parents":[2147483647,0,0,1,1,2,2,3,3,4,4,5,5,6,6],"right_children":[2,4,6,8,10,12,14,-1,-1,-1,-1,-1,-1,-1,-1],"split_conditions":[5.4720944E-1,1.19635E4,3.938444E-1,4.512763E-2,4.6699846E-1,4.7830233E-1,3.0006275E-1,-5.5471587E0,3.3295338E0,1.2512109E1,-8.623363E-2,1.2565387E0,1.0259638E1,1.5809691E1,9.797846E0],"split_indices":[441,4096,2137,3040,1259,3025,226,0,0,0,0,0,0,0,0],"split_type":[0,0,0,0,0,0,0,0,0,0,0,0,0,0,0],"sum_hessian":[2.051E3,1.234E3,8.17E2,6.1E2,6.24E2,6.48E2,1.69E2,5.8E2,3E1,9E0,6.15E2,6.1E2,3.8E1,1E1,1.59E2],"tree_param":{"num_deleted":"0","num_feature":"4105","num_nodes":"15","size_leaf_vector":"1"}},{"base_weights":[-4.2785633E-2,8.1673744E1,-1.245639E1,1.0096062E2,-1.5895684E0,2.7019236E-2,-6.342965E1,1.019599E1,8.763949E0,-8.7224877E-1,2.9569787E-1,-1.9888589E-1,1.3427006E1,-6.320227E0,-3.7164629E-1],"categories":[],"categories_nodes":[],"categories_segments":[],"categories_sizes":[],"default_left":[0,0,0,0,0,0,0,0,0,0,0,0,0,0,0],"id":9,"left_children":[1,3,5,7,9,11,13,-1,-1,-1,-1,-1,-1,-1,-1],"loss_changes":[2.0859814E6,4.3553188E5,1.1359532E6,4.48E3,2.0841768E3,4.926803E5,1.6278712E5,0E0,0E0,0E0,0E0,0E0,0E0,0E0,0E0],"parents":[2147483647,0,0,1,1,2,2,3,3,4,4,5,5,6,6],"right_children":[2,4,6,8,10,12,14,-1,-1,-1,-1,-1,-1,-1,-1],"split_conditions":[-6.9462955E-1,2.5136005E-2,1.5362553E-2,1.2330018E0,3.172021E-5,3.7161082E-1,4.3137074E-2,1.019599E1,8.763949E0,-8.7224877E-1,2.9569787E-1,-1.9888589E-1,1.3427006E1,-6.320227E0,-3.7164629E-1],"split_indices":[4101,3445,3100,866,2508,178,2532,0,0,0,0,0,0,0,0],"split_type":[0,0,0,0,0,0,0,0,0,0,0,0,0,0,0],"sum_hessian":[2.056E3,2.71E2,1.785E3,2.2E2,5.1E1,1.434E3,3.51E2,2.8E1,1.92E2,1.9E1,3.2E1,1.413E3,2.1E1,3.1E2,4.1E1],"tree_param":{"num_deleted":"0","num_feature":"4105","num_nodes":"15","size_leaf_vector":"1"}},{"base_weights":[8.4993504E-2,-2.4386942E1,3.5141727E1,-5.0522583E1,9.9143314E-1,1.3707486E1,9.181116E1,-1.7910271E0,-5.5421114E0,8.363193E0,-5.1408034E-2,-3.3186789E0,1.5582634E0,7.6598225E0,1.450442E1],"categories":[],"categories_nodes":[],"categories_segments":[],"categories_sizes":[],"default_left":[0,0,0,0,0,0,0,0,0,0,0,0,0,0,0],"id":10,"left_children":[1,3,5,7,9,11,13,-1,-1,-1,-1,-1,-1,-1,-1],"loss_changes":[1.7658948E6,8.040315E5,1.0275968E6,2.164175E5,9.018442E4,1.2136071E5,8.8094625E4,0E0,0E0,0E0,0E0,0E0,0E0,0E0,0E0],"parents":[2147483647,0,0,1,1,2,2,3,3,4,4,5,5,6,6],"right_children":[2,4,6,8,10,12,14,-1,-1,-1,-1,-1,-1,-1,-1],"split_conditions":[5.4720944E-1,1.19635E4,4.9390024E-1,-6.5917224E-1,9.679861E-2,1.386141E-2,4.6849053E-2,-1.7910271E0,-5.5421114E0,8.363193E0,-5.1408034E-2,-3.3186789E0,1.5582634E0,7.6598225E0,1.450442E1],"split_indices":[441,4096,294,4101,2665,3309,3860,0,0,0,0,0,0,0,0],"split_type":[0,0,0,0,0,0,0,0,0,0,0,0,0,0,0],"sum_hessian":[2.058E3,1.212E3,8.46E2,5.97E2,6.15E2,6.14E2,2.32E2,1.69E2,4.28E2,1E1,6.05E2,4.3E1,5.71E2,2.16E2,1.6E1],"tree_param":{"num_deleted":"0","num_feature":"4105","num_nodes":"15","size_leaf_vector":"1"}},{"base_weights":[-6.5960425E-1,-2.5509607E1,2.7209791E1,-5.421665E1,-4.2674165E0,9.188898E0,8.328186E1,-5.025393E0,2.5212762E-1,-9.332156E-2,-4.428417E0,1.2537475E0,-4.021446E0,7.897023E0,3.6038128E-1],"categories":[],"categories_nodes":[],"categories_segments":[],"categories_sizes":[],"default_left":[0,0,0,0,0,0,0,0,0,0,0,0,0,0,0],"id":11,"left_children":[1,3,5,7,9,11,13,-1,-1,-1,-1,-1,-1,-1,-1],"loss_changes":[1.4269242E6,6.641426E5,9.812091E5,6.45705E4,9.192019E4,1.984165E5,1.07568125E5,0E0,0E0,0E0,0E0,0E0,0E0,0E0,0E0],"parents":[2147483647,0,0,1,1,2,2,3,3,4,4,5,5,6,6],"right_children":[2,4,6,8,10,12,14,-1,-1,-1,-1,-1,-1,-1,-1],"split_conditions":[2.429204E-1,9.044772E-3,4.9390024E-1,3.0096045E-1,2.3295645E-1,1.966917E-1,4.742394E-1,-5.025393E0,2.5212762E-1,-9.332156E-2,-4.428417E0,1.2537475E0,-4.021446E0,7.897023E0,3.6038128E-1],"split_indices":[1755,3443,294,3006,2305,3562,3548,0,0,0,0,0,0,0,0],"split_type":[0,0,0,0,0,0,0,0,0,0,0,0,0,0,0],"sum_hessian":[2.06E3,1.089E3,9.71E2,4.63E2,6.26E2,7.35E2,2.36E2,4.44E2,1.9E1,5.85E2,4.1E1,6.74E2,6.1E1,2.2E2,1.6E1],"tree_param":{"num_deleted":"0","num_feature":"4105","num_nodes":"15","size_leaf_vector":"1"}},{"base_weights":[3.270478E-1,6.4733955E1,-9.318144E0,7.767115E1,-8.852342E-1,-3.3895004E1,6.5183635E0,8.667637E0,6.705996E0,2.8213957E-1,-7.0573235E-1,1.4205905E1,-3.2346885E0,4.6490884E-1,9.775913E0],"categories":[],"categories_nodes":[],"categories_segments":[],"categories_sizes":[],"default_left":[0,0,0,0,0,0,0,0,0,0,0,0,0,0,0],"id":12,"left_children":[1,3,5,7,9,11,13,-1,-1,-1,-1,-1,-1,-1,-1],"loss_changes":[1.2743486E6,2.2683912E5,6.9446944E5,7.8405E3,1.2755164E3,3.5039988E5,1.4356747E5,0E0,0E0,0E0,0E0,0E0,0E0,0E0,0E0],"parents":[2147483647,0,0,1,1,2,2,3,3,4,4,5,5,6,6],"right_children":[2,4,6,8,10,12,14,-1,-1,-1,-1,-1,-1,-1,-1],"split_conditions":[-6.9462955E-1,8.723644E-2,1.76E2,3.4590125E-2,1.0851853E-1,4.8744075E-2,3.7415978E-1,8.667637E0,6.705996E0,2.8213957E-1,-7.0573235E-1,1.4205905E1,-3.2346885E0,4.6490884E-1,9.775913E0],"split_indices":[4101,2845,4099,1067,1583,4081,2222,0,0,0,0,0,0,0,0],"split_type":[0,0,0,0,0,0,0,0,0,0,0,0,0,0,0],"sum_hessian":[2.051E3,2.67E2,1.784E3,2.23E2,4.4E1,6.99E2,1.085E3,2E1,2.03E2,2.8E1,1.6E1,9E0,6.9E2,1.072E3,1.3E1],"tree_param":{"num_deleted":"0","num_feature":"4105","num_nodes":"15","size_leaf_vector":"1"}},{"base_weights":[-3.1273353E-1,-2.174234E1,2.3676485E1,-4.5801216E1,-3.9495158E0,8.581091E0,7.038347E1,-4.2956E0,8.2963455E-1,-1.13931865E-1,-3.8842657E0,1.1556494E0,-3.2911768E0,6.615743E0,2.9210377E-1],"categories":[],"categories_nodes":[],"categories_segments":[],"categories_sizes":[],"default_left":[0,0,0,0,0,0,0,0,0,0,0,0,0,0,0],"id":13,"left_children":[1,3,5,7,9,11,13,-1,-1,-1,-1,-1,-1,-1,-1],"loss_changes":[1.05817E6,4.6536334E5,6.8463075E5,6.711406E4,6.63725E4,1.492984E5,6.68735E4,0E0,0E0,0E0,0E0,0E0,0E0,0E0,0E0],"parents":[2147483647,0,0,1,1,2,2,3,3,4,4,5,5,6,6],"right_children":[2,4,6,8,10,12,14,-1,-1,-1,-1,-1,-1,-1,-1],"split_conditions":[2.429204E-1,9.044772E-3,4.9390024E-1,3.0096045E-1,2.3295645E-1,1.966917E-1,6.277293E-2,-4.2956E0,8.2963455E-1,-1.13931865E-1,-3.8842657E0,1.1556494E0,-3.2911768E0,6.615743E0,2.9210377E-1],"split_indices":[1755,3443,294,3006,2305,3562,2136,0,0,0,0,0,0,0,0],"split_type":[0,0,0,0,0,0,0,0,0,0,0,0,0,0,0],"sum_hessian":[2.058E3,1.087E3,9.71E2,4.62E2,6.25E2,7.34E2,2.37E2,4.41E2,2.1E1,5.86E2,3.9E1,6.69E2,6.5E1,2.23E2,1.4E1],"tree_param":{"num_deleted":"0","num_feature":"4105","num_nodes":"15","size_leaf_vector":"1"}},{"base_weights":[2.694445E-1,-1.9310688E1,2.2973642E1,-4.4583977E1,-6.6659236E0,1.0341373E1,6.1521557E1,-4.076521E0,-2.7483842E-1,8.667073E0,-8.0933285E-1,-4.402602E0,1.0228368E0,5.8533506E0,-1.9879663E0],"categories":[],"categories_nodes":[],"categories_segments":[],"categories_sizes":[],"default_left":[0,0,0,0,0,0,0,0,0,0,0,0,0,0,0],"id":14,"left_children":[1,3,5,7,9,11,13,-1,-1,-1,-1,-1,-1,-1,-1],"loss_changes":[9.266125E5,3.576071E5,4.6987447E5,2.1284188E4,1.916851E5,5.203415E4,8.968256E4,0E0,0E0,0E0,0E0,0E0,0E0,0E0,0E0],"parents":[2147483647,0,0,1,1,2,2,3,3,4,4,5,5,6,6],"right_children":[2,4,6,8,10,12,14,-1,-1,-1,-1,-1,-1,-1,-1],"split_conditions":[4.006876E-1,1.02901505E-2,4.9390024E-1,6.197318E-1,1.8968856E-2,6.391241E-3,-6.209928E-1,-4.076521E0,-2.7483842E-1,8.667073E0,-8.0933285E-1,-4.402602E0,1.0228368E0,5.8533506E0,-1.9879663E0],"split_indices":[1145,2411,294,110,2750,3140,4101,0,0,0,0,0,0,0,0],"split_type":[0,0,0,0,0,0,0,0,0,0,0,0,0,0,0],"sum_hessian":[2.084E3,1.119E3,9.65E2,3.73E2,7.46E2,7.27E2,2.38E2,3.61E2,1.2E1,1.7E1,7.29E2,1.4E1,7.13E2,2.26E2,1.2E1],"tree_param":{"num_deleted":"0","num_feature":"4105","num_nodes":"15","size_leaf_vector":"1"}},{"base_weights":[-3.048616E-1,1.5486612E1,-2.4164759E1,5.654297E1,6.2359233E0,-4.089366E1,-4.0793886E0,7.3182493E-1,5.1919847E0,9.130633E0,3.6813766E-1,-3.8622901E0,1.9211193E0,-2.9560091E0,-1.7232057E-1],"categories":[],"categories_nodes":[],"categories_segments":[],"categories_sizes":[],"default_left":[0,0,0,0,0,0,0,0,0,0,0,0,0,0,0],"id":15,"left_children":[1,3,5,7,9,11,13,-1,-1,-1,-1,-1,-1,-1,-1],"loss_changes":[7.702863E5,4.6715703E5,2.7353978E5,2.1686375E4,2.0243134E5,7.385394E4,2.3120117E4,0E0,0E0,0E0,0E0,0E0,0E0,0E0,0E0],"parents":[2147483647,0,0,1,1,2,2,3,3,4,4,5,5,6,6],"right_children":[2,4,6,8,10,12,14,-1,-1,-1,-1,-1,-1,-1,-1],"split_conditions":[4.0991575E-1,-6.9462955E-1,1.4004406E-1,1.0819744E-1,2.1920586E-2,7.311928E-4,1.741627E0,7.3182493E-1,5.1919847E0,9.130633E0,3.6813766E-1,-3.8622901E0,1.9211193E0,-2.9560091E0,-1.7232057E-1],"split_indices":[1949,4101,1240,639,3586,2396,3270,0,0,0,0,0,0,0,0],"split_type":[0,0,0,0,0,0,0,0,0,0,0,0,0,0,0],"sum_hessian":[2.044E3,1.23E3,8.14E2,2.26E2,1.004E3,4.44E2,3.7E2,9E0,2.17E2,2.1E1,9.83E2,4.26E2,1.8E1,2.5E1,3.45E2],"tree_param":{"num_deleted":"0","num_feature":"4105","num_nodes":"15","size_leaf_vector":"1"}},{"base_weights":[-1.00042075E-1,-1.7406153E1,1.8703756E1,-3.5511253E1,-3.199896E0,7.628456E0,5.3678772E1,-3.3260925E0,6.091783E-1,2.5810058E0,-5.121552E-1,9.749154E-1,-2.788821E0,4.3581166E0,8.811106E0],"categories":[],"categories_nodes":[],"categories_segments":[],"categories_sizes":[],"default_left":[0,0,0,0,0,0,0,0,0,0,0,0,0,0,0],"id":16,"left_children":[1,3,5,7,9,11,13,-1,-1,-1,-1,-1,-1,-1,-1],"loss_changes":[6.6690975E5,2.7446466E5,3.8038062E5,3.9591562E4,4.9770977E4,9.811611E4,4.8073688E4,0E0,0E0,0E0,0E0,0E0,0E0,0E0,0E0],"parents":[2147483647,0,0,1,1,2,2,3,3,4,4,5,5,6,6],"right_children":[2,4,6,8,10,12,14,-1,-1,-1,-1,-1,-1,-1,-1],"split_conditions":[2.429204E-1,9.044772E-3,4.9390024E-1,3.0096045E-1,9.766457E-4,1.966917E-1,4.6849053E-2,-3.3260925E0,6.091783E-1,2.5810058E0,-5.121552E-1,9.749154E-1,-2.788821E0,4.3581166E0,8.811106E0],"split_indices":[1755,3443,294,3006,3900,3562,3860,0,0,0,0,0,0,0,0],"split_type":[0,0,0,0,0,0,0,0,0,0,0,0,0,0,0],"sum_hessian":[2.049E3,1.067E3,9.82E2,4.69E2,5.98E2,7.46E2,2.36E2,4.48E2,2.1E1,4.4E1,5.54E2,6.87E2,5.9E1,2.15E2,2.1E1],"tree_param":{"num_deleted":"0","num_feature":"4105","num_nodes":"15","size_leaf_vector":"1"}},{"base_weights":[4.547274E-1,-1.5903184E1,1.7324669E1,-2.7853048E0,-2.9317282E1,8.428245E0,4.5970066E1,6.370713E0,-4.2781565E-1,-3.0646002E0,-3.1419376E-1,-1.203413E0,9.990972E-1,4.5295177E0,-1.5379412E0],"categories":[],"categories_nodes":[],"categories_segments":[],"categories_sizes":[],"default_left":[0,0,0,0,0,0,0,0,0,0,0,0,0,0,0],"id":17,"left_children":[1,3,5,7,9,11,13,-1,-1,-1,-1,-1,-1,-1,-1],"loss_changes":[5.7299094E5,1.8548362E5,2.6042178E5,8.114309E4,7.029322E4,4.8698324E4,7.833206E4,0E0,0E0,0E0,0E0,0E0,0E0,0E0,0E0],"parents":[2147483647,0,0,1,1,2,2,3,3,4,4,5,5,6,6],"right_children":[2,4,6,8,10,12,14,-1,-1,-1,-1,-1,-1,-1,-1],"split_conditions":[3.5507298E-1,4.2497814E-2,4.9390024E-1,1.5215164E-3,7.333822E-2,4.314551E-1,3.5270625E-1,6.370713E0,-4.2781565E-1,-3.0646002E0,-3.1419376E-1,-1.203413E0,9.990972E-1,4.5295177E0,-1.5379412E0],"split_indices":[1145,1432,294,3764,3517,2972,3251,0,0,0,0,0,0,0,0],"split_type":[0,0,0,0,0,0,0,0,0,0,0,0,0,0,0],"sum_hessian":[2.076E3,1.054E3,1.022E3,5.33E2,5.21E2,7.8E2,2.42E2,1.4E1,5.19E2,4.33E2,8.8E1,8.9E1,6.91E2,2.24E2,1.8E1],"tree_param":{"num_deleted":"0","num_feature":"4105","num_nodes":"15","size_leaf_vector":"1"}},{"base_weights":[-2.978561E-2,-1.4846116E1,1.577509E1,-3.9356089E0,-3.0820658E1,6.2644253E0,4.200544E1,-2.7341692E0,-1.0512201E-1,-2.8850782E0,3.5303763E-1,8.202078E-1,-2.2228348E0,4.217119E0,-2.4095418E-1],"categories":[],"categories_nodes":[],"categories_segments":[],"categories_sizes":[],"default_left":[0,0,0,0,0,0,0,0,0,0,0,0,0,0,0],"id":18,"left_children":[1,3,5,7,9,11,13,-1,-1,-1,-1,-1,-1,-1,-1],"loss_changes":[4.7873244E5,1.8388544E5,2.4672006E5,4.6379504E4,2.54625E4,6.790117E4,6.5236938E4,0E0,0E0,0E0,0E0,0E0,0E0,0E0,0E0],"parents":[2147483647,0,0,1,1,2,2,3,3,4,4,5,5,6,6],"right_children":[2,4,6,8,10,12,14,-1,-1,-1,-1,-1,-1,-1,-1],"split_conditions":[2.2517297E-1,3.781224E-1,4.5364964E-1,1.02901505E-2,1.2515298E-2,1.966917E-1,3.241157E-3,-2.7341692E0,-1.0512201E-1,-2.8850782E0,3.5303763E-1,8.202078E-1,-2.2228348E0,4.217119E0,-2.4095418E-1],"split_indices":[1755,1808,294,2411,3408,3562,3240,0,0,0,0,0,0,0,0],"split_type":[0,0,0,0,0,0,0,0,0,0,0,0,0,0,0],"sum_hessian":[2.044E3,1.055E3,9.89E2,6.27E2,4.28E2,7.26E2,2.63E2,5.8E1,5.69E2,4.08E2,2E1,6.63E2,6.3E1,2.34E2,2.9E1],"tree_param":{"num_deleted":"0","num_feature":"4105","num_nodes":"15","size_leaf_vector":"1"}},{"base_weights":[4.1585067E-1,-1.35338745E1,1.39849E1,-4.0186753E0,-2.7171871E1,6.095526E0,3.756972E1,5.7519326E0,-4.8554555E-1,-2.6748185E0,-7.667935E-1,6.6913116E-1,-3.2592425E0,3.8298225E0,-5.787832E-1],"categories":[],"categories_nodes":[],"categories_segments":[],"categories_sizes":[],"default_left":[0,0,0,0,0,0,0,0,0,0,0,0,0,0,0],"id":19,"left_children":[1,3,5,7,9,11,13,-1,-1,-1,-1,-1,-1,-1,-1],"loss_changes":[3.8318334E5,1.2951178E5,1.9089806E5,5.9028195E4,2.2636125E4,4.778679E4,6.3669938E4,0E0,0E0,0E0,0E0,0E0,0E0,0E0,0E0],"parents":[2147483647,0,0,1,1,2,2,3,3,4,4,5,5,6,6],"right_children":[2,4,6,8,10,12,14,-1,-1,-1,-1,-1,-1,-1,-1],"split_conditions":[3.1231943E-1,1.6601841E-1,4.5364964E-1,1.3963124E-2,1.9585998E-1,3.4127325E-1,5.251165E-2,5.7519326E0,-4.8554555E-1,-2.6748185E0,-7.667935E-1,6.6913116E-1,-3.2592425E0,3.8298225E0,-5.787832E-1],"split_indices":[1145,1453,294,3679,1947,3315,2210,0,0,0,0,0,0,0,0],"split_type":[0,0,0,0,0,0,0,0,0,0,0,0,0,0,0],"sum_hessian":[2.024E3,9.98E2,1.026E3,5.88E2,4.1E2,7.69E2,2.57E2,1.2E1,5.76E2,3.53E2,5.7E1,7.44E2,2.5E1,2.28E2,2.9E1],"tree_param":{"num_deleted":"0","num_feature":"4105","num_nodes":"15","size_leaf_vector":"1"}},{"base_weights":[5.7285953E-2,-1.5307456E1,1.0151091E1,-3.0072065E1,-8.050134E0,4.8199844E0,3.982684E1,-2.5626154E0,-4.1078005E0,-2.5742722E-1,-2.2694764E0,6.8724394E0,3.5319874E-1,5.201538E0,3.0155146E0],"categories":[],"categories_nodes":[],"categories_segments":[],"categories_sizes":[],"default_left":[0,0,0,0,0,0,0,0,0,0,0,0,0,0,0],"id":20,"left_children":[1,3,5,7,9,11,13,-1,-1,-1,-1,-1,-1,-1,-1],"loss_changes":[3.2434897E5,8.880217E4,1.9964666E5,4.980797E3,5.0196074E4,6.5094305E4,2.0700406E4,0E0,0E0,0E0,0E0,0E0,0E0,0E0,0E0],"parents":[2147483647,0,0,1,1,2,2,3,3,4,4,5,5,6,6],"right_children":[2,4,6,8,10,12,14,-1,-1,-1,-1,-1,-1,-1,-1],"split_conditions":[7.2537646E-2,4.2269342E2,6.4974475E-1,1.7255402E-1,6.050191E-1,2.1271375E-3,4.59154E-1,-2.5626154E0,-4.1078005E0,-2.5742722E-1,-2.2694764E0,6.8724394E0,3.5319874E-1,5.201538E0,3.0155146E0],"split_indices":[2722,4097,294,372,508,3186,783,0,0,0,0,0,0,0,0],"split_type":[0,0,0,0,0,0,0,0,0,0,0,0,0,0,0],"sum_hessian":[2.091E3,8.29E2,1.262E3,2.73E2,5.56E2,1.07E3,1.92E2,2.55E2,1.8E1,4.3E2,1.26E2,1.2E1,1.058E3,4.5E1,1.47E2],"tree_param":{"num_deleted":"0","num_feature":"4105","num_nodes":"15","size_leaf_vector":"1"}},{"base_weights":[-3.0193853E-1,-1.13577E1,1.1801161E1,-2.4656574E1,-4.5712013E0,5.745641E0,3.0746584E1,-2.2464588E0,1.260235E-1,3.9753586E-2,-2.1651688E0,-3.3747262E-1,9.1947395E-1,3.167099E0,-5.250972E-1],"categories":[],"categories_nodes":[],"categories_segments":[],"categories_sizes":[],"default_left":[0,0,0,0,0,0,0,0,0,0,0,0,0,0,0],"id":21,"left_children":[1,3,5,7,9,11,13,-1,-1,-1,-1,-1,-1,-1,-1],"loss_changes":[2.7221806E5,9.593372E4,1.1138475E5,6.292828E3,7.012895E4,3.2497129E4,4.2820297E4,0E0,0E0,0E0,0E0,0E0,0E0,0E0,0E0],"parents":[2147483647,0,0,1,1,2,2,3,3,4,4,5,5,6,6],"right_children":[2,4,6,8,10,12,14,-1,-1,-1,-1,-1,-1,-1,-1],"split_conditions":[3.385374E-1,1.02901505E-2,4.5364964E-1,6.197318E-1,4.922343E-1,4.92525E-2,5.251165E-2,-2.2464588E0,1.260235E-1,3.9753586E-2,-2.1651688E0,-3.3747262E-1,9.1947395E-1,3.167099E0,-5.250972E-1],"split_indices":[1145,2411,294,110,2901,3736,2210,0,0,0,0,0,0,0,0],"split_type":[0,0,0,0,0,0,0,0,0,0,0,0,0,0,0],"sum_hessian":[2.034E3,1.063E3,9.71E2,3.59E2,7.04E2,7.36E2,2.35E2,3.5E2,9E0,5.62E2,1.42E2,2.4E2,4.96E2,2.07E2,2.8E1],"tree_param":{"num_deleted":"0","num_feature":"4105","num_nodes":"15","size_leaf_vector":"1"}},{"base_weights":[2.8022176E-1,-1.0194493E1,1.1808629E1,-2.1443592E1,-1.6706434E0,5.137127E0,3.1858368E1,1.0403036E0,-2.028548E0,2.8494706E0,-3.150196E-1,-1.2512861E0,7.358964E-1,2.5167046E0,8.642755E0],"categories":[],"categories_nodes":[],"categories_segments":[],"categories_sizes":[],"default_left":[0,0,0,0,0,0,0,0,0,0,0,0,0,0,0],"id":22,"left_children":[1,3,5,7,9,11,13,-1,-1,-1,-1,-1,-1,-1,-1],"loss_changes":[2.4711395E5,1.0280016E5,1.302775E5,2.1932578E4,3.88124E4,4.4483844E4,5.504017E4,0E0,0E0,0E0,0E0,0E0,0E0,0E0,0E0],"parents":[2147483647,0,0,1,1,2,2,3,3,4,4,5,5,6,6],"right_children":[2,4,6,8,10,12,14,-1,-1,-1,-1,-1,-1,-1,-1],"split_conditions":[2.429204E-1,9.044772E-3,4.9390024E-1,7.741087E-2,3.2034455E-5,1.23E2,2.0648094E-2,1.0403036E0,-2.028548E0,2.8494706E0,-3.150196E-1,-1.2512861E0,7.358964E-1,2.5167046E0,8.642755E0],"split_indices":[1755,3443,294,3149,3450,4099,2811,0,0,0,0,0,0,0,0],"split_type":[0,0,0,0,0,0,0,0,0,0,0,0,0,0,0],"sum_hessian":[2.046E3,1.072E3,9.74E2,4.62E2,6.1E2,7.31E2,2.43E2,1.9E1,4.43E2,3.2E1,5.78E2,1.03E2,6.28E2,2.31E2,1.2E1],"tree_param":{"num_deleted":"0","num_feature":"4105","num_nodes":"15","size_leaf_vector":"1"}},{"base_weights":[-1.3664573E-1,-9.403729E0,1.0074124E1,-1.934338E1,9.753857E-1,2.795463E1,4.430828E0,1.536518E-1,-1.9204205E0,-6.70623E-2,3.261634E0,3.7865615E0,1.9370562E0,-4.047727E-1,7.3119366E-1],"categories":[],"categories_nodes":[],"categories_segments":[],"categories_sizes":[],"default_left":[0,0,0,0,0,0,0,0,0,0,0,0,0,0,0],"id":23,"left_children":[1,3,5,7,9,11,13,-1,-1,-1,-1,-1,-1,-1,-1],"loss_changes":[1.9335269E5,1.1051297E5,9.8074516E4,2.6628125E4,3.2496975E4,2.0837516E4,2.5358127E4,0E0,0E0,0E0,0E0,0E0,0E0,0E0,0E0],"parents":[2147483647,0,0,1,1,2,2,3,3,4,4,5,5,6,6],"right_children":[2,4,6,8,10,12,14,-1,-1,-1,-1,-1,-1,-1,-1],"split_conditions":[4.9439654E-2,5.2173972E-2,-2.9297597E0,3.468454E-4,1.9293557E-1,6.555122E-2,6.960332E-1,1.536518E-1,-1.9204205E0,-6.70623E-2,3.261634E0,3.7865615E0,1.9370562E0,-4.047727E-1,7.3119366E-1],"split_indices":[3736,3967,4103,3984,2934,554,3643,0,0,0,0,0,0,0,0],"split_type":[0,0,0,0,0,0,0,0,0,0,0,0,0,0,0],"sum_hessian":[2.043E3,1.071E3,9.72E2,5.47E2,5.24E2,2.33E2,7.39E2,5.4E1,4.93E2,5E2,2.4E1,6.8E1,1.65E2,2.2E2,5.19E2],"tree_param":{"num_deleted":"0","num_feature":"4105","num_nodes":"15","size_leaf_vector":"1"}},{"base_weights":[-5.756064E-2,-9.152229E0,8.967149E0,-3.2729414E0,-1.9191278E1,4.2228417E0,2.3788149E1,3.3352711E0,-3.8261768E-1,-1.8207921E0,5.5304986E-1,-2.7260783E-1,7.5343245E-1,2.4336371E0,-3.7896413E-1],"categories":[],"categories_nodes":[],"categories_segments":[],"categories_sizes":[],"default_left":[0,0,0,0,0,0,0,0,0,0,0,0,0,0,0],"id":24,"left_children":[1,3,5,7,9,11,13,-1,-1,-1,-1,-1,-1,-1,-1],"loss_changes":[1.7009402E5,6.09099E4,7.31216E4,2.7735809E4,1.2984844E4,2.4571203E4,2.5850922E4,0E0,0E0,0E0,0E0,0E0,0E0,0E0,0E0],"parents":[2147483647,0,0,1,1,2,2,3,3,4,4,5,5,6,6],"right_children":[2,4,6,8,10,12,14,-1,-1,-1,-1,-1,-1,-1,-1],"split_conditions":[3.1231943E-1,7.312387E-2,4.5364964E-1,7.195978E-2,2.7027917E-3,5.285906E-2,5.251165E-2,3.3352711E0,-3.8261768E-1,-1.8207921E0,5.5304986E-1,-2.7260783E-1,7.5343245E-1,2.4336371E0,-3.7896413E-1],"split_indices":[1145,1432,294,1179,2634,3736,2210,0,0,0,0,0,0,0,0],"split_type":[0,0,0,0,0,0,0,0,0,0,0,0,0,0,0],"sum_hessian":[2.072E3,1.032E3,1.04E3,6.51E2,3.81E2,7.88E2,2.52E2,1.6E1,6.35E2,3.62E2,1.9E1,2.91E2,4.97E2,2.23E2,2.9E1],"tree_param":{"num_deleted":"0","num_feature":"4105","num_nodes":"15","size_leaf_vector":"1"}},{"base_weights":[1.7591195E-1,-8.053723E0,8.592357E0,-1.6291697E1,-8.8323474E-1,2.7764003E0,2.2146318E1,-1.6884432E0,1.17049016E-1,2.2198372E0,-1.4744572E-1,-1.7900702E0,4.2135745E-1,7.571124E0,1.7291211E0],"categories":[],"categories_nodes":[],"categories_segments":[],"categories_sizes":[],"default_left":[0,0,0,0,0,0,0,0,0,0,0,0,0,0,0],"id":25,"left_children":[1,3,5,7,9,11,13,-1,-1,-1,-1,-1,-1,-1,-1],"loss_changes":[1.4194866E5,6.120483E4,7.985667E4,2.3312273E4,1.1195215E4,3.2161078E4,5.066708E4,0E0,0E0,0E0,0E0,0E0,0E0,0E0,0E0],"parents":[2147483647,0,0,1,1,2,2,3,3,4,4,5,5,6,6],"right_children":[2,4,6,8,10,12,14,-1,-1,-1,-1,-1,-1,-1,-1],"split_conditions":[2.2517297E-1,1.2586144E-1,3.9346346E-1,1.0575882E0,2.3963967E-2,3.8175E3,8.6891375E-2,-1.6884432E0,1.17049016E-1,2.2198372E0,-1.4744572E-1,-1.7900702E0,4.2135745E-1,7.571124E0,1.7291211E0],"split_indices":[1755,1240,294,738,110,4096,3765,0,0,0,0,0,0,0,0],"split_type":[0,0,0,0,0,0,0,0,0,0,0,0,0,0,0],"sum_hessian":[2.049E3,1.036E3,1.013E3,4.82E2,5.54E2,7.09E2,3.04E2,4.17E2,6.5E1,1.6E1,5.38E2,5.6E1,6.53E2,1.2E1,2.92E2],"tree_param":{"num_deleted":"0","num_feature":"4105","num_nodes":"15","size_leaf_vector":"1"}},{"base_weights":[-2.9533343E-2,-7.0506635E0,7.960319E0,-1.487131E1,-1.0857896E0,3.1808858E0,2.1880785E1,-1.4420123E0,6.5387475E-1,-3.369933E0,7.0065064E-3,-5.0039303E-1,6.15582E-1,7.3786626E0,1.7302907E0],"categories":[],"categories_nodes":[],"categories_segments":[],"categories_sizes":[],"default_left":[0,0,0,0,0,0,0,0,0,0,0,0,0,0,0],"id":26,"left_children":[1,3,5,7,9,11,13,-1,-1,-1,-1,-1,-1,-1,-1],"loss_changes":[1.1648019E5,5.1552688E4,6.4601297E4,1.47715E4,2.6964559E4,2.3994227E4,3.5794688E4,0E0,0E0,0E0,0E0,0E0,0E0,0E0,0E0],"parents":[2147483647,0,0,1,1,2,2,3,3,4,4,5,5,6,6],"right_children":[2,4,6,8,10,12,14,-1,-1,-1,-1,-1,-1,-1,-1],"split_conditions":[2.429204E-1,9.044772E-3,4.9390024E-1,5.4499865E-1,2.6381675E-2,1.3518752E-1,2.366167E0,-1.4420123E0,6.5387475E-1,-3.369933E0,7.0065064E-3,-5.0039303E-1,6.15582E-1,7.3786626E0,1.7302907E0],"split_indices":[1755,3443,294,1639,3462,3007,140,0,0,0,0,0,0,0,0],"split_type":[0,0,0,0,0,0,0,0,0,0,0,0,0,0,0],"sum_hessian":[2.076E3,1.105E3,9.71E2,4.78E2,6.27E2,7.23E2,2.48E2,4.5E2,2.8E1,1.9E1,6.08E2,2.16E2,5.07E2,9E0,2.39E2],"tree_param":{"num_deleted":"0","num_feature":"4105","num_nodes":"15","size_leaf_vector":"1"}},{"base_weights":[6.0661707E-2,-6.9693475E0,7.288965E0,-1.3550577E1,-9.229874E-1,3.698221E0,2.2323082E1,-1.3933806E0,1.208255E-1,2.481503E0,-1.3978796E-1,3.6991959E0,2.3966299E-1,5.7892995E0,1.7502645E0],"categories":[],"categories_nodes":[],"categories_segments":[],"categories_sizes":[],"default_left":[0,0,0,0,0,0,0,0,0,0,0,0,0,0,0],"id":27,"left_children":[1,3,5,7,9,11,13,-1,-1,-1,-1,-1,-1,-1,-1],"loss_changes":[1.0596855E5,4.206544E4,5.548917E4,1.6302344E4,1.0410488E4,3.141011E4,2.179854E4,0E0,0E0,0E0,0E0,0E0,0E0,0E0,0E0],"parents":[2147483647,0,0,1,1,2,2,3,3,4,4,5,5,6,6],"right_children":[2,4,6,8,10,12,14,-1,-1,-1,-1,-1,-1,-1,-1],"split_conditions":[2.2517297E-1,1.2586144E-1,3.938444E-1,1.0575882E0,9.930684E-3,2.2945984E-1,1.1639436E-2,-1.3933806E0,1.208255E-1,2.481503E0,-1.3978796E-1,3.6991959E0,2.3966299E-1,5.7892995E0,1.7502645E0],"split_indices":[1755,1240,2137,738,3488,2513,1726,0,0,0,0,0,0,0,0],"split_type":[0,0,0,0,0,0,0,0,0,0,0,0,0,0,0],"sum_hessian":[2.085E3,1.057E3,1.028E3,5.06E2,5.51E2,8.3E2,1.98E2,4.42E2,6.4E1,1.2E1,5.39E2,2.1E1,8.09E2,1.1E1,1.87E2],"tree_param":{"num_deleted":"0","num_feature":"4105","num_nodes":"15","size_leaf_vector":"1"}},{"base_weights":[-2.4038105E-1,-6.272926E0,6.9462857E0,-1.9836402E0,-1.3424422E1,3.330491E0,1.7431656E1,-3.834854E-2,-1.8906612E0,-3.9042032E-1,-1.3133631E0,3.5868979E-1,-2.5131493E0,4.033196E0,1.3135774E0],"categories":[],"categories_nodes":[],"categories_segments":[],"categories_sizes":[],"default_left":[0,0,0,0,0,0,0,0,0,0,0,0,0,0,0],"id":28,"left_children":[1,3,5,7,9,11,13,-1,-1,-1,-1,-1,-1,-1,-1],"loss_changes":[8.7894734E4,3.380401E4,3.506515E4,2.0666635E4,5.14325E3,1.5570141E4,1.730846E4,0E0,0E0,0E0,0E0,0E0,0E0,0E0,0E0],"parents":[2147483647,0,0,1,1,2,2,3,3,4,4,5,5,6,6],"right_children":[2,4,6,8,10,12,14,-1,-1,-1,-1,-1,-1,-1,-1],"split_conditions":[3.916297E-1,2.4012274E-1,4.5364964E-1,4.488087E-1,6.155581E-3,3.4127325E-1,1.7179934E-2,-3.834854E-2,-1.8906612E0,-3.9042032E-1,-1.3133631E0,3.5868979E-1,-2.5131493E0,4.033196E0,1.3135774E0],"split_indices":[1145,601,294,2599,3874,3315,1067,0,0,0,0,0,0,0,0],"split_type":[0,0,0,0,0,0,0,0,0,0,0,0,0,0,0],"sum_hessian":[2.027E3,1.102E3,9.25E2,6.89E2,4.13E2,6.88E2,2.37E2,6.38E2,5.1E1,5.5E1,3.58E2,6.73E2,1.5E1,2E1,2.17E2],"tree_param":{"num_deleted":"0","num_feature":"4105","num_nodes":"15","size_leaf_vector":"1"}},{"base_weights":[-7.098017E-2,6.2669144E0,-5.5463433E0,1.7980389E1,3.1871967E0,-1.1886895E1,-6.5114963E-1,4.427878E0,1.341383E0,2.326278E-1,3.6030846E0,-1.1718212E0,1.1698221E0,-1.2706189E-1,3.7289362E0],"categories":[],"categories_nodes":[],"categories_segments":[],"categories_sizes":[],"default_left":[0,0,0,0,0,0,0,0,0,0,0,0,0,0,0],"id":29,"left_children":[1,3,5,7,9,11,13,-1,-1,-1,-1,-1,-1,-1,-1],"loss_changes":[7.1291555E4,3.4338098E4,3.4208207E4,1.7942031E4,1.5915033E4,1.5984609E4,2.076684E4,0E0,0E0,0E0,0E0,0E0,0E0,0E0,0E0],"parents":[2147483647,0,0,1,1,2,2,3,3,4,4,5,5,6,6],"right_children":[2,4,6,8,10,12,14,-1,-1,-1,-1,-1,-1,-1,-1],"split_conditions":[2.507093E-1,3.2270458E-2,1.4004406E-1,1.6067047E-2,2.813616E-1,6.580754E-3,9.267648E-1,4.427878E0,1.341383E0,2.326278E-1,3.6030846E0,-1.1718212E0,1.1698221E0,-1.2706189E-1,3.7289362E0],"split_indices":[1949,3962,1240,1332,3906,3426,410,0,0,0,0,0,0,0,0],"split_type":[0,0,0,0,0,0,0,0,0,0,0,0,0,0,0],"sum_hessian":[2.054E3,9.52E2,1.102E3,1.98E2,7.54E2,4.8E2,6.22E2,1.6E1,1.82E2,7.43E2,1.1E1,4.56E2,2.4E1,6.11E2,1.1E1],"tree_param":{"num_deleted":"0","num_feature":"4105","num_nodes":"15","size_leaf_vector":"1"}},{"base_weights":[-8.003923E-2,-7.6275306E0,3.906735E0,-1.3281001E0,-1.1834673E1,1.363822E1,7.847705E-1,9.76079E-1,-3.4670755E-1,-9.400468E-1,-2.2317047E0,1.0191267E0,3.1696293E0,4.714933E-1,-3.7750927E-1],"categories":[],"categories_nodes":[],"categories_segments":[],"categories_sizes":[],"default_left":[0,0,0,0,0,0,0,0,0,0,0,0,0,0,0],"id":30,"left_children":[1,3,5,7,9,11,13,-1,-1,-1,-1,-1,-1,-1,-1],"loss_changes":[6.0432414E4,1.8394508E4,3.992445E4,8.862461E3,6.804914E3,1.5072621E4,2.2735418E4,0E0,0E0,0E0,0E0,0E0,0E0,0E0,0E0],"parents":[2147483647,0,0,1,1,2,2,3,3,4,4,5,5,6,6],"right_children":[2,4,6,8,10,12,14,-1,-1,-1,-1,-1,-1,-1,-1],"split_conditions":[9.327932E-3,8.1707016E-2,-2.8970315E0,3.5621043E-2,2.9093772E-1,2.6552495E-1,2.426275E-1,9.76079E-1,-3.4670755E-1,-9.400468E-1,-2.2317047E0,1.0191267E0,3.1696293E0,4.714933E-1,-3.7750927E-1],"split_indices":[3736,3049,4103,3488,3436,1735,734,0,0,0,0,0,0,0,0],"split_type":[0,0,0,0,0,0,0,0,0,0,0,0,0,0,0],"sum_hessian":[2.008E3,6.94E2,1.314E3,2.78E2,4.16E2,3.19E2,9.95E2,4.8E1,2.3E2,3.81E2,3.5E1,2.91E2,2.8E1,5.24E2,4.71E2],"tree_param":{"num_deleted":"0","num_feature":"4105","num_nodes":"15","size_leaf_vector":"1"}},{"base_weights":[1.4973709E-1,-4.875683E0,5.454015E0,-9.795421E0,2.6288083E-1,1.4332074E1,2.207473E0,-9.537896E-1,3.6021903E0,-8.063689E-2,1.8419969E0,3.803693E0,1.1195147E0,-2.2440118E-1,4.4772297E-1],"categories":[],"categories_nodes":[],"categories_segments":[],"categories_sizes":[],"default_left":[0,0,0,0,0,0,0,0,0,0,0,0,0,0,0],"id":31,"left_children":[1,3,5,7,9,11,13,-1,-1,-1,-1,-1,-1,-1,-1],"loss_changes":[5.5295082E4,2.6929105E4,2.9081445E4,2.6362336E4,1.252918E4,1.3089461E4,9.949107E3,0E0,0E0,0E0,0E0,0E0,0E0,0E0,0E0],"parents":[2147483647,0,0,1,1,2,2,3,3,4,4,5,5,6,6],"right_children":[2,4,6,8,10,12,14,-1,-1,-1,-1,-1,-1,-1,-1],"split_conditions":[4.9439654E-2,5.2173972E-2,-2.9150412E0,3.9755726E-1,8.304275E-2,3.2915622E-1,3.8326076E-1,-9.537896E-1,3.6021903E0,-8.063689E-2,1.8419969E0,3.803693E0,1.1195147E0,-2.2440118E-1,4.4772297E-1],"split_indices":[3736,3967,4103,1851,2440,702,3527,0,0,0,0,0,0,0,0],"split_type":[0,0,0,0,0,0,0,0,0,0,0,0,0,0,0],"sum_hessian":[2.074E3,1.065E3,1.009E3,5.44E2,5.21E2,2.7E2,7.39E2,5.34E2,1E1,4.93E2,2.8E1,1.5E1,2.55E2,2.77E2,4.62E2],"tree_param":{"num_deleted":"0","num_feature":"4105","num_nodes":"15","size_leaf_vector":"1"}},{"base_weights":[7.507198E-2,5.0387144E0,-4.1978145E0,1.4167669E1,2.5926642E0,-4.6188774E0,3.7330096E0,3.4952576E0,1.0246127E0,-1.5991129E0,2.971802E-1,-8.311821E-1,-1.0379758E-1],"categories":[],"categories_nodes":[],"categories_segments":[],"categories_sizes":[],"default_left":[0,0,0,0,0,0,0,0,0,0,0,0,0],"id":32,"left_children":[1,3,5,7,9,11,-1,-1,-1,-1,-1,-1,-1],"loss_changes":[4.452588E4,2.1679176E4,2.2023135E4,1.3459168E4,1.1985729E4,1.8323318E4,0E0,0E0,0E0,0E0,0E0,0E0,0E0],"parents":[2147483647,0,0,1,1,2,2,3,3,4,4,5,5],"right_children":[2,4,6,8,10,12,-1,-1,-1,-1,-1,-1,-1],"split_conditions":[2.507093E-1,3.2270458E-2,3.6676195E-1,2.682891E-2,3.386633E-2,4.7011744E-2,3.7330096E0,3.4952576E0,1.0246127E0,-1.5991129E0,2.971802E-1,-8.311821E-1,-1.0379758E-1],"split_indices":[1949,3962,1092,153,565,4023,0,0,0,0,0,0,0],"split_type":[0,0,0,0,0,0,0,0,0,0,0,0,0],"sum_hessian":[2.099E3,9.71E2,1.128E3,2.05E2,7.66E2,1.118E3,1E1,1.9E1,1.86E2,2.7E1,7.39E2,4.7E2,6.48E2],"tree_param":{"num_deleted":"0","num_feature":"4105","num_nodes":"13","size_leaf_vector":"1"}},{"base_weights":[1.6615926E-1,-3.2094142E0,5.8715806E0,-7.188129E0,-9.717658E-2,5.362811E0,5.1276364E0,-7.912381E-1,4.0974838E-1,5.625413E-1,-1.3936879E-1,-1.7166511E0,5.5531126E-1],"categories":[],"categories_nodes":[],"categories_segments":[],"categories_sizes":[],"default_left":[0,0,0,0,0,0,0,0,0,0,0,0,0],"id":33,"left_children":[1,3,5,7,9,-1,11,-1,-1,-1,-1,-1,-1],"loss_changes":[3.933428E4,1.5889033E4,3.077261E4,1.1530104E4,6.838304E3,0E0,2.0807232E4,0E0,0E0,0E0,0E0,0E0,0E0],"parents":[2147483647,0,0,1,1,2,2,3,3,4,4,6,6],"right_children":[2,4,6,8,10,-1,12,-1,-1,-1,-1,-1,-1],"split_conditions":[4.1919002E-1,3.749414E-2,1.7109695E-3,3.248058E-1,-2.3613503E0,5.362811E0,2.7655626E-2,-7.912381E-1,4.0974838E-1,5.625413E-1,-1.3936879E-1,-1.7166511E0,5.5531126E-1],"split_indices":[268,4051,2599,842,4102,0,3182,0,0,0,0,0,0],"split_type":[0,0,0,0,0,0,0,0,0,0,0,0,0],"sum_hessian":[2.042E3,1.283E3,7.59E2,5.63E2,7.2E2,1E1,7.49E2,4.91E2,7.2E1,1.34E2,5.86E2,3.3E1,7.16E2],"tree_param":{"num_deleted":"0","num_feature":"4105","num_nodes":"13","size_leaf_vector":"1"}},{"base_weights":[-1.4101619E-1,-3.2777436E0,4.8256917E0,-6.4516373E0,1.5307984E0,1.3161531E1,1.7886058E0,-4.9334478E-1,-2.2562087E0,4.6675715E-1,-1.640915E-1,3.1500602E0,1.0042987E0,2.31435E0,1.0146236E-1],"categories":[],"categories_nodes":[],"categories_segments":[],"categories_sizes":[],"default_left":[0,0,0,0,0,0,0,0,0,0,0,0,0,0,0],"id":34,"left_children":[1,3,5,7,9,11,13,-1,-1,-1,-1,-1,-1,-1,-1],"loss_changes":[3.2286012E4,1.9387355E4,2.0303922E4,1.2894113E4,6.3754243E3,8.725961E3,9.209656E3,0E0,0E0,0E0,0E0,0E0,0E0,0E0,0E0],"parents":[2147483647,0,0,1,1,2,2,3,3,4,4,5,5,6,6],"right_children":[2,4,6,8,10,12,14,-1,-1,-1,-1,-1,-1,-1,-1],"split_conditions":[4.8945665E-2,1.20885E4,1.67E2,4.2193748E-2,4.380318E-1,4.7444516E-1,3.988926E-2,-4.9334478E-1,-2.2562087E0,4.6675715E-1,-1.640915E-1,3.1500602E0,1.0042987E0,2.31435E0,1.0146236E-1],"split_indices":[2177,4096,4099,3991,734,294,2503,0,0,0,0,0,0,0,0],"split_type":[0,0,0,0,0,0,0,0,0,0,0,0,0,0,0],"sum_hessian":[2.072E3,1.27E3,8.02E2,7.65E2,5.05E2,2.14E2,5.88E2,7.31E2,3.4E1,2.4E2,2.65E2,1.6E1,1.98E2,1.5E1,5.73E2],"tree_param":{"num_deleted":"0","num_feature":"4105","num_nodes":"15","size_leaf_vector":"1"}},{"base_weights":[1.1017761E-1,-3.6559849E0,3.9728947E0,-7.4710298E0,-2.5568342E-1,4.1084437E0,3.4998078E0,-5.4223055E-1,-1.5909084E0,-1.299332E-1,6.0623986E-1,-2.4533841E-1,5.2779925E-1],"categories":[],"categories_nodes":[],"categories_segments":[],"categories_sizes":[],"default_left":[0,0,0,0,0,0,0,0,0,0,0,0,0],"id":35,"left_children":[1,3,5,7,9,-1,11,-1,-1,-1,-1,-1,-1],"loss_changes":[2.9886309E4,1.349309E4,2.0286488E4,6.943715E3,4.7192915E3,0E0,1.5408822E4,0E0,0E0,0E0,0E0,0E0,0E0],"parents":[2147483647,0,0,1,1,2,2,3,3,4,4,6,6],"right_children":[2,4,6,8,10,-1,12,-1,-1,-1,-1,-1,-1],"split_conditions":[2.2517297E-1,1.2586144E-1,3.5110306E-2,4.43777E-3,1.2226604E-1,4.1084437E0,1.4328215E-1,-5.4223055E-1,-1.5909084E0,-1.299332E-1,6.0623986E-1,-2.4533841E-1,5.2779925E-1],"split_indices":[1755,1240,3126,3958,1180,0,3254,0,0,0,0,0,0],"split_type":[0,0,0,0,0,0,0,0,0,0,0,0,0],"sum_hessian":[2.054E3,1.04E3,1.014E3,4.9E2,5.5E2,1.1E1,1.003E3,4.34E2,5.6E1,4.7E2,8E1,2.82E2,7.21E2],"tree_param":{"num_deleted":"0","num_feature":"4105","num_nodes":"13","size_leaf_vector":"1"}},{"base_weights":[-3.3626232E-2,4.57271E0,-2.8914243E-1,9.211368E0,-1.6706218E0,1.6027393E0,6.0108566E-1,-4.8400855E-1,1.1618228E-1],"categories":[],"categories_nodes":[],"categories_segments":[],"categories_sizes":[],"default_left":[0,0,0,0,0,0,0,0,0],"id":36,"left_children":[1,-1,3,5,7,-1,-1,-1,-1],"loss_changes":[2.7250566E4,0E0,2.700282E4,5.609039E3,2.027174E4,0E0,0E0,0E0,0E0],"parents":[2147483647,0,0,2,2,3,3,4,4],"right_children":[2,-1,4,6,8,-1,-1,-1,-1],"split_conditions":[2.638634E-2,4.57271E0,-6.9462955E-1,4.2138454E-2,1.813736E-1,1.6027393E0,6.0108566E-1,-4.8400855E-1,1.1618228E-1],"split_indices":[3192,0,4101,554,4104,0,0,0,0],"split_type":[0,0,0,0,0,0,0,0,0],"sum_hessian":[2.067E3,1E1,2.057E3,2.61E2,1.796E3,5.6E1,2.05E2,7.91E2,1.005E3],"tree_param":{"num_deleted":"0","num_feature":"4105","num_nodes":"9","size_leaf_vector":"1"}},{"base_weights":[5.518507E-2,-5.013433E0,2.087164E0,-8.265831E0,-1.2592912E0,1.1708836E1,6.682518E-1,-5.6066716E-1,-1.5468799E0,6.642276E-1,-2.0046124E-1,3.0098608E0,8.021213E-1,9.743086E-2,-2.1100805E0],"categories":[],"categories_nodes":[],"categories_segments":[],"categories_sizes":[],"default_left":[0,0,0,0,0,0,0,0,0,0,0,0,0,0,0],"id":37,"left_children":[1,3,5,7,9,11,13,-1,-1,-1,-1,-1,-1,-1,-1],"loss_changes":[2.1241057E4,7.2039775E3,2.0096988E4,5.6196016E3,2.4036182E3,1.1148391E4,1.3506908E4,0E0,0E0,0E0,0E0,0E0,0E0,0E0,0E0],"parents":[2147483647,0,0,1,1,2,2,3,3,4,4,5,5,6,6],"right_children":[2,4,6,8,10,12,14,-1,-1,-1,-1,-1,-1,-1,-1],"split_conditions":[1.065551E-3,1.7852472E-2,4.7693807E-1,2.144646E-3,3.0532347E-2,1.2421933E-1,9.0908617E-1,-5.6066716E-1,-1.5468799E0,6.642276E-1,-2.0046124E-1,3.0098608E0,8.021213E-1,9.743086E-2,-2.1100805E0],"split_indices":[2803,4064,2317,2858,3277,935,2834,0,0,0,0,0,0,0,0],"split_type":[0,0,0,0,0,0,0,0,0,0,0,0,0,0,0],"sum_hessian":[2.062E3,5.9E2,1.472E3,3.16E2,2.74E2,1.89E2,1.283E3,2.61E2,5.5E1,2.8E1,2.46E2,2E1,1.69E2,1.261E3,2.2E1],"tree_param":{"num_deleted":"0","num_feature":"4105","num_nodes":"15","size_leaf_vector":"1"}},{"base_weights":[-5.028552E-3,3.3671796E0,-2.8022735E0,8.762483E0,1.1892122E0,8.581929E0,-3.5974429E0,3.1948595E0,6.6113645E-1,1.7572646E0,7.188682E-2,2.5367103E0,4.7257963E-1,-5.5383795E-1,2.3483941E-3],"categories":[],"categories_nodes":[],"categories_segments":[],"categories_sizes":[],"default_left":[0,0,0,0,0,0,0,0,0,0,0,0,0,0,0],"id":38,"left_children":[1,3,5,7,9,11,13,-1,-1,-1,-1,-1,-1,-1,-1],"loss_changes":[1.9331543E4,1.091649E4,1.0146065E4,9.47818E3,4.666888E3,4.737592E3,1.0044534E4,0E0,0E0,0E0,0E0,0E0,0E0,0E0,0E0],"parents":[2147483647,0,0,1,1,2,2,3,3,4,4,5,5,6,6],"right_children":[2,4,6,8,10,12,14,-1,-1,-1,-1,-1,-1,-1,-1],"split_conditions":[2.507093E-1,2.7680728E-1,2.9032433E-2,1.4782918E-2,1.3525027E-1,7.723399E-3,4.0743402E-1,3.1948595E0,6.6113645E-1,1.7572646E0,7.188682E-2,2.5367103E0,4.7257963E-1,-5.5383795E-1,2.3483941E-3],"split_indices":[1949,3251,617,1163,2694,1597,3336,0,0,0,0,0,0,0,0],"split_type":[0,0,0,0,0,0,0,0,0,0,0,0,0,0,0],"sum_hessian":[2.049E3,9.29E2,1.12E3,2.67E2,6.62E2,7.3E1,1.047E3,1.2E1,2.55E2,1.3E1,6.49E2,1E1,6.3E1,6.05E2,4.42E2],"tree_param":{"num_deleted":"0","num_feature":"4105","num_nodes":"15","size_leaf_vector":"1"}},{"base_weights":[-2.094872E-1,-4.453414E0,1.6783743E0,-3.1212208E0,-1.2875147E1,7.4565887E0,-9.968527E-2,-4.7841713E-1,2.4921158E-3,-8.05497E-1,-2.151007E0,1.5363271E0,4.6993563E-1,2.3547646E-2,-1.8878752E0],"categories":[],"categories_nodes":[],"categories_segments":[],"categories_sizes":[],"default_left":[0,0,0,0,0,0,0,0,0,0,0,0,0,0,0],"id":39,"left_children":[1,3,5,7,9,11,13,-1,-1,-1,-1,-1,-1,-1,-1],"loss_changes":[1.6243209E4,6.9950156E3,1.4416701E4,3.8593408E3,3.634079E3,7.0121855E3,8.304009E3,0E0,0E0,0E0,0E0,0E0,0E0,0E0,0E0],"parents":[2147483647,0,0,1,1,2,2,3,3,4,4,5,5,6,6],"right_children":[2,4,6,8,10,12,14,-1,-1,-1,-1,-1,-1,-1,-1],"split_conditions":[1.065551E-3,1.4878717E-1,1.0721005E-3,1.194434E-3,4.9301544E-3,3.4114395E-3,9.0908617E-1,-4.7841713E-1,2.4921158E-3,-8.05497E-1,-2.151007E0,1.5363271E0,4.6993563E-1,2.3547646E-2,-1.8878752E0],"split_indices":[2803,2836,3873,2879,1322,685,2834,0,0,0,0,0,0,0,0],"split_type":[0,0,0,0,0,0,0,0,0,0,0,0,0,0,0],"sum_hessian":[2.027E3,6.24E2,1.403E3,5.39E2,8.5E1,3.3E2,1.073E3,3.13E2,2.26E2,6.4E1,2.1E1,5.9E1,2.71E2,1.055E3,1.8E1],"tree_param":{"num_deleted":"0","num_feature":"4105","num_nodes":"15","size_leaf_vector":"1"}},{"base_weights":[7.336569E-2,3.5307393E0,-2.3192594E0,2.4661074E0,1.6580496E1,-6.0161967E0,-7.0439667E-1,-9.2476875E-1,2.9950777E-1,3.0868025E0,8.139059E-1,-4.573356E-1,-1.4870163E0,-2.0158717E-1,2.5462165E-1],"categories":[],"categories_nodes":[],"categories_segments":[],"categories_sizes":[],"default_left":[0,0,0,0,0,0,0,0,0,0,0,0,0,0,0],"id":40,"left_children":[1,3,5,7,9,11,13,-1,-1,-1,-1,-1,-1,-1,-1],"loss_changes":[1.6952875E4,1.1636912E4,7.2298833E3,9.107845E3,8.463705E3,3.3866875E3,4.729129E3,0E0,0E0,0E0,0E0,0E0,0E0,0E0,0E0],"parents":[2147483647,0,0,1,1,2,2,3,3,4,4,5,5,6,6],"right_children":[2,4,6,8,10,12,14,-1,-1,-1,-1,-1,-1,-1,-1],"split_conditions":[8.8859856E-2,3.1870344E-1,6.978125E-2,4.8355E3,6.2121093E-2,2.2784138E-1,1.0812467E-1,-9.2476875E-1,2.9950777E-1,3.0868025E0,8.139059E-1,-4.573356E-1,-1.4870163E0,-2.0158717E-1,2.5462165E-1],"split_indices":[1477,3015,1240,4096,1483,2058,909,0,0,0,0,0,0,0,0],"split_type":[0,0,0,0,0,0,0,0,0,0,0,0,0,0,0],"sum_hessian":[2.049E3,8.38E2,1.211E3,7.75E2,6.3E1,3.68E2,8.43E2,5.1E1,7.24E2,1.8E1,4.5E1,3.41E2,2.7E1,5.86E2,2.57E2],"tree_param":{"num_deleted":"0","num_feature":"4105","num_nodes":"15","size_leaf_vector":"1"}},{"base_weights":[1.4531286E-1,3.406526E0,-1.7898862E0,2.375885E0,1.5273531E1,-1.3810405E0,-1.7772161E1,5.5702007E-1,2.1482646E-2,2.8149858E0,6.8440115E-1,-2.3930119E-1,2.7299854E-1,-1.9901483E0,-1.0882567E0],"categories":[],"categories_nodes":[],"categories_segments":[],"categories_sizes":[],"default_left":[0,0,0,0,0,0,0,0,0,0,0,0,0,0,0],"id":41,"left_children":[1,3,5,7,9,11,13,-1,-1,-1,-1,-1,-1,-1,-1],"loss_changes":[1.298431E4,9.363669E3,8.431878E3,5.8740166E3,7.5660215E3,7.3957974E3,7.735469E2,0E0,0E0,0E0,0E0,0E0,0E0,0E0,0E0],"parents":[2147483647,0,0,1,1,2,2,3,3,4,4,5,5,6,6],"right_children":[2,4,6,8,10,12,14,-1,-1,-1,-1,-1,-1,-1,-1],"split_conditions":[4.212578E-3,3.1870344E-1,2.0314834E-1,-6.5917224E-1,6.2121093E-2,6.2150943E-1,7.4016616E-2,5.5702007E-1,2.1482646E-2,2.8149858E0,6.8440115E-1,-2.3930119E-1,2.7299854E-1,-1.9901483E0,-1.0882567E0],"split_indices":[1732,3015,3291,4101,1483,1755,1615,0,0,0,0,0,0,0,0],"split_type":[0,0,0,0,0,0,0,0,0,0,0,0,0,0,0],"sum_hessian":[2.057E3,7.66E2,1.291E3,7.05E2,6.1E1,1.259E3,3.2E1,2.49E2,4.56E2,1.9E1,4.2E1,9.72E2,2.87E2,1.7E1,1.5E1],"tree_param":{"num_deleted":"0","num_feature":"4105","num_nodes":"15","size_leaf_vector":"1"}},{"base_weights":[-4.2365476E-2,-2.3552911E0,2.448067E0,-2.78511E0,1.4732616E1,7.3763714E0,7.993794E-1,-2.057347E-1,-1.4252115E0,2.161148E0,8.3548063E-1,2.5638757E0,5.636427E-1,1.3961959E-1,-5.2143097E-1],"categories":[],"categories_nodes":[],"categories_segments":[],"categories_sizes":[],"default_left":[0,0,0,0,0,0,0,0,0,0,0,0,0,0,0],"id":42,"left_children":[1,3,5,7,9,11,13,-1,-1,-1,-1,-1,-1,-1,-1],"loss_changes":[1.1845115E4,7.8382886E3,8.0441963E3,6.425275E3,1.296186E3,5.4233574E3,3.8417256E3,0E0,0E0,0E0,0E0,0E0,0E0,0E0,0E0],"parents":[2147483647,0,0,1,1,2,2,3,3,4,4,5,5,6,6],"right_children":[2,4,6,8,10,12,14,-1,-1,-1,-1,-1,-1,-1,-1],"split_conditions":[3.2853585E-2,8.7716386E-2,9.712437E-3,1.4267094E-1,2.8419772E-2,9.158828E-3,1.259036E-1,-2.057347E-1,-1.4252115E0,2.161148E0,8.3548063E-1,2.5638757E0,5.636427E-1,1.3961959E-1,-5.2143097E-1],"split_indices":[3079,3162,2373,3291,683,92,3893,0,0,0,0,0,0,0,0],"split_type":[0,0,0,0,0,0,0,0,0,0,0,0,0,0,0],"sum_hessian":[2.056E3,1.066E3,9.9E2,1.04E3,2.6E1,2.48E2,7.42E2,1.005E3,3.5E1,9E0,1.7E1,1.1E1,2.37E2,6.65E2,7.7E1],"tree_param":{"num_deleted":"0","num_feature":"4105","num_nodes":"15","size_leaf_vector":"1"}},{"base_weights":[1.0162877E-2,3.949744E0,-1.2150036E0,3.223669E0,2.066753E0,-3.0330198E0,1.1029276E0,1.6566753E0,2.3251556E-1,-1.0920957E0,-2.2640686E-1,5.4183036E-2,9.131482E-1],"categories":[],"categories_nodes":[],"categories_segments":[],"categories_sizes":[],"default_left":[0,0,0,0,0,0,0,0,0,0,0,0,0],"id":43,"left_children":[1,3,5,7,-1,9,11,-1,-1,-1,-1,-1,-1],"loss_changes":[9.688958E3,6.6760015E3,6.453166E3,4.263605E3,0E0,3.8195332E3,3.0433845E3,0E0,0E0,0E0,0E0,0E0,0E0],"parents":[2147483647,0,0,1,1,2,2,3,3,5,5,6,6],"right_children":[2,4,6,8,-1,10,12,-1,-1,-1,-1,-1,-1],"split_conditions":[7.265483E-2,3.6676195E-1,2.9875763E-2,4.3557648E-2,2.066753E0,3.5518957E-3,5.267217E-2,1.6566753E0,2.3251556E-1,-1.0920957E0,-2.2640686E-1,5.4183036E-2,9.131482E-1],"split_indices":[76,1092,3079,600,0,3102,2920,0,0,0,0,0,0],"split_type":[0,0,0,0,0,0,0,0,0,0,0,0,0],"sum_hessian":[2.007E3,4.76E2,1.531E3,4.59E2,1.7E1,8.58E2,6.73E2,1.7E1,4.42E2,4.2E1,8.16E2,6.39E2,3.4E1],"tree_param":{"num_deleted":"0","num_feature":"4105","num_nodes":"13","size_leaf_vector":"1"}},{"base_weights":[3.880619E-2,2.6505172E0,-1.4250769E-1,-2.271999E0,1.9160153E0,-1.6001171E-1,-1.1294601E0,6.875708E-2,5.621557E-1],"categories":[],"categories_nodes":[],"categories_segments":[],"categories_sizes":[],"default_left":[0,0,0,0,0,0,0,0,0],"id":44,"left_children":[1,-1,3,5,7,-1,-1,-1,-1],"loss_changes":[1.0922365E4,0E0,8.795173E3,4.823431E3,5.145415E3,0E0,0E0,0E0,0E0],"parents":[2147483647,0,0,2,2,3,3,4,4],"right_children":[2,-1,4,6,8,-1,-1,-1,-1],"split_conditions":[2.638634E-2,2.6505172E0,3.1231943E-1,2.2861944E-1,3.1193203E-1,-1.6001171E-1,-1.1294601E0,6.875708E-2,5.621557E-1],"split_indices":[3192,0,1145,2704,2593,0,0,0,0],"split_type":[0,0,0,0,0,0,0,0,0],"sum_hessian":[2.018E3,1.2E1,2.006E3,9.86E2,1.02E3,9.44E2,4.2E1,8.11E2,2.09E2],"tree_param":{"num_deleted":"0","num_feature":"4105","num_nodes":"9","size_leaf_vector":"1"}},{"base_weights":[-2.3876626E-2,1.7663051E0,-2.226965E0,1.8756226E1,1.4572978E0,-1.8585945E0,-1.6444317E1,2.331159E0,1.0870962E0,2.4995174E-2,5.3046095E-1,-1.9902891E-1,9.719336E-1,-1.6208005E0,-1.256974E0],"categories":[],"categories_nodes":[],"categories_segments":[],"categories_sizes":[],"default_left":[0,0,0,0,0,0,0,0,0,0,0,0,0,0,0],"id":45,"left_children":[1,3,5,7,9,11,13,-1,-1,-1,-1,-1,-1,-1,-1],"loss_changes":[8.0865522E3,5.93308E3,4.8077915E3,9.258325E2,5.907907E3,4.430589E3,4.6686523E1,0E0,0E0,0E0,0E0,0E0,0E0,0E0,0E0],"parents":[2147483647,0,0,1,1,2,2,3,3,4,4,5,5,6,6],"right_children":[2,4,6,8,10,12,14,-1,-1,-1,-1,-1,-1,-1,-1],"split_conditions":[2.660143E-1,1.3525027E-1,3.455607E-1,2.2999845E-2,3.1275424E-1,4.484295E-2,1.1773168E-1,2.331159E0,1.0870962E0,2.4995174E-2,5.3046095E-1,-1.9902891E-1,9.719336E-1,-1.6208005E0,-1.256974E0],"split_indices":[3122,2694,2052,3,2593,3530,2182,0,0,0,0,0,0,0,0],"split_type":[0,0,0,0,0,0,0,0,0,0,0,0,0,0,0],"sum_hessian":[2.05E3,1.131E3,9.19E2,2E1,1.111E3,8.96E2,2.3E1,9E0,1.1E1,8.82E2,2.29E2,8.7E2,2.6E1,1.2E1,1.1E1],"tree_param":{"num_deleted":"0","num_feature":"4105","num_nodes":"15","size_leaf_vector":"1"}},{"base_weights":[6.6706454E-3,-2.141252E0,1.7262334E0,-4.764499E0,1.23486444E-1,-2.2341468E0,3.2026215E0,-2.7384415E-1,-8.81912E-1,2.916718E-1,-1.07462205E-1,-8.471274E-2,-8.964593E-1,2.1027148E0,2.5686517E-1],"categories":[],"categories_nodes":[],"categories_segments":[],"categories_sizes":[],"default_left":[0,0,0,0,0,0,0,0,0,0,0,0,0,0,0],"id":46,"left_children":[1,3,5,7,9,11,13,-1,-1,-1,-1,-1,-1,-1,-1],"loss_changes":[7.5693413E3,5.4135723E3,6.6564326E3,3.6604854E3,2.0678342E3,3.1114133E3,5.199256E3,0E0,0E0,0E0,0E0,0E0,0E0,0E0,0E0],"parents":[2147483647,0,0,1,1,2,2,3,3,4,4,5,5,6,6],"right_children":[2,4,6,8,10,12,14,-1,-1,-1,-1,-1,-1,-1,-1],"split_conditions":[4.0581927E-1,1.8254852E-1,4.0280718E-1,1.4301237E-1,3.1916436E-2,9.3547024E-2,1.4782918E-2,-2.7384415E-1,-8.81912E-1,2.916718E-1,-1.07462205E-1,-8.471274E-2,-8.964593E-1,2.1027148E0,2.5686517E-1],"split_indices":[3511,4104,3833,2070,317,2910,1163,0,0,0,0,0,0,0,0],"split_type":[0,0,0,0,0,0,0,0,0,0,0,0,0,0,0],"sum_hessian":[2.049E3,9.11E2,1.138E3,4.22E2,4.89E2,3.09E2,8.29E2,3.19E2,1.03E2,1.45E2,3.44E2,2.66E2,4.3E1,1.2E1,8.17E2],"tree_param":{"num_deleted":"0","num_feature":"4105","num_nodes":"15","size_leaf_vector":"1"}},{"base_weights":[1.321663E-1,-1.3327558E-2,2.1855044E0,-4.9520102E-1,6.933692E0,-3.5837117E-1,2.0896986E-2,1.4475622E0,3.806075E-1],"categories":[],"categories_nodes":[],"categories_segments":[],"categories_sizes":[],"default_left":[0,0,0,0,0,0,0,0,0],"id":47,"left_children":[1,3,-1,5,7,-1,-1,-1,-1],"loss_changes":[7.3647236E3,6.8737095E3,0E0,4.975242E3,3.2900117E3,0E0,0E0,0E0,0E0],"parents":[2147483647,0,0,1,1,3,3,4,4],"right_children":[2,4,-1,6,8,-1,-1,-1,-1],"split_conditions":[2.1761048E0,8.648336E-1,2.1855044E0,1.4752877E-1,8.880555E-2,-3.5837117E-1,2.0896986E-2,1.4475622E0,3.806075E-1],"split_indices":[2384,4085,0,3589,2009,0,0,0,0],"split_type":[0,0,0,0,0,0,0,0,0],"sum_hessian":[2.065E3,2.053E3,1.2E1,1.92E3,1.33E2,3.28E2,1.592E3,2.9E1,1.04E2],"tree_param":{"num_deleted":"0","num_feature":"4105","num_nodes":"9","size_leaf_vector":"1"}},{"base_weights":[-1.1855943E-2,-1.7727425E0,1.5210766E0,-2.576259E0,2.9378278E0,1.9019591E0,1.3198289E0,1.151453E0,-2.4723347E-1,8.713124E-1,8.1695266E-2,-1.1326311E-1,2.5692457E-1],"categories":[],"categories_nodes":[],"categories_segments":[],"categories_sizes":[],"default_left":[0,0,0,0,0,0,0,0,0,0,0,0,0],"id":48,"left_children":[1,3,5,7,9,-1,11,-1,-1,-1,-1,-1,-1],"loss_changes":[5.656101E3,3.69253E3,4.4853174E3,2.7439053E3,1.9725818E3,0E0,4.542644E3,0E0,0E0,0E0,0E0,0E0,0E0],"parents":[2147483647,0,0,1,1,2,2,3,3,4,4,6,6],"right_children":[2,4,6,8,10,-1,12,-1,-1,-1,-1,-1,-1],"split_conditions":[3.1016997E-1,1.3191992E-3,2.638634E-2,2.2729733E-3,3.6497173E-1,1.9019591E0,9.876649E-2,1.151453E0,-2.4723347E-1,8.713124E-1,8.1695266E-2,-1.1326311E-1,2.5692457E-1],"split_indices":[441,2396,3192,1911,3156,0,3366,0,0,0,0,0,0],"split_type":[0,0,0,0,0,0,0,0,0,0,0,0,0],"sum_hessian":[2.095E3,9.75E2,1.12E3,8.33E2,1.42E2,1.1E1,1.109E3,1.1E1,8.22E2,3.2E1,1.1E2,4.19E2,6.9E2],"tree_param":{"num_deleted":"0","num_feature":"4105","num_nodes":"13","size_leaf_vector":"1"}},{"base_weights":[-9.871161E-2,1.2643616E-1,-1.2567895E1,3.451986E0,-7.266143E-1,-1.6739445E1,-6.892953E-1,8.065478E-1,1.4169408E-1,7.645465E-2,-2.1092185E-1,-1.7661515E0,-1.2031789E0],"categories":[],"categories_nodes":[],"categories_segments":[],"categories_sizes":[],"default_left":[0,0,0,0,0,0,0,0,0,0,0,0,0],"id":49,"left_children":[1,3,5,7,9,11,-1,-1,-1,-1,-1,-1,-1],"loss_changes":[5.7282573E3,5.6861494E3,6.989087E2,4.2778276E3,4.1853047E3,1.414165E2,0E0,0E0,0E0,0E0,0E0,0E0,0E0],"parents":[2147483647,0,0,1,1,2,2,3,3,4,4,5,5],"right_children":[2,4,6,8,10,12,-1,-1,-1,-1,-1,-1,-1],"split_conditions":[2.0314834E-1,6.058208E-1,7.4016616E-2,8.040986E-2,5.011632E-1,1.3483505E-1,-6.892953E-1,8.065478E-1,1.4169408E-1,7.645465E-2,-2.1092185E-1,-1.7661515E0,-1.2031789E0],"split_indices":[3291,2317,1615,3365,3847,667,0,0,0,0,0,0,0],"split_type":[0,0,0,0,0,0,0,0,0,0,0,0,0],"sum_hessian":[2.04E3,2.004E3,3.6E1,4.09E2,1.595E3,1.9E1,1.7E1,1.01E2,3.08E2,8.13E2,7.82E2,9E0,1E1],"tree_param":{"num_deleted":"0","num_feature":"4105","num_nodes":"13","size_leaf_vector":"1"}},{"base_weights":[5.013795E-2,-9.2794366E-2,1.7090746E0,-3.5687299E0,5.5344605E-1,-2.518165E-1,-1.1834314E0,1.2391686E-1,-2.712217E-1],"categories":[],"categories_nodes":[],"categories_segments":[],"categories_sizes":[],"default_left":[0,0,0,0,0,0,0,0,0],"id":50,"left_children":[1,3,-1,5,7,-1,-1,-1,-1],"loss_changes":[5.651881E3,4.5877974E3,0E0,2.2758064E3,5.2477456E3,0E0,0E0,0E0,0E0],"parents":[2147483647,0,0,1,1,3,3,4,4],"right_children":[2,4,-1,6,8,-1,-1,-1,-1],"split_conditions":[2.813616E-1,1.4752877E-1,1.7090746E0,3.4126827E-1,5.6982535E-1,-2.518165E-1,-1.1834314E0,1.2391686E-1,-2.712217E-1],"split_indices":[3906,3589,0,913,508,0,0,0,0],"split_type":[0,0,0,0,0,0,0,0,0],"sum_hessian":[2.057E3,2.042E3,1.5E1,3.2E2,1.722E3,2.98E2,2.2E1,1.396E3,3.26E2],"tree_param":{"num_deleted":"0","num_feature":"4105","num_nodes":"9","size_leaf_vector":"1"}},{"base_weights":[4.8139237E-2,-1.6230157E-1,1.3242946E1,1.2584871E-1,-7.609218E0,2.4241178E0,3.4285972E0,-1.8876131E-1,9.604323E-2,-1.002275E0,-3.1681827E-1,4.8445594E-1,1.3559589E-1],"categories":[],"categories_nodes":[],"categories_segments":[],"categories_sizes":[],"default_left":[0,0,0,0,0,0,0,0,0,0,0,0,0],"id":51,"left_children":[1,3,5,7,9,-1,11,-1,-1,-1,-1,-1,-1],"loss_changes":[5.693547E3,4.3310615E3,4.432003E3,4.192019E3,1.1124004E3,0E0,7.237508E1,0E0,0E0,0E0,0E0,0E0,0E0],"parents":[2147483647,0,0,1,1,2,2,3,3,4,4,6,6],"right_children":[2,4,6,8,10,-1,12,-1,-1,-1,-1,-1,-1],"split_conditions":[3.8111103E-1,4.128622E-1,1.2967545E-1,1.065551E-3,1.4765931E-2,2.4241178E0,2.70126E-4,-1.8876131E-1,9.604323E-2,-1.002275E0,-3.1681827E-1,4.8445594E-1,1.3559589E-1],"split_indices":[1092,2417,1586,2803,11,0,955,0,0,0,0,0,0],"split_type":[0,0,0,0,0,0,0,0,0,0,0,0,0],"sum_hessian":[2.05E3,2.018E3,3.2E1,1.943E3,7.5E1,1.3E1,1.9E1,5.79E2,1.364E3,3.9E1,3.6E1,9E0,1E1],"tree_param":{"num_deleted":"0","num_feature":"4105","num_nodes":"13","size_leaf_vector":"1"}},{"base_weights":[4.002678E-2,1.8143015E0,-1.0798401E0,1.4639164E0,1.5483657E0,-4.3369806E-1,-4.734848E0,-6.620529E-2,3.0706793E-1,-6.0258508E-2,6.259481E-1,-7.551466E-1,-1.8563224E-1],"categories":[],"categories_nodes":[],"categories_segments":[],"categories_sizes":[],"default_left":[0,0,0,0,0,0,0,0,0,0,0,0,0],"id":52,"left_children":[1,3,5,-1,7,9,11,-1,-1,-1,-1,-1,-1],"loss_changes":[4.1038184E3,3.1169482E3,2.9897827E3,0E0,3.44868E3,1.9813644E3,1.8952075E3,0E0,0E0,0E0,0E0,0E0,0E0],"parents":[2147483647,0,0,1,1,2,2,4,4,5,5,6,6],"right_children":[2,4,6,-1,8,10,12,-1,-1,-1,-1,-1,-1],"split_conditions":[7.60254E-2,2.2084764E-3,2.0110655E0,1.4639164E0,9.876649E-2,9.6139276E-1,1.6257483E-1,-6.620529E-2,3.0706793E-1,-6.0258508E-2,6.259481E-1,-7.551466E-1,-1.8563224E-1],"split_indices":[484,2261,2999,0,3366,2851,3415,0,0,0,0,0,0],"split_type":[0,0,0,0,0,0,0,0,0,0,0,0,0],"sum_hessian":[2.065E3,7.99E2,1.266E3,1.4E1,7.85E2,1.076E3,1.9E2,3.57E2,4.28E2,1.042E3,3.4E1,7.8E1,1.12E2],"tree_param":{"num_deleted":"0","num_feature":"4105","num_nodes":"13","size_leaf_vector":"1"}},{"base_weights":[-9.388638E-3,2.0308557E0,-8.8132405E-1,5.001784E0,-9.149745E-2,-2.235275E0,7.5889415E-1,3.7076366E-1,1.90252E0,-7.775396E-2,2.651325E-1,-3.7032393E-1,-4.6936452E-2,7.6790345E-1,4.608931E-2],"categories":[],"categories_nodes":[],"categories_segments":[],"categories_sizes":[],"default_left":[0,0,0,0,0,0,0,0,0,0,0,0,0,0,0],"id":53,"left_children":[1,3,5,7,9,11,13,-1,-1,-1,-1,-1,-1,-1,-1],"loss_changes":[3.6670842E3,3.891807E3,3.2075764E3,3.4581104E3,8.716622E2,2.618058E3,1.2333701E3,0E0,0E0,0E0,0E0,0E0,0E0,0E0,0E0],"parents":[2147483647,0,0,1,1,2,2,3,3,4,4,5,5,6,6],"right_children":[2,4,6,8,10,12,14,-1,-1,-1,-1,-1,-1,-1,-1],"split_conditions":[3.025222E-2,5.6733614E-1,4.2588913E-1,2.1894959E-1,5.1963527E-2,2.488914E-1,6.9612704E-2,3.7076366E-1,1.90252E0,-7.775396E-2,2.651325E-1,-3.7032393E-1,-4.6936452E-2,7.6790345E-1,4.608931E-2],"split_indices":[1453,3636,890,1106,2211,494,3069,0,0,0,0,0,0,0,0],"split_type":[0,0,0,0,0,0,0,0,0,0,0,0,0,0,0],"sum_hessian":[2.061E3,6.17E2,1.444E3,2.57E2,3.6E2,7.91E2,6.53E2,2.45E2,1.2E1,2.87E2,7.3E1,3.7E2,4.21E2,1.9E1,6.34E2],"tree_param":{"num_deleted":"0","num_feature":"4105","num_nodes":"15","size_leaf_vector":"1"}},{"base_weights":[5.7309866E-2,2.2313198E-1,-1.008074E1,2.3979907E0,-4.8073274E-1,-1.2456667E0,-5.5307597E-1,1.7644107E-1,1.6492553E0,-1.16840824E-1,9.899287E-2],"categories":[],"categories_nodes":[],"categories_segments":[],"categories_sizes":[],"default_left":[0,0,0,0,0,0,0,0,0,0,0],"id":54,"left_children":[1,3,5,7,9,-1,-1,-1,-1,-1,-1],"loss_changes":[3.4669487E3,3.106561E3,4.8875073E2,3.2771199E3,2.0484368E3,0E0,0E0,0E0,0E0,0E0,0E0],"parents":[2147483647,0,0,1,1,2,2,3,3,4,4],"right_children":[2,4,6,8,10,-1,-1,-1,-1,-1,-1],"split_conditions":[2.0314834E-1,7.341702E-2,1.7805795E-1,5.2534175E-1,9.425266E-2,-1.2456667E0,-5.5307597E-1,1.7644107E-1,1.6492553E0,-1.16840824E-1,9.899287E-2],"split_indices":[3291,76,918,1556,2151,0,0,0,0,0,0],"split_type":[0,0,0,0,0,0,0,0,0,0,0],"sum_hessian":[2.062E3,2.029E3,3.3E1,4.96E2,1.533E3,1.6E1,1.7E1,4.84E2,1.2E1,1.006E3,5.27E2],"tree_param":{"num_deleted":"0","num_feature":"4105","num_nodes":"11","size_leaf_vector":"1"}},{"base_weights":[6.3475534E-2,1.0571754E0,-1.699759E0,8.07199E-1,1.1691638E1,-1.0232245E0,-6.401781E0,2.499136E-2,4.3465316E-1,1.6292301E0,7.2830826E-1,-7.224852E-2,-1.0551512E0,-9.602451E-1,-3.7859353E-1],"categories":[],"categories_nodes":[],"categories_segments":[],"categories_sizes":[],"default_left":[0,0,0,0,0,0,0,0,0,0,0,0,0,0,0],"id":55,"left_children":[1,3,5,7,9,11,13,-1,-1,-1,-1,-1,-1,-1,-1],"loss_changes":[3.603025E3,3.4941543E3,2.3563572E3,2.7637324E3,6.7239307E2,1.4684495E3,8.7049414E2,0E0,0E0,0E0,0E0,0E0,0E0,0E0,0E0],"parents":[2147483647,0,0,1,1,2,2,3,3,4,4,5,5,6,6],"right_children":[2,4,6,8,10,12,14,-1,-1,-1,-1,-1,-1,-1,-1],"split_conditions":[2.1307E-2,1.2957916E-2,1.1672487E-1,2.8468174E-1,2.50803E-1,4.4557482E-1,1.5075664E-1,2.499136E-2,4.3465316E-1,1.6292301E0,7.2830826E-1,-7.224852E-2,-1.0551512E0,-9.602451E-1,-3.7859353E-1],"split_indices":[2798,3046,2537,2486,657,646,644,0,0,0,0,0,0,0,0],"split_type":[0,0,0,0,0,0,0,0,0,0,0,0,0,0,0],"sum_hessian":[2.056E3,1.315E3,7.41E2,1.285E3,3E1,6.48E2,9.3E1,1.139E3,1.46E2,1E1,2E1,6.36E2,1.2E1,3E1,6.3E1],"tree_param":{"num_deleted":"0","num_feature":"4105","num_nodes":"15","size_leaf_vector":"1"}},{"base_weights":[-8.0037065E-2,7.477976E-2,-9.0607395E0,9.400766E-1,-1.4495518E0,-1.1716316E0,-5.470112E0,3.55051E-2,4.3206385E-1,-7.325389E-2,-5.166114E-1,-6.537761E-1,-2.8801665E-1],"categories":[],"categories_nodes":[],"categories_segments":[],"categories_sizes":[],"default_left":[0,0,0,0,0,0,0,0,0,0,0,0,0],"id":56,"left_children":[1,3,5,7,9,-1,11,-1,-1,-1,-1,-1,-1],"loss_changes":[2.887012E3,2.692571E3,5.1008325E2,2.7627075E3,2.0157727E3,0E0,7.629321E1,0E0,0E0,0E0,0E0,0E0,0E0],"parents":[2147483647,0,0,1,1,2,2,3,3,4,4,6,6],"right_children":[2,4,6,8,10,-1,12,-1,-1,-1,-1,-1,-1],"split_conditions":[2.0314834E-1,2.1307E-2,1.862363E-2,2.8468174E-1,1.1672487E-1,-1.1716316E0,2.56961E-1,3.55051E-2,4.3206385E-1,-7.325389E-2,-5.166114E-1,-6.537761E-1,-2.8801665E-1],"split_indices":[3291,2798,69,2486,2537,0,2,0,0,0,0,0,0],"split_type":[0,0,0,0,0,0,0,0,0,0,0,0,0],"sum_hessian":[2.076E3,2.041E3,3.5E1,1.302E3,7.39E2,1.6E1,1.9E1,1.145E3,1.57E2,6.47E2,9.2E1,1E1,9E0],"tree_param":{"num_deleted":"0","num_feature":"4105","num_nodes":"13","size_leaf_vector":"1"}},{"base_weights":[2.493345E-2,1.4303675E0,-7.153759E-2,-2.3138547E0,5.3687644E-1,-1.2451905E-1,-6.3064015E-1,4.2945457E-1,1.5207504E-2],"categories":[],"categories_nodes":[],"categories_segments":[],"categories_sizes":[],"default_left":[0,0,0,0,0,0,0,0,0],"id":57,"left_children":[1,-1,3,5,7,-1,-1,-1,-1],"loss_changes":[3.1790632E3,0E0,2.775436E3,1.8929009E3,2.517023E3,0E0,0E0,0E0,0E0],"parents":[2147483647,0,0,2,2,3,3,4,4],"right_children":[2,-1,4,6,8,-1,-1,-1,-1],"split_conditions":[3.3947475E-2,1.4303675E0,1.43505E-2,6.9364436E-2,2.9476851E-2,-1.2451905E-1,-6.3064015E-1,4.2945457E-1,1.5207504E-2],"split_indices":[2362,0,3321,3291,617,0,0,0,0],"split_type":[0,0,0,0,0,0,0,0,0],"sum_hessian":[2.046E3,1.2E1,2.034E3,4.34E2,1.6E3,3.65E2,6.9E1,1.25E2,1.475E3],"tree_param":{"num_deleted":"0","num_feature":"4105","num_nodes":"9","size_leaf_vector":"1"}},{"base_weights":[-1.042508E-3,1.6121374E0,-8.220638E-2,-9.67185E-1,1.2483773E0,-2.0540147E-1,2.2077844E-2,1.5515777E-1,-2.6900715E-1],"categories":[],"categories_nodes":[],"categories_segments":[],"categories_sizes":[],"default_left":[0,0,0,0,0,0,0,0,0],"id":58,"left_children":[1,-1,3,5,7,-1,-1,-1,-1],"loss_changes":[3.0495867E3,0E0,2.423817E3,2.0275609E3,1.7643025E3,0E0,0E0,0E0,0E0],"parents":[2147483647,0,0,2,2,3,3,4,4],"right_children":[2,-1,4,6,8,-1,-1,-1,-1],"split_conditions":[2.638634E-2,1.6121374E0,2.0458084E-1,4.94335E-1,-6.05588E-1,-2.0540147E-1,2.2077844E-2,1.5515777E-1,-2.6900715E-1],"split_indices":[3192,0,1989,3506,4101,0,0,0,0],"split_type":[0,0,0,0,0,0,0,0,0],"sum_hessian":[2.067E3,9E0,2.058E3,1.236E3,8.22E2,5.86E2,6.5E2,7.36E2,8.6E1],"tree_param":{"num_deleted":"0","num_feature":"4105","num_nodes":"9","size_leaf_vector":"1"}},{"base_weights":[3.674877E-2,1.2166909E1,-7.218686E-2,1.3944881E0,7.414053E-1,-4.959041E-1,2.7401896E0,-9.254723E-2,1.7446531E-1,1.809435E-1,1.3390335E0],"categories":[],"categories_nodes":[],"categories_segments":[],"categories_sizes":[],"default_left":[0,0,0,0,0,0,0,0,0,0,0],"id":59,"left_children":[1,3,5,-1,-1,7,9,-1,-1,-1,-1],"loss_changes":[2.7003538E3,2.208186E2,2.4135208E3,0E0,0E0,2.3739456E3,2.288041E3,0E0,0E0,0E0,0E0],"parents":[2147483647,0,0,1,1,2,2,5,5,6,6],"right_children":[2,4,6,-1,-1,8,10,-1,-1,-1,-1],"split_conditions":[4.5627058E-2,7.99269E-2,1.6625799E-1,1.3944881E0,7.414053E-1,4.7892386E-1,8.06527E-1,-9.254723E-2,1.7446531E-1,1.809435E-1,1.3390335E0],"split_indices":[2314,313,186,0,0,1375,1280,0,0,0,0],"split_type":[0,0,0,0,0,0,0,0,0,0,0],"sum_hessian":[2.043E3,1.8E1,2.025E3,9E0,9E0,1.76E3,2.65E2,1.44E3,3.2E2,2.51E2,1.4E1],"tree_param":{"num_deleted":"0","num_feature":"4105","num_nodes":"11","size_leaf_vector":"1"}},{"base_weights":[-4.1724615E-2,1.0823375E1,-1.4332631E-1,1.2955986E0,5.678877E-1,1.0854264E0,-8.844882E-1,-4.064041E-1,1.3417883E-1,-4.580552E-2,-3.849676E-1],"categories":[],"categories_nodes":[],"categories_segments":[],"categories_sizes":[],"default_left":[0,0,0,0,0,0,0,0,0,0,0],"id":60,"left_children":[1,3,5,-1,-1,7,9,-1,-1,-1,-1],"loss_changes":[2.2864355E3,3.027871E2,1.8691143E3,0E0,0E0,1.8715271E3,1.6277678E3,0E0,0E0,0E0,0E0],"parents":[2147483647,0,0,1,1,2,2,5,5,6,6],"right_children":[2,4,6,-1,-1,8,10,-1,-1,-1,-1],"split_conditions":[4.5627058E-2,3.567158E-1,7.7478275E-2,1.2955986E0,5.678877E-1,7.0746575E-4,6.1932755E-1,-4.064041E-1,1.3417883E-1,-4.580552E-2,-3.849676E-1],"split_indices":[2314,1258,484,0,0,173,2365,0,0,0,0],"split_type":[0,0,0,0,0,0,0,0,0,0,0],"sum_hessian":[2.071E3,1.9E1,2.052E3,1E1,9E0,7.72E2,1.28E3,5.4E1,7.18E2,1.157E3,1.23E2],"tree_param":{"num_deleted":"0","num_feature":"4105","num_nodes":"11","size_leaf_vector":"1"}},{"base_weights":[5.142591E-2,-7.0884496E-2,9.126427E0,7.043802E-2,-6.8516493E0,1.9047052E0,1.5124951E-1,-2.7556043E-2,2.018819E-1,-8.1358474E-1,-4.0603825E-1],"categories":[],"categories_nodes":[],"categories_segments":[],"categories_sizes":[],"default_left":[0,0,0,0,0,0,0,0,0,0,0],"id":61,"left_children":[1,3,5,7,9,-1,-1,-1,-1,-1,-1],"loss_changes":[2.2693325E3,1.9332831E3,2.4840137E3,1.6614073E3,2.0910425E2,0E0,0E0,0E0,0E0,0E0,0E0],"parents":[2147483647,0,0,1,1,2,2,3,3,4,4],"right_children":[2,4,6,8,10,-1,-1,-1,-1,-1,-1],"split_conditions":[3.8111103E-1,2.2861944E-1,5.6857663E-1,4.1439044E-1,4.56127E-1,1.9047052E0,1.5124951E-1,-2.7556043E-2,2.018819E-1,-8.1358474E-1,-4.0603825E-1],"split_indices":[1092,2704,962,813,1774,0,0,0,0,0,0],"split_type":[0,0,0,0,0,0,0,0,0,0,0],"sum_hessian":[2.044E3,2.017E3,2.7E1,1.976E3,4.1E1,1E1,1.7E1,1.685E3,2.91E2,2E1,2.1E1],"tree_param":{"num_deleted":"0","num_feature":"4105","num_nodes":"11","size_leaf_vector":"1"}},{"base_weights":[5.1818644E-3,1.2699465E0,-8.435727E-1,1.0757262E0,1.4767622E0,-2.8472884E0,-6.1718717E-2,1.3373891E0,7.9533525E-2,-4.229323E-1,-4.6698052E-2,-2.8020909E-2,4.4084188E-1],"categories":[],"categories_nodes":[],"categories_segments":[],"categories_sizes":[],"default_left":[0,0,0,0,0,0,0,0,0,0,0,0,0],"id":62,"left_children":[1,3,5,7,-1,9,11,-1,-1,-1,-1,-1,-1],"loss_changes":[2.1870837E3,2.440151E3,1.9098907E3,2.0230673E3,0E0,1.5249902E3,1.1222244E3,0E0,0E0,0E0,0E0,0E0,0E0],"parents":[2147483647,0,0,1,1,2,2,3,3,5,5,6,6],"right_children":[2,4,6,8,-1,10,12,-1,-1,-1,-1,-1,-1],"split_conditions":[3.1039437E-2,3.6676195E-1,1.6853493E-1,5.28457E-3,1.4767622E0,2.5465584E-1,1.1158105E0,1.3373891E0,7.9533525E-2,-4.229323E-1,-4.6698052E-2,-2.8020909E-2,4.4084188E-1],"split_indices":[339,1092,644,580,0,3505,2301,0,0,0,0,0,0],"split_type":[0,0,0,0,0,0,0,0,0,0,0,0,0],"sum_hessian":[2.037E3,8.18E2,1.219E3,8.08E2,1E1,3.42E2,8.77E2,1E1,7.98E2,1.87E2,1.55E2,8.35E2,4.2E1],"tree_param":{"num_deleted":"0","num_feature":"4105","num_nodes":"13","size_leaf_vector":"1"}},{"base_weights":[2.5627235E-2,-1.0282255E-1,7.2109094E0,-2.6344785E-1,5.230165E0,1.5993775E0,1.7007326E0,-1.5213619E-2,-7.7114946E-1,8.521949E-1,1.5478627E-1,3.3446527E-1,-6.914935E-3],"categories":[],"categories_nodes":[],"categories_segments":[],"categories_sizes":[],"default_left":[0,0,0,0,0,0,0,0,0,0,0,0,0],"id":63,"left_children":[1,3,5,7,9,-1,11,-1,-1,-1,-1,-1,-1],"loss_changes":[1.9017659E3,1.7340813E3,2.151536E3,1.5224861E3,8.9959436E2,0E0,8.921718E1,0E0,0E0,0E0,0E0,0E0,0E0],"parents":[2147483647,0,0,1,1,2,2,3,3,4,4,6,6],"right_children":[2,4,6,8,10,-1,12,-1,-1,-1,-1,-1,-1],"split_conditions":[3.8111103E-1,4.6521693E-2,5.6857663E-1,3.455607E-1,4.595478E-1,1.5993775E0,6.562415E-2,-1.5213619E-2,-7.7114946E-1,8.521949E-1,1.5478627E-1,3.3446527E-1,-6.914935E-3],"split_indices":[1092,3040,962,2052,1546,0,3117,0,0,0,0,0,0],"split_type":[0,0,0,0,0,0,0,0,0,0,0,0,0],"sum_hessian":[2.06E3,2.024E3,3.6E1,1.965E3,5.9E1,1.2E1,2.4E1,1.944E3,2.1E1,2.6E1,3.3E1,1.1E1,1.3E1],"tree_param":{"num_deleted":"0","num_feature":"4105","num_nodes":"13","size_leaf_vector":"1"}},{"base_weights":[1.1471677E-2,-1.06083296E-1,7.408262E0,-4.3024817E-1,2.12255E0,1.4597179E0,1.874305E0,-7.287413E-2,1.3651434E-1,7.005205E-1,9.608195E-2,3.7512785E-1,-7.9090595E-3],"categories":[],"categories_nodes":[],"categories_segments":[],"categories_sizes":[],"default_left":[0,0,0,0,0,0,0,0,0,0,0,0,0],"id":64,"left_children":[1,3,5,7,9,-1,11,-1,-1,-1,-1,-1,-1],"loss_changes":[1.7891184E3,1.4632166E3,1.6056747E3,1.3630535E3,1.54188E3,0E0,9.3530655E1,0E0,0E0,0E0,0E0,0E0,0E0],"parents":[2147483647,0,0,1,1,2,2,3,3,4,4,6,6],"right_children":[2,4,6,8,10,-1,12,-1,-1,-1,-1,-1,-1],"split_conditions":[3.8111103E-1,1.6625799E-1,5.6857663E-1,1.9392903E-1,1.259549E-1,1.4597179E0,4.178782E-3,-7.287413E-2,1.3651434E-1,7.005205E-1,9.608195E-2,3.7512785E-1,-7.9090595E-3],"split_indices":[1092,186,962,2383,345,0,3467,0,0,0,0,0,0],"split_type":[0,0,0,0,0,0,0,0,0,0,0,0,0],"sum_hessian":[2.057E3,2.025E3,3.2E1,1.768E3,2.57E2,1.2E1,2E1,1.475E3,2.93E2,3.9E1,2.18E2,9E0,1.1E1],"tree_param":{"num_deleted":"0","num_feature":"4105","num_nodes":"13","size_leaf_vector":"1"}},{"base_weights":[4.9800355E-2,1.2165759E0,-6.274215E-1,2.4860609E0,-4.1217604E-1,-1.5616965E0,5.1920736E-1,5.8429784E-1,1.5034181E-1,2.2179966E-3,-6.3018125E-1,-3.5386774E-1,-7.099134E-2,1.7001161E-3,4.095895E-1],"categories":[],"categories_nodes":[],"categories_segments":[],"categories_sizes":[],"default_left":[0,0,0,0,0,0,0,0,0,0,0,0,0,0,0],"id":65,"left_children":[1,3,5,7,9,11,13,-1,-1,-1,-1,-1,-1,-1,-1],"loss_changes":[1.6161973E3,1.5534603E3,1.3866007E3,1.3674773E3,9.634075E2,1.3175581E3,1.191018E3,0E0,0E0,0E0,0E0,0E0,0E0,0E0,0E0],"parents":[2147483647,0,0,1,1,2,2,3,3,4,4,5,5,6,6],"right_children":[2,4,6,8,10,12,14,-1,-1,-1,-1,-1,-1,-1,-1],"split_conditions":[3.1921616E-1,1.9292574E-1,1.8445587E-1,5.025613E-2,8.392277E-2,1.8993389E-2,2.6950407E-1,5.8429784E-1,1.5034181E-1,2.2179966E-3,-6.3018125E-1,-3.5386774E-1,-7.099134E-2,1.7001161E-3,4.095895E-1],"split_indices":[705,2277,4104,1638,1839,2249,2188,0,0,0,0,0,0,0,0],"split_type":[0,0,0,0,0,0,0,0,0,0,0,0,0,0,0],"sum_hessian":[2.045E3,7.51E2,1.294E3,4.22E2,3.29E2,7.13E2,5.81E2,6.8E1,3.54E2,3.09E2,2E1,1.7E2,5.43E2,5.18E2,6.3E1],"tree_param":{"num_deleted":"0","num_feature":"4105","num_nodes":"15","size_leaf_vector":"1"}},{"base_weights":[-1.1663388E-2,-5.832529E-1,1.2633135E0,-2.2776881E-1,-2.5899644E0,7.927815E0,8.105825E-1,-8.039913E-2,7.0462294E-2,-1.2963158E-1,-4.6530545E-1,1.6427933E0,3.8156602E-1,-6.3054204E-1,9.666009E-2],"categories":[],"categories_nodes":[],"categories_segments":[],"categories_sizes":[],"default_left":[0,0,0,0,0,0,0,0,0,0,0,0,0,0,0],"id":66,"left_children":[1,3,5,7,9,11,13,-1,-1,-1,-1,-1,-1,-1,-1],"loss_changes":[1.4883947E3,1.00578174E3,1.9060236E3,8.313827E2,6.343661E2,1.5280991E3,1.3107692E3,0E0,0E0,0E0,0E0,0E0,0E0,0E0,0E0],"parents":[2147483647,0,0,1,1,2,2,3,3,4,4,5,5,6,6],"right_children":[2,4,6,8,10,12,14,-1,-1,-1,-1,-1,-1,-1,-1],"split_conditions":[1.8021075E-2,7.111101E-2,4.8197515E-4,7.1087815E-3,7.912396E-3,1.5026246E-1,1.1516068E-2,-8.039913E-2,7.0462294E-2,-1.2963158E-1,-4.6530545E-1,1.6427933E0,3.8156602E-1,-6.3054204E-1,9.666009E-2],"split_indices":[3017,3047,2052,3453,2942,288,294,0,0,0,0,0,0,0,0],"split_type":[0,0,0,0,0,0,0,0,0,0,0,0,0,0,0],"sum_hessian":[2.042E3,1.41E3,6.32E2,1.198E3,2.12E2,4E1,5.92E2,7.2E2,4.78E2,1.49E2,6.3E1,1E1,3E1,2E1,5.72E2],"tree_param":{"num_deleted":"0","num_feature":"4105","num_nodes":"15","size_leaf_vector":"1"}},{"base_weights":[1.6774239E-2,2.4190754E-1,-2.789597E0,-5.515214E-2,2.817661E0,-3.5136247E0,2.9556012E-1,5.9312284E-1,-1.4241535E-2,5.4593825E-1,3.6416374E-2,-4.2958748E-1,-1.2603012E-1],"categories":[],"categories_nodes":[],"categories_segments":[],"categories_sizes":[],"default_left":[0,0,0,0,0,0,0,0,0,0,0,0,0],"id":67,"left_children":[1,3,5,7,9,11,-1,-1,-1,-1,-1,-1,-1],"loss_changes":[1.2947565E3,1.4517377E3,6.7677856E2,1.2091222E3,1.575469E3,3.7752332E2,0E0,0E0,0E0,0E0,0E0,0E0,0E0],"parents":[2147483647,0,0,1,1,2,2,3,3,4,4,5,5],"right_children":[2,4,6,8,10,12,-1,-1,-1,-1,-1,-1,-1],"split_conditions":[1.1733011E-1,5.584061E-2,3.5546085E-1,6.9612704E-2,2.0363593E-2,3.244084E-2,2.9556012E-1,5.9312284E-1,-1.4241535E-2,5.4593825E-1,3.6416374E-2,-4.2958748E-1,-1.2603012E-1],"split_indices":[2974,3294,575,3069,1689,458,0,0,0,0,0,0,0],"split_type":[0,0,0,0,0,0,0,0,0,0,0,0,0],"sum_hessian":[2.049E3,1.897E3,1.52E2,1.701E3,1.96E2,1.36E2,1.6E1,2.6E1,1.675E3,8.2E1,1.14E2,8.3E1,5.3E1],"tree_param":{"num_deleted":"0","num_feature":"4105","num_nodes":"13","size_leaf_vector":"1"}},{"base_weights":[2.2299613E-3,1.0686036E0,-5.7102805E-1,-4.9421406E-1,2.14377E0,-2.6895988E0,-1.580319E-1,-1.21875405E-2,-7.626703E-1,1.231952E0,1.6676986E-1,5.481756E-1,-2.734099E-1,1.00948945E-1,-7.245603E-2],"categories":[],"categories_nodes":[],"categories_segments":[],"categories_sizes":[],"default_left":[0,0,0,0,0,0,0,0,0,0,0,0,0,0,0],"id":68,"left_children":[1,3,5,7,9,11,13,-1,-1,-1,-1,-1,-1,-1,-1],"loss_changes":[1.2399744E3,1.1918837E3,1.1540876E3,8.358126E2,1.295312E3,7.535532E2,9.4315924E2,0E0,0E0,0E0,0E0,0E0,0E0,0E0,0E0],"parents":[2147483647,0,0,1,1,2,2,3,3,4,4,5,5,6,6],"right_children":[2,4,6,8,10,12,14,-1,-1,-1,-1,-1,-1,-1,-1],"split_conditions":[3.010201E-1,3.6184946E-1,6.1732184E-2,8.823239E-2,1.849359E-2,2.3787213E-3,9.0627715E-2,-1.21875405E-2,-7.626703E-1,1.231952E0,1.6676986E-1,5.481756E-1,-2.734099E-1,1.00948945E-1,-7.245603E-2],"split_indices":[705,2851,3435,1177,3740,3524,3993,0,0,0,0,0,0,0,0],"split_type":[0,0,0,0,0,0,0,0,0,0,0,0,0,0,0],"sum_hessian":[2.028E3,7.09E2,1.319E3,2.89E2,4.2E2,2.15E2,1.104E3,2.77E2,1.2E1,9E0,4.11E2,9E0,2.06E2,3.72E2,7.32E2],"tree_param":{"num_deleted":"0","num_feature":"4105","num_nodes":"15","size_leaf_vector":"1"}},{"base_weights":[-5.597201E-2,4.105959E-2,-5.92175E0,2.4404278E-1,-2.9328606E0,-9.627917E-1,-3.3826253E0,-2.473925E-2,1.213998E-1,1.0094294E-2,-4.6326035E-1,-8.901573E-2,-4.7158048E-1],"categories":[],"categories_nodes":[],"categories_segments":[],"categories_sizes":[],"default_left":[0,0,0,0,0,0,0,0,0,0,0,0,0],"id":69,"left_children":[1,3,5,7,9,-1,11,-1,-1,-1,-1,-1,-1],"loss_changes":[1.1608306E3,1.2111151E3,4.0843225E2,1.1047842E3,8.946564E2,0E0,1.0093475E2,0E0,0E0,0E0,0E0,0E0,0E0],"parents":[2147483647,0,0,1,1,2,2,3,3,4,4,6,6],"right_children":[2,4,6,8,10,-1,12,-1,-1,-1,-1,-1,-1],"split_conditions":[2.0314834E-1,1.059343E0,3.444351E-2,1.8021075E-2,1.5929279E-1,-9.627917E-1,9.7444996E-2,-2.473925E-2,1.213998E-1,1.0094294E-2,-4.6326035E-1,-8.901573E-2,-4.7158048E-1],"split_indices":[3291,3089,1584,3017,1911,0,1027,0,0,0,0,0,0],"split_type":[0,0,0,0,0,0,0,0,0,0,0,0,0],"sum_hessian":[2.039E3,2.006E3,3.3E1,1.878E3,1.28E2,1.1E1,2.2E1,1.282E3,5.96E2,5.5E1,7.3E1,1E1,1.2E1],"tree_param":{"num_deleted":"0","num_feature":"4105","num_nodes":"13","size_leaf_vector":"1"}},{"base_weights":[-4.283251E-2,7.5307745E-1,-1.0738275E-1,-9.704311E-3,-5.429325E0,-2.7634047E-2,1.4370576E-1,-9.262274E-1,-3.0500296E-1],"categories":[],"categories_nodes":[],"categories_segments":[],"categories_sizes":[],"default_left":[0,0,0,0,0,0,0,0,0],"id":70,"left_children":[1,-1,3,5,7,-1,-1,-1,-1],"loss_changes":[1.114397E3,0E0,1.043788E3,9.703709E2,3.540182E2,0E0,0E0,0E0,0E0],"parents":[2147483647,0,0,2,2,3,3,4,4],"right_children":[2,-1,4,6,8,-1,-1,-1,-1],"split_conditions":[4.5627058E-2,7.5307745E-1,2.0314834E-1,6.170137E-1,2.1072553E-4,-2.7634047E-2,1.4370576E-1,-9.262274E-1,-3.0500296E-1],"split_indices":[2314,0,3291,660,322,0,0,0,0],"split_type":[0,0,0,0,0,0,0,0,0],"sum_hessian":[2.023E3,1.5E1,2.008E3,1.972E3,3.6E1,1.664E3,3.08E2,1E1,2.6E1],"tree_param":{"num_deleted":"0","num_feature":"4105","num_nodes":"9","size_leaf_vector":"1"}},{"base_weights":[-7.818034E-2,-1.4460765E-1,7.723813E-1,6.139946E-1,-8.4163237E-1,4.2649403E-2,7.9008454E-1,-1.3929791E-2,-2.1693859E-1],"categories":[],"categories_nodes":[],"categories_segments":[],"categories_sizes":[],"default_left":[0,0,0,0,0,0,0,0,0],"id":71,"left_children":[1,3,-1,5,7,-1,-1,-1,-1],"loss_changes":[1.1814491E3,1.0624911E3,0E0,1.0614812E3,1.1499144E3,0E0,0E0,0E0,0E0],"parents":[2147483647,0,0,1,1,3,3,4,4],"right_children":[2,4,-1,6,8,-1,-1,-1,-1],"split_conditions":[2.813616E-1,4.4381578E-2,7.723813E-1,3.6676195E-1,-2.2609563E0,4.2649403E-2,7.9008454E-1,-1.3929791E-2,-2.1693859E-1],"split_indices":[3906,339,0,1092,4102,0,0,0,0],"split_type":[0,0,0,0,0,0,0,0,0],"sum_hessian":[2.024E3,2.009E3,1.5E1,9.62E2,1.047E3,9.47E2,1.5E1,7.34E2,3.13E2],"tree_param":{"num_deleted":"0","num_feature":"4105","num_nodes":"9","size_leaf_vector":"1"}},{"base_weights":[2.868752E-2,9.384272E-1,-5.07901E-1,4.9567456E0,5.497724E-1,-3.9636627E-1,-6.114134E0,6.370804E-1,-1.4154205E-1,-2.8764746E-1,7.947305E-2,-1.8681692E-2,-3.2930544E-1,-7.4894494E-1,-3.1011558E-1],"categories":[],"categories_nodes":[],"categories_segments":[],"categories_sizes":[],"default_left":[0,0,0,0,0,0,0,0,0,0,0,0,0,0,0],"id":72,"left_children":[1,3,5,7,9,11,13,-1,-1,-1,-1,-1,-1,-1,-1],"loss_changes":[1.0028651E3,1.1896865E3,8.073706E2,9.823175E2,9.134441E2,7.80322E2,1.4774805E2,0E0,0E0,0E0,0E0,0E0,0E0,0E0,0E0],"parents":[2147483647,0,0,1,1,2,2,3,3,4,4,5,5,6,6],"right_children":[2,4,6,8,10,12,14,-1,-1,-1,-1,-1,-1,-1,-1],"split_conditions":[7.60254E-2,1.6777635E-2,3.3696803E-1,6.429546E-1,1.1974829E-2,1.3991435E-1,1.5027544E-2,6.370804E-1,-1.4154205E-1,-2.8764746E-1,7.947305E-2,-1.8681692E-2,-3.2930544E-1,-7.4894494E-1,-3.1011558E-1],"split_indices":[484,2581,2052,1274,2063,943,1306,0,0,0,0,0,0,0,0],"split_type":[0,0,0,0,0,0,0,0,0,0,0,0,0,0,0],"sum_hessian":[2.054E3,7.62E2,1.292E3,6.7E1,6.95E2,1.267E3,2.5E1,5E1,1.7E1,5.8E1,6.37E2,1.2E3,6.7E1,1.3E1,1.2E1],"tree_param":{"num_deleted":"0","num_feature":"4105","num_nodes":"15","size_leaf_vector":"1"}},{"base_weights":[-3.690942E-2,1.1596017E-1,-2.9529808E0,3.054162E-1,-2.4674742E0,-3.6809921E0,2.6856187E-1,1.16082365E-2,3.069363E-1,1.598899E-2,-3.946207E-1,-2.2856359E-1,-5.678054E-1],"categories":[],"categories_nodes":[],"categories_segments":[],"categories_sizes":[],"default_left":[0,0,0,0,0,0,0,0,0,0,0,0,0],"id":73,"left_children":[1,3,5,7,9,11,-1,-1,-1,-1,-1,-1,-1],"loss_changes":[9.1451215E2,9.5411285E2,4.4706592E2,9.999888E2,6.9909094E2,2.7057434E2,0E0,0E0,0E0,0E0,0E0,0E0,0E0],"parents":[2147483647,0,0,1,1,2,2,3,3,4,4,5,5],"right_children":[2,4,6,8,10,12,-1,-1,-1,-1,-1,-1,-1],"split_conditions":[-5.9937286E-1,1.059343E0,2.421195E-1,1.0138854E-1,1.5929279E-1,3.5953786E-2,2.6856187E-1,1.16082365E-2,3.069363E-1,1.598899E-2,-3.946207E-1,-2.2856359E-1,-5.678054E-1],"split_indices":[4101,3089,1436,3294,1911,364,0,0,0,0,0,0,0],"split_type":[0,0,0,0,0,0,0,0,0,0,0,0,0],"sum_hessian":[2.051E3,1.949E3,1.02E2,1.816E3,1.33E2,9.1E1,1.1E1,1.721E3,9.5E1,5.7E1,7.6E1,6.5E1,2.6E1],"tree_param":{"num_deleted":"0","num_feature":"4105","num_nodes":"13","size_leaf_vector":"1"}},{"base_weights":[4.0738257E-3,-5.302978E-2,8.462273E-1,5.7253885E0,-1.3127123E-1,3.20385E-1,6.132139E-1,-1.5679134E-2,7.798556E-1],"categories":[],"categories_nodes":[],"categories_segments":[],"categories_sizes":[],"default_left":[0,0,0,0,0,0,0,0,0],"id":74,"left_children":[1,3,-1,5,7,-1,-1,-1,-1],"loss_changes":[1.1151906E3,9.2013416E2,0E0,6.329236E1,8.1550604E2,0E0,0E0,0E0,0E0],"parents":[2147483647,0,0,1,1,3,3,4,4],"right_children":[2,4,-1,6,8,-1,-1,-1,-1],"split_conditions":[1.2124604E0,6.9612704E-2,8.462273E-1,1.5696299E-1,7.5585353E-1,3.20385E-1,6.132139E-1,-1.5679134E-2,7.798556E-1],"split_indices":[1461,3069,0,1696,666,0,0,0,0],"split_type":[0,0,0,0,0,0,0,0,0],"sum_hessian":[2.047E3,2.035E3,1.2E1,2.7E1,2.008E3,1E1,1.7E1,1.998E3,1E1],"tree_param":{"num_deleted":"0","num_feature":"4105","num_nodes":"9","size_leaf_vector":"1"}},{"base_weights":[1.7602205E-2,-5.573051E-2,6.4926057E0,4.9791584E0,-1.3108888E-1,9.30637E-1,1.057498E-1,2.7931377E-1,5.61195E-1,7.539729E-2,-5.2080527E-2],"categories":[],"categories_nodes":[],"categories_segments":[],"categories_sizes":[],"default_left":[0,0,0,0,0,0,0,0,0,0,0],"id":75,"left_children":[1,3,5,7,9,-1,-1,-1,-1,-1,-1],"loss_changes":[9.8321735E2,7.7674774E2,4.8895618E2,7.0472595E1,9.027695E2,0E0,0E0,0E0,0E0,0E0,0E0],"parents":[2147483647,0,0,1,1,2,2,3,3,4,4],"right_children":[2,4,6,8,10,-1,-1,-1,-1,-1,-1],"split_conditions":[1.381382E0,6.9612704E-2,2.5187706E-4,1.5696299E-1,7.9309724E-2,9.30637E-1,1.057498E-1,2.7931377E-1,5.61195E-1,7.539729E-2,-5.2080527E-2],"split_indices":[1131,3069,1,1696,2337,0,0,0,0,0,0],"split_type":[0,0,0,0,0,0,0,0,0,0,0],"sum_hessian":[2.07E3,2.047E3,2.3E1,3E1,2.017E3,1.3E1,1E1,1.3E1,1.7E1,6.4E2,1.377E3],"tree_param":{"num_deleted":"0","num_feature":"4105","num_nodes":"11","size_leaf_vector":"1"}},{"base_weights":[-3.184212E-2,-5.143945E-1,7.712801E-1,-4.4708845E-1,-8.0050033E-1,6.136439E-1,8.816307E-1,-6.2659465E-2,1.3371575E-1,4.225549E-2,9.58985E-1],"categories":[],"categories_nodes":[],"categories_segments":[],"categories_sizes":[],"default_left":[0,0,0,0,0,0,0,0,0,0,0],"id":76,"left_children":[1,3,5,7,-1,9,-1,-1,-1,-1,-1],"loss_changes":[8.066302E2,7.437866E2,1.1276411E3,6.542647E2,0E0,1.07389E3,0E0,0E0,0E0,0E0,0E0],"parents":[2147483647,0,0,1,1,2,2,3,3,5,5],"right_children":[2,4,6,8,-1,10,-1,-1,-1,-1,-1],"split_conditions":[2.7961365E-3,8.030976E-1,4.5070943E-1,3.8354214E-2,-8.0050033E-1,-2.0643182E0,8.816307E-1,-6.2659465E-2,1.3371575E-1,4.225549E-2,9.58985E-1],"split_indices":[2939,1103,1836,2419,0,4102,0,0,0,0,0],"split_type":[0,0,0,0,0,0,0,0,0,0,0],"sum_hessian":[2.081E3,1.3E3,7.81E2,1.29E3,1E1,7.68E2,1.3E1,1.139E3,1.51E2,7.58E2,1E1],"tree_param":{"num_deleted":"0","num_feature":"4105","num_nodes":"11","size_leaf_vector":"1"}},{"base_weights":[-1.0105821E-2,4.936289E0,-8.987903E-2,1.0244446E0,1.0865499E0,-1.620038E0,1.6527931E-1,-1.8186983E-2,1.9926667E-1,-7.614584E-2,-5.2545404E-1,8.373428E-1,9.878389E-3],"categories":[],"categories_nodes":[],"categories_segments":[],"categories_sizes":[],"default_left":[0,0,0,0,0,0,0,0,0,0,0,0,0],"id":77,"left_children":[1,3,5,-1,7,9,11,-1,-1,-1,-1,-1,-1],"loss_changes":[8.2512335E2,8.423429E2,8.036717E2,0E0,3.1886677E1,9.631544E2,8.81643E2,0E0,0E0,0E0,0E0,0E0,0E0],"parents":[2147483647,0,0,1,1,2,2,4,4,5,5,6,6],"right_children":[2,4,6,-1,8,10,12,-1,-1,-1,-1,-1,-1],"split_conditions":[1.1689779E-2,1.525315E-1,1.4687869E-1,1.0244446E0,1.7964102E-1,9.778936E-1,9.81197E-4,-1.8186983E-2,1.9926667E-1,-7.614584E-2,-5.2545404E-1,8.373428E-1,9.878389E-3],"split_indices":[1844,941,558,0,630,465,2206,0,0,0,0,0,0],"split_type":[0,0,0,0,0,0,0,0,0,0,0,0,0],"sum_hessian":[2.091E3,3.3E1,2.058E3,1.2E1,2.1E1,2.94E2,1.764E3,1E1,1.1E1,2.5E2,4.4E1,1E1,1.754E3],"tree_param":{"num_deleted":"0","num_feature":"4105","num_nodes":"13","size_leaf_vector":"1"}},{"base_weights":[5.2870452E-2,1.3649549E-1,-4.766618E0,-1.0551512E-2,2.7211037E0,-3.0330734E0,-7.948473E-1,-6.0777823E-3,5.6796944E-1,7.6294875E-1,7.657129E-2,-9.306344E-2,-3.8356465E-1],"categories":[],"categories_nodes":[],"categories_segments":[],"categories_sizes":[],"default_left":[0,0,0,0,0,0,0,0,0,0,0,0,0],"id":78,"left_children":[1,3,5,7,9,11,-1,-1,-1,-1,-1,-1,-1],"loss_changes":[8.3153296E2,7.7090485E2,2.5045758E2,7.135538E2,1.1912743E3,6.3540283E1,0E0,0E0,0E0,0E0,0E0,0E0,0E0],"parents":[2147483647,0,0,1,1,2,2,3,3,4,4,5,5],"right_children":[2,4,6,8,10,12,-1,-1,-1,-1,-1,-1,-1],"split_conditions":[2.0314834E-1,8.36199E-1,4.022536E-1,1.7648844E-1,3.418713E-1,3.5794526E-1,-7.948473E-1,-6.0777823E-3,5.6796944E-1,7.6294875E-1,7.657129E-2,-9.306344E-2,-3.8356465E-1],"split_indices":[3291,720,928,3021,1755,1237,0,0,0,0,0,0,0],"split_type":[0,0,0,0,0,0,0,0,0,0,0,0,0],"sum_hessian":[2.063E3,2.028E3,3.5E1,1.919E3,1.09E2,2.5E1,1E1,1.902E3,1.7E1,2.6E1,8.3E1,1E1,1.5E1],"tree_param":{"num_deleted":"0","num_feature":"4105","num_nodes":"13","size_leaf_vector":"1"}},{"base_weights":[-7.1017263E-3,-1.0329147E-1,3.766052E0,-1.4959227E-1,6.6335905E-1,9.7486186E-1,1.7362463E0,-6.826431E-3,-4.6287748E-1,-2.3332918E-2,3.6885107E-1],"categories":[],"categories_nodes":[],"categories_segments":[],"categories_sizes":[],"default_left":[0,0,0,0,0,0,0,0,0,0,0],"id":79,"left_children":[1,3,5,7,-1,-1,9,-1,-1,-1,-1],"loss_changes":[7.4734045E2,7.0503534E2,7.467769E2,7.347045E2,0E0,0E0,1.9494058E2,0E0,0E0,0E0,0E0],"parents":[2147483647,0,0,1,1,2,2,3,3,6,6],"right_children":[2,4,6,8,-1,-1,10,-1,-1,-1,-1],"split_conditions":[4.4531962E-1,4.9794173E-1,9.3162104E-2,3.3696803E-1,6.6335905E-1,9.7486186E-1,1.3972035E-1,-6.826431E-3,-4.6287748E-1,-2.3332918E-2,3.6885107E-1],"split_indices":[1270,704,350,2052,0,0,804,0,0,0,0],"split_type":[0,0,0,0,0,0,0,0,0,0,0],"sum_hessian":[2.059E3,2.008E3,5.1E1,1.996E3,1.2E1,1.1E1,4E1,1.968E3,2.8E1,2.2E1,1.8E1],"tree_param":{"num_deleted":"0","num_feature":"4105","num_nodes":"11","size_leaf_vector":"1"}},{"base_weights":[1.6002148E-2,1.1821409E-1,-3.4882784E0,1.9957036E0,-8.074078E-2,-4.359997E0,-6.43271E-2,8.3189344E-1,1.2436842E-1,-1.4789891E-1,1.4760955E-2,-3.2886964E-1,-6.000422E-1],"categories":[],"categories_nodes":[],"categories_segments":[],"categories_sizes":[],"default_left":[0,0,0,0,0,0,0,0,0,0,0,0,0],"id":80,"left_children":[1,3,5,7,9,11,-1,-1,-1,-1,-1,-1,-1],"loss_changes":[7.354029E2,7.4535297E2,1.394273E2,8.350725E2,7.076619E2,6.4312805E1,0E0,0E0,0E0,0E0,0E0,0E0,0E0],"parents":[2147483647,0,0,1,1,2,2,3,3,4,4,5,5],"right_children":[2,4,6,8,10,12,-1,-1,-1,-1,-1,-1,-1],"split_conditions":[7.904176E-2,6.997882E-2,2.5623918E-2,2.0189536E-1,1.0016177E-2,8.949562E-2,-6.43271E-2,8.3189344E-1,1.2436842E-1,-1.4789891E-1,1.4760955E-2,-3.2886964E-1,-6.000422E-1],"split_indices":[2696,3163,2023,483,3827,5,0,0,0,0,0,0,0],"split_type":[0,0,0,0,0,0,0,0,0,0,0,0,0],"sum_hessian":[2.053E3,1.995E3,5.8E1,1.91E2,1.804E3,4.4E1,1.4E1,1.4E1,1.77E2,2.43E2,1.561E3,3.5E1,9E0],"tree_param":{"num_deleted":"0","num_feature":"4105","num_nodes":"13","size_leaf_vector":"1"}},{"base_weights":[2.7833674E-2,-1.1602729E-2,7.088805E-1,-1.238076E0,2.646113E-1,-6.224752E-2,-4.43154E-1,1.7344154E-2,6.1545914E-1],"categories":[],"categories_nodes":[],"categories_segments":[],"categories_sizes":[],"default_left":[0,0,0,0,0,0,0,0,0],"id":81,"left_children":[1,3,-1,5,7,-1,-1,-1,-1],"loss_changes":[6.4949713E2,6.969985E2,0E0,7.6140765E2,7.736142E2,0E0,0E0,0E0,0E0],"parents":[2147483647,0,0,1,1,3,3,4,4],"right_children":[2,4,-1,6,8,-1,-1,-1,-1],"split_conditions":[1.3817028E0,1.0679485E-2,7.088805E-1,2.1970981E-1,8.06527E-1,-6.224752E-2,-4.43154E-1,1.7344154E-2,6.1545914E-1],"split_indices":[203,3321,0,336,1280,0,0,0,0],"split_type":[0,0,0,0,0,0,0,0,0],"sum_hessian":[2.067E3,2.057E3,1E1,3.78E2,1.679E3,3.31E2,4.7E1,1.662E3,1.7E1],"tree_param":{"num_deleted":"0","num_feature":"4105","num_nodes":"9","size_leaf_vector":"1"}},{"base_weights":[1.5508359E-2,1.3997315E-1,-2.5250874E0,2.3621547E0,-3.2790955E-2,-3.5205264E0,7.786763E-1,3.5906622E-1,-8.683128E-3,3.503645E-3,-4.556313E-1,-2.0778118E-1,-4.6832517E-1,-7.6211025E-3,1.5974432E-1],"categories":[],"categories_nodes":[],"categories_segments":[],"categories_sizes":[],"default_left":[0,0,0,0,0,0,0,0,0,0,0,0,0,0,0],"id":82,"left_children":[1,3,5,7,9,11,13,-1,-1,-1,-1,-1,-1,-1,-1],"loss_changes":[6.44512E2,7.460892E2,3.1363373E2,5.816709E2,6.6553735E2,1.4916571E2,1.9685738E1,0E0,0E0,0E0,0E0,0E0,0E0,0E0,0E0],"parents":[2147483647,0,0,1,1,2,2,3,3,4,4,5,5,6,6],"right_children":[2,4,6,8,10,12,14,-1,-1,-1,-1,-1,-1,-1,-1],"split_conditions":[3.736159E-1,1.5007045E-2,1.4664833E-1,8.541598E-3,9.219622E-1,8.6142814E-1,2.855153E-2,3.5906622E-1,-8.683128E-3,3.503645E-3,-4.556313E-1,-2.0778118E-1,-4.6832517E-1,-7.6211025E-3,1.5974432E-1],"split_indices":[3013,487,26,3454,2834,555,0,0,0,0,0,0,0,0,0],"split_type":[0,0,0,0,0,0,0,0,0,0,0,0,0,0,0],"sum_hessian":[2.038E3,1.943E3,9.5E1,1.4E2,1.803E3,7.3E1,2.2E1,8.3E1,5.7E1,1.778E3,2.5E1,4.4E1,2.9E1,1.2E1,1E1],"tree_param":{"num_deleted":"0","num_feature":"4105","num_nodes":"15","size_leaf_vector":"1"}},{"base_weights":[5.456962E-2,-7.5888224E-3,5.202812E0,9.352375E-1,-3.6099872E-1,3.438114E-1,6.165453E-1,3.08763E-1,3.220731E-2,-1.7798455E-1,-7.2760805E-3],"categories":[],"categories_nodes":[],"categories_segments":[],"categories_sizes":[],"default_left":[0,0,0,0,0,0,0,0,0,0,0],"id":83,"left_children":[1,3,5,7,9,-1,-1,-1,-1,-1,-1],"loss_changes":[6.4885236E2,6.6752014E2,5.074054E1,7.9521765E2,6.688932E2,0E0,0E0,0E0,0E0,0E0,0E0],"parents":[2147483647,0,0,1,1,2,2,3,3,4,4],"right_children":[2,4,6,8,10,-1,-1,-1,-1,-1,-1],"split_conditions":[1.1836413E0,6.1651963E-1,9.401516E-2,4.343691E-2,5.9872627E-2,3.438114E-1,6.165453E-1,3.08763E-1,3.220731E-2,-1.7798455E-1,-7.2760805E-3],"split_indices":[2420,1630,1589,1193,3754,0,0,0,0,0,0],"split_type":[0,0,0,0,0,0,0,0,0,0,0],"sum_hessian":[2.027E3,2.003E3,2.4E1,5.46E2,1.457E3,1.4E1,1E1,1E2,4.46E2,2.11E2,1.246E3],"tree_param":{"num_deleted":"0","num_feature":"4105","num_nodes":"11","size_leaf_vector":"1"}},{"base_weights":[1.0828011E-3,5.8202636E-1,-5.2872795E-1,1.8116837E0,-9.736099E-2,-4.1051087E-1,-5.3322453E0,1.1184947E-1,5.8920985E-1,-2.5257817E-1,1.4330286E-2,4.770477E-2,-8.4817514E-2,-7.065031E-1,-1.4771807E-1],"categories":[],"categories_nodes":[],"categories_segments":[],"categories_sizes":[],"default_left":[0,0,0,0,0,0,0,0,0,0,0,0,0,0,0],"id":84,"left_children":[1,3,5,7,9,11,13,-1,-1,-1,-1,-1,-1,-1,-1],"loss_changes":[6.4216785E2,8.314706E2,6.190823E2,9.4047986E2,4.5676642E2,5.5142365E2,2.5011652E2,0E0,0E0,0E0,0E0,0E0,0E0,0E0,0E0],"parents":[2147483647,0,0,1,1,2,2,3,3,4,4,5,5,6,6],"right_children":[2,4,6,8,10,12,14,-1,-1,-1,-1,-1,-1,-1,-1],"split_conditions":[2.9203156E-1,3.506049E-2,5.008131E-1,2.999654E-1,1.6721198E-1,1.6382389E-1,1.1623361E-1,1.1184947E-1,5.8920985E-1,-2.5257817E-1,1.4330286E-2,4.770477E-2,-8.4817514E-2,-7.065031E-1,-1.4771807E-1],"split_indices":[1224,3419,1001,669,1258,1236,1227,0,0,0,0,0,0,0,0],"split_type":[0,0,0,0,0,0,0,0,0,0,0,0,0,0,0],"sum_hessian":[2.086E3,9.95E2,1.091E3,3.54E2,6.41E2,1.065E3,2.6E1,3.18E2,3.6E1,5.5E1,5.86E2,3.89E2,6.76E2,1.5E1,1.1E1],"tree_param":{"num_deleted":"0","num_feature":"4105","num_nodes":"15","size_leaf_vector":"1"}},{"base_weights":[-2.2264626E-2,5.263709E-1,-6.9798306E-2,-9.691472E-1,2.097184E-1,-1.9054331E-1,-2.7548447E-3,8.7246716E-2,-2.2763329E-2],"categories":[],"categories_nodes":[],"categories_segments":[],"categories_sizes":[],"default_left":[0,0,0,0,0,0,0,0,0],"id":85,"left_children":[1,-1,3,5,7,-1,-1,-1,-1],"loss_changes":[5.790242E2,0E0,5.101612E2,5.3218695E2,5.588652E2,0E0,0E0,0E0,0E0],"parents":[2147483647,0,0,2,2,3,3,4,4],"right_children":[2,-1,4,6,8,-1,-1,-1,-1],"split_conditions":[4.5627058E-2,5.263709E-1,3.724284E-2,2.488914E-1,1.70894E-1,-1.9054331E-1,-2.7548447E-3,8.7246716E-2,-2.2763329E-2],"split_indices":[2314,0,1135,494,3591,0,0,0,0],"split_type":[0,0,0,0,0,0,0,0,0],"sum_hessian":[2.045E3,1.6E1,2.029E3,4.81E2,1.548E3,2.13E2,2.68E2,5.82E2,9.66E2],"tree_param":{"num_deleted":"0","num_feature":"4105","num_nodes":"9","size_leaf_vector":"1"}},{"base_weights":[-9.3554705E-4,-1.2229872E-1,2.2408097E0,-1.5707911E0,7.520589E-2,7.017827E0,8.1205666E-1,-1.7154834E-1,6.495315E-1,1.4780182E-1,-1.0985654E-2,8.356673E-1,4.6090582E-1,-1.4007592E-1,1.5134743E-1],"categories":[],"categories_nodes":[],"categories_segments":[],"categories_sizes":[],"default_left":[0,0,0,0,0,0,0,0,0,0,0,0,0,0,0],"id":86,"left_children":[1,3,5,7,9,11,13,-1,-1,-1,-1,-1,-1,-1,-1],"loss_changes":[5.5723956E2,5.5597516E2,7.1665924E2,7.560585E2,5.417723E2,9.6293335E1,1.7414111E2,0E0,0E0,0E0,0E0,0E0,0E0,0E0,0E0],"parents":[2147483647,0,0,1,1,2,2,3,3,4,4,5,5,6,6],"right_children":[2,4,6,8,10,12,14,-1,-1,-1,-1,-1,-1,-1,-1],"split_conditions":[8.36199E-1,1.7190145E-1,3.418713E-1,8.314758E-1,9.906983E-3,6.0099203E-2,8.3242216E-5,-1.7154834E-1,6.495315E-1,1.4780182E-1,-1.0985654E-2,8.356673E-1,4.6090582E-1,-1.4007592E-1,1.5134743E-1],"split_indices":[720,230,1755,1964,924,2492,3218,0,0,0,0,0,0,0,0],"split_type":[0,0,0,0,0,0,0,0,0,0,0,0,0,0,0],"sum_hessian":[2.048E3,1.943E3,1.05E2,2.33E2,1.71E3,2.4E1,8.1E1,2.24E2,9E0,1.9E2,1.52E3,1E1,1.4E1,2.2E1,5.9E1],"tree_param":{"num_deleted":"0","num_feature":"4105","num_nodes":"15","size_leaf_vector":"1"}},{"base_weights":[1.5406983E-2,4.6922145E0,-3.77388E-2,1.0359111E-1,8.900671E-1,3.610611E-1,-6.286391E-1,1.8111405E-1,7.1460633E-3,-2.1230143E-1,-2.273596E-2],"categories":[],"categories_nodes":[],"categories_segments":[],"categories_sizes":[],"default_left":[0,0,0,0,0,0,0,0,0,0,0],"id":87,"left_children":[1,3,5,-1,-1,7,9,-1,-1,-1,-1],"loss_changes":[5.129616E2,4.341406E2,4.808221E2,0E0,0E0,5.742689E2,5.4007367E2,0E0,0E0,0E0,0E0],"parents":[2147483647,0,0,1,1,2,2,5,5,6,6],"right_children":[2,4,6,-1,-1,8,10,-1,-1,-1,-1],"split_conditions":[1.07604945E-2,1.2465803E-2,2.1622844E-1,1.0359111E-1,8.900671E-1,4.69405E-2,6.827959E-3,1.8111405E-1,7.1460633E-3,-2.1230143E-1,-2.273596E-2],"split_indices":[285,696,2277,0,0,567,3280,0,0,0,0],"split_type":[0,0,0,0,0,0,0,0,0,0,0],"sum_hessian":[2.063E3,2.3E1,2.04E3,1.4E1,9E0,1.218E3,8.22E2,1.74E2,1.044E3,1.43E2,6.79E2],"tree_param":{"num_deleted":"0","num_feature":"4105","num_nodes":"11","size_leaf_vector":"1"}},{"base_weights":[6.3193124E-3,3.5890033E0,-6.1227247E-2,7.0113164E-1,7.0527965E-1,4.1428604E0,-1.1630647E-1,-7.232227E-2,1.4862731E-1,2.0515904E-1,4.6517628E-1,-3.7820393E-4,-1.9289003E-1],"categories":[],"categories_nodes":[],"categories_segments":[],"categories_sizes":[],"default_left":[0,0,0,0,0,0,0,0,0,0,0,0,0],"id":88,"left_children":[1,3,5,7,-1,9,11,-1,-1,-1,-1,-1,-1],"loss_changes":[4.9941785E2,4.7986127E2,4.6893805E2,3.455155E1,0E0,5.031543E1,4.6101807E2,0E0,0E0,0E0,0E0,0E0,0E0],"parents":[2147483647,0,0,1,1,2,2,3,3,5,5,6,6],"right_children":[2,4,6,8,-1,10,12,-1,-1,-1,-1,-1,-1],"split_conditions":[1.1689779E-2,1.2376474E0,6.9612704E-2,9.917259E-3,7.0527965E-1,1.5696299E-1,4.488087E-1,-7.232227E-2,1.4862731E-1,2.0515904E-1,4.6517628E-1,-3.7820393E-4,-1.9289003E-1],"split_indices":[1844,1886,3069,966,0,1696,2599,0,0,0,0,0,0],"split_type":[0,0,0,0,0,0,0,0,0,0,0,0,0],"sum_hessian":[2.063E3,3.8E1,2.025E3,2.3E1,1.5E1,2.6E1,1.999E3,9E0,1.4E1,1E1,1.6E1,1.896E3,1.03E2],"tree_param":{"num_deleted":"0","num_feature":"4105","num_nodes":"13","size_leaf_vector":"1"}},{"base_weights":[-2.0105535E-2,6.0053404E-2,-3.0192232E0,6.529942E-1,-3.561666E-1,1.3215793E0,-7.0327134E0,4.505499E-1,3.860017E-2,-1.9762302E-2,-3.120236E-1,3.0836383E-1,1.3618642E-2,-4.4922075E-1,-8.8120383E-1],"categories":[],