{"learner":{"attributes":{"scikit_learn":"{\"_estimator_type\": \"regressor\"}"},"feature_names":[],"feature_types":[],"gradient_booster":{"model":{"gbtree_model_param":{"num_parallel_tree":"1","num_trees":"435"},"iteration_indptr":[0,1,2,3,4,5,6,7,8,9,10,11,12,13,14,15,16,17,18,19,20,21,22,23,24,25,26,27,28,29,30,31,32,33,34,35,36,37,38,39,40,41,42,43,44,45,46,47,48,49,50,51,52,53,54,55,56,57,58,59,60,61,62,63,64,65,66,67,68,69,70,71,72,73,74,75,76,77,78,79,80,81,82,83,84,85,86,87,88,89,90,91,92,93,94,95,96,97,98,99,100,101,102,103,104,105,106,107,108,109,110,111,112,113,114,115,116,117,118,119,120,121,122,123,124,125,126,127,128,129,130,131,132,133,134,135,136,137,138,139,140,141,142,143,144,145,146,147,148,149,150,151,152,153,154,155,156,157,158,159,160,161,162,163,164,165,166,167,168,169,170,171,172,173,174,175,176,177,178,179,180,181,182,183,184,185,186,187,188,189,190,191,192,193,194,195,196,197,198,199,200,201,202,203,204,205,206,207,208,209,210,211,212,213,214,215,216,217,218,219,220,221,222,223,224,225,226,227,228,229,230,231,232,233,234,235,236,237,238,239,240,241,242,243,244,245,246,247,248,249,250,251,252,253,254,255,256,257,258,259,260,261,262,263,264,265,266,267,268,269,270,271,272,273,274,275,276,277,278,279,280,281,282,283,284,285,286,287,288,289,290,291,292,293,294,295,296,297,298,299,300,301,302,303,304,305,306,307,308,309,310,311,312,313,314,315,316,317,318,319,320,321,322,323,324,325,326,327,328,329,330,331,332,333,334,335,336,337,338,339,340,341,342,343,344,345,346,347,348,349,350,351,352,353,354,355,356,357,358,359,360,361,362,363,364,365,366,367,368,369,370,371,372,373,374,375,376,377,378,379,380,381,382,383,384,385,386,387,388,389,390,391,392,393,394,395,396,397,398,399,400,401,402,403,404,405,406,407,408,409,410,411,412,413,414,415,416,417,418,419,420,421,422,423,424,425,426,427,428,429,430,431,432,433,434,435],"tree_info":[0,0,0,0,0,0,0,0,0,0,0,0,0,0,0,0,0,0,0,0,0,0,0,0,0,0,0,0,0,0,0,0,0,0,0,0,0,0,0,0,0,0,0,0,0,0,0,0,0,0,0,0,0,0,0,0,0,0,0,0,0,0,0,0,0,0,0,0,0,0,0,0,0,0,0,0,0,0,0,0,0,0,0,0,0,0,0,0,0,0,0,0,0,0,0,0,0,0,0,0,0,0,0,0,0,0,0,0,0,0,0,0,0,0,0,0,0,0,0,0,0,0,0,0,0,0,0,0,0,0,0,0,0,0,0,0,0,0,0,0,0,0,0,0,0,0,0,0,0,0,0,0,0,0,0,0,0,0,0,0,0,0,0,0,0,0,0,0,0,0,0,0,0,0,0,0,0,0,0,0,0,0,0,0,0,0,0,0,0,0,0,0,0,0,0,0,0,0,0,0,0,0,0,0,0,0,0,0,0,0,0,0,0,0,0,0,0,0,0,0,0,0,0,0,0,0,0,0,0,0,0,0,0,0,0,0,0,0,0,0,0,0,0,0,0,0,0,0,0,0,0,0,0,0,0,0,0,0,0,0,0,0,0,0,0,0,0,0,0,0,0,0,0,0,0,0,0,0,0,0,0,0,0,0,0,0,0,0,0,0,0,0,0,0,0,0,0,0,0,0,0,0,0,0,0,0,0,0,0,0,0,0,0,0,0,0,0,0,0,0,0,0,0,0,0,0,0,0,0,0,0,0,0,0,0,0,0,0,0,0,0,0,0,0,0,0,0,0,0,0,0,0,0,0,0,0,0,0,0,0,0,0,0,0,0,0,0,0,0,0,0,0,0,0,0,0,0,0,0,0,0,0,0,0,0,0,0,0,0,0,0,0,0,0,0,0,0,0,0,0,0,0,0,0,0,0,0,0,0,0,0,0,0,0,0,0,0,0,0,0,0,0,0,0,0,0,0,0,0,0,0,0,0,0,0],"trees":[{"base_weights":[-1.1191531E0,1.9062111E2,-2.7637775E1,2.0248354E1,-8.216883E0,-1.4527628E2,-2.9349632E0,-3.0223753E0,6.595899E-1,-1.4135807E1,-9.636636E0,1.1168141E0,-5.16393E0],"categories":[],"categories_nodes":[],"categories_segments":[],"categories_sizes":[],"default_left":[0,0,0,0,0,0,0,0,0,0,0,0,0],"id":0,"left_children":[1,3,5,-1,7,9,11,-1,-1,-1,-1,-1,-1],"loss_changes":[1.0512E7,1.88173E6,5.277764E6,0E0,1.6316066E4,1.594755E5,1.2887421E6,0E0,0E0,0E0,0E0,0E0,0E0],"parents":[2147483647,0,0,1,1,2,2,4,4,5,5,6,6],"right_children":[2,4,6,-1,8,10,12,-1,-1,-1,-1,-1,-1],"split_conditions":[-6.9462955E-1,1.684719E-2,1.01E2,2.0248354E1,2.609231E-2,1.3349121E-2,3.306165E-1,-3.0223753E0,6.595899E-1,-1.4135807E1,-9.636636E0,1.1168141E0,-5.16393E0],"split_indices":[4101,2506,4099,0,2506,3150,2188,0,0,0,0,0,0],"split_type":[0,0,0,0,0,0,0,0,0,0,0,0,0],"sum_hessian":[2.067E3,2.51E2,1.816E3,2.11E2,4E1,3.15E2,1.501E3,1.5E1,2.5E1,2.27E2,8.8E1,1.172E3,3.29E2],"tree_param":{"num_deleted":"0","num_feature":"4105","num_nodes":"13","size_leaf_vector":"1"}},{"base_weights":[-1.1458467E-1,1.6950252E2,-2.494733E1,1.8454165E1,-5.3729324E0,-1.3271527E2,-2.4265199E0,6.025328E-1,-2.7576358E0,-1.2160173E1,-2.1714838E0,5.3217024E-1,-7.718608E0],"categories":[],"categories_nodes":[],"categories_segments":[],"categories_sizes":[],"default_left":[0,0,0,0,0,0,0,0,0,0,0,0,0],"id":1,"left_children":[1,3,5,-1,7,9,11,-1,-1,-1,-1,-1,-1],"loss_changes":[8.581553E6,1.7546405E6,4.313211E6,0E0,1.4805339E4,1.451255E5,1.0481239E6,0E0,0E0,0E0,0E0,0E0,0E0],"parents":[2147483647,0,0,1,1,2,2,4,4,5,5,6,6],"right_children":[2,4,6,-1,8,10,12,-1,-1,-1,-1,-1,-1],"split_conditions":[-6.9462955E-1,8.4604144E-2,3.8175E3,1.8454165E1,4.4952852E-1,5.0111705E-1,4.4133168E-1,6.025328E-1,-2.7576358E0,-1.2160173E1,-2.1714838E0,5.3217024E-1,-7.718608E0],"split_indices":[4101,3764,4096,0,1248,4071,2305,0,0,0,0,0,0],"split_type":[0,0,0,0,0,0,0,0,0,0,0,0,0],"sum_hessian":[2.037E3,2.6E2,1.777E3,2.13E2,4.7E1,3.07E2,1.47E3,3.2E1,1.5E1,2.95E2,1.2E1,1.337E3,1.33E2],"tree_param":{"num_deleted":"0","num_feature":"4105","num_nodes":"13","size_leaf_vector":"1"}},{"base_weights":[-5.4193836E-1,1.6048769E2,-2.3250797E1,1.6818802E1,-2.9525378E0,-1.2029332E2,-3.4226453E0,-2.5004692E0,5.4893357E-1,-1.1804897E1,-7.798304E0,7.3617584E-1,-5.020536E0],"categories":[],"categories_nodes":[],"categories_segments":[],"categories_sizes":[],"default_left":[0,0,0,0,0,0,0,0,0,0,0,0,0],"id":2,"left_children":[1,3,5,-1,7,9,11,-1,-1,-1,-1,-1,-1],"loss_changes":[7.4320075E6,1.19624E6,3.427236E6,0E0,8.844453E3,1.23004E5,9.2225106E5,0E0,0E0,0E0,0E0,0E0,0E0],"parents":[2147483647,0,0,1,1,2,2,4,4,5,5,6,6],"right_children":[2,4,6,-1,8,10,12,-1,-1,-1,-1,-1,-1],"split_conditions":[-6.9462955E-1,8.4604144E-2,3.8175E3,1.6818802E1,2.4636424E-4,3.2495E3,4.6401078E-1,-2.5004692E0,5.4893357E-1,-1.1804897E1,-7.798304E0,7.3617584E-1,-5.020536E0],"split_indices":[4101,3764,4096,0,2185,4096,2753,0,0,0,0,0,0],"split_type":[0,0,0,0,0,0,0,0,0,0,0,0,0],"sum_hessian":[2.032E3,2.51E2,1.781E3,2.13E2,3.8E1,3.02E2,1.479E3,1E1,2.8E1,2.16E2,8.6E1,1.212E3,2.67E2],"tree_param":{"num_deleted":"0","num_feature":"4105","num_nodes":"13","size_leaf_vector":"1"}},{"base_weights":[1.6078117E0,1.439797E2,-2.0308392E1,1.5329421E1,-4.2261515E0,-1.1020613E2,-2.8913655E0,-2.2950125E0,5.009037E-1,-7.1155505E0,-1.0758586E1,8.325818E-1,-4.110773E0],"categories":[],"categories_nodes":[],"categories_segments":[],"categories_sizes":[],"default_left":[0,0,0,0,0,0,0,0,0,0,0,0,0],"id":3,"left_children":[1,3,5,-1,7,9,11,-1,-1,-1,-1,-1,-1],"loss_changes":[6.460065E6,1.1811045E6,2.8091902E6,0E0,9.687295E3,9.4988E4,8.021204E5,0E0,0E0,0E0,0E0,0E0,0E0],"parents":[2147483647,0,0,1,1,2,2,4,4,5,5,6,6],"right_children":[2,4,6,-1,8,10,12,-1,-1,-1,-1,-1,-1],"split_conditions":[-6.9462955E-1,8.217371E-2,3.8175E3,1.5329421E1,1.6882458E-1,7.2482944E-1,3.306165E-1,-2.2950125E0,5.009037E-1,-7.1155505E0,-1.0758586E1,8.325818E-1,-4.110773E0],"split_indices":[4101,2207,4096,0,306,3122,2188,0,0,0,0,0,0],"split_type":[0,0,0,0,0,0,0,0,0,0,0,0,0],"sum_hessian":[2.07E3,2.76E2,1.794E3,2.31E2,4.5E1,2.91E2,1.503E3,1.4E1,3.1E1,7.9E1,2.12E2,1.172E3,3.31E2],"tree_param":{"num_deleted":"0","num_feature":"4105","num_nodes":"13","size_leaf_vector":"1"}},{"base_weights":[2.4948074E-1,1.3085458E2,-1.8505047E1,-3.1215053E0,1.3969791E1,-1.0019213E2,-1.743663E0,-2.089502E0,4.5665035E-1,-6.774229E-1,-9.169088E0,4.439028E-1,-6.336022E0],"categories":[],"categories_nodes":[],"categories_segments":[],"categories_sizes":[],"default_left":[0,0,0,0,0,0,0,0,0,0,0,0,0],"id":4,"left_children":[1,3,5,7,-1,9,11,-1,-1,-1,-1,-1,-1],"loss_changes":[4.9389875E6,9.04006E5,2.4141022E6,7.15369E3,0E0,8.83225E4,6.882194E5,0E0,0E0,0E0,0E0,0E0,0E0],"parents":[2147483647,0,0,1,1,2,2,3,3,5,5,6,6],"right_children":[2,4,6,8,-1,10,12,-1,-1,-1,-1,-1,-1],"split_conditions":[-6.9462955E-1,1.4911531E-2,3.8175E3,5.987931E-4,1.3969791E1,1.8405147E-1,4.4133168E-1,-2.089502E0,4.5665035E-1,-6.774229E-1,-9.169088E0,4.439028E-1,-6.336022E0],"split_indices":[4101,2194,4096,2806,0,3126,2305,0,0,0,0,0,0],"split_type":[0,0,0,0,0,0,0,0,0,0,0,0,0],"sum_hessian":[2.016E3,2.53E2,1.763E3,4.2E1,2.11E2,3E2,1.463E3,1.2E1,3E1,1E1,2.9E2,1.334E3,1.29E2],"tree_param":{"num_deleted":"0","num_feature":"4105","num_nodes":"13","size_leaf_vector":"1"}},{"base_weights":[4.6653694E-1,1.19807816E2,-1.7302872E1,-4.5218205E0,1.2732543E1,-9.543208E1,-2.6661031E0,4.162094E-1,-1.9130063E0,-8.993049E0,-6.510193E0,5.94799E-1,-4.1794786E0],"categories":[],"categories_nodes":[],"categories_segments":[],"categories_sizes":[],"default_left":[0,0,0,0,0,0,0,0,0,0,0,0,0],"id":5,"left_children":[1,3,5,7,-1,9,11,-1,-1,-1,-1,-1,-1],"loss_changes":[4.388365E6,7.91867E5,2.0597155E6,6.803234E3,0E0,3.59075E4,6.321838E5,0E0,0E0,0E0,0E0,0E0,0E0],"parents":[2147483647,0,0,1,1,2,2,3,3,5,5,6,6],"right_children":[2,4,6,8,-1,10,12,-1,-1,-1,-1,-1,-1],"split_conditions":[-6.9462955E-1,5.280439E-1,3.66E3,9.351688E-3,1.2732543E1,1.3349121E-2,4.8146877E-1,4.162094E-1,-1.9130063E0,-8.993049E0,-6.510193E0,5.94799E-1,-4.1794786E0],"split_indices":[4101,3447,4096,1868,0,3150,2753,0,0,0,0,0,0],"split_type":[0,0,0,0,0,0,0,0,0,0,0,0,0],"sum_hessian":[2.069E3,2.68E2,1.801E3,4.3E1,2.25E2,2.84E2,1.517E3,2.8E1,1.5E1,2.23E2,6.1E1,1.253E3,2.64E2],"tree_param":{"num_deleted":"0","num_feature":"4105","num_nodes":"13","size_leaf_vector":"1"}},{"base_weights":[-5.452078E-2,1.0878393E2,-1.587118E1,-3.5660567E0,1.1603898E1,-8.695037E1,-2.913111E0,3.796306E-1,-1.7438803E0,-5.9342403E0,-8.195917E0,-5.049801E-1,1.3869442E1],"categories":[],"categories_nodes":[],"categories_segments":[],"categories_sizes":[],"default_left":[0,0,0,0,0,0,0,0,0,0,0,0,0],"id":6,"left_children":[1,3,5,7,-1,9,11,-1,-1,-1,-1,-1,-1],"loss_changes":[3.557186E6,6.494325E5,1.6616962E6,5.470439E3,0E0,2.924275E4,6.7603856E5,0E0,0E0,0E0,0E0,0E0,0E0],"parents":[2147483647,0,0,1,1,2,2,3,3,5,5,6,6],"right_children":[2,4,6,8,-1,10,12,-1,-1,-1,-1,-1,-1],"split_conditions":[-6.9462955E-1,1.433342E-1,3.66E3,9.582838E-3,1.1603898E1,2.74578E-1,4.3890707E-2,3.796306E-1,-1.7438803E0,-5.9342403E0,-8.195917E0,-5.049801E-1,1.3869442E1],"split_indices":[4101,2820,4096,2198,0,304,2298,0,0,0,0,0,0],"split_type":[0,0,0,0,0,0,0,0,0,0,0,0,0],"sum_hessian":[2.066E3,2.62E2,1.804E3,4.3E1,2.19E2,2.78E2,1.526E3,2.9E1,1.4E1,6E1,2.18E2,1.5E3,2.6E1],"tree_param":{"num_deleted":"0","num_feature":"4105","num_nodes":"13","size_leaf_vector":"1"}},{"base_weights":[9.991537E-2,9.8463585E1,-1.3822601E1,1.0575394E1,-3.0930738E0,-5.5568363E1,6.885107E0,-1.5912634E0,3.4625456E-1,-7.2184167E0,-2.6584218E0,3.4134912E-1,1.8464956E1],"categories":[],"categories_nodes":[],"categories_segments":[],"categories_sizes":[],"default_left":[0,0,0,0,0,0,0,0,0,0,0,0,0],"id":7,"left_children":[1,3,5,-1,7,9,11,-1,-1,-1,-1,-1,-1],"loss_changes":[2.8627095E6,5.4674275E5,1.5830612E6,0E0,4.6042246E3,4.0075062E5,7.481354E5,0E0,0E0,0E0,0E0,0E0,0E0],"parents":[2147483647,0,0,1,1,2,2,4,4,5,5,6,6],"right_children":[2,4,6,-1,8,10,12,-1,-1,-1,-1,-1,-1],"split_conditions":[-6.9462955E-1,1.2824913E-2,2.4353983E-1,1.0575394E1,5.0723244E-4,4.7011744E-2,2.1351824E-2,-1.5912634E0,3.4625456E-1,-7.2184167E0,-2.6584218E0,3.4134912E-1,1.8464956E1],"split_indices":[4101,2833,3505,0,2516,4023,2298,0,0,0,0,0,0],"split_type":[0,0,0,0,0,0,0,0,0,0,0,0,0],"sum_hessian":[2.09E3,2.59E2,1.831E3,2.15E2,4.4E1,6.07E2,1.224E3,1.4E1,3E1,3.02E2,3.05E2,1.206E3,1.8E1],"tree_param":{"num_deleted":"0","num_feature":"4105","num_nodes":"13","size_leaf_vector":"1"}},{"base_weights":[-5.8149004E-1,9.096361E1,-1.35455E1,9.638298E0,-2.800809E0,-5.057836E1,5.685639E0,-1.450506E0,3.1558913E-1,-5.3745418E0,7.0821655E-1,2.5281003E-1,1.6844189E1],"categories":[],"categories_nodes":[],"categories_segments":[],"categories_sizes":[],"default_left":[0,0,0,0,0,0,0,0,0,0,0,0,0],"id":8,"left_children":[1,3,5,-1,7,9,11,-1,-1,-1,-1,-1,-1],"loss_changes":[2.4701678E6,4.28631E5,1.2985014E6,0E0,3.561021E3,3.65661E5,6.267956E5,0E0,0E0,0E0,0E0,0E0,0E0],"parents":[2147483647,0,0,1,1,2,2,4,4,5,5,6,6],"right_children":[2,4,6,-1,8,10,12,-1,-1,-1,-1,-1,-1],"split_conditions":[-6.9462955E-1,6.470887E-1,2.4353983E-1,9.638298E0,2.2004777E-1,8.138707E-2,2.1351824E-2,-1.450506E0,3.1558913E-1,-5.3745418E0,7.0821655E-1,2.5281003E-1,1.6844189E1],"split_indices":[4101,2494,3505,0,1879,3329,2298,0,0,0,0,0,0],"split_type":[0,0,0,0,0,0,0,0,0,0,0,0,0],"sum_hessian":[2.081E3,2.58E2,1.823E3,2.17E2,4.1E1,6.23E2,1.2E3,1.3E1,2.8E1,5.32E2,9.1E1,1.182E3,1.8E1],"tree_param":{"num_deleted":"0","num_feature":"4105","num_nodes":"13","size_leaf_vector":"1"}},{"base_weights":[4.929556E-2,8.198218E1,-1.1798268E1,8.784197E0,-2.5786986E0,-6.545973E1,-8.5245925E-1,-1.3250616E0,2.879196E-1,-6.040342E0,-4.1054085E-2,-1.529497E0,1.6622124E0],"categories":[],"categories_nodes":[],"categories_segments":[],"categories_sizes":[],"default_left":[0,0,0,0,0,0,0,0,0,0,0,0,0],"id":9,"left_children":[1,3,5,-1,7,9,11,-1,-1,-1,-1,-1,-1],"loss_changes":[2.0145806E6,3.7817338E5,1.064997E6,0E0,3.190995E3,5.2740625E4,4.837955E5,0E0,0E0,0E0,0E0,0E0,0E0],"parents":[2147483647,0,0,1,1,2,2,4,4,5,5,6,6],"right_children":[2,4,6,-1,8,10,12,-1,-1,-1,-1,-1,-1],"split_conditions":[-6.9462955E-1,1.1694886E-1,3.8175E3,8.784197E0,1.005597E-2,2.9648992E-1,3.1465107E-1,-1.3250616E0,2.879196E-1,-6.040342E0,-4.1054085E-2,-1.529497E0,1.6622124E0],"split_indices":[4101,3775,4096,0,2210,3465,1755,0,0,0,0,0,0],"split_type":[0,0,0,0,0,0,0,0,0,0,0,0,0],"sum_hessian":[2.075E3,2.62E2,1.813E3,2.18E2,4.4E1,3.07E2,1.506E3,1.4E1,3E1,2.95E2,1.2E1,8.2E2,6.86E2],"tree_param":{"num_deleted":"0","num_feature":"4105","num_nodes":"13","size_leaf_vector":"1"}},{"base_weights":[4.14862E-1,7.6178955E1,-1.09273E1,-1.0146533E0,8.006108E0,-4.0284325E1,6.950433E0,2.6264948E-1,-1.2026333E0,-4.6596546E0,5.325649E-1,4.9746457E-1,1.5124899E1],"categories":[],"categories_nodes":[],"categories_segments":[],"categories_sizes":[],"default_left":[0,0,0,0,0,0,0,0,0,0,0,0,0],"id":10,"left_children":[1,3,5,7,-1,9,11,-1,-1,-1,-1,-1,-1],"loss_changes":[1.796318E6,2.9597538E5,9.543066E5,2.1120183E3,0E0,3.9031362E5,2.4787162E5,0E0,0E0,0E0,0E0,0E0,0E0],"parents":[2147483647,0,0,1,1,2,2,3,3,5,5,6,6],"right_children":[2,4,6,8,-1,10,12,-1,-1,-1,-1,-1,-1],"split_conditions":[-6.9462955E-1,1.4911531E-2,1.76E2,4.4952852E-1,8.006108E0,1.8266448E-1,1.15178436E-1,2.6264948E-1,-1.2026333E0,-4.6596546E0,5.325649E-1,4.9746457E-1,1.5124899E1],"split_indices":[4101,2194,4099,1248,0,2535,2515,0,0,0,0,0,0],"split_type":[0,0,0,0,0,0,0,0,0,0,0,0,0],"sum_hessian":[2.09E3,2.72E2,1.818E3,4.2E1,2.3E2,6.88E2,1.13E3,3.2E1,1E1,5.44E2,1.44E2,1.121E3,9E0],"tree_param":{"num_deleted":"0","num_feature":"4105","num_nodes":"13","size_leaf_vector":"1"}},{"base_weights":[7.108504E-1,-2.430992E1,2.801034E1,-5.3516933E1,-4.0082293E0,9.9184475E0,8.382364E1,-5.0605936E0,1.1662738E0,-1.4012857E-1,-3.9904816E0,-2.1254423E0,1.3842462E0,6.8539433E0,1.4421432E1],"categories":[],"categories_nodes":[],"categories_segments":[],"categories_sizes":[],"default_left":[0,0,0,0,0,0,0,0,0,0,0,0,0,0,0],"id":11,"left_children":[1,3,5,7,9,11,13,-1,-1,-1,-1,-1,-1,-1,-1],"loss_changes":[1.3957374E6,6.321565E5,9.8657494E5,1.0327575E5,6.2602008E4,1.4233795E5,1.21013125E5,0E0,0E0,0E0,0E0,0E0,0E0,0E0,0E0],"parents":[2147483647,0,0,1,1,2,2,3,3,4,4,5,5,6,6],"right_children":[2,4,6,8,10,12,14,-1,-1,-1,-1,-1,-1,-1,-1],"split_conditions":[2.3995069E-1,9.044772E-3,4.936942E-1,3.0096045E-1,2.3295645E-1,1.386141E-2,7.0669837E-3,-5.0605936E0,1.1662738E0,-1.4012857E-1,-3.9904816E0,-2.1254423E0,1.3842462E0,6.8539433E0,1.4421432E1],"split_indices":[1755,3443,294,3006,2305,3309,2204,0,0,0,0,0,0,0,0],"split_type":[0,0,0,0,0,0,0,0,0,0,0,0,0,0,0],"sum_hessian":[2.043E3,1.066E3,9.77E2,4.37E2,6.29E2,7.38E2,2.39E2,4.15E2,2.2E1,5.94E2,3.5E1,1.06E2,6.32E2,2.21E2,1.8E1],"tree_param":{"num_deleted":"0","num_feature":"4105","num_nodes":"15","size_leaf_vector":"1"}},{"base_weights":[-3.7046855E-3,6.407702E1,-9.545824E0,6.71739E0,-1.3679328E0,-5.1257294E1,-7.488966E-1,-9.1688854E-1,2.5162467E-1,-4.924533E0,-2.4667072E0,-1.5016187E0,1.124402E0],"categories":[],"categories_nodes":[],"categories_segments":[],"categories_sizes":[],"default_left":[0,0,0,0,0,0,0,0,0,0,0,0,0],"id":12,"left_children":[1,3,5,-1,7,9,11,-1,-1,-1,-1,-1,-1],"loss_changes":[1.2794162E6,2.0692575E5,6.6824525E5,0E0,1.5591842E3,3.141875E4,3.2681888E5,0E0,0E0,0E0,0E0,0E0,0E0],"parents":[2147483647,0,0,1,1,2,2,4,4,5,5,6,6],"right_children":[2,4,6,-1,8,10,12,-1,-1,-1,-1,-1,-1],"split_conditions":[-6.9462955E-1,6.470887E-1,3.8175E3,6.71739E0,3.90334E-2,3.4389958E-1,2.7936742E-1,-9.1688854E-1,2.5162467E-1,-4.924533E0,-2.4667072E0,-1.5016187E0,1.124402E0],"split_indices":[4101,2494,4096,0,2184,2505,441,0,0,0,0,0,0],"split_type":[0,0,0,0,0,0,0,0,0,0,0,0,0],"sum_hessian":[2.092E3,2.71E2,1.821E3,2.3E2,4.1E1,3.17E2,1.504E3,1.3E1,2.8E1,2.68E2,4.9E1,6.82E2,8.22E2],"tree_param":{"num_deleted":"0","num_feature":"4105","num_nodes":"13","size_leaf_vector":"1"}},{"base_weights":[1.1435276E-1,-2.0600016E1,2.3179743E1,-3.9921207E1,-3.5938237E0,1.0179364E1,6.687832E1,-3.8950827E0,3.8537428E0,-1.6145931E-1,-4.0549874E0,-1.244829E0,1.1679797E0,6.3638024E0,-4.8497984E-1],"categories":[],"categories_nodes":[],"categories_segments":[],"categories_sizes":[],"default_left":[0,0,0,0,0,0,0,0,0,0,0,0,0,0,0],"id":13,"left_children":[1,3,5,7,9,11,13,-1,-1,-1,-1,-1,-1,-1,-1],"loss_changes":[9.786842E5,3.545717E5,5.504639E5,1.6856762E5,4.2877895E4,5.411307E4,7.836056E4,0E0,0E0,0E0,0E0,0E0,0E0,0E0,0E0],"parents":[2147483647,0,0,1,1,2,2,3,3,4,4,5,5,6,6],"right_children":[2,4,6,8,10,12,14,-1,-1,-1,-1,-1,-1,-1,-1],"split_conditions":[3.5608426E-1,9.044772E-3,4.961584E-1,9.198767E-2,5.249716E-1,4.314551E-1,5.251165E-2,-3.8950827E0,3.8537428E0,-1.6145931E-1,-4.0549874E0,-1.244829E0,1.1679797E0,6.3638024E0,-4.8497984E-1],"split_indices":[1145,3443,294,3921,2305,2972,2210,0,0,0,0,0,0,0,0],"split_type":[0,0,0,0,0,0,0,0,0,0,0,0,0,0,0],"sum_hessian":[2.048E3,1.079E3,9.69E2,5.05E2,5.74E2,7.47E2,2.22E2,4.82E2,2.3E1,5.51E2,2.3E1,8.2E1,6.65E2,2.08E2,1.4E1],"tree_param":{"num_deleted":"0","num_feature":"4105","num_nodes":"15","size_leaf_vector":"1"}},{"base_weights":[-6.70313E-1,5.3473553E1,-8.079881E0,5.5892696E0,1.8769008E-1,-2.9476448E1,5.1701093E0,2.948135E-1,-7.530277E-1,-3.5517025E0,-3.0724174E-1,3.6417583E-1,1.1956045E1],"categories":[],"categories_nodes":[],"categories_segments":[],"categories_sizes":[],"default_left":[0,0,0,0,0,0,0,0,0,0,0,0,0],"id":14,"left_children":[1,3,5,-1,7,9,11,-1,-1,-1,-1,-1,-1],"loss_changes":[8.338139E5,1.2721175E5,5.1832878E5,0E0,1.0444957E3,1.9216294E5,1.5566683E5,0E0,0E0,0E0,0E0,0E0,0E0],"parents":[2147483647,0,0,1,1,2,2,4,4,5,5,6,6],"right_children":[2,4,6,-1,8,10,12,-1,-1,-1,-1,-1,-1],"split_conditions":[-6.9462955E-1,2.5136005E-2,1.76E2,5.5892696E0,5.2344006E-1,1.75313E-2,1.15178436E-1,2.948135E-1,-7.530277E-1,-3.5517025E0,-3.0724174E-1,3.6417583E-1,1.1956045E1],"split_indices":[4101,3445,4099,0,1561,2489,2515,0,0,0,0,0,0],"split_type":[0,0,0,0,0,0,0,0,0,0,0,0,0],"sum_hessian":[2.078E3,2.5E2,1.828E3,2.12E2,3.8E1,6.99E2,1.129E3,2.8E1,1E1,4.97E2,2.02E2,1.12E3,9E0],"tree_param":{"num_deleted":"0","num_feature":"4105","num_nodes":"13","size_leaf_vector":"1"}},{"base_weights":[-3.0539583E-2,-1.7899363E1,2.070345E1,-4.073427E1,-7.769412E0,9.237273E0,5.655413E1,-3.9764717E0,-1.59257E0,-5.9794832E-2,-2.8966124E0,-1.8447076E0,9.553058E-1,1.1685858E1,4.608611E0],"categories":[],"categories_nodes":[],"categories_segments":[],"categories_sizes":[],"default_left":[0,0,0,0,0,0,0,0,0,0,0,0,0,0,0],"id":15,"left_children":[1,3,5,7,9,11,13,-1,-1,-1,-1,-1,-1,-1,-1],"loss_changes":[7.637238E5,2.5605003E5,3.9213838E5,3.160475E4,1.354722E5,3.33469E4,7.857781E4,0E0,0E0,0E0,0E0,0E0,0E0,0E0,0E0],"parents":[2147483647,0,0,1,1,2,2,3,3,4,4,5,5,6,6],"right_children":[2,4,6,8,10,12,14,-1,-1,-1,-1,-1,-1,-1,-1],"split_conditions":[3.5608426E-1,1.02901505E-2,4.961584E-1,1.525247E-1,4.922343E-1,2.8080229E-2,4.471916E-3,-3.9764717E0,-1.59257E0,-5.9794832E-2,-2.8966124E0,-1.8447076E0,9.553058E-1,1.1685858E1,4.608611E0],"split_indices":[1145,2411,294,2673,2901,3740,3550,0,0,0,0,0,0,0,0],"split_type":[0,0,0,0,0,0,0,0,0,0,0,0,0,0,0],"sum_hessian":[2.061E3,1.107E3,9.54E2,3.4E2,7.67E2,7.23E2,2.31E2,2.88E2,5.2E1,5.97E2,1.7E2,3.5E1,6.88E2,1.3E1,2.18E2],"tree_param":{"num_deleted":"0","num_feature":"4105","num_nodes":"15","size_leaf_vector":"1"}},{"base_weights":[2.1032575E-1,-1.701019E1,1.8514547E1,-3.569786E1,-2.806976E0,6.978995E0,5.488747E1,-3.4314904E0,1.3555769E0,-9.8655134E-2,-2.877366E0,9.17384E-1,-1.9038692E0,4.2792735E0,1.151788E1],"categories":[],"categories_nodes":[],"categories_segments":[],"categories_sizes":[],"default_left":[0,0,0,0,0,0,0,0,0,0,0,0,0,0,0],"id":16,"left_children":[1,3,5,7,9,11,13,-1,-1,-1,-1,-1,-1,-1,-1],"loss_changes":[6.4062194E5,2.779302E5,4.1329344E5,6.904919E4,2.9882807E4,7.163314E4,1.1690306E5,0E0,0E0,0E0,0E0,0E0,0E0,0E0,0E0],"parents":[2147483647,0,0,1,1,2,2,3,3,4,4,5,5,6,6],"right_children":[2,4,6,8,10,12,14,-1,-1,-1,-1,-1,-1,-1,-1],"split_conditions":[2.3995069E-1,9.044772E-3,4.936942E-1,3.0096045E-1,2.3295645E-1,7.525698E-2,7.0669837E-3,-3.4314904E0,1.3555769E0,-9.8655134E-2,-2.877366E0,9.17384E-1,-1.9038692E0,4.2792735E0,1.151788E1],"split_indices":[1755,3443,294,3006,2305,2585,2204,0,0,0,0,0,0,0,0],"split_type":[0,0,0,0,0,0,0,0,0,0,0,0,0,0,0],"sum_hessian":[2.032E3,1.047E3,9.85E2,4.52E2,5.95E2,7.48E2,2.37E2,4.27E2,2.5E1,5.63E2,3.2E1,6.69E2,7.9E1,2.18E2,1.9E1],"tree_param":{"num_deleted":"0","num_feature":"4105","num_nodes":"15","size_leaf_vector":"1"}},{"base_weights":[3.86459E-1,-1.5303069E1,1.7253609E1,-3.2697E1,-2.8488708E0,6.467254E0,4.9540157E1,-3.123164E0,1.213613E0,-1.0856358E-1,-2.6725466E0,8.1243753E-1,-2.4322553E0,3.981932E0,1.0303856E1],"categories":[],"categories_nodes":[],"categories_segments":[],"categories_sizes":[],"default_left":[0,0,0,0,0,0,0,0,0,0,0,0,0,0,0],"id":17,"left_children":[1,3,5,7,9,11,13,-1,-1,-1,-1,-1,-1,-1,-1],"loss_changes":[5.486937E5,2.326803E5,3.4790988E5,5.2370406E4,2.7751756E4,6.840988E4,7.6461E4,0E0,0E0,0E0,0E0,0E0,0E0,0E0,0E0],"parents":[2147483647,0,0,1,1,2,2,3,3,4,4,5,5,6,6],"right_children":[2,4,6,8,10,12,14,-1,-1,-1,-1,-1,-1,-1,-1],"split_conditions":[2.3995069E-1,9.044772E-3,4.936942E-1,6.7141415E-3,2.7734232E-1,1.966917E-1,3.7380242E-1,-3.123164E0,1.213613E0,-1.0856358E-1,-2.6725466E0,8.1243753E-1,-2.4322553E0,3.981932E0,1.0303856E1],"split_indices":[1755,3443,294,2103,3935,3562,3759,0,0,0,0,0,0,0,0],"split_type":[0,0,0,0,0,0,0,0,0,0,0,0,0,0,0],"sum_hessian":[2.073E3,1.074E3,9.99E2,4.48E2,6.26E2,7.49E2,2.5E2,4.25E2,2.3E1,5.91E2,3.5E1,6.94E2,5.5E1,2.34E2,1.6E1],"tree_param":{"num_deleted":"0","num_feature":"4105","num_nodes":"15","size_leaf_vector":"1"}},{"base_weights":[-3.3076298E-1,-1.3919961E1,1.4956786E1,-3.1417318E1,-6.223535E0,3.968717E1,6.8429413E0,-3.1042922E0,-9.349819E-1,-1.3607888E-1,-2.531782E0,3.997222E0,-1.030903E-2,8.47748E0,5.046556E-1],"categories":[],"categories_nodes":[],"categories_segments":[],"categories_sizes":[],"default_left":[0,0,0,0,0,0,0,0,0,0,0,0,0,0,0],"id":18,"left_children":[1,3,5,7,9,11,13,-1,-1,-1,-1,-1,-1,-1,-1],"loss_changes":[4.2034772E5,1.4421602E5,1.9101231E5,2.4394844E4,7.7885234E4,5.035997E4,7.328636E4,0E0,0E0,0E0,0E0,0E0,0E0,0E0,0E0],"parents":[2147483647,0,0,1,1,2,2,3,3,4,4,5,5,6,6],"right_children":[2,4,6,8,10,12,14,-1,-1,-1,-1,-1,-1,-1,-1],"split_conditions":[3.5608426E-1,1.02901505E-2,-6.9462955E-1,1.525247E-1,1.6685227E0,2.897382E-1,3.2122135E-2,-3.1042922E0,-9.349819E-1,-1.3607888E-1,-2.531782E0,3.997222E0,-1.030903E-2,8.47748E0,5.046556E-1],"split_indices":[1145,2411,4101,2673,702,3140,2365,0,0,0,0,0,0,0,0],"split_type":[0,0,0,0,0,0,0,0,0,0,0,0,0,0,0],"sum_hessian":[2.023E3,1.071E3,9.52E2,3.27E2,7.44E2,2.35E2,7.17E2,2.79E2,4.8E1,6.15E2,1.29E2,2.07E2,2.8E1,9E0,7.08E2],"tree_param":{"num_deleted":"0","num_feature":"4105","num_nodes":"15","size_leaf_vector":"1"}},{"base_weights":[2.962424E-1,-1.2688566E1,1.4439685E1,-2.715248E1,-2.172721E0,5.6430416E0,4.145832E1,1.1254898E0,-2.6068888E0,2.5301073E0,-3.3629933E-1,1.0094069E0,-5.7469606E-1,9.427719E0,3.3165665E0],"categories":[],"categories_nodes":[],"categories_segments":[],"categories_sizes":[],"default_left":[0,0,0,0,0,0,0,0,0,0,0,0,0,0,0],"id":19,"left_children":[1,3,5,7,9,11,13,-1,-1,-1,-1,-1,-1,-1,-1],"loss_changes":[3.783881E5,1.6337255E5,2.343454E5,4.0404844E4,3.0940518E4,5.1774E4,6.308778E4,0E0,0E0,0E0,0E0,0E0,0E0,0E0,0E0],"parents":[2147483647,0,0,1,1,2,2,3,3,4,4,5,5,6,6],"right_children":[2,4,6,8,10,12,14,-1,-1,-1,-1,-1,-1,-1,-1],"split_conditions":[2.3995069E-1,9.044772E-3,4.936942E-1,7.741087E-2,3.2034455E-5,4.9235664E-2,4.471916E-3,1.1254898E0,-2.6068888E0,2.5301073E0,-3.3629933E-1,1.0094069E0,-5.7469606E-1,9.427719E0,3.3165665E0],"split_indices":[1755,3443,294,3149,3450,2870,3550,0,0,0,0,0,0,0,0],"split_type":[0,0,0,0,0,0,0,0,0,0,0,0,0,0,0],"sum_hessian":[2.06E3,1.074E3,9.86E2,4.52E2,6.22E2,7.44E2,2.42E2,2.4E1,4.28E2,3.1E1,5.91E2,5.05E2,2.39E2,1.4E1,2.28E2],"tree_param":{"num_deleted":"0","num_feature":"4105","num_nodes":"15","size_leaf_vector":"1"}},{"base_weights":[5.7369668E-2,-1.0292864E1,1.4674834E1,-2.1399632E1,-1.3132204E-1,7.3250976E0,4.071049E1,-2.4077637E0,3.722155E-1,4.900472E0,-1.0635526E-1,4.9048185E-1,3.857103E0,8.357851E0,3.3690135E0],"categories":[],"categories_nodes":[],"categories_segments":[],"categories_sizes":[],"default_left":[0,0,0,0,0,0,0,0,0,0,0,0,0,0,0],"id":20,"left_children":[1,3,5,7,9,11,13,-1,-1,-1,-1,-1,-1,-1,-1],"loss_changes":[3.1868275E5,1.3917894E5,1.6703173E5,8.668653E4,3.810529E4,4.417385E4,2.7367125E4,0E0,0E0,0E0,0E0,0E0,0E0,0E0,0E0],"parents":[2147483647,0,0,1,1,2,2,3,3,4,4,5,5,6,6],"right_children":[2,4,6,8,10,12,14,-1,-1,-1,-1,-1,-1,-1,-1],"split_conditions":[5.217417E-1,1.19635E4,3.938444E-1,1.3870893E-1,1.7882418E-2,6.4732563E-1,7.395914E-2,-2.4077637E0,3.722155E-1,4.900472E0,-1.0635526E-1,4.9048185E-1,3.857103E0,8.357851E0,3.3690135E0],"split_indices":[441,4096,2137,4024,4082,294,499,0,0,0,0,0,0,0,0],"split_type":[0,0,0,0,0,0,0,0,0,0,0,0,0,0,0],"sum_hessian":[2.106E3,1.233E3,8.73E2,5.89E2,6.44E2,6.81E2,1.92E2,4.81E2,1.08E2,1.2E1,6.32E2,6.49E2,3.2E1,9E0,1.83E2],"tree_param":{"num_deleted":"0","num_feature":"4105","num_nodes":"15","size_leaf_vector":"1"}},{"base_weights":[-2.5124213E-1,-9.707911E0,1.3711925E1,-1.9716793E1,6.334308E-2,7.11558E0,3.6857246E1,-2.1909664E0,3.7369227E-1,4.6621933E0,-8.7093376E-2,-2.5496098E-1,1.1162624E0,3.0221183E0,6.727456E0],"categories":[],"categories_nodes":[],"categories_segments":[],"categories_sizes":[],"default_left":[0,0,0,0,0,0,0,0,0,0,0,0,0,0,0],"id":21,"left_children":[1,3,5,7,9,11,13,-1,-1,-1,-1,-1,-1,-1,-1],"loss_changes":[2.731191E5,1.2060578E5,1.2746144E5,7.2693375E4,3.4264832E4,3.5535203E4,1.9615281E4,0E0,0E0,0E0,0E0,0E0,0E0,0E0,0E0],"parents":[2147483647,0,0,1,1,2,2,3,3,4,4,5,5,6,6],"right_children":[2,4,6,8,10,12,14,-1,-1,-1,-1,-1,-1,-1,-1],"split_conditions":[5.217417E-1,1.19635E4,3.938444E-1,1.3870893E-1,1.5004221E-2,2.5463027E-1,2.66256E-1,-2.1909664E0,3.7369227E-1,4.6621933E0,-8.7093376E-2,-2.5496098E-1,1.1162624E0,3.0221183E0,6.727456E0],"split_indices":[441,4096,2137,4024,1556,3254,1406,0,0,0,0,0,0,0,0],"split_type":[0,0,0,0,0,0,0,0,0,0,0,0,0,0,0],"sum_hessian":[2.068E3,1.233E3,8.35E2,6.09E2,6.24E2,6.5E2,1.85E2,5.04E2,1.05E2,1.2E1,6.12E2,2.3E2,4.2E2,1.73E2,1.2E1],"tree_param":{"num_deleted":"0","num_feature":"4105","num_nodes":"15","size_leaf_vector":"1"}},{"base_weights":[-2.5077704E-1,-9.8972025E0,1.0733233E1,-2.2890484E1,-4.0683217E0,5.433744E0,2.9612764E1,-3.2046335E0,-1.8386626E0,6.7568226E0,-4.582048E-1,7.5298613E-1,-3.8735494E-1,2.7937047E0,-7.064579E-1],"categories":[],"categories_nodes":[],"categories_segments":[],"categories_sizes":[],"default_left":[0,0,0,0,0,0,0,0,0,0,0,0,0,0,0],"id":22,"left_children":[1,3,5,7,9,11,13,-1,-1,-1,-1,-1,-1,-1,-1],"loss_changes":[2.1735672E5,8.2700055E4,9.593739E4,9.531281E3,6.650698E4,2.2444922E4,1.49345E4,0E0,0E0,0E0,0E0,0E0,0E0,0E0,0E0],"parents":[2147483647,0,0,1,1,2,2,3,3,4,4,5,5,6,6],"right_children":[2,4,6,8,10,12,14,-1,-1,-1,-1,-1,-1,-1,-1],"split_conditions":[3.5608426E-1,1.02901505E-2,5.296185E-1,1.7986837E-1,1.8968856E-2,6.438688E-2,2.7089614E-1,-3.2046335E0,-1.8386626E0,6.7568226E0,-4.582048E-1,7.5298613E-1,-3.8735494E-1,2.7937047E0,-7.064579E-1],"split_indices":[1145,2411,294,2834,2750,2870,1947,0,0,0,0,0,0,0,0],"split_type":[0,0,0,0,0,0,0,0,0,0,0,0,0,0,0],"sum_hessian":[2.051E3,1.092E3,9.59E2,3.38E2,7.54E2,7.49E2,2.1E2,4.7E1,2.91E2,1E1,7.44E2,5.71E2,1.78E2,2E2,1E1],"tree_param":{"num_deleted":"0","num_feature":"4105","num_nodes":"15","size_leaf_vector":"1"}},{"base_weights":[2.7283865E-1,-7.733126E0,1.1865858E1,-1.639108E1,2.824077E-1,5.7330456E0,3.1436178E1,-1.713826E0,1.3806096E0,8.441262E-1,-3.097399E-1,3.7776685E-1,3.0546412E0,7.345132E0,2.5413628E0],"categories":[],"categories_nodes":[],"categories_segments":[],"categories_sizes":[],"default_left":[0,0,0,0,0,0,0,0,0,0,0,0,0,0,0],"id":23,"left_children":[1,3,5,7,9,11,13,-1,-1,-1,-1,-1,-1,-1,-1],"loss_changes":[1.9067348E5,8.433311E4,1.00685414E5,5.478214E4,2.2007629E4,2.7016137E4,2.8179156E4,0E0,0E0,0E0,0E0,0E0,0E0,0E0,0E0],"parents":[2147483647,0,0,1,1,2,2,3,3,4,4,5,5,6,6],"right_children":[2,4,6,8,10,12,14,-1,-1,-1,-1,-1,-1,-1,-1],"split_conditions":[5.4720944E-1,1.19635E4,3.938444E-1,8.138707E-2,4.5931727E-1,4.7830233E-1,3.0006275E-1,-1.713826E0,1.3806096E0,8.441262E-1,-3.097399E-1,3.7776685E-1,3.0546412E0,7.345132E0,2.5413628E0],"split_indices":[441,4096,2137,3329,858,3025,226,0,0,0,0,0,0,0,0],"split_type":[0,0,0,0,0,0,0,0,0,0,0,0,0,0,0],"sum_hessian":[2.054E3,1.215E3,8.39E2,5.84E2,6.31E2,6.39E2,2E2,5.35E2,4.9E1,1.83E2,4.48E2,6.08E2,3.1E1,1E1,1.9E2],"tree_param":{"num_deleted":"0","num_feature":"4105","num_nodes":"15","size_leaf_vector":"1"}},{"base_weights":[1.8231818E-1,-8.294725E0,9.208923E0,-1.9642897E1,-2.4533288E0,2.8746698E0,2.472226E1,-2.88647E0,-1.5755616E0,-6.32918E-2,-1.7582942E0,4.629314E-1,-1.8101138E0,6.705985E0,1.8670803E0],"categories":[],"categories_nodes":[],"categories_segments":[],"categories_sizes":[],"default_left":[0,0,0,0,0,0,0,0,0,0,0,0,0,0,0],"id":24,"left_children":[1,3,5,7,9,11,13,-1,-1,-1,-1,-1,-1,-1,-1],"loss_changes":[1.5597447E5,6.967277E4,9.699241E4,8.549172E3,2.097539E4,3.829723E4,5.3169453E4,0E0,0E0,0E0,0E0,0E0,0E0,0E0,0E0],"parents":[2147483647,0,0,1,1,2,2,3,3,4,4,5,5,6,6],"right_children":[2,4,6,8,10,12,14,-1,-1,-1,-1,-1,-1,-1,-1],"split_conditions":[2.2517297E-1,6.978125E-2,3.9556128E-1,1.0532556E-2,5.51606E-1,1.966917E-1,4.471916E-3,-2.88647E0,-1.5755616E0,-6.32918E-2,-1.7582942E0,4.629314E-1,-1.8101138E0,6.705985E0,1.8670803E0],"split_indices":[1755,1240,294,3981,1808,3562,3550,0,0,0,0,0,0,0,0],"split_type":[0,0,0,0,0,0,0,0,0,0,0,0,0,0,0],"sum_hessian":[2.038E3,1.051E3,9.87E2,3.57E2,6.94E2,7.01E2,2.86E2,4.5E1,3.12E2,6.31E2,6.3E1,6.37E2,6.4E1,1.9E1,2.67E2],"tree_param":{"num_deleted":"0","num_feature":"4105","num_nodes":"15","size_leaf_vector":"1"}},{"base_weights":[5.3195417E-1,2.0999254E1,-2.581773E0,2.4785666E1,2.4542052E-1,-1.8290812E1,2.7349484E-1,4.110142E0,2.0988977E0,2.3021162E-1,-3.9247796E-1,-1.3970066E0,-2.5799875E0,-4.213445E-2,5.485475E0],"categories":[],"categories_nodes":[],"categories_segments":[],"categories_sizes":[],"default_left":[0,0,0,0,0,0,0,0,0,0,0,0,0,0,0],"id":25,"left_children":[1,3,5,7,9,11,13,-1,-1,-1,-1,-1,-1,-1,-1],"loss_changes":[1.313694E5,2.1387516E4,8.02528E4,5.3565938E3,4.6518155E2,7.460289E3,6.979484E4,0E0,0E0,0E0,0E0,0E0,0E0,0E0,0E0],"parents":[2147483647,0,0,1,1,2,2,3,3,4,4,5,5,6,6],"right_children":[2,4,6,8,10,12,14,-1,-1,-1,-1,-1,-1,-1,-1],"split_conditions":[-6.9462955E-1,1.4214006E-1,2.4419704E-1,4.6981955E-1,1.8010148E-1,2.2951771E-1,2.8594628E-1,4.110142E0,2.0988977E0,2.3021162E-1,-3.9247796E-1,-1.3970066E0,-2.5799875E0,-4.213445E-2,5.485475E0],"split_indices":[4101,2488,3643,294,2488,3579,178,0,0,0,0,0,0,0,0],"split_type":[0,0,0,0,0,0,0,0,0,0,0,0,0,0,0],"sum_hessian":[2.061E3,2.72E2,1.789E3,2.3E2,4.2E1,2.75E2,1.514E3,1.1E1,2.19E2,2.8E1,1.4E1,2.23E2,5.2E1,1.496E3,1.8E1],"tree_param":{"num_deleted":"0","num_feature":"4105","num_nodes":"15","size_leaf_vector":"1"}},{"base_weights":[-1.22122556E-1,-7.144155E0,7.8131037E0,-1.2783904E0,-1.4066837E1,4.100496E0,2.0230232E1,2.71189E0,-2.5552255E-1,-1.548369E0,1.3450718E-1,-4.0049976E-1,5.916773E-1,2.0431955E0,-1.8632087E0],"categories":[],"categories_nodes":[],"categories_segments":[],"categories_sizes":[],"default_left":[0,0,0,0,0,0,0,0,0,0,0,0,0,0,0],"id":26,"left_children":[1,3,5,7,9,11,13,-1,-1,-1,-1,-1,-1,-1,-1],"loss_changes":[1.1408278E5,4.4102887E4,4.4294465E4,3.0039955E4,2.6324945E4,1.6397885E4,2.568257E4,0E0,0E0,0E0,0E0,0E0,0E0,0E0,0E0],"parents":[2147483647,0,0,1,1,2,2,3,3,4,4,5,5,6,6],"right_children":[2,4,6,8,10,12,14,-1,-1,-1,-1,-1,-1,-1,-1],"split_conditions":[3.5608426E-1,4.2497814E-2,4.961584E-1,5.791788E-2,7.333822E-2,2.0708943E-2,3.7121728E-1,2.71189E0,-2.5552255E-1,-1.548369E0,1.3450718E-1,-4.0049976E-1,5.916773E-1,2.0431955E0,-1.8632087E0],"split_indices":[1145,1432,294,2988,3517,2721,1882,0,0,0,0,0,0,0,0],"split_type":[0,0,0,0,0,0,0,0,0,0,0,0,0,0,0],"sum_hessian":[2.047E3,1.086E3,9.61E2,5.88E2,4.98E2,7.4E2,2.21E2,2.8E1,5.6E2,4.09E2,8.9E1,1.7E2,5.7E2,2.07E2,1.4E1],"tree_param":{"num_deleted":"0","num_feature":"4105","num_nodes":"15","size_leaf_vector":"1"}},{"base_weights":[-8.266318E-3,-6.722096E0,7.1221833E0,-2.2502592E0,-1.6895454E1,3.413575E0,2.2217161E1,-3.202382E-1,1.2341361E0,-1.2841522E0,-2.8406405E0,-1.6067872E0,4.3595567E-1,5.6737747E0,1.7906345E0],"categories":[],"categories_nodes":[],"categories_segments":[],"categories_sizes":[],"default_left":[0,0,0,0,0,0,0,0,0,0,0,0,0,0,0],"id":27,"left_children":[1,3,5,7,9,11,13,-1,-1,-1,-1,-1,-1,-1,-1],"loss_changes":[1.0021547E5,4.9043023E4,5.6816688E4,1.6482236E4,1.1952078E4,2.636998E4,1.6710484E4,0E0,0E0,0E0,0E0,0E0,0E0,0E0,0E0],"parents":[2147483647,0,0,1,1,2,2,3,3,4,4,5,5,6,6],"right_children":[2,4,6,8,10,12,14,-1,-1,-1,-1,-1,-1,-1,-1],"split_conditions":[2.2517297E-1,4.7496268E-1,3.938444E-1,6.4092234E-2,8.9181755E-3,3.8175E3,3.0006275E-1,-3.202382E-1,1.2341361E0,-1.2841522E0,-2.8406405E0,-1.6067872E0,4.3595567E-1,5.6737747E0,1.7906345E0],"split_indices":[1755,1808,2137,3294,2942,4096,226,0,0,0,0,0,0,0,0],"split_type":[0,0,0,0,0,0,0,0,0,0,0,0,0,0,0],"sum_hessian":[2.093E3,1.078E3,1.015E3,7.49E2,3.29E2,8.15E2,2E2,6.91E2,5.8E1,2.84E2,4.5E1,5.3E1,7.62E2,9E0,1.91E2],"tree_param":{"num_deleted":"0","num_feature":"4105","num_nodes":"15","size_leaf_vector":"1"}},{"base_weights":[5.1514935E-2,-6.1490765E0,6.3730865E0,-1.598808E1,-2.7863243E0,3.769715E0,1.9825006E1,-2.4867308E0,-1.186779E0,2.3961215E0,-3.6834738E-1,4.131933E-1,-2.3901472E0,1.5863909E0,4.3623834E0],"categories":[],"categories_nodes":[],"categories_segments":[],"categories_sizes":[],"default_left":[0,0,0,0,0,0,0,0,0,0,0,0,0,0,0],"id":28,"left_children":[1,3,5,7,9,11,13,-1,-1,-1,-1,-1,-1,-1,-1],"loss_changes":[8.115359E4,3.4572367E4,3.5887758E4,8.291727E3,3.1754082E4,2.348079E4,9.294184E3,0E0,0E0,0E0,0E0,0E0,0E0,0E0,0E0],"parents":[2147483647,0,0,1,1,2,2,3,3,4,4,5,5,6,6],"right_children":[2,4,6,8,10,12,14,-1,-1,-1,-1,-1,-1,-1,-1],"split_conditions":[3.1231943E-1,1.1648507E-3,7.438502E-1,6.875472E-2,9.930684E-3,1.13256395E-1,3.7380242E-1,-2.4867308E0,-1.186779E0,2.3961215E0,-3.6834738E-1,4.131933E-1,-2.3901472E0,1.5863909E0,4.3623834E0],"split_indices":[1145,2687,294,3138,3488,3296,3759,0,0,0,0,0,0,0,0],"split_type":[0,0,0,0,0,0,0,0,0,0,0,0,0,0,0],"sum_hessian":[2.07E3,1.045E3,1.025E3,2.66E2,7.79E2,8.59E2,1.66E2,4.7E1,2.19E2,3.4E1,7.45E2,8.35E2,2.4E1,1.56E2,1E1],"tree_param":{"num_deleted":"0","num_feature":"4105","num_nodes":"15","size_leaf_vector":"1"}},{"base_weights":[-3.8677968E-2,-5.733928E0,5.8084745E0,-1.2705663E1,-7.500264E-1,3.0601842E0,1.9026682E1,-1.2627902E0,9.9329436E-1,1.4717506E0,-1.6989598E-1,-2.1754365E-1,6.909283E-1,1.435638E0,4.5094733E0],"categories":[],"categories_nodes":[],"categories_segments":[],"categories_sizes":[],"default_left":[0,0,0,0,0,0,0,0,0,0,0,0,0,0,0],"id":29,"left_children":[1,3,5,7,9,11,13,-1,-1,-1,-1,-1,-1,-1,-1],"loss_changes":[6.8312914E4,3.6105973E4,3.6758715E4,1.5890352E4,1.2258417E4,2.1858684E4,1.5585316E4,0E0,0E0,0E0,0E0,0E0,0E0,0E0,0E0],"parents":[2147483647,0,0,1,1,2,2,3,3,4,4,5,5,6,6],"right_children":[2,4,6,8,10,12,14,-1,-1,-1,-1,-1,-1,-1,-1],"split_conditions":[2.2517297E-1,9.044772E-3,7.2846293E-1,6.7141415E-3,1.0696405E-1,5.893952E-3,4.33682E-2,-1.2627902E0,9.9329436E-1,1.4717506E0,-1.6989598E-1,-2.1754365E-1,6.909283E-1,1.435638E0,4.5094733E0],"split_indices":[1755,3443,294,2103,2296,3899,2192,0,0,0,0,0,0,0,0],"split_type":[0,0,0,0,0,0,0,0,0,0,0,0,0,0,0],"sum_hessian":[2.051E3,1.039E3,1.012E3,4.33E2,6.06E2,8.38E2,1.74E2,4.07E2,2.6E1,3.8E1,5.68E2,3.87E2,4.51E2,1.6E2,1.4E1],"tree_param":{"num_deleted":"0","num_feature":"4105","num_nodes":"15","size_leaf_vector":"1"}},{"base_weights":[-2.237122E-2,1.4485487E1,-2.0219884E0,1.6698452E1,1.8731321E-1,-8.036778E0,2.5893707E0,3.3553796E0,1.3759714E0,-4.1494292E-1,2.3418793E-1,-8.1866825E-1,1.9973634E0,1.7564924E-1,3.1767583E0],"categories":[],"categories_nodes":[],"categories_segments":[],"categories_sizes":[],"default_left":[0,0,0,0,0,0,0,0,0,0,0,0,0,0,0],"id":30,"left_children":[1,3,5,7,9,11,13,-1,-1,-1,-1,-1,-1,-1,-1],"loss_changes":[5.8959344E4,7.7887305E3,4.954644E4,5.2268125E3,3.9840286E2,2.830336E4,2.0447902E4,0E0,0E0,0E0,0E0,0E0,0E0,0E0,0E0],"parents":[2147483647,0,0,1,1,2,2,3,3,4,4,5,5,6,6],"right_children":[2,4,6,8,10,12,14,-1,-1,-1,-1,-1,-1,-1,-1],"split_conditions":[-6.9462955E-1,8.4604144E-2,1.813736E-1,4.6981955E-1,4.2005843E-1,8.7716386E-2,2.817434E-2,3.3553796E0,1.3759714E0,-4.1494292E-1,2.3418793E-1,-8.1866825E-1,1.9973634E0,1.7564924E-1,3.1767583E0],"split_indices":[4101,3764,4104,294,1586,3162,2304,0,0,0,0,0,0,0,0],"split_type":[0,0,0,0,0,0,0,0,0,0,0,0,0,0,0],"sum_hessian":[2.032E3,2.46E2,1.786E3,2.13E2,3.3E1,7.75E2,1.011E3,1.1E1,2.02E2,1.1E1,2.2E1,7.46E2,2.9E1,9.93E2,1.8E1],"tree_param":{"num_deleted":"0","num_feature":"4105","num_nodes":"15","size_leaf_vector":"1"}},{"base_weights":[4.0279362E-2,-5.074856E0,5.34186E0,-1.1501777E1,-5.237597E-1,4.4199653E0,3.8810463E1,-2.2239997E0,-8.736969E-1,1.2392188E0,-1.554836E-1,1.2257407E0,1.3594155E-1,5.4803443E0,2.1963396E0],"categories":[],"categories_nodes":[],"categories_segments":[],"categories_sizes":[],"default_left":[0,0,0,0,0,0,0,0,0,0,0,0,0,0,0],"id":31,"left_children":[1,3,5,7,9,11,13,-1,-1,-1,-1,-1,-1,-1,-1],"loss_changes":[5.606377E4,3.077459E4,3.1289697E4,9.728637E3,1.098363E4,2.681451E4,8.485066E3,0E0,0E0,0E0,0E0,0E0,0E0,0E0,0E0],"parents":[2147483647,0,0,1,1,2,2,3,3,4,4,5,5,6,6],"right_children":[2,4,6,8,10,12,14,-1,-1,-1,-1,-1,-1,-1,-1],"split_conditions":[2.1581545E-1,9.044772E-3,3.525456E-1,1.3663027E-2,1.5210171E-1,-6.9462955E-1,9.239197E-2,-2.2239997E0,-8.736969E-1,1.2392188E0,-1.554836E-1,1.2257407E0,1.3594155E-1,5.4803443E0,2.1963396E0],"split_indices":[1755,3443,2180,2845,2319,4101,0,0,0,0,0,0,0,0,0],"split_type":[0,0,0,0,0,0,0,0,0,0,0,0,0,0,0],"sum_hessian":[2.067E3,1.052E3,1.015E3,4.36E2,6.16E2,9.88E2,2.7E1,4.7E1,3.89E2,4.8E1,5.68E2,2.32E2,7.56E2,1E1,1.7E1],"tree_param":{"num_deleted":"0","num_feature":"4105","num_nodes":"15","size_leaf_vector":"1"}},{"base_weights":[1.5291779E-1,-7.7133164E0,3.1350915E0,-9.115413E0,1.061005E1,1.2046747E1,6.23518E-1,-1.865809E0,-6.812792E-1,1.1610287E0,5.64447E-1,1.0890908E-1,1.2708527E0,3.2490857E0,4.477459E-3],"categories":[],"categories_nodes":[],"categories_segments":[],"categories_sizes":[],"default_left":[0,0,0,0,0,0,0,0,0,0,0,0,0,0,0],"id":32,"left_children":[1,3,5,7,9,11,13,-1,-1,-1,-1,-1,-1,-1,-1],"loss_changes":[4.8145676E4,1.4512871E4,3.3307316E4,8.931535E3,4.0698047E2,8.072117E3,2.3958719E4,0E0,0E0,0E0,0E0,0E0,0E0,0E0,0E0],"parents":[2147483647,0,0,1,1,2,2,3,3,4,4,5,5,6,6],"right_children":[2,4,6,8,10,12,14,-1,-1,-1,-1,-1,-1,-1,-1],"split_conditions":[7.9111295E-4,6.172692E-3,-2.8970315E0,1.9133925E-1,2.5754375E-2,8.5671974E-4,1.257264E-1,-1.865809E0,-6.812792E-1,1.1610287E0,5.64447E-1,1.0890908E-1,1.2708527E0,3.2490857E0,4.477459E-3],"split_indices":[3736,2103,4103,2334,343,3480,3930,0,0,0,0,0,0,0,0],"split_type":[0,0,0,0,0,0,0,0,0,0,0,0,0,0,0],"sum_hessian":[2.052E3,5.64E2,1.488E3,5.24E2,4E1,3.27E2,1.161E3,5.6E1,4.68E2,2.5E1,1.5E1,5.7E1,2.7E2,1.8E1,1.143E3],"tree_param":{"num_deleted":"0","num_feature":"4105","num_nodes":"15","size_leaf_vector":"1"}},{"base_weights":[1.7970952E-1,-6.011493E0,3.2489662E0,-1.0287776E0,-9.907413E0,1.1048916E1,1.0966777E0,8.933485E-1,-3.208387E-1,-7.125289E-1,-1.4307271E0,7.7901894E-1,3.9152918E0,-1.4876609E0,1.6908786E-1],"categories":[],"categories_nodes":[],"categories_segments":[],"categories_sizes":[],"default_left":[0,0,0,0,0,0,0,0,0,0,0,0,0,0,0],"id":33,"left_children":[1,3,5,7,9,11,13,-1,-1,-1,-1,-1,-1,-1,-1],"loss_changes":[3.9456168E4,1.3357104E4,2.3301957E4,8.689959E3,4.4788867E3,2.2435809E4,1.5750317E4,0E0,0E0,0E0,0E0,0E0,0E0,0E0,0E0],"parents":[2147483647,0,0,1,1,2,2,3,3,4,4,5,5,6,6],"right_children":[2,4,6,8,10,12,14,-1,-1,-1,-1,-1,-1,-1,-1],"split_conditions":[9.327932E-3,8.1707016E-2,6.058208E-1,2.2747749E-1,2.2951771E-1,2.9593468E-1,1.03735685E-1,8.933485E-1,-3.208387E-1,-7.125289E-1,-1.4307271E0,7.7901894E-1,3.9152918E0,-1.4876609E0,1.6908786E-1],"split_indices":[3736,3049,2317,3377,3579,2180,3974,0,0,0,0,0,0,0,0],"split_type":[0,0,0,0,0,0,0,0,0,0,0,0,0,0,0],"sum_hessian":[2.076E3,6.88E2,1.388E3,3.02E2,3.86E2,3E2,1.088E3,5.7E1,2.45E2,2.97E2,8.9E1,2.81E2,1.9E1,4.7E1,1.041E3],"tree_param":{"num_deleted":"0","num_feature":"4105","num_nodes":"15","size_leaf_vector":"1"}},{"base_weights":[-7.995003E-2,4.463519E0,-3.8502858E0,3.5313478E0,3.8440223E0,-9.529168E0,-4.3220434E-2,1.026636E0,1.6347603E-1,-7.2182643E-1,-2.0818906E0,-5.8648005E-2,1.2171226E0],"categories":[],"categories_nodes":[],"categories_segments":[],"categories_sizes":[],"default_left":[0,0,0,0,0,0,0,0,0,0,0,0,0],"id":34,"left_children":[1,3,5,-1,7,9,11,-1,-1,-1,-1,-1,-1],"loss_changes":[3.5552055E4,2.0581613E4,2.4520705E4,0E0,1.4306998E4,8.791172E3,5.779389E3,0E0,0E0,0E0,0E0,0E0,0E0],"parents":[2147483647,0,0,1,1,2,2,4,4,5,5,6,6],"right_children":[2,4,6,-1,8,10,12,-1,-1,-1,-1,-1,-1],"split_conditions":[2.499787E-1,2.1920586E-2,1.24482565E-1,3.5313478E0,-6.8279874E-1,1.8627271E-1,4.1092923E-1,1.026636E0,1.6347603E-1,-7.2182643E-1,-2.0818906E0,-5.8648005E-2,1.2171226E0],"split_indices":[1949,3586,1240,0,4101,179,2137,0,0,0,0,0,0],"split_type":[0,0,0,0,0,0,0,0,0,0,0,0,0],"sum_hessian":[2.075E3,9.41E2,1.134E3,1.6E1,9.25E2,4.55E2,6.79E2,1.9E2,7.35E2,4.14E2,4.1E1,6.5E2,2.9E1],"tree_param":{"num_deleted":"0","num_feature":"4105","num_nodes":"13","size_leaf_vector":"1"}},{"base_weights":[1.1352545E-1,-3.054361E0,4.5273986E0,-6.797734E0,2.6612765E-1,3.2394037E0,4.0605226E0,2.1264376E-1,-8.4436536E-1,5.4519063E-1,-1.3912842E-1,-7.952802E-3,6.324967E-1],"categories":[],"categories_nodes":[],"categories_segments":[],"categories_sizes":[],"default_left":[0,0,0,0,0,0,0,0,0,0,0,0,0],"id":35,"left_children":[1,3,5,7,9,-1,11,-1,-1,-1,-1,-1,-1],"loss_changes":[2.8418033E4,1.4707338E4,1.2655955E4,1.3925652E4,6.7688604E3,0E0,1.0668851E4,0E0,0E0,0E0,0E0,0E0,0E0],"parents":[2147483647,0,0,1,1,2,2,3,3,4,4,6,6],"right_children":[2,4,6,8,10,-1,12,-1,-1,-1,-1,-1,-1],"split_conditions":[5.217417E-1,1.19635E4,3.2122135E-2,3.1524546E-2,3.3933285E-1,3.2394037E0,1.19894385E-1,2.1264376E-1,-8.4436536E-1,5.4519063E-1,-1.3912842E-1,-7.952802E-3,6.324967E-1],"split_indices":[441,4096,2365,3326,3451,0,3366,0,0,0,0,0,0],"split_type":[0,0,0,0,0,0,0,0,0,0,0,0,0],"sum_hessian":[2.032E3,1.183E3,8.49E2,5.56E2,6.27E2,1.2E1,8.37E2,1.27E2,4.29E2,1.49E2,4.78E2,3.56E2,4.81E2],"tree_param":{"num_deleted":"0","num_feature":"4105","num_nodes":"13","size_leaf_vector":"1"}},{"base_weights":[3.8552273E-2,-5.6368837E0,2.0926955E0,-1.7522724E1,-4.0231647E0,5.888725E0,-1.3673979E0,-9.046302E-1,-2.056077E0,5.8205754E-1,-4.8368564E-1,2.7446005E-1,9.342997E-1,1.870779E-4,-8.1635374E-1],"categories":[],"categories_nodes":[],"categories_segments":[],"categories_sizes":[],"default_left":[0,0,0,0,0,0,0,0,0,0,0,0,0,0,0],"id":36,"left_children":[1,3,5,7,9,11,13,-1,-1,-1,-1,-1,-1,-1,-1],"loss_changes":[2.4311596E4,1.0615711E4,2.011321E4,2.6973535E3,7.3972837E3,9.471131E3,8.598764E3,0E0,0E0,0E0,0E0,0E0,0E0,0E0,0E0],"parents":[2147483647,0,0,1,1,2,2,3,3,4,4,5,5,6,6],"right_children":[2,4,6,8,10,12,14,-1,-1,-1,-1,-1,-1,-1,-1],"split_conditions":[1.659136E-1,3.1395745E-2,-2.4024868E0,7.524189E-2,1.1725251E-1,3.759495E-1,7.7655218E-3,-9.046302E-1,-2.056077E0,5.8205754E-1,-4.8368564E-1,2.7446005E-1,9.342997E-1,1.870779E-4,-8.1635374E-1],"split_indices":[3743,3754,4102,1915,3304,1546,2085,0,0,0,0,0,0,0,0],"split_type":[0,0,0,0,0,0,0,0,0,0,0,0,0,0,0],"sum_hessian":[2.085E3,5.54E2,1.531E3,6.6E1,4.88E2,7.3E2,8.01E2,2.9E1,3.7E1,5.8E1,4.3E2,4.56E2,2.74E2,6.82E2,1.19E2],"tree_param":{"num_deleted":"0","num_feature":"4105","num_nodes":"15","size_leaf_vector":"1"}},{"base_weights":[9.093116E-2,3.1102333E0,-3.3530147E0,3.374473E1,2.5753682E0,-7.168061E0,-7.84385E-2,4.037961E0,1.9949545E0,-5.1765613E-2,4.7502935E-1,-1.4273918E0,-5.0252736E-1,2.8791553E-1,-1.6475771E-1],"categories":[],"categories_nodes":[],"categories_segments":[],"categories_sizes":[],"default_left":[0,0,0,0,0,0,0,0,0,0,0,0,0,0,0],"id":37,"left_children":[1,3,5,7,9,11,13,-1,-1,-1,-1,-1,-1,-1,-1],"loss_changes":[2.1840385E4,1.8320953E4,1.2257368E4,2.3487773E3,9.663734E3,6.058754E3,3.1251963E3,0E0,0E0,0E0,0E0,0E0,0E0,0E0,0E0],"parents":[2147483647,0,0,1,1,2,2,3,3,4,4,5,5,6,6],"right_children":[2,4,6,8,10,12,14,-1,-1,-1,-1,-1,-1,-1,-1],"split_conditions":[3.2388625E-1,2.1920586E-2,1.4004406E-1,5.6619298E-2,1.3522807E-1,2.5455935E-3,-2.8197153E0,4.037961E0,1.9949545E0,-5.1765613E-2,4.7502935E-1,-1.4273918E0,-5.0252736E-1,2.8791553E-1,-1.6475771E-1],"split_indices":[1949,3586,1240,0,3366,2828,4103,0,0,0,0,0,0,0,0],"split_type":[0,0,0,0,0,0,0,0,0,0,0,0,0,0,0],"sum_hessian":[2.1E3,1.119E3,9.81E2,1.9E1,1.1E3,4.53E2,5.28E2,9E0,1E1,5.15E2,5.85E2,6.5E1,3.88E2,1.84E2,3.44E2],"tree_param":{"num_deleted":"0","num_feature":"4105","num_nodes":"15","size_leaf_vector":"1"}},{"base_weights":[1.1480442E-1,-1.5523849E0,5.6230273E0,-1.2177038E-1,-7.0019693E0,2.7632155E0,9.158708E0,-4.9432997E-2,1.5043117E0,-4.1543195E-1,-1.3145742E0,3.117948E-1,-1.1442105E0,2.1769135E0,7.0750636E-1],"categories":[],"categories_nodes":[],"categories_segments":[],"categories_sizes":[],"default_left":[0,0,0,0,0,0,0,0,0,0,0,0,0,0,0],"id":38,"left_children":[1,3,5,7,9,11,13,-1,-1,-1,-1,-1,-1,-1,-1],"loss_changes":[1.8939346E4,1.2342602E4,4.8401836E3,9.332875E3,5.953385E3,3.1324148E3,3.8570547E3,0E0,0E0,0E0,0E0,0E0,0E0,0E0,0E0],"parents":[2147483647,0,0,1,1,2,2,3,3,4,4,5,5,6,6],"right_children":[2,4,6,8,10,12,14,-1,-1,-1,-1,-1,-1,-1,-1],"split_conditions":[4.9150366E-1,2.7100188E-1,2.8272614E-1,4.024606E-2,2.2951771E-1,5.6735533E-1,3.8968106E-3,-4.9432997E-2,1.5043117E0,-4.1543195E-1,-1.3145742E0,3.117948E-1,-1.1442105E0,2.1769135E0,7.0750636E-1],"split_indices":[4085,3315,3025,3162,3579,2834,352,0,0,0,0,0,0,0,0],"split_type":[0,0,0,0,0,0,0,0,0,0,0,0,0,0,0],"sum_hessian":[2.062E3,1.583E3,4.79E2,1.254E3,3.29E2,2.65E2,2.14E2,1.223E3,3.1E1,2.54E2,7.5E1,2.53E2,1.2E1,1.5E1,1.99E2],"tree_param":{"num_deleted":"0","num_feature":"4105","num_nodes":"15","size_leaf_vector":"1"}},{"base_weights":[9.53019E-2,-2.4021275E0,3.6465213E0,-5.1620984E0,4.0905553E-1,2.4954188E0,3.2612727E0,2.8154474E-2,-6.432044E-1,2.1476648E0,-7.405429E-3,-2.7057726E-2,5.000773E-1],"categories":[],"categories_nodes":[],"categories_segments":[],"categories_sizes":[],"default_left":[0,0,0,0,0,0,0,0,0,0,0,0,0],"id":39,"left_children":[1,3,5,7,9,-1,11,-1,-1,-1,-1,-1,-1],"loss_changes":[1.8326549E4,9.413388E3,8.030833E3,7.010465E3,7.049902E3,0E0,7.122376E3,0E0,0E0,0E0,0E0,0E0,0E0],"parents":[2147483647,0,0,1,1,2,2,3,3,4,4,6,6],"right_children":[2,4,6,8,10,-1,12,-1,-1,-1,-1,-1,-1],"split_conditions":[5.217417E-1,4.923113E-2,3.2122135E-2,1.8715687E-1,3.661214E-3,2.4954188E0,3.3719197E-2,2.8154474E-2,-6.432044E-1,2.1476648E0,-7.405429E-3,-2.7057726E-2,5.000773E-1],"split_indices":[441,3967,2365,3175,440,0,3079,0,0,0,0,0,0],"split_type":[0,0,0,0,0,0,0,0,0,0,0,0,0],"sum_hessian":[2.066E3,1.213E3,8.53E2,6.12E2,6.01E2,1.3E1,8.4E2,1.69E2,4.43E2,1.2E1,5.89E2,3.36E2,5.04E2],"tree_param":{"num_deleted":"0","num_feature":"4105","num_nodes":"13","size_leaf_vector":"1"}},{"base_weights":[4.4536628E-2,2.4429238E0,-2.9447312E0,1.8266876E0,1.4248054E1,-1.3973174E0,-8.153694E0,-8.497759E-1,2.1142906E-1,2.8850663E0,6.600182E-1,-1.5882E0,-1.0231467E-1,-4.0066782E-1,-1.226764E0],"categories":[],"categories_nodes":[],"categories_segments":[],"categories_sizes":[],"default_left":[0,0,0,0,0,0,0,0,0,0,0,0,0,0,0],"id":40,"left_children":[1,3,5,7,9,11,13,-1,-1,-1,-1,-1,-1,-1,-1],"loss_changes":[1.4642658E4,8.238347E3,7.3260527E3,6.8492876E3,6.9444863E3,2.8174985E3,4.285842E3,0E0,0E0,0E0,0E0,0E0,0E0,0E0,0E0],"parents":[2147483647,0,0,1,1,2,2,3,3,4,4,5,5,6,6],"right_children":[2,4,6,8,10,12,14,-1,-1,-1,-1,-1,-1,-1,-1],"split_conditions":[8.154059E-2,3.1870344E-1,4.2496794E-1,3.7589753E-3,2.4922278E-2,5.498597E-3,1.1368755E-1,-8.497759E-1,2.1142906E-1,2.8850663E0,6.600182E-1,-1.5882E0,-1.0231467E-1,-4.0066782E-1,-1.226764E0],"split_indices":[832,3015,2300,3016,521,2232,3621,0,0,0,0,0,0,0,0],"split_type":[0,0,0,0,0,0,0,0,0,0,0,0,0,0,0],"sum_hessian":[2.042E3,1.133E3,9.09E2,1.077E3,5.6E1,7.01E2,2.08E2,5E1,1.027E3,1.5E1,4.1E1,1E1,6.91E2,1.27E2,8.1E1],"tree_param":{"num_deleted":"0","num_feature":"4105","num_nodes":"15","size_leaf_vector":"1"}},{"base_weights":[1.1747762E-2,-2.3572922E0,2.7655792E0,-2.720801E0,2.101179E0,5.8926897E0,5.595565E-1,-4.921634E-1,-6.908857E-3,8.582862E-1,3.575284E-1,2.4536878E-1,-1.7646039E-1],"categories":[],"categories_nodes":[],"categories_segments":[],"categories_sizes":[],"default_left":[0,0,0,0,0,0,0,0,0,0,0,0,0],"id":41,"left_children":[1,3,5,7,-1,9,11,-1,-1,-1,-1,-1,-1],"loss_changes":[1.3376543E4,1.0447498E4,6.5402734E3,8.1257983E3,0E0,2.7552227E3,3.1298223E3,0E0,0E0,0E0,0E0,0E0,0E0],"parents":[2147483647,0,0,1,1,2,2,3,3,5,5,6,6],"right_children":[2,4,6,8,-1,10,12,-1,-1,-1,-1,-1,-1],"split_conditions":[5.285906E-2,2.3544051E-1,-2.4967842E0,5.2173972E-2,2.101179E0,4.1614932E-1,3.0213305E-1,-4.921634E-1,-6.908857E-3,8.582862E-1,3.575284E-1,2.4536878E-1,-1.7646039E-1],"split_indices":[3736,2570,4102,3967,0,3743,734,0,0,0,0,0,0],"split_type":[0,0,0,0,0,0,0,0,0,0,0,0,0],"sum_hessian":[2.05E3,1.102E3,9.48E2,1.087E3,1.5E1,3.92E2,5.56E2,5.25E2,5.62E2,1.29E2,2.63E2,2.98E2,2.58E2],"tree_param":{"num_deleted":"0","num_feature":"4105","num_nodes":"13","size_leaf_vector":"1"}},{"base_weights":[-4.0644128E-2,-3.8817205E0,1.3617455E0,-1.2727468E1,-2.4990833E0,5.0967684E0,-3.896389E-1,-1.5172368E0,-6.131725E-1,-3.2070306E-1,5.998699E-1,3.7464234E-1,1.9747066E0,2.4260355E-2,-6.437755E-1],"categories":[],"categories_nodes":[],"categories_segments":[],"categories_sizes":[],"default_left":[0,0,0,0,0,0,0,0,0,0,0,0,0,0,0],"id":42,"left_children":[1,3,5,7,9,11,13,-1,-1,-1,-1,-1,-1,-1,-1],"loss_changes":[1.1060945E4,6.7104414E3,9.840087E3,1.8657754E3,4.919385E3,7.17705E3,4.66571E3,0E0,0E0,0E0,0E0,0E0,0E0,0E0,0E0],"parents":[2147483647,0,0,1,1,2,2,3,3,4,4,5,5,6,6],"right_children":[2,4,6,8,10,12,14,-1,-1,-1,-1,-1,-1,-1,-1],"split_conditions":[1.659136E-1,2.5577575E-1,4.0779397E-2,3.9423192E-1,1.3567148E-1,1.9600252E-2,6.8929857E-1,-1.5172368E0,-6.131725E-1,-3.2070306E-1,5.998699E-1,3.7464234E-1,1.9747066E0,2.4260355E-2,-6.437755E-1],"split_indices":[3743,3371,3993,1240,2198,2298,2834,0,0,0,0,0,0,0,0],"split_type":[0,0,0,0,0,0,0,0,0,0,0,0,0,0,0],"sum_hessian":[2.053E3,5.49E2,1.504E3,7.4E1,4.75E2,4.8E2,1.024E3,4.2E1,3.2E1,4.24E2,5.1E1,4.57E2,2.3E1,9.34E2,9E1],"tree_param":{"num_deleted":"0","num_feature":"4105","num_nodes":"15","size_leaf_vector":"1"}},{"base_weights":[1.09270215E-1,-1.5236884E0,3.1166408E0,-3.9446568E0,4.964815E-1,2.676457E0,2.2185264E0,-1.1642174E0,-2.5298345E-1,1.7993556E-1,-1.3642776E-1,4.984315E-1,1.8923316E-2],"categories":[],"categories_nodes":[],"categories_segments":[],"categories_sizes":[],"default_left":[0,0,0,0,0,0,0,0,0,0,0,0,0],"id":43,"left_children":[1,3,5,7,9,11,-1,-1,-1,-1,-1,-1,-1],"loss_changes":[1.0064322E4,6.4963184E3,6.9376846E3,6.052335E3,2.258225E3,5.126141E3,0E0,0E0,0E0,0E0,0E0,0E0,0E0],"parents":[2147483647,0,0,1,1,2,2,3,3,4,4,5,5],"right_children":[2,4,6,8,10,12,-1,-1,-1,-1,-1,-1,-1],"split_conditions":[4.3198768E-2,4.9108976E-1,4.1898173E-1,2.5455935E-3,9.138313E-1,5.2225184E-1,2.2185264E0,-1.1642174E0,-2.5298345E-1,1.7993556E-1,-1.3642776E-1,4.984315E-1,1.8923316E-2],"split_indices":[807,3506,2079,2828,2317,1111,0,0,0,0,0,0,0],"split_type":[0,0,0,0,0,0,0,0,0,0,0,0,0],"sum_hessian":[2.049E3,1.328E3,7.21E2,6.04E2,7.24E2,7.07E2,1.4E1,6.4E1,5.4E2,4.13E2,3.11E2,3.22E2,3.85E2],"tree_param":{"num_deleted":"0","num_feature":"4105","num_nodes":"13","size_leaf_vector":"1"}},{"base_weights":[1.0023662E-1,-2.4233751E0,1.8625542E0,-8.685466E0,-1.2455933E0,5.7605405E0,4.031534E-1,-1.0800157E0,-3.4442985E-1,-3.5809606E-1,1.0803131E-1,1.5285412E0,3.8283563E-1,-6.801657E-2,2.898383E-1],"categories":[],"categories_nodes":[],"categories_segments":[],"categories_sizes":[],"default_left":[0,0,0,0,0,0,0,0,0,0,0,0,0,0,0],"id":44,"left_children":[1,3,5,7,9,11,13,-1,-1,-1,-1,-1,-1,-1,-1],"loss_changes":[9.238938E3,6.2976724E3,6.9577905E3,2.257123E3,4.9473745E3,5.506375E3,2.984104E3,0E0,0E0,0E0,0E0,0E0,0E0,0E0,0E0],"parents":[2147483647,0,0,1,1,2,2,3,3,4,4,5,5,6,6],"right_children":[2,4,6,8,10,12,14,-1,-1,-1,-1,-1,-1,-1,-1],"split_conditions":[5.831314E-1,3.605898E-2,3.508599E-2,8.428488E-2,6.5921266E-3,1.2847564E-1,1.4125375E-1,-1.0800157E0,-3.4442985E-1,-3.5809606E-1,1.0803131E-1,1.5285412E0,3.8283563E-1,-6.801657E-2,2.898383E-1],"split_indices":[2972,3754,3993,2527,3017,3058,2053,0,0,0,0,0,0,0,0],"split_type":[0,0,0,0,0,0,0,0,0,0,0,0,0,0,0],"sum_hessian":[2.077E3,8.54E2,1.223E3,1.35E2,7.19E2,3.33E2,8.9E2,7.8E1,5.7E1,3.37E2,3.82E2,3.7E1,2.96E2,6.32E2,2.58E2],"tree_param":{"num_deleted":"0","num_feature":"4105","num_nodes":"15","size_leaf_vector":"1"}},{"base_weights":[6.5787666E-2,-1.1700729E0,2.993822E0,-6.23845E-1,-7.4926724E0,2.4503946E0,2.0534666E1,-3.0218133E-1,3.4979645E-2,-3.596211E-1,-9.184297E-1,2.85653E-1,-4.3036976E-1,1.3065864E0,2.2984288E0],"categories":[],"categories_nodes":[],"categories_segments":[],"categories_sizes":[],"default_left":[0,0,0,0,0,0,0,0,0,0,0,0,0,0,0],"id":45,"left_children":[1,3,5,7,9,11,13,-1,-1,-1,-1,-1,-1,-1,-1],"loss_changes":[7.3906577E3,4.9589053E3,5.7682197E3,3.747147E3,1.1153721E3,3.3111E3,4.9469238E2,0E0,0E0,0E0,0E0,0E0,0E0,0E0,0E0],"parents":[2147483647,0,0,1,1,2,2,3,3,4,4,5,5,6,6],"right_children":[2,4,6,8,10,12,14,-1,-1,-1,-1,-1,-1,-1,-1],"split_conditions":[6.020359E-2,4.1989112E-1,3.6676195E-1,1.02901505E-2,8.1773296E-2,7.617983E-1,1.2439656E-2,-3.0218133E-1,3.4979645E-2,-3.596211E-1,-9.184297E-1,2.85653E-1,-4.3036976E-1,1.3065864E0,2.2984288E0],"split_indices":[807,3648,1092,2411,2689,1808,2192,0,0,0,0,0,0,0,0],"split_type":[0,0,0,0,0,0,0,0,0,0,0,0,0,0,0],"sum_hessian":[2.042E3,1.436E3,6.06E2,1.322E3,1.14E2,5.88E2,1.8E1,3.54E2,9.68E2,5.2E1,6.2E1,5.32E2,5.6E1,9E0,9E0],"tree_param":{"num_deleted":"0","num_feature":"4105","num_nodes":"15","size_leaf_vector":"1"}},{"base_weights":[2.8795141E-3,4.530763E0,-7.35418E-1,3.7891016E0,1.6953697E0,-2.9260323E0,8.1648904E-1,4.537076E-1,-2.6165718E-1,-3.243129E-1,7.496416E-1,2.2742414E-1,-9.672208E-2],"categories":[],"categories_nodes":[],"categories_segments":[],"categories_sizes":[],"default_left":[0,0,0,0,0,0,0,0,0,0,0,0,0],"id":46,"left_children":[1,3,5,7,-1,9,11,-1,-1,-1,-1,-1,-1],"loss_changes":[7.0148125E3,3.167725E3,6.134078E3,2.507093E3,0E0,6.223621E3,3.5204487E3,0E0,0E0,0E0,0E0,0E0,0E0],"parents":[2147483647,0,0,1,1,2,2,3,3,5,5,6,6],"right_children":[2,4,6,8,-1,10,12,-1,-1,-1,-1,-1,-1],"split_conditions":[3.468454E-4,2.8889786E-4,1.813736E-1,3.6356952E-2,1.6953697E0,1.8600915E-1,4.396101E-1,4.537076E-1,-2.6165718E-1,-3.243129E-1,7.496416E-1,2.2742414E-1,-9.672208E-2],"split_indices":[3984,2293,4104,2664,0,2452,734,0,0,0,0,0,0],"split_type":[0,0,0,0,0,0,0,0,0,0,0,0,0],"sum_hessian":[2.098E3,2.94E2,1.804E3,2.8E2,1.4E1,7.48E2,1.056E3,2.34E2,4.6E1,7.03E2,4.5E1,5.51E2,5.05E2],"tree_param":{"num_deleted":"0","num_feature":"4105","num_nodes":"13","size_leaf_vector":"1"}},{"base_weights":[-3.1931277E-2,-2.5768888E0,9.9558896E-1,-1.5810487E0,-8.678125E0,-1.2334186E0,2.749962E0,4.5595896E-1,-1.7898633E-1,-4.105316E-1,-1.100532E0,-4.4547743E-1,7.65239E-3,6.0745245E-1,1.19810015E-1],"categories":[],"categories_nodes":[],"categories_segments":[],"categories_sizes":[],"default_left":[0,0,0,0,0,0,0,0,0,0,0,0,0,0,0],"id":47,"left_children":[1,3,5,7,9,11,13,-1,-1,-1,-1,-1,-1,-1,-1],"loss_changes":[5.3931387E3,3.60128E3,5.745957E3,1.500254E3,1.2452217E3,3.2364458E3,4.7131567E3,0E0,0E0,0E0,0E0,0E0,0E0,0E0,0E0],"parents":[2147483647,0,0,1,1,2,2,3,3,4,4,5,5,6,6],"right_children":[2,4,6,8,10,12,14,-1,-1,-1,-1,-1,-1,-1,-1],"split_conditions":[1.065551E-3,1.4878717E-1,3.9063874E-1,2.533299E-4,2.4519166E-2,1.20885E4,3.1873416E-2,4.5595896E-1,-1.7898633E-1,-4.105316E-1,-1.100532E0,-4.4547743E-1,7.65239E-3,6.0745245E-1,1.19810015E-1],"split_indices":[2803,2836,3511,3013,1579,4096,2144,0,0,0,0,0,0,0,0],"split_type":[0,0,0,0,0,0,0,0,0,0,0,0,0,0,0],"sum_hessian":[2.062E3,5.93E2,1.469E3,5.1E2,8.3E1,6.47E2,8.22E2,3.1E1,4.79E2,4E1,4.3E1,1.67E2,4.8E2,2.09E2,6.13E2],"tree_param":{"num_deleted":"0","num_feature":"4105","num_nodes":"15","size_leaf_vector":"1"}},{"base_weights":[-6.394569E-2,-2.6568542E0,9.055768E-1,-9.133172E0,-1.4376308E0,4.9353275E0,1.7483836E-1,-1.3968633E0,-6.254633E-1,-1.949007E-1,4.8300278E-1,1.703723E0,3.7904418E-1,1.7952055E-1,-1.4469355E-1],"categories":[],"categories_nodes":[],"categories_segments":[],"categories_sizes":[],"default_left":[0,0,0,0,0,0,0,0,0,0,0,0,0,0,0],"id":48,"left_children":[1,3,5,7,9,11,13,-1,-1,-1,-1,-1,-1,-1,-1],"loss_changes":[5.2021973E3,4.444238E3,4.4349736E3,1.2065864E3,2.4820276E3,2.1677515E3,4.2596553E3,0E0,0E0,0E0,0E0,0E0,0E0,0E0,0E0],"parents":[2147483647,0,0,1,1,2,2,3,3,4,4,5,5,6,6],"right_children":[2,4,6,8,10,12,14,-1,-1,-1,-1,-1,-1,-1,-1],"split_conditions":[1.659136E-1,2.7370176E-1,5.1296234E-1,9.919466E-2,1.3567148E-1,7.822449E-3,4.292964E-2,-1.3968633E0,-6.254633E-1,-1.949007E-1,4.8300278E-1,1.703723E0,3.7904418E-1,1.7952055E-1,-1.4469355E-1],"split_indices":[3743,3371,2317,494,2198,1999,339,0,0,0,0,0,0,0,0],"split_type":[0,0,0,0,0,0,0,0,0,0,0,0,0,0,0],"sum_hessian":[2.069E3,5.63E2,1.506E3,8.9E1,4.74E2,2.31E2,1.275E3,2.1E1,6.8E1,4.27E2,4.7E1,1E1,2.21E2,6.3E2,6.45E2],"tree_param":{"num_deleted":"0","num_feature":"4105","num_nodes":"15","size_leaf_vector":"1"}},{"base_weights":[4.292213E-2,1.4916722E0,-1.4300237E0,2.5318747E0,-1.2551099E0,-5.9632955E0,-8.7907875E-1,4.6820498E-1,9.439235E-2,-1.3943976E-2,-5.245518E-1,-1.2422288E-1,-7.331612E-1,-5.2410353E-2,-6.1508757E-1],"categories":[],"categories_nodes":[],"categories_segments":[],"categories_sizes":[],"default_left":[0,0,0,0,0,0,0,0,0,0,0,0,0,0,0],"id":49,"left_children":[1,3,5,7,9,11,13,-1,-1,-1,-1,-1,-1,-1,-1],"loss_changes":[4.3774985E3,2.9555266E3,2.5393518E3,3.0231436E3,1.4533073E3,1.1552856E3,1.5822024E3,0E0,0E0,0E0,0E0,0E0,0E0,0E0,0E0],"parents":[2147483647,0,0,1,1,2,2,3,3,4,4,5,5,6,6],"right_children":[2,4,6,8,10,12,14,-1,-1,-1,-1,-1,-1,-1,-1],"split_conditions":[6.569466E-2,1.9536467E-1,5.014992E-2,1.2887034E-2,3.330913E-1,1.4347963E-2,7.513623E-1,4.6820498E-1,9.439235E-2,-1.3943976E-2,-5.245518E-1,-1.2422288E-1,-7.331612E-1,-5.2410353E-2,-6.1508757E-1],"split_indices":[832,3542,644,3389,854,2892,3569,0,0,0,0,0,0,0,0],"split_type":[0,0,0,0,0,0,0,0,0,0,0,0,0,0,0],"sum_hessian":[2.051E3,1.034E3,1.017E3,7.5E2,2.84E2,1.1E2,9.07E2,2.61E2,4.89E2,2.3E2,5.4E1,3.7E1,7.3E1,8.66E2,4.1E1],"tree_param":{"num_deleted":"0","num_feature":"4105","num_nodes":"15","size_leaf_vector":"1"}},{"base_weights":[-2.8836053E-2,-8.67366E-1,2.4975996E0,-2.6665678E0,5.195954E-1,9.765407E0,1.3184175E0,-6.729402E-1,-1.649664E-1,1.2607326E-2,7.94058E-1,2.3642304E0,6.421356E-1,9.637871E-1,9.2718646E-2],"categories":[],"categories_nodes":[],"categories_segments":[],"categories_sizes":[],"default_left":[0,0,0,0,0,0,0,0,0,0,0,0,0,0,0],"id":50,"left_children":[1,3,5,7,9,11,13,-1,-1,-1,-1,-1,-1,-1,-1],"loss_changes":[4.337321E3,3.836253E3,4.3696426E3,2.653207E3,2.7630342E3,2.9995273E3,1.1425898E3,0E0,0E0,0E0,0E0,0E0,0E0,0E0,0E0],"parents":[2147483647,0,0,1,1,2,2,3,3,4,4,5,5,6,6],"right_children":[2,4,6,8,10,12,14,-1,-1,-1,-1,-1,-1,-1,-1],"split_conditions":[4.1302234E-1,1.18865E4,3.753087E-2,2.5455935E-3,3.8506284E-1,8.922233E-3,2.1920586E-2,-6.729402E-1,-1.649664E-1,1.2607326E-2,7.94058E-1,2.3642304E0,6.421356E-1,9.637871E-1,9.2718646E-2],"split_indices":[842,4096,1193,2828,2833,1676,3586,0,0,0,0,0,0,0,0],"split_type":[0,0,0,0,0,0,0,0,0,0,0,0,0,0,0],"sum_hessian":[2.047E3,1.537E3,5.1E2,6.69E2,8.68E2,7.1E1,4.39E2,9.4E1,5.75E2,8.31E2,3.7E1,9E0,6.2E1,1.2E1,4.27E2],"tree_param":{"num_deleted":"0","num_feature":"4105","num_nodes":"15","size_leaf_vector":"1"}},{"base_weights":[7.485927E-3,-1.0417567E0,1.6288226E0,-5.040853E-1,-6.19241E0,-5.8878213E-1,3.111467E0,1.1303005E0,-6.0538094E-2,-7.812136E-1,-2.4856807E-1,-2.1720065E-2,-6.783715E-1,3.9465293E-1,8.0742076E-2],"categories":[],"categories_nodes":[],"categories_segments":[],"categories_sizes":[],"default_left":[0,0,0,0,0,0,0,0,0,0,0,0,0,0,0],"id":51,"left_children":[1,3,5,7,9,11,13,-1,-1,-1,-1,-1,-1,-1,-1],"loss_changes":[3.5339978E3,3.4919263E3,2.6839722E3,2.7015015E3,1.0517607E3,7.9378357E2,1.4398594E3,0E0,0E0,0E0,0E0,0E0,0E0,0E0,0E0],"parents":[2147483647,0,0,1,1,2,2,3,3,4,4,5,5,6,6],"right_children":[2,4,6,8,10,12,14,-1,-1,-1,-1,-1,-1,-1,-1],"split_conditions":[8.00762E-3,2.5370392E-1,7.81283E-1,2.119191E-3,4.673365E-2,6.6175506E-2,1.8462054E-1,1.1303005E0,-6.0538094E-2,-7.812136E-1,-2.4856807E-1,-2.1720065E-2,-6.783715E-1,3.9465293E-1,8.0742076E-2],"split_indices":[2419,3839,4021,2232,2899,1337,2044,0,0,0,0,0,0,0,0],"split_type":[0,0,0,0,0,0,0,0,0,0,0,0,0,0,0],"sum_hessian":[2.077E3,1.261E3,8.16E2,1.142E3,1.19E2,3.27E2,4.89E2,1.5E1,1.127E3,6.7E1,5.2E1,3.12E2,1.5E1,3.04E2,1.85E2],"tree_param":{"num_deleted":"0","num_feature":"4105","num_nodes":"15","size_leaf_vector":"1"}},{"base_weights":[-6.8448804E-2,-5.9402466E-1,2.9094126E0,9.436619E-1,-1.5899425E0,6.187792E0,9.280215E-1,1.5011099E-1,-2.9627565E-1,-1.1890049E-1,-7.723914E-1,1.380566E0,3.4293985E-1,2.5566217E-1,-6.47972E-2],"categories":[],"categories_nodes":[],"categories_segments":[],"categories_sizes":[],"default_left":[0,0,0,0,0,0,0,0,0,0,0,0,0,0,0],"id":52,"left_children":[1,3,5,7,9,11,13,-1,-1,-1,-1,-1,-1,-1,-1],"loss_changes":[3.2465642E3,2.7004639E3,2.0201416E3,2.2245605E3,1.8974941E3,2.5391025E3,6.2992883E2,0E0,0E0,0E0,0E0,0E0,0E0,0E0,0E0],"parents":[2147483647,0,0,1,1,2,2,3,3,4,4,5,5,6,6],"right_children":[2,4,6,8,10,12,14,-1,-1,-1,-1,-1,-1,-1,-1],"split_conditions":[3.8354214E-2,8.371631E-1,1.3469244E-2,2.6052585E-1,2.4979351E-1,7.210102E-2,1.3542344E-1,1.5011099E-1,-2.9627565E-1,-1.1890049E-1,-7.723914E-1,1.380566E0,3.4293985E-1,2.5566217E-1,-6.47972E-2],"split_indices":[2419,1630,3873,2067,2110,562,1400,0,0,0,0,0,0,0,0],"split_type":[0,0,0,0,0,0,0,0,0,0,0,0,0,0,0],"sum_hessian":[2.074E3,1.763E3,3.11E2,6.93E2,1.07E3,1.17E2,1.94E2,5.9E2,1.03E2,1.034E3,3.6E1,2.3E1,9.4E1,8.9E1,1.05E2],"tree_param":{"num_deleted":"0","num_feature":"4105","num_nodes":"15","size_leaf_vector":"1"}},{"base_weights":[4.6810642E-2,-1.156439E0,1.1733838E0,-1.4067165E0,7.3400383E0,2.2121325E0,-7.3061085E-1,-3.910412E-1,-6.750834E-2,1.3356904E0,2.60626E-1,8.408451E-1,1.6725186E-1,1.2925926E-1,-2.2364995E-1],"categories":[],"categories_nodes":[],"categories_segments":[],"categories_sizes":[],"default_left":[0,0,0,0,0,0,0,0,0,0,0,0,0,0,0],"id":53,"left_children":[1,3,5,7,9,11,13,-1,-1,-1,-1,-1,-1,-1,-1],"loss_changes":[2.7590544E3,2.0946558E3,2.079354E3,1.8524451E3,9.489568E2,1.610206E3,1.4551978E3,0E0,0E0,0E0,0E0,0E0,0E0,0E0,0E0],"parents":[2147483647,0,0,1,1,2,2,3,3,4,4,5,5,6,6],"right_children":[2,4,6,8,10,12,14,-1,-1,-1,-1,-1,-1,-1,-1],"split_conditions":[4.092144E-1,2.7781414E-2,-2.3421E0,7.989341E-2,3.330902E-2,3.1747564E-4,4.6163786E-2,-3.910412E-1,-6.750834E-2,1.3356904E0,2.60626E-1,8.408451E-1,1.6725186E-1,1.2925926E-1,-2.2364995E-1],"split_indices":[3836,2298,4102,3754,1264,88,339,0,0,0,0,0,0,0,0],"split_type":[0,0,0,0,0,0,0,0,0,0,0,0,0,0,0],"sum_hessian":[2.035E3,9.84E2,1.051E3,9.56E2,2.8E1,6.8E2,3.71E2,1.69E2,7.87E2,1E1,1.8E1,2.9E1,6.51E2,1.67E2,2.04E2],"tree_param":{"num_deleted":"0","num_feature":"4105","num_nodes":"15","size_leaf_vector":"1"}},{"base_weights":[-1.7547866E-2,-2.1489821E-1,6.2821584E0,-1.5221583E0,7.048958E-1,1.6178228E0,3.9687274E0,-8.8875175E-2,-5.19641E-1,3.041241E-1,7.94721E-3,1.484482E-1,4.3877643E-1],"categories":[],"categories_nodes":[],"categories_segments":[],"categories_sizes":[],"default_left":[0,0,0,0,0,0,0,0,0,0,0,0,0],"id":54,"left_children":[1,3,5,7,9,-1,11,-1,-1,-1,-1,-1,-1],"loss_changes":[2.5862952E3,2.425711E3,1.7338162E3,1.8780487E3,1.9845859E3,0E0,1.1768506E2,0E0,0E0,0E0,0E0,0E0,0E0],"parents":[2147483647,0,0,1,1,2,2,3,3,4,4,6,6],"right_children":[2,4,6,8,10,-1,12,-1,-1,-1,-1,-1,-1],"split_conditions":[4.6521693E-2,5.831314E-1,2.7529497E-2,4.932905E-1,-2.8970315E0,1.6178228E0,1.8387087E-2,-8.8875175E-2,-5.19641E-1,3.041241E-1,7.94721E-3,1.484482E-1,4.3877643E-1],"split_indices":[3040,2972,1044,2941,4103,0,1559,0,0,0,0,0,0],"split_type":[0,0,0,0,0,0,0,0,0,0,0,0,0],"sum_hessian":[2.08E3,2.017E3,6.3E1,8.33E2,1.184E3,1E1,5.3E1,7.44E2,8.9E1,2.18E2,9.66E2,1.6E1,3.7E1],"tree_param":{"num_deleted":"0","num_feature":"4105","num_nodes":"13","size_leaf_vector":"1"}},{"base_weights":[-9.024736E-3,2.18483E0,-5.897945E-1,1.4924498E0,1.7882434E0,-1.735733E0,6.6067797E-1,9.407426E-1,1.0790672E-1,-9.8134145E-2,-4.6582106E-1,1.0442196E0,4.401764E-2],"categories":[],"categories_nodes":[],"categories_segments":[],"categories_sizes":[],"default_left":[0,0,0,0,0,0,0,0,0,0,0,0,0],"id":55,"left_children":[1,3,5,-1,7,9,11,-1,-1,-1,-1,-1,-1],"loss_changes":[2.5881904E3,2.4627998E3,2.301855E3,0E0,2.085154E3,1.8534817E3,1.4019913E3,0E0,0E0,0E0,0E0,0E0,0E0],"parents":[2147483647,0,0,1,1,2,2,4,4,5,5,6,6],"right_children":[2,4,6,-1,8,10,12,-1,-1,-1,-1,-1,-1],"split_conditions":[7.242388E-2,1.2681649E-2,4.92525E-2,1.4924498E0,5.3229433E-2,3.814531E-2,2.1452498E-2,9.407426E-1,1.0790672E-1,-9.8134145E-2,-4.6582106E-1,1.0442196E0,4.401764E-2],"split_indices":[3173,1844,3736,0,3353,3139,248,0,0,0,0,0,0],"split_type":[0,0,0,0,0,0,0,0,0,0,0,0,0],"sum_hessian":[2.031E3,4.25E2,1.606E3,1.1E1,4.14E2,8.38E2,7.68E2,2.5E1,3.89E2,7.11E2,1.27E2,1.1E1,7.57E2],"tree_param":{"num_deleted":"0","num_feature":"4105","num_nodes":"13","size_leaf_vector":"1"}},{"base_weights":[9.0705566E-2,1.1932261E0,-8.0749124E-1,4.231245E0,6.168033E-1,-7.539826E0,-5.5982834E-1,1.4972279E0,2.9143733E-1,-6.00705E-1,7.577396E-2,-1.0164435E0,-3.4781495E-1,-9.962758E-2,1.3777116E-1],"categories":[],"categories_nodes":[],"categories_segments":[],"categories_sizes":[],"default_left":[0,0,0,0,0,0,0,0,0,0,0,0,0,0,0],"id":56,"left_children":[1,3,5,7,9,11,13,-1,-1,-1,-1,-1,-1,-1,-1],"loss_changes":[2.0363953E3,1.616058E3,1.8884208E3,1.7492695E3,1.3631887E3,5.611741E2,1.301841E3,0E0,0E0,0E0,0E0,0E0,0E0,0E0,0E0],"parents":[2147483647,0,0,1,1,2,2,3,3,4,4,5,5,6,6],"right_children":[2,4,6,8,10,12,14,-1,-1,-1,-1,-1,-1,-1,-1],"split_conditions":[1.3953482E-1,1.9282741E-2,5.498597E-3,4.0360815E-3,4.2791322E-2,3.3999932E-1,2.7490544E-1,1.4972279E0,2.9143733E-1,-6.00705E-1,7.577396E-2,-1.0164435E0,-3.4781495E-1,-9.962758E-2,1.3777116E-1],"split_indices":[76,2259,2232,1828,1953,1606,605,0,0,0,0,0,0,0,0],"split_type":[0,0,0,0,0,0,0,0,0,0,0,0,0,0,0],"sum_hessian":[2.056E3,9.23E2,1.133E3,1.47E2,7.76E2,4E1,1.093E3,1E1,1.37E2,2.4E1,7.52E2,1.9E1,2.1E1,8.63E2,2.3E2],"tree_param":{"num_deleted":"0","num_feature":"4105","num_nodes":"15","size_leaf_vector":"1"}},{"base_weights":[-4.338749E-2,-1.6252251E0,5.445907E-1,-6.0776825E0,-8.1440353E-1,1.4101048E0,-8.943486E-1,-1.1410428E0,-3.566368E-1,-1.1366207E-1,4.206631E-1,3.4264293E-1,5.990273E-2,-6.1317194E-2,-1.0712616E0],"categories":[],"categories_nodes":[],"categories_segments":[],"categories_sizes":[],"default_left":[0,0,0,0,0,0,0,0,0,0,0,0,0,0,0],"id":57,"left_children":[1,3,5,7,9,11,13,-1,-1,-1,-1,-1,-1,-1,-1],"loss_changes":[1.9433196E3,2.0429175E3,1.8972644E3,1.2069089E3,1.244847E3,1.7137295E3,1.2973132E3,0E0,0E0,0E0,0E0,0E0,0E0,0E0,0E0],"parents":[2147483647,0,0,1,1,2,2,3,3,4,4,5,5,6,6],"right_children":[2,4,6,8,10,12,14,-1,-1,-1,-1,-1,-1,-1,-1],"split_conditions":[1.659136E-1,2.7370176E-1,2.7237678E-2,9.919466E-2,9.325225E-2,7.242388E-2,1.0753834E0,-1.1410428E0,-3.566368E-1,-1.1366207E-1,4.206631E-1,3.4264293E-1,5.990273E-2,-6.1317194E-2,-1.0712616E0],"split_indices":[3743,3371,1732,494,3975,3173,824,0,0,0,0,0,0,0,0],"split_type":[0,0,0,0,0,0,0,0,0,0,0,0,0,0,0],"sum_hessian":[2.089E3,5.66E2,1.523E3,8.7E1,4.79E2,9.51E2,5.72E2,2E1,6.7E1,4.42E2,3.7E1,2.19E2,7.32E2,5.62E2,1E1],"tree_param":{"num_deleted":"0","num_feature":"4105","num_nodes":"15","size_leaf_vector":"1"}},{"base_weights":[-1.6063968E-2,-9.415456E-1,9.557072E-1,-1.1577365E0,7.19196E0,1.6738688E0,-8.7006575E-1,-6.4778495E-1,-8.151357E-2,1.1677699E0,3.634668E-1,9.0117323E-1,1.3541242E-1,-4.4431414E-2,-8.69203E-1],"categories":[],"categories_nodes":[],"categories_segments":[],"categories_sizes":[],"default_left":[0,0,0,0,0,0,0,0,0,0,0,0,0,0,0],"id":58,"left_children":[1,3,5,7,9,11,13,-1,-1,-1,-1,-1,-1,-1,-1],"loss_changes":[1.8422212E3,1.846303E3,1.3104316E3,1.4981459E3,4.919358E2,8.924817E2,9.28962E2,0E0,0E0,0E0,0E0,0E0,0E0,0E0,0E0],"parents":[2147483647,0,0,1,1,2,2,3,3,4,4,5,5,6,6],"right_children":[2,4,6,8,10,12,14,-1,-1,-1,-1,-1,-1,-1,-1],"split_conditions":[3.2853585E-2,8.7716386E-2,4.8014557E-1,5.498597E-3,3.5097015E-1,4.001914E-3,4.0916327E-1,-6.4778495E-1,-8.151357E-2,1.1677699E0,3.634668E-1,9.0117323E-1,1.3541242E-1,-4.4431414E-2,-8.69203E-1],"split_indices":[3079,3162,90,2232,627,1999,1229,0,0,0,0,0,0,0,0],"split_type":[0,0,0,0,0,0,0,0,0,0,0,0,0,0,0],"sum_hessian":[2.048E3,1.049E3,9.99E2,1.022E3,2.7E1,7.17E2,2.82E2,3.8E1,9.84E2,9E0,1.8E1,1.2E1,7.05E2,2.71E2,1.1E1],"tree_param":{"num_deleted":"0","num_feature":"4105","num_nodes":"15","size_leaf_vector":"1"}},{"base_weights":[3.1419843E-2,7.3664007E0,-7.641985E-2,4.5998433E-1,8.958843E-1,-2.2347912E-1,5.1504974E0,-6.433722E-1,-9.605218E-3,1.3178896E0,2.872835E-1],"categories":[],"categories_nodes":[],"categories_segments":[],"categories_sizes":[],"default_left":[0,0,0,0,0,0,0,0,0,0,0],"id":59,"left_children":[1,3,5,-1,-1,7,9,-1,-1,-1,-1],"loss_changes":[1.6480967E3,1.6969348E2,1.578311E3,0E0,0E0,1.6169423E3,1.0331605E3,0E0,0E0,0E0,0E0],"parents":[2147483647,0,0,1,1,2,2,5,5,6,6],"right_children":[2,4,6,-1,-1,8,10,-1,-1,-1,-1],"split_conditions":[6.9612704E-2,8.812879E-1,4.6521693E-2,4.5998433E-1,8.958843E-1,3.0482111E-2,2.7529497E-2,-6.433722E-1,-9.605218E-3,1.3178896E0,2.872835E-1],"split_indices":[3069,996,3040,0,0,3572,1044,0,0,0,0],"split_type":[0,0,0,0,0,0,0,0,0,0,0],"sum_hessian":[2.083E3,3E1,2.053E3,1.7E1,1.3E1,1.997E3,5.6E1,3.2E1,1.965E3,9E0,4.7E1],"tree_param":{"num_deleted":"0","num_feature":"4105","num_nodes":"11","size_leaf_vector":"1"}},{"base_weights":[2.007715E-2,1.1503634E0,-6.784626E-1,3.5244315E0,5.9395385E-1,-5.8891463E-1,-1.1280861E0,1.1399802E0,2.436725E-1,-3.6704365E-2,1.52979E-1,2.2927276E-3,-1.9601774E-1],"categories":[],"categories_nodes":[],"categories_segments":[],"categories_sizes":[],"default_left":[0,0,0,0,0,0,0,0,0,0,0,0,0],"id":60,"left_children":[1,3,5,7,9,11,-1,-1,-1,-1,-1,-1,-1],"loss_changes":[1.5920409E3,1.0168853E3,1.3418496E3,1.0527333E3,7.114901E2,1.2330254E3,0E0,0E0,0E0,0E0,0E0,0E0,0E0],"parents":[2147483647,0,0,1,1,2,2,3,3,4,4,5,5],"right_children":[2,4,6,8,10,12,-1,-1,-1,-1,-1,-1,-1],"split_conditions":[2.988321E-2,1.8292198E-1,7.436225E-1,9.4527706E-5,1.7647457E-1,1.126608E-1,-1.1280861E0,1.1399802E0,2.436725E-1,-3.6704365E-2,1.52979E-1,2.2927276E-3,-1.9601774E-1],"split_indices":[339,3149,141,22,3615,2136,0,0,0,0,0,0,0],"split_type":[0,0,0,0,0,0,0,0,0,0,0,0,0],"sum_hessian":[2.016E3,7.7E2,1.246E3,1.46E2,6.24E2,1.237E3,9E0,1.1E1,1.35E2,3.3E2,2.94E2,8.97E2,3.4E2],"tree_param":{"num_deleted":"0","num_feature":"4105","num_nodes":"13","size_leaf_vector":"1"}},{"base_weights":[3.0005567E-3,2.1349523E0,-3.769083E-1,1.01812E1,1.5356338E0,5.309543E-1,-1.2097557E0,1.5066867E0,2.2317559E-1,1.044697E-1,9.1138923E-1,1.5319644E-2,3.4515175E-1,-9.75152E-2,-1.0496336E0],"categories":[],"categories_nodes":[],"categories_segments":[],"categories_sizes":[],"default_left":[0,0,0,0,0,0,0,0,0,0,0,0,0,0,0],"id":61,"left_children":[1,3,5,7,9,11,13,-1,-1,-1,-1,-1,-1,-1,-1],"loss_changes":[1.6396825E3,1.4732765E3,1.2992798E3,1.0967993E3,8.892248E2,9.895419E2,1.047657E3,0E0,0E0,0E0,0E0,0E0,0E0,0E0,0E0],"parents":[2147483647,0,0,1,1,2,2,3,3,4,4,5,5,6,6],"right_children":[2,4,6,8,10,12,14,-1,-1,-1,-1,-1,-1,-1,-1],"split_conditions":[4.6053383E-2,5.4143086E-2,4.4064045E-2,7.445671E-3,3.9108816E-1,3.591316E-1,4.602214E-1,1.5066867E0,2.2317559E-1,1.044697E-1,9.1138923E-1,1.5319644E-2,3.4515175E-1,-9.75152E-2,-1.0496336E0],"split_indices":[1500,151,339,952,1092,237,405,0,0,0,0,0,0,0,0],"split_type":[0,0,0,0,0,0,0,0,0,0,0,0,0,0,0],"sum_hessian":[2.024E3,3.06E2,1.718E3,2.1E1,2.85E2,8.22E2,8.96E2,1.1E1,1E1,2.74E2,1.1E1,7.43E2,7.9E1,8.87E2,9E0],"tree_param":{"num_deleted":"0","num_feature":"4105","num_nodes":"15","size_leaf_vector":"1"}},{"base_weights":[3.7873387E-2,1.0384718E0,-2.4026908E-2,-2.048982E0,2.8486153E-1,-3.5241225E-1,-3.6783602E-2,1.9097397E-2,8.7467194E-1],"categories":[],"categories_nodes":[],"categories_segments":[],"categories_sizes":[],"default_left":[0,0,0,0,0,0,0,0,0],"id":62,"left_children":[1,-1,3,5,7,-1,-1,-1,-1],"loss_changes":[1.5319661E3,0E0,1.3194208E3,8.775658E2,1.2183228E3,0E0,0E0,0E0,0E0],"parents":[2147483647,0,0,2,2,3,3,4,4],"right_children":[2,-1,4,6,8,-1,-1,-1,-1],"split_conditions":[9.11781E-2,1.0384718E0,6.610909E-2,5.9872627E-2,2.1547122E0,-3.5241225E-1,-3.6783602E-2,1.9097397E-2,8.7467194E-1],"split_indices":[3847,0,1480,3754,882,0,0,0,0],"split_type":[0,0,0,0,0,0,0,0,0],"sum_hessian":[2.12E3,1.1E1,2.109E3,2.79E2,1.83E3,1.28E2,1.51E2,1.817E3,1.3E1],"tree_param":{"num_deleted":"0","num_feature":"4105","num_nodes":"9","size_leaf_vector":"1"}},{"base_weights":[1.6596003E-2,6.9476643E0,-7.315552E-2,4.5983598E-1,8.958782E-1,2.2819667E0,-3.304659E-1,1.3072294E-1,6.5485847E-1,-4.8924467E-1,-1.6021667E-2],"categories":[],"categories_nodes":[],"categories_segments":[],"categories_sizes":[],"default_left":[0,0,0,0,0,0,0,0,0,0,0],"id":63,"left_children":[1,3,5,-1,-1,7,9,-1,-1,-1,-1],"loss_changes":[1.2743942E3,1.353197E2,1.2255345E3,0E0,0E0,8.1887244E2,1.4161866E3,0E0,0E0,0E0,0E0],"parents":[2147483647,0,0,1,1,2,2,5,5,6,6],"right_children":[2,4,6,-1,-1,8,10,-1,-1,-1,-1],"split_conditions":[6.9612704E-2,4.658929E-1,7.741087E-2,4.5983598E-1,8.958782E-1,1.2345105E-1,9.421382E-3,1.3072294E-1,6.5485847E-1,-4.8924467E-1,-1.6021667E-2],"split_indices":[3069,673,3149,0,0,672,2501,0,0,0,0],"split_type":[0,0,0,0,0,0,0,0,0,0,0],"sum_hessian":[2.048E3,2.6E1,2.022E3,1.7E1,9E0,1.99E2,1.823E3,1.72E2,2.7E1,5.1E1,1.772E3],"tree_param":{"num_deleted":"0","num_feature":"4105","num_nodes":"11","size_leaf_vector":"1"}},{"base_weights":[-1.8006396E-2,5.678552E-1,-1.1036161E0,2.3038237E0,-4.0294264E-2,-8.986656E-1,-9.428999E-1,8.519294E-1,1.8066925E-1,2.2680645E-1,-3.964071E-2,-6.644958E-2,-1.0852382E0],"categories":[],"categories_nodes":[],"categories_segments":[],"categories_sizes":[],"default_left":[0,0,0,0,0,0,0,0,0,0,0,0,0],"id":64,"left_children":[1,3,5,7,9,11,-1,-1,-1,-1,-1,-1,-1],"loss_changes":[1.3104469E3,1.4128383E3,1.4080359E3,6.7251514E2,1.047052E3,1.196382E3,0E0,0E0,0E0,0E0,0E0,0E0,0E0],"parents":[2147483647,0,0,1,1,2,2,3,3,4,4,5,5],"right_children":[2,4,6,8,10,12,-1,-1,-1,-1,-1,-1,-1],"split_conditions":[1.6372713E-1,-2.8197153E0,4.415839E-1,9.3448255E-3,5.9770793E-2,8.366554E-2,-9.428999E-1,8.519294E-1,1.8066925E-1,2.2680645E-1,-3.964071E-2,-6.644958E-2,-1.0852382E0],"split_indices":[1453,4103,179,1438,48,3466,0,0,0,0,0,0,0],"split_type":[0,0,0,0,0,0,0,0,0,0,0,0,0],"sum_hessian":[2.06E3,1.338E3,7.22E2,3.47E2,9.91E2,7.07E2,1.5E1,1.2E1,3.35E2,1.34E2,8.57E2,6.98E2,9E0],"tree_param":{"num_deleted":"0","num_feature":"4105","num_nodes":"13","size_leaf_vector":"1"}},{"base_weights":[-3.140502E-2,1.8449333E-1,-2.5766613E0,-2.3230207E0,4.137382E-1,-5.3230886E0,-1.3323662E0,-9.124222E-1,-1.4203332E-1,-2.2555681E-2,1.0918329E-1,-3.1702206E-1,-6.650771E-1,-7.9620354E-2,-5.4427636E-1],"categories":[],"categories_nodes":[],"categories_segments":[],"categories_sizes":[],"default_left":[0,0,0,0,0,0,0,0,0,0,0,0,0,0,0],"id":65,"left_children":[1,3,5,7,9,11,13,-1,-1,-1,-1,-1,-1,-1,-1],"loss_changes":[1.1328075E3,1.092428E3,5.493346E2,9.115161E2,9.506912E2,1.8559058E2,2.3097545E2,0E0,0E0,0E0,0E0,0E0,0E0,0E0,0E0],"parents":[2147483647,0,0,1,1,2,2,3,3,4,4,5,5,6,6],"right_children":[2,4,6,8,10,12,14,-1,-1,-1,-1,-1,-1,-1,-1],"split_conditions":[6.952943E-1,1.0325775E-2,1.1861441E-2,2.3583047E-2,1.4941558E-1,1.7167321E-1,2.2133417E-1,-9.124222E-1,-1.4203332E-1,-2.2555681E-2,1.0918329E-1,-3.1702206E-1,-6.650771E-1,-7.9620354E-2,-5.4427636E-1],"split_indices":[2901,2063,3329,25,3545,1727,541,0,0,0,0,0,0,0,0],"split_type":[0,0,0,0,0,0,0,0,0,0,0,0,0,0,0],"sum_hessian":[2.061E3,1.9E3,1.61E2,1.59E2,1.741E3,5E1,1.11E2,1.3E1,1.46E2,9.58E2,7.83E2,2.8E1,2.2E1,1.02E2,9E0],"tree_param":{"num_deleted":"0","num_feature":"4105","num_nodes":"15","size_leaf_vector":"1"}},{"base_weights":[-1.9239962E-2,2.1775003E-1,-2.2011292E0,5.262269E-1,-1.5352976E0,-1.3044063E0,-1.1676284E0,5.4310508E-2,-6.07447E-1,-5.687441E-1,-1.0028884E-1,-3.4482428E-1,-4.848693E-2],"categories":[],"categories_nodes":[],"categories_segments":[],"categories_sizes":[],"default_left":[0,0,0,0,0,0,0,0,0,0,0,0,0],"id":66,"left_children":[1,3,5,7,9,11,-1,-1,-1,-1,-1,-1,-1],"loss_changes":[1.0618156E3,1.0017438E3,1.9742808E3,1.00078235E3,5.453912E2,3.6394745E2,0E0,0E0,0E0,0E0,0E0,0E0,0E0],"parents":[2147483647,0,0,1,1,2,2,3,3,4,4,5,5],"right_children":[2,4,6,8,10,12,-1,-1,-1,-1,-1,-1,-1],"split_conditions":[4.5577586E-1,2.6052585E-1,2.0061715E-1,7.5031763E-1,2.745682E-3,4.9415898E-2,-1.1676284E0,5.4310508E-2,-6.07447E-1,-5.687441E-1,-1.0028884E-1,-3.4482428E-1,-4.848693E-2],"split_indices":[1762,2067,1924,1401,1907,2190,0,0,0,0,0,0,0],"split_type":[0,0,0,0,0,0,0,0,0,0,0,0,0],"sum_hessian":[2.053E3,1.852E3,2.01E2,1.575E3,2.77E2,1.86E2,1.5E1,1.557E3,1.8E1,2.1E1,2.56E2,4.2E1,1.44E2],"tree_param":{"num_deleted":"0","num_feature":"4105","num_nodes":"13","size_leaf_vector":"1"}},{"base_weights":[8.247548E-3,8.644286E-1,-4.4345472E-2,-1.2911542E-1,5.885986E0,1.1115084E-2,-1.8738987E-1,9.056783E-1,1.0430731E-1],"categories":[],"categories_nodes":[],"categories_segments":[],"categories_sizes":[],"default_left":[0,0,0,0,0,0,0,0,0],"id":67,"left_children":[1,-1,3,5,7,-1,-1,-1,-1],"loss_changes":[1.0666898E3,0E0,1.0412141E3,1.0307773E3,5.920481E2,0E0,0E0,0E0,0E0],"parents":[2147483647,0,0,2,2,3,3,4,4],"right_children":[2,-1,4,6,8,-1,-1,-1,-1],"split_conditions":[3.358716E-2,8.644286E-1,8.863421E-1,-6.049222E-1,2.253476E-1,1.1115084E-2,-1.8738987E-1,9.056783E-1,1.0430731E-1],"split_indices":[3192,0,1385,4101,1875,0,0,0,0],"split_type":[0,0,0,0,0,0,0,0,0],"sum_hessian":[2.082E3,1.1E1,2.071E3,2.042E3,2.9E1,1.81E3,2.32E2,1.5E1,1.4E1],"tree_param":{"num_deleted":"0","num_feature":"4105","num_nodes":"9","size_leaf_vector":"1"}},{"base_weights":[3.2707915E-2,9.716903E-1,-5.5669844E-1,4.5110172E-1,3.4861176E0,-8.10246E-1,2.0759552E0,2.566641E-2,7.996803E-1,6.245744E-1,1.1899179E-1,-1.9932711E-2,-2.025543E-1,5.7490236E-1,1.02389306E-1],"categories":[],"categories_nodes":[],"categories_segments":[],"categories_sizes":[],"default_left":[0,0,0,0,0,0,0,0,0,0,0,0,0,0,0],"id":68,"left_children":[1,3,5,7,9,11,13,-1,-1,-1,-1,-1,-1,-1,-1],"loss_changes":[1.1397546E3,1.0391829E3,8.4480286E2,9.10975E2,1.036473E3,9.955869E2,4.49846E2,0E0,0E0,0E0,0E0,0E0,0E0,0E0,0E0],"parents":[2147483647,0,0,1,1,2,2,3,3,4,4,5,5,6,6],"right_children":[2,4,6,8,10,12,14,-1,-1,-1,-1,-1,-1,-1,-1],"split_conditions":[7.7478275E-2,4.7360197E-1,1.7161451E-1,4.3768772E-1,1.1868897E-1,2.6998004E-1,3.618234E-2,2.566641E-2,7.996803E-1,6.245744E-1,1.1899179E-1,-1.9932711E-2,-2.025543E-1,5.7490236E-1,1.02389306E-1],"split_indices":[484,3071,1069,2079,906,2753,3186,0,0,0,0,0,0,0,0],"split_type":[0,0,0,0,0,0,0,0,0,0,0,0,0,0,0],"sum_hessian":[2.059E3,7.94E2,1.265E3,6.58E2,1.36E2,1.154E3,1.11E2,6.46E2,1.2E1,5.1E1,8.5E1,8.26E2,3.28E2,1.9E1,9.2E1],"tree_param":{"num_deleted":"0","num_feature":"4105","num_nodes":"15","size_leaf_vector":"1"}},{"base_weights":[-6.277441E-2,7.1138835E-1,-6.261977E-1,3.3721263E0,4.013876E-1,-5.3756505E-1,-7.124102E-1,8.325552E-1,1.4698239E-1,4.475699E-2,-4.6104252E-1,6.834904E-2,-8.3675995E-2],"categories":[],"categories_nodes":[],"categories_segments":[],"categories_sizes":[],"default_left":[0,0,0,0,0,0,0,0,0,0,0,0,0],"id":69,"left_children":[1,3,5,7,9,11,-1,-1,-1,-1,-1,-1,-1],"loss_changes":[9.0524054E2,7.207073E2,7.8742896E2,9.373717E2,4.530509E2,6.3042114E2,0E0,0E0,0E0,0E0,0E0,0E0,0E0],"parents":[2147483647,0,0,1,1,2,2,3,3,4,4,5,5],"right_children":[2,4,6,8,10,12,-1,-1,-1,-1,-1,-1,-1],"split_conditions":[2.7128074E-1,1.9852142E-3,2.876587E-1,2.1557263E-3,-5.85517E-1,1.9249966E-2,-7.124102E-1,8.325552E-1,1.4698239E-1,4.475699E-2,-4.6104252E-1,6.834904E-2,-8.3675995E-2],"split_indices":[1224,484,1983,2986,4101,2805,0,0,0,0,0,0,0],"split_type":[0,0,0,0,0,0,0,0,0,0,0,0,0],"sum_hessian":[2.075E3,8.74E2,1.201E3,9.1E1,7.83E2,1.187E3,1.4E1,2E1,7.1E1,7.69E2,1.4E1,2.81E2,9.06E2],"tree_param":{"num_deleted":"0","num_feature":"4105","num_nodes":"13","size_leaf_vector":"1"}},{"base_weights":[3.7410725E-2,-5.4823434E-1,8.178096E-1,-4.4026008E-1,-6.9715583E-1,9.426024E-1,7.03664E-1,-1.793478E-3,-1.7811148E-1,8.9079045E-2,-1.957095E-1],"categories":[],"categories_nodes":[],"categories_segments":[],"categories_sizes":[],"default_left":[0,0,0,0,0,0,0,0,0,0,0],"id":70,"left_children":[1,3,5,7,-1,-1,9,-1,-1,-1,-1],"loss_changes":[9.4578674E2,9.3246216E2,9.9170013E2,7.672874E2,0E0,0E0,7.678921E2,0E0,0E0,0E0,0E0],"parents":[2147483647,0,0,1,1,2,2,3,3,6,6],"right_children":[2,4,6,8,-1,-1,10,-1,-1,-1,-1],"split_conditions":[1.8265969E-1,3.46403E-1,7.822449E-3,3.7534574E-1,-6.9715583E-1,9.426024E-1,-6.05588E-1,-1.793478E-3,-1.7811148E-1,8.9079045E-2,-1.957095E-1],"split_indices":[1989,3549,1999,3523,0,0,4101,0,0,0,0],"split_type":[0,0,0,0,0,0,0,0,0,0,0],"sum_hessian":[2.069E3,1.182E3,8.87E2,1.165E3,1.7E1,1E1,8.77E2,9.19E2,2.46E2,7.95E2,8.2E1],"tree_param":{"num_deleted":"0","num_feature":"4105","num_nodes":"11","size_leaf_vector":"1"}},{"base_weights":[7.984687E-2,-2.8860518E-1,1.2105747E0,-1.7884055E-1,-5.134797E0,9.7767884E-1,1.014046E0,-1.9494488E-3,-2.8512758E-1,-7.347403E-1,-9.676773E-2,6.718202E-1,6.805349E-2],"categories":[],"categories_nodes":[],"categories_segments":[],"categories_sizes":[],"default_left":[0,0,0,0,0,0,0,0,0,0,0,0,0],"id":71,"left_children":[1,3,5,7,9,11,-1,-1,-1,-1,-1,-1,-1],"loss_changes":[8.52987E2,8.2110944E2,1.1955286E3,7.1906213E2,4.3341528E2,6.8186755E2,0E0,0E0,0E0,0E0,0E0,0E0,0E0],"parents":[2147483647,0,0,1,1,2,2,3,3,4,4,5,5],"right_children":[2,4,6,8,10,12,-1,-1,-1,-1,-1,-1,-1],"split_conditions":[7.718581E-2,3.3036843E-1,3.9108816E-1,3.3066612E-1,2.8773615E-1,2.1100969E-3,1.014046E0,-1.9494488E-3,-2.8512758E-1,-7.347403E-1,-9.676773E-2,6.718202E-1,6.805349E-2],"split_indices":[807,3549,1092,2182,1267,1411,0,0,0,0,0,0,0],"split_type":[0,0,0,0,0,0,0,0,0,0,0,0,0],"sum_hessian":[2.047E3,1.544E3,5.03E2,1.51E3,3.4E1,4.92E2,1.1E1,1.436E3,7.4E1,1.9E1,1.5E1,1.5E1,4.77E2],"tree_param":{"num_deleted":"0","num_feature":"4105","num_nodes":"13","size_leaf_vector":"1"}},{"base_weights":[-4.598825E-2,5.4601555E0,-1.0782159E-1,2.9665378E-1,6.803319E-1,5.5733423E0,-1.6390486E-1,7.9323024E-1,2.4032184E-1,-4.7660302E-3,-2.7052093E-1],"categories":[],"categories_nodes":[],"categories_segments":[],"categories_sizes":[],"default_left":[0,0,0,0,0,0,0,0,0,0,0],"id":72,"left_children":[1,3,5,-1,-1,7,9,-1,-1,-1,-1],"loss_changes":[7.109281E2,1.03305176E2,6.580432E2,0E0,0E0,1.8997064E2,6.5017896E2,0E0,0E0,0E0,0E0],"parents":[2147483647,0,0,1,1,2,2,5,5,6,6],"right_children":[2,4,6,-1,-1,8,10,-1,-1,-1,-1],"split_conditions":[6.9612704E-2,4.0806687E-1,3.4738112E-2,2.9665378E-1,6.803319E-1,1.2734886E-1,6.8515015E-1,7.9323024E-1,2.4032184E-1,-4.7660302E-3,-2.7052093E-1],"split_indices":[3069,221,3192,0,0,80,1224,0,0,0,0],"split_type":[0,0,0,0,0,0,0,0,0,0,0],"sum_hessian":[2.088E3,2.3E1,2.065E3,1.2E1,1.1E1,2E1,2.045E3,9E0,1.1E1,1.97E3,7.5E1],"tree_param":{"num_deleted":"0","num_feature":"4105","num_nodes":"11","size_leaf_vector":"1"}},{"base_weights":[1.2625423E-2,5.084155E0,-5.9673347E-2,2.8982228E-1,6.420904E-1,-9.720233E-1,3.2137474E-1,-6.617745E-2,-1.1450626E0,2.3695919E-1,1.1282983E-2],"categories":[],"categories_nodes":[],"categories_segments":[],"categories_sizes":[],"default_left":[0,0,0,0,0,0,0,0,0,0,0],"id":73,"left_children":[1,3,5,-1,-1,7,9,-1,-1,-1,-1],"loss_changes":[7.614503E2,1.0953772E2,7.11779E2,0E0,0E0,1.6245646E3,6.5889124E2,0E0,0E0,0E0,0E0],"parents":[2147483647,0,0,1,1,2,2,5,5,6,6],"right_children":[2,4,6,-1,-1,8,10,-1,-1,-1,-1],"split_conditions":[6.9612704E-2,5.9080888E-2,1.0267302E-2,2.8982228E-1,6.420904E-1,2.54259E-1,5.771063E-3,-6.617745E-2,-1.1450626E0,2.3695919E-1,1.1282983E-2],"split_indices":[3069,45,2468,0,0,1067,3962,0,0,0,0],"split_type":[0,0,0,0,0,0,0,0,0,0,0],"sum_hessian":[2.076E3,2.9E1,2.047E3,1.6E1,1.3E1,6.03E2,1.444E3,5.92E2,1.1E1,1.1E2,1.334E3],"tree_param":{"num_deleted":"0","num_feature":"4105","num_nodes":"11","size_leaf_vector":"1"}},{"base_weights":[-1.3656224E-2,2.9039143E-2,-6.37721E-1,-6.1691576E-1,4.92028E-1,-5.045452E-4,-1.7466812E-1,3.216477E-2,5.0100577E-1],"categories":[],"categories_nodes":[],"categories_segments":[],"categories_sizes":[],"default_left":[0,0,0,0,0,0,0,0,0],"id":74,"left_children":[1,3,-1,5,7,-1,-1,-1,-1],"loss_changes":[6.314512E2,6.1260583E2,0E0,7.068536E2,7.955482E2,0E0,0E0,0E0,0E0],"parents":[2147483647,0,0,1,1,3,3,4,4],"right_children":[2,4,-1,6,8,-1,-1,-1,-1],"split_conditions":[8.0159205E-1,5.831314E-1,-6.37721E-1,2.0543805E-1,1.4789444E-1,-5.045452E-4,-1.7466812E-1,3.216477E-2,5.0100577E-1],"split_indices":[1683,2972,0,3877,3628,0,0,0,0],"split_type":[0,0,0,0,0,0,0,0,0],"sum_hessian":[2.06E3,2.048E3,1.2E1,8.55E2,1.193E3,5.89E2,2.66E2,1.164E3,2.9E1],"tree_param":{"num_deleted":"0","num_feature":"4105","num_nodes":"9","size_leaf_vector":"1"}},{"base_weights":[3.5199805E-3,8.61594E-1,-3.842162E-1,6.988733E-1,9.7737527E-1,-2.2264957E0,-6.9071054E-2,3.324351E-1,3.6833875E-2,-5.4023147E-1,-1.4611429E-1,4.1845262E-1,-1.4330508E-2],"categories":[],"categories_nodes":[],"categories_segments":[],"categories_sizes":[],"default_left":[0,0,0,0,0,0,0,0,0,0,0,0,0],"id":75,"left_children":[1,3,5,7,-1,9,11,-1,-1,-1,-1,-1,-1],"loss_changes":[6.9183374E2,1.0679777E3,8.3142114E2,5.505867E2,0E0,4.6606836E2,5.416294E2,0E0,0E0,0E0,0E0,0E0,0E0],"parents":[2147483647,0,0,1,1,2,2,3,3,5,5,6,6],"right_children":[2,4,6,8,-1,10,12,-1,-1,-1,-1,-1,-1],"split_conditions":[6.7319286E-1,8.06527E-1,2.4034223E-1,6.544779E-3,9.7737527E-1,2.6332217E-1,6.9612704E-2,3.324351E-1,3.6833875E-2,-5.4023147E-1,-1.4611429E-1,4.1845262E-1,-1.4330508E-2],"split_indices":[1630,1280,230,215,0,3564,3069,0,0,0,0,0,0],"split_type":[0,0,0,0,0,0,0,0,0,0,0,0,0],"sum_hessian":[2.079E3,6.47E2,1.432E3,6.37E2,1E1,2.09E2,1.223E3,5.4E1,5.83E2,2.7E1,1.82E2,2.3E1,1.2E3],"tree_param":{"num_deleted":"0","num_feature":"4105","num_nodes":"13","size_leaf_vector":"1"}},{"base_weights":[1.1332713E-2,2.330068E0,-1.1140787E-1,7.237341E-1,1.5457429E0,-3.6186137E0,-2.2487521E-2,3.4347318E-2,2.2086875E-1,-5.0484884E-1,-1.184942E-1,4.4041194E-2,-4.571906E-2],"categories":[],"categories_nodes":[],"categories_segments":[],"categories_sizes":[],"default_left":[0,0,0,0,0,0,0,0,0,0,0,0,0],"id":76,"left_children":[1,3,5,-1,7,9,11,-1,-1,-1,-1,-1,-1],"loss_changes":[5.841638E2,4.691881E2,6.077709E2,0E0,9.9517166E1,2.2644543E2,4.8649747E2,0E0,0E0,0E0,0E0,0E0,0E0],"parents":[2147483647,0,0,1,1,2,2,4,4,5,5,6,6],"right_children":[2,4,6,-1,8,10,12,-1,-1,-1,-1,-1,-1],"split_conditions":[4.467155E-2,1.552797E-1,9.421382E-3,7.237341E-1,1.2630296E-3,9.8422825E-2,5.747722E-1,3.4347318E-2,2.2086875E-1,-5.0484884E-1,-1.184942E-1,4.4041194E-2,-4.571906E-2],"split_indices":[3149,1705,2501,0,2552,1394,1111,0,0,0,0,0,0],"split_type":[0,0,0,0,0,0,0,0,0,0,0,0,0],"sum_hessian":[2.052E3,1.03E2,1.949E3,1.2E1,9.1E1,4.8E1,1.901E3,4.1E1,5E1,2.5E1,2.3E1,9.26E2,9.75E2],"tree_param":{"num_deleted":"0","num_feature":"4105","num_nodes":"13","size_leaf_vector":"1"}},{"base_weights":[3.3045843E-2,-7.501763E-2,2.4621646E0,7.98199E-1,-3.816465E-1,1.7362976E0,7.684898E-1,1.4580862E-1,-5.1299483E-2,-2.8898252E-2,-7.412705E-1,2.470804E-1,-3.6060806E-2],"categories":[],"categories_nodes":[],"categories_segments":[],"categories_sizes":[],"default_left":[0,0,0,0,0,0,0,0,0,0,0,0,0],"id":77,"left_children":[1,3,5,7,9,11,-1,-1,-1,-1,-1,-1,-1],"loss_changes":[5.435175E2,5.307849E2,3.9391748E2,5.999831E2,6.526388E2,1.7834755E2,0E0,0E0,0E0,0E0,0E0,0E0,0E0],"parents":[2147483647,0,0,1,1,2,2,3,3,4,4,5,5],"right_children":[2,4,6,8,10,12,-1,-1,-1,-1,-1,-1,-1],"split_conditions":[4.796897E-1,2.8014136E-2,2.5291207E-1,3.6356952E-2,5.757046E-1,8.80483E-2,7.684898E-1,1.4580862E-1,-5.1299483E-2,-2.8898252E-2,-7.412705E-1,2.470804E-1,-3.6060806E-2],"split_indices":[2210,3984,1491,2664,971,2497,0,0,0,0,0,0,0],"split_type":[0,0,0,0,0,0,0,0,0,0,0,0,0],"sum_hessian":[2.07E3,1.982E3,8.8E1,5.15E2,1.467E3,7.9E1,9E0,3.19E2,1.96E2,1.457E3,1E1,5.3E1,2.6E1],"tree_param":{"num_deleted":"0","num_feature":"4105","num_nodes":"13","size_leaf_vector":"1"}},{"base_weights":[2.694579E-2,6.7450345E-2,-5.9791446E-1,1.1645566E0,-1.5400289E-1,2.4035963E-1,2.904933E-2,-8.533437E-2,2.1994377E-2],"categories":[],"categories_nodes":[],"categories_segments":[],"categories_sizes":[],"default_left":[0,0,0,0,0,0,0,0,0],"id":78,"left_children":[1,3,-1,5,7,-1,-1,-1,-1],"loss_changes":[5.6168097E2,4.950101E2,0E0,4.4238986E2,5.507224E2,0E0,0E0,0E0,0E0],"parents":[2147483647,0,0,1,1,3,3,4,4],"right_children":[2,4,-1,6,8,-1,-1,-1,-1],"split_conditions":[8.0159205E-1,4.5537887E-4,-5.9791446E-1,3.195056E-2,3.7872568E-3,2.4035963E-1,2.904933E-2,-8.533437E-2,2.1994377E-2],"split_indices":[1683,653,0,1193,3802,0,0,0,0],"split_type":[0,0,0,0,0,0,0,0,0],"sum_hessian":[2.049E3,2.037E3,1.2E1,3.42E2,1.695E3,1.2E2,2.22E2,5.63E2,1.132E3],"tree_param":{"num_deleted":"0","num_feature":"4105","num_nodes":"9","size_leaf_vector":"1"}},{"base_weights":[-6.9937683E-3,4.8792545E-2,-5.192745E0,8.4326625E-2,-6.9975364E-1,-8.539743E-1,-1.2440961E-1,-1.7336633E-3,2.2568622E-1],"categories":[],"categories_nodes":[],"categories_segments":[],"categories_sizes":[],"default_left":[0,0,0,0,0,0,0,0,0],"id":79,"left_children":[1,3,5,7,-1,-1,-1,-1,-1],"loss_changes":[6.031206E2,5.816198E2,3.701756E2,5.24753E2,0E0,0E0,0E0,0E0,0E0],"parents":[2147483647,0,0,1,1,2,2,3,3],"right_children":[2,4,6,8,-1,-1,-1,-1,-1],"split_conditions":[1.3577448E-1,8.0159205E-1,4.303373E-3,5.8400476E-1,-6.9975364E-1,-8.539743E-1,-1.2440961E-1,-1.7336633E-3,2.2568622E-1],"split_indices":[3778,1683,12,1385,0,0,0,0,0],"split_type":[0,0,0,0,0,0,0,0,0],"sum_hessian":[2.084E3,2.062E3,2.2E1,2.053E3,9E0,1E1,1.2E1,1.97E3,8.3E1],"tree_param":{"num_deleted":"0","num_feature":"4105","num_nodes":"9","size_leaf_vector":"1"}},{"base_weights":[-5.8733653E-3,-5.0500587E-2,4.6663806E-1,2.0690885E0,-1.663794E-1,5.60841E-1,1.1956575E-1,-1.3233663E-1,5.112849E-3],"categories":[],"categories_nodes":[],"categories_segments":[],"categories_sizes":[],"default_left":[0,0,0,0,0,0,0,0,0],"id":80,"left_children":[1,3,-1,5,7,-1,-1,-1,-1],"loss_changes":[4.8087582E2,4.9841724E2,0E0,3.2085443E2,5.7149084E2,0E0,0E0,0E0,0E0],"parents":[2147483647,0,0,1,1,3,3,4,4],"right_children":[2,4,-1,6,8,-1,-1,-1,-1],"split_conditions":[1.1836413E0,4.467155E-2,4.6663806E-1,1.552797E-1,5.9872627E-2,5.60841E-1,1.1956575E-1,-1.3233663E-1,5.112849E-3],"split_indices":[2420,3149,0,1705,3754,0,0,0,0],"split_type":[0,0,0,0,0,0,0,0,0],"sum_hessian":[2.046E3,2.029E3,1.7E1,1.05E2,1.924E3,1.5E1,9E1,2.78E2,1.646E3],"tree_param":{"num_deleted":"0","num_feature":"4105","num_nodes":"9","size_leaf_vector":"1"}},{"base_weights":[-1.4789866E-2,9.3199706E-1,-2.6338807E-1,7.4711037E-1,6.317185E-1,-2.1267621E-1,-6.103682E-1,4.0999036E-2,3.7217122E-1,-6.5968167E-3,-2.3056424E-1],"categories":[],"categories_nodes":[],"categories_segments":[],"categories_sizes":[],"default_left":[0,0,0,0,0,0,0,0,0,0,0],"id":81,"left_children":[1,3,5,7,-1,9,-1,-1,-1,-1,-1],"loss_changes":[4.7669724E2,4.808485E2,5.379435E2,4.0153967E2,0E0,5.254739E2,0E0,0E0,0E0,0E0,0E0],"parents":[2147483647,0,0,1,1,2,2,3,3,5,5],"right_children":[2,4,6,8,-1,10,-1,-1,-1,-1,-1],"split_conditions":[7.242388E-2,6.68924E-1,5.6908816E-1,9.811435E-2,6.317185E-1,4.1477764E-1,-6.103682E-1,4.0999036E-2,3.7217122E-1,-6.5968167E-3,-2.3056424E-1],"split_indices":[3173,1280,480,2097,0,2599,0,0,0,0,0],"split_type":[0,0,0,0,0,0,0,0,0,0,0],"sum_hessian":[2.025E3,4.21E2,1.604E3,4.09E2,1.2E1,1.592E3,1.2E1,3.78E2,3.1E1,1.505E3,8.7E1],"tree_param":{"num_deleted":"0","num_feature":"4105","num_nodes":"11","size_leaf_vector":"1"}},{"base_weights":[-1.708843E-3,6.339141E-2,-3.4477553E0,-3.742007E-1,6.583709E-1,-1.0206355E0,-8.0432135E-1,-2.7881498E-2,-6.823149E-1,6.1093825E-1,5.086858E-2,-2.4417707E-1,2.3638733E-2],"categories":[],"categories_nodes":[],"categories_segments":[],"categories_sizes":[],"default_left":[0,0,0,0,0,0,0,0,0,0,0,0,0],"id":82,"left_children":[1,3,5,7,9,11,-1,-1,-1,-1,-1,-1,-1],"loss_changes":[4.4996747E2,5.1248804E2,5.0531754E2,4.9614764E2,4.400315E2,5.859614E1,0E0,0E0,0E0,0E0,0E0,0E0,0E0],"parents":[2147483647,0,0,1,1,2,2,3,3,4,4,5,5],"right_children":[2,4,6,8,10,12,-1,-1,-1,-1,-1,-1,-1],"split_conditions":[1.2464333E0,1.8265969E-1,9.993865E-3,7.247837E-1,7.822449E-3,2.8331253E-1,-8.0432135E-1,-2.7881498E-2,-6.823149E-1,6.1093825E-1,5.086858E-2,-2.4417707E-1,2.3638733E-2],"split_indices":[962,1989,3775,141,1999,2,0,0,0,0,0,0,0],"split_type":[0,0,0,0,0,0,0,0,0,0,0,0,0],"sum_hessian":[2.005E3,1.968E3,3.7E1,1.134E3,8.34E2,2.6E1,1.1E1,1.125E3,9E0,1.1E1,8.23E2,1.1E1,1.5E1],"tree_param":{"num_deleted":"0","num_feature":"4105","num_nodes":"13","size_leaf_vector":"1"}},{"base_weights":[1.4017202E-3,-2.5700586E0,7.814124E-2,-9.1174597E-1,-5.401147E0,3.5473084E-1,-6.360119E-1,-2.1024275E-1,4.4350885E-3,-3.653445E-1,-6.0600007E-1,3.8246777E-2,-2.998815E-1,-2.9798826E-2,-3.2244527E-1],"categories":[],"categories_nodes":[],"categories_segments":[],"categories_sizes":[],"default_left":[0,0,0,0,0,0,0,0,0,0,0,0,0,0,0],"id":83,"left_children":[1,3,5,7,9,11,13,-1,-1,-1,-1,-1,-1,-1,-1],"loss_changes":[4.098723E2,2.8148752E2,3.984854E2,5.3653393E1,3.5124084E1,4.156812E2,5.0651337E2,0E0,0E0,0E0,0E0,0E0,0E0,0E0,0E0],"parents":[2147483647,0,0,1,1,2,2,3,3,4,4,5,5,6,6],"right_children":[2,4,6,8,10,12,14,-1,-1,-1,-1,-1,-1,-1,-1],"split_conditions":[9.555576E-3,2.3799196E-2,-2.2609563E0,2.5542144E-2,2.5999777E-2,6.1046593E-2,3.2286733E-1,-2.1024275E-1,4.4350885E-3,-3.653445E-1,-6.0600007E-1,3.8246777E-2,-2.998815E-1,-2.9798826E-2,-3.2244527E-1],"split_indices":[1480,1217,4102,13,0,3795,492,0,0,0,0,0,0,0,0],"split_type":[0,0,0,0,0,0,0,0,0,0,0,0,0,0,0],"sum_hessian":[2.077E3,6E1,2.017E3,3.8E1,2.2E1,1.454E3,5.63E2,1.5E1,2.3E1,1.2E1,1E1,1.425E3,2.9E1,5.12E2,5.1E1],"tree_param":{"num_deleted":"0","num_feature":"4105","num_nodes":"15","size_leaf_vector":"1"}},{"base_weights":[1.969031E-2,6.03763E-2,-4.216388E-1,7.835242E-1,-2.2383659E-1,2.8821132E-1,4.118628E-2,-1.122739E-2,-2.8757364E-1],"categories":[],"categories_nodes":[],"categories_segments":[],"categories_sizes":[],"default_left":[0,0,0,0,0,0,0,0,0],"id":84,"left_children":[1,3,-1,5,7,-1,-1,-1,-1],"loss_changes":[3.950002E2,4.146359E2,0E0,4.4759872E2,4.2495505E2,0E0,0E0,0E0,0E0],"parents":[2147483647,0,0,1,1,3,3,4,4],"right_children":[2,4,-1,6,8,-1,-1,-1,-1],"split_conditions":[3.545244E-1,4.3657716E-2,-4.216388E-1,1.5121019E-2,-5.8786875E-1,2.8821132E-1,4.118628E-2,-1.122739E-2,-2.8757364E-1],"split_indices":[1613,484,0,1802,4101,0,0,0,0],"split_type":[0,0,0,0,0,0,0,0,0],"sum_hessian":[2.034E3,2.017E3,1.7E1,5.69E2,1.448E3,6.5E1,5.04E2,1.403E3,4.5E1],"tree_param":{"num_deleted":"0","num_feature":"4105","num_nodes":"9","size_leaf_vector":"1"}},{"base_weights":[-3.6136005E-2,6.5349303E-3,-4.3829875E0,2.0581121E0,-8.646775E-2,-9.041763E-2,-6.7966557E-1,8.603321E-3,2.948232E-1,2.629099E-1,-1.3025945E-2],"categories":[],"categories_nodes":[],"categories_segments":[],"categories_sizes":[],"default_left":[0,0,0,0,0,0,0,0,0,0,0],"id":85,"left_children":[1,3,5,7,9,-1,-1,-1,-1,-1,-1],"loss_changes":[3.8521582E2,3.924086E2,2.2103192E2,2.2126407E2,3.624388E2,0E0,0E0,0E0,0E0,0E0,0E0],"parents":[2147483647,0,0,1,1,2,2,3,3,4,4],"right_children":[2,4,6,8,10,-1,-1,-1,-1,-1,-1],"split_conditions":[1.3577448E-1,1.7224884E-2,1.9447653E-2,8.420621E-2,3.2588482E-2,-9.041763E-2,-6.7966557E-1,8.603321E-3,2.948232E-1,2.629099E-1,-1.3025945E-2],"split_indices":[3778,3122,608,333,597,0,0,0,0,0,0],"split_type":[0,0,0,0,0,0,0,0,0,0,0],"sum_hessian":[2.076E3,2.056E3,2E1,8.9E1,1.967E3,1E1,1E1,3.5E1,5.4E1,3.8E1,1.929E3],"tree_param":{"num_deleted":"0","num_feature":"4105","num_nodes":"11","size_leaf_vector":"1"}},{"base_weights":[-4.4688243E-2,-4.6913085E0,-7.313542E-4,-6.65378E-1,-1.8335791E-1,-5.2021876E-2,3.5131364E0,-9.308393E-4,-3.6573038E-1,7.666278E-1,6.680983E-2],"categories":[],"categories_nodes":[],"categories_segments":[],"categories_sizes":[],"default_left":[0,0,0,0,0,0,0,0,0,0,0],"id":86,"left_children":[1,3,5,-1,-1,7,9,-1,-1,-1,-1],"loss_changes":[4.1822583E2,1.3834451E2,3.6566425E2,0E0,0E0,3.3806635E2,4.1181104E2,0E0,0E0,0E0,0E0],"parents":[2147483647,0,0,1,1,2,2,5,5,6,6],"right_children":[2,4,6,-1,-1,8,10,-1,-1,-1,-1],"split_conditions":[6.9873817E-3,1.8870287E-1,3.6676195E-1,-6.65378E-1,-1.8335791E-1,4.4667655E-1,1.12198114E-1,-9.308393E-4,-3.6573038E-1,7.666278E-1,6.680983E-2],"split_indices":[1131,315,1092,0,0,336,961,0,0,0,0],"split_type":[0,0,0,0,0,0,0,0,0,0,0],"sum_hessian":[2.048E3,1.9E1,2.029E3,9E0,1E1,2E3,2.9E1,1.98E3,2E1,1E1,1.9E1],"tree_param":{"num_deleted":"0","num_feature":"4105","num_nodes":"11","size_leaf_vector":"1"}},{"base_weights":[4.9677356E-3,3.5862517E-2,-6.140022E-1,7.351729E-2,-4.1865003E-1,8.054407E-2,-1.21041965E-2],"categories":[],"categories_nodes":[],"categories_segments":[],"categories_sizes":[],"default_left":[0,0,0,0,0,0,0],"id":87,"left_children":[1,3,-1,5,-1,-1,-1],"loss_changes":[4.429435E2,3.6907242E2,0E0,3.58459E2,0E0,0E0,0E0],"parents":[2147483647,0,0,1,1,3,3],"right_children":[2,4,-1,6,-1,-1,-1],"split_conditions":[6.0878986E-1,7.65033E-1,-6.140022E-1,7.242388E-2,-4.1865003E-1,8.054407E-2,-1.21041965E-2],"split_indices":[885,1475,0,3173,0,0,0],"split_type":[0,0,0,0,0,0,0],"sum_hessian":[2.07E3,2.061E3,9E0,2.045E3,1.6E1,4.11E2,1.634E3],"tree_param":{"num_deleted":"0","num_feature":"4105","num_nodes":"7","size_leaf_vector":"1"}},{"base_weights":[2.8145581E-2,-2.3632053E-2,3.7707865E0,1.0666766E-1,-1.4087853E0,6.4517546E-1,6.034161E-2,1.2879628E-1,-2.2309448E-3,-5.252478E-1,-5.7646602E-2],"categories":[],"categories_nodes":[],"categories_segments":[],"categories_sizes":[],"default_left":[0,0,0,0,0,0,0,0,0,0,0],"id":88,"left_children":[1,3,5,7,9,-1,-1,-1,-1,-1,-1],"loss_changes":[4.0031403E2,3.6774335E2,3.0405402E2,3.3031415E2,5.9908923E2,0E0,0E0,0E0,0E0,0E0,0E0],"parents":[2147483647,0,0,1,1,2,2,3,3,4,4],"right_children":[2,4,6,8,10,-1,-1,-1,-1,-1,-1],"split_conditions":[8.863421E-1,8.2877666E-2,2.253476E-1,1.2271866E-3,9.323272E-4,6.4517546E-1,6.034161E-2,1.2879628E-1,-2.2309448E-3,-5.252478E-1,-5.7646602E-2],"split_indices":[1385,1803,1875,2674,3642,0,0,0,0,0,0],"split_type":[0,0,0,0,0,0,0,0,0,0,0],"sum_hessian":[2.065E3,2.037E3,2.8E1,1.862E3,1.75E2,1.3E1,1.5E1,1.66E2,1.696E3,2.5E1,1.5E2],"tree_param":{"num_deleted":"0","num_feature":"4105","num_nodes":"11","size_leaf_vector":"1"}},{"base_weights":[-1.2732004E-2,1.2188974E-1,-1.1970792E0,2.7141187E-1,-1.1311911E0,-5.25067E0,-3.7674907E-1,1.09913E-1,5.131921E-3,-4.972581E-2,-2.691778E-1,