{"learner":{"attributes":{"scikit_learn":"{\"_estimator_type\": \"regressor\"}"},"feature_names":[],"feature_types":[],"gradient_booster":{"model":{"gbtree_model_param":{"num_parallel_tree":"1","num_trees":"435"},"iteration_indptr":[0,1,2,3,4,5,6,7,8,9,10,11,12,13,14,15,16,17,18,19,20,21,22,23,24,25,26,27,28,29,30,31,32,33,34,35,36,37,38,39,40,41,42,43,44,45,46,47,48,49,50,51,52,53,54,55,56,57,58,59,60,61,62,63,64,65,66,67,68,69,70,71,72,73,74,75,76,77,78,79,80,81,82,83,84,85,86,87,88,89,90,91,92,93,94,95,96,97,98,99,100,101,102,103,104,105,106,107,108,109,110,111,112,113,114,115,116,117,118,119,120,121,122,123,124,125,126,127,128,129,130,131,132,133,134,135,136,137,138,139,140,141,142,143,144,145,146,147,148,149,150,151,152,153,154,155,156,157,158,159,160,161,162,163,164,165,166,167,168,169,170,171,172,173,174,175,176,177,178,179,180,181,182,183,184,185,186,187,188,189,190,191,192,193,194,195,196,197,198,199,200,201,202,203,204,205,206,207,208,209,210,211,212,213,214,215,216,217,218,219,220,221,222,223,224,225,226,227,228,229,230,231,232,233,234,235,236,237,238,239,240,241,242,243,244,245,246,247,248,249,250,251,252,253,254,255,256,257,258,259,260,261,262,263,264,265,266,267,268,269,270,271,272,273,274,275,276,277,278,279,280,281,282,283,284,285,286,287,288,289,290,291,292,293,294,295,296,297,298,299,300,301,302,303,304,305,306,307,308,309,310,311,312,313,314,315,316,317,318,319,320,321,322,323,324,325,326,327,328,329,330,331,332,333,334,335,336,337,338,339,340,341,342,343,344,345,346,347,348,349,350,351,352,353,354,355,356,357,358,359,360,361,362,363,364,365,366,367,368,369,370,371,372,373,374,375,376,377,378,379,380,381,382,383,384,385,386,387,388,389,390,391,392,393,394,395,396,397,398,399,400,401,402,403,404,405,406,407,408,409,410,411,412,413,414,415,416,417,418,419,420,421,422,423,424,425,426,427,428,429,430,431,432,433,434,435],"tree_info":[0,0,0,0,0,0,0,0,0,0,0,0,0,0,0,0,0,0,0,0,0,0,0,0,0,0,0,0,0,0,0,0,0,0,0,0,0,0,0,0,0,0,0,0,0,0,0,0,0,0,0,0,0,0,0,0,0,0,0,0,0,0,0,0,0,0,0,0,0,0,0,0,0,0,0,0,0,0,0,0,0,0,0,0,0,0,0,0,0,0,0,0,0,0,0,0,0,0,0,0,0,0,0,0,0,0,0,0,0,0,0,0,0,0,0,0,0,0,0,0,0,0,0,0,0,0,0,0,0,0,0,0,0,0,0,0,0,0,0,0,0,0,0,0,0,0,0,0,0,0,0,0,0,0,0,0,0,0,0,0,0,0,0,0,0,0,0,0,0,0,0,0,0,0,0,0,0,0,0,0,0,0,0,0,0,0,0,0,0,0,0,0,0,0,0,0,0,0,0,0,0,0,0,0,0,0,0,0,0,0,0,0,0,0,0,0,0,0,0,0,0,0,0,0,0,0,0,0,0,0,0,0,0,0,0,0,0,0,0,0,0,0,0,0,0,0,0,0,0,0,0,0,0,0,0,0,0,0,0,0,0,0,0,0,0,0,0,0,0,0,0,0,0,0,0,0,0,0,0,0,0,0,0,0,0,0,0,0,0,0,0,0,0,0,0,0,0,0,0,0,0,0,0,0,0,0,0,0,0,0,0,0,0,0,0,0,0,0,0,0,0,0,0,0,0,0,0,0,0,0,0,0,0,0,0,0,0,0,0,0,0,0,0,0,0,0,0,0,0,0,0,0,0,0,0,0,0,0,0,0,0,0,0,0,0,0,0,0,0,0,0,0,0,0,0,0,0,0,0,0,0,0,0,0,0,0,0,0,0,0,0,0,0,0,0,0,0,0,0,0,0,0,0,0,0,0,0,0,0,0,0,0,0,0,0,0,0,0,0,0,0,0,0,0,0,0,0,0,0,0,0,0,0,0,0],"trees":[{"base_weights":[-5.296214E-1,-2.355863E1,1.9270453E2,-1.4138373E2,6.70333E-2,2.0220734E1,1.314363E1,-1.3139795E1,-1.6083821E0,1.1412446E0,-6.8688626E0,1.4082577E0,1.0756631E0],"categories":[],"categories_nodes":[],"categories_segments":[],"categories_sizes":[],"default_left":[0,0,0,0,0,0,0,0,0,0,0,0,0],"id":0,"left_children":[1,3,5,7,9,-1,11,-1,-1,-1,-1,-1,-1],"loss_changes":[9.159775E6,5.119747E6,1.3877085E6,2.55444E5,1.5202956E6,0E0,6.3458496E1,0E0,0E0,0E0,0E0,0E0,0E0],"parents":[2147483647,0,0,1,1,2,2,3,3,4,4,6,6],"right_children":[2,4,6,8,10,-1,12,-1,-1,-1,-1,-1,-1],"split_conditions":[1.3637516E0,3.8175E3,4.4956988E-1,4.3836003E-3,2.007983E0,2.0220734E1,1.5149137E-1,-1.3139795E1,-1.6083821E0,1.1412446E0,-6.8688626E0,1.4082577E0,1.0756631E0],"split_indices":[866,4096,3114,2795,2999,0,0,0,0,0,0,0,0],"split_type":[0,0,0,0,0,0,0,0,0,0,0,0,0],"sum_hessian":[2.058E3,1.839E3,2.19E2,3.07E2,1.532E3,1.83E2,3.6E1,2.91E2,1.6E1,1.315E3,2.17E2,9E0,2.7E1],"tree_param":{"num_deleted":"0","num_feature":"4105","num_nodes":"13","size_leaf_vector":"1"}},{"base_weights":[8.875253E-1,1.7703586E2,-2.4513723E1,-9.631879E0,2.106494E2,-1.26659615E2,-3.9903302E0,-3.1469047E0,5.3443813E-1,2.002573E1,1.842969E1,-1.1980235E1,3.1093917E0,9.8057157E-1,-4.8067536E0],"categories":[],"categories_nodes":[],"categories_segments":[],"categories_sizes":[],"default_left":[0,0,0,0,0,0,0,0,0,0,0,0,0,0,0],"id":1,"left_children":[1,3,5,7,9,11,13,-1,-1,-1,-1,-1,-1,-1,-1],"loss_changes":[9.308394E6,1.6455085E6,3.811516E6,1.6305872E4,7.6E2,4.14657E5,1.1438492E6,0E0,0E0,0E0,0E0,0E0,0E0,0E0,0E0],"parents":[2147483647,0,0,1,1,2,2,3,3,4,4,5,5,6,6],"right_children":[2,4,6,8,10,12,14,-1,-1,-1,-1,-1,-1,-1,-1],"split_conditions":[-6.9462955E-1,1.4843707E-1,1.01E2,3.90334E-2,1.2743516E0,8.426776E-2,3.306165E-1,-3.1469047E0,5.3443813E-1,2.002573E1,1.842969E1,-1.1980235E1,3.1093917E0,9.8057157E-1,-4.8067536E0],"split_indices":[4101,1546,4099,2184,866,3758,2188,0,0,0,0,0,0,0,0],"split_type":[0,0,0,0,0,0,0,0,0,0,0,0,0,0,0],"sum_hessian":[2.08E3,2.62E2,1.818E3,4E1,2.22E2,3.04E2,1.514E3,1.5E1,2.5E1,3.3E1,1.89E2,2.89E2,1.5E1,1.165E3,3.49E2],"tree_param":{"num_deleted":"0","num_feature":"4105","num_nodes":"15","size_leaf_vector":"1"}},{"base_weights":[8.6868745E-1,1.6334631E2,-2.1823338E1,1.7004147E1,-9.314557E0,-1.18242004E2,-2.7926824E0,-2.8686984E0,4.8688105E-1,-1.0997659E1,-2.395572E-2,5.034723E-1,-7.1816063E0],"categories":[],"categories_nodes":[],"categories_segments":[],"categories_sizes":[],"default_left":[0,0,0,0,0,0,0,0,0,0,0,0,0],"id":2,"left_children":[1,3,5,-1,7,9,11,-1,-1,-1,-1,-1,-1],"loss_changes":[7.6775945E6,1.2501935E6,3.352662E6,0E0,1.2371361E4,2.043225E5,1.01054456E6,0E0,0E0,0E0,0E0,0E0,0E0],"parents":[2147483647,0,0,1,1,2,2,4,4,5,5,6,6],"right_children":[2,4,6,-1,8,10,12,-1,-1,-1,-1,-1,-1],"split_conditions":[-6.9462955E-1,8.4604144E-2,3.8175E3,1.7004147E1,1.20907724E-1,7.322177E-2,4.4133168E-1,-2.8686984E0,4.8688105E-1,-1.0997659E1,-2.395572E-2,5.034723E-1,-7.1816063E0],"split_indices":[4101,3764,4096,0,2501,3132,2305,0,0,0,0,0,0],"split_type":[0,0,0,0,0,0,0,0,0,0,0,0,0],"sum_hessian":[2.082E3,2.55E2,1.827E3,2.19E2,3.6E1,3.01E2,1.526E3,1.4E1,2.2E1,2.87E2,1.4E1,1.377E3,1.49E2],"tree_param":{"num_deleted":"0","num_feature":"4105","num_nodes":"13","size_leaf_vector":"1"}},{"base_weights":[6.322693E-1,1.4919534E2,-2.1058935E1,-6.2560616E0,1.7508731E2,-8.0808044E1,4.248192E0,4.4453052E-1,-2.6118228E0,1.6762821E1,1.5289905E1,-9.605412E0,-3.1312973E0,1.2562734E-1,1.9474215E1],"categories":[],"categories_nodes":[],"categories_segments":[],"categories_sizes":[],"default_left":[0,0,0,0,0,0,0,0,0,0,0,0,0,0,0],"id":3,"left_children":[1,3,5,7,9,11,13,-1,-1,-1,-1,-1,-1,-1,-1],"loss_changes":[6.555794E6,1.0434315E6,2.6842912E6,9.746375E3,2.1865E3,6.5994075E5,7.6037925E5,0E0,0E0,0E0,0E0,0E0,0E0,0E0,0E0],"parents":[2147483647,0,0,1,1,2,2,3,3,4,4,5,5,6,6],"right_children":[2,4,6,8,10,12,14,-1,-1,-1,-1,-1,-1,-1,-1],"split_conditions":[-6.9462955E-1,1.4843707E-1,4.4824532E-4,2.4124554E-4,1.2743516E0,2.9054969E-3,3.7161082E-1,4.4453052E-1,-2.6118228E0,1.6762821E1,1.5289905E1,-9.605412E0,-3.1312973E0,1.2562734E-1,1.9474215E1],"split_indices":[4101,1546,3736,2173,866,4046,178,0,0,0,0,0,0,0,0],"split_type":[0,0,0,0,0,0,0,0,0,0,0,0,0,0,0],"sum_hessian":[2.034E3,2.59E2,1.775E3,3.7E1,2.22E2,5.28E2,1.247E3,2.5E1,1.2E1,3.4E1,1.88E2,3.29E2,1.99E2,1.231E3,1.6E1],"tree_param":{"num_deleted":"0","num_feature":"4105","num_nodes":"15","size_leaf_vector":"1"}},{"base_weights":[3.4941873E-1,1.3700641E2,-1.8851988E1,1.5923355E2,-7.550782E0,-9.801505E1,-2.1007788E0,1.5269685E1,1.3935402E1,4.0480274E-1,-2.3866122E0,-9.210908E0,1.0330797E0,4.4335404E-1,-6.3395348E0],"categories":[],"categories_nodes":[],"categories_segments":[],"categories_sizes":[],"default_left":[0,0,0,0,0,0,0,0,0,0,0,0,0,0,0],"id":4,"left_children":[1,3,5,7,9,11,13,-1,-1,-1,-1,-1,-1,-1,-1],"loss_changes":[5.435304E6,8.201765E5,2.4083645E6,9.43E2,8.0411816E3,2.0312275E5,7.3843644E5,0E0,0E0,0E0,0E0,0E0,0E0,0E0,0E0],"parents":[2147483647,0,0,1,1,2,2,3,3,4,4,5,5,6,6],"right_children":[2,4,6,8,10,12,14,-1,-1,-1,-1,-1,-1,-1,-1],"split_conditions":[-6.9462955E-1,1.0353527E-3,5.8250427E-2,1.2743516E0,4.598029E-1,8.426776E-2,4.4133168E-1,1.5269685E1,1.3935402E1,4.0480274E-1,-2.3866122E0,-9.210908E0,1.0330797E0,4.4335404E-1,-6.3395348E0],"split_indices":[4101,2515,4104,866,2510,3758,2305,0,0,0,0,0,0,0,0],"split_type":[0,0,0,0,0,0,0,0,0,0,0,0,0,0,0],"sum_hessian":[2.071E3,2.55E2,1.816E3,2.21E2,3.4E1,3.17E2,1.499E3,2.9E1,1.92E2,2.1E1,1.3E1,3.01E2,1.6E1,1.36E3,1.39E2],"tree_param":{"num_deleted":"0","num_feature":"4105","num_nodes":"15","size_leaf_vector":"1"}},{"base_weights":[1.4153405E-1,1.2216495E2,-1.6630844E1,1.4521155E2,-6.4923983E0,-5.940812E1,8.179682E0,1.3924087E1,1.2699987E1,3.6964348E-1,-2.1802018E0,-1.4303181E0,-7.5489655E0,5.315539E-1,1.7467552E1],"categories":[],"categories_nodes":[],"categories_segments":[],"categories_sizes":[],"default_left":[0,0,0,0,0,0,0,0,0,0,0,0,0,0,0],"id":5,"left_children":[1,3,5,7,9,11,13,-1,-1,-1,-1,-1,-1,-1,-1],"loss_changes":[4.2372825E6,7.4202025E5,1.931908E6,8.1E2,7.383388E3,7.430665E5,4.7534453E5,0E0,0E0,0E0,0E0,0E0,0E0,0E0,0E0],"parents":[2147483647,0,0,1,1,2,2,3,3,4,4,5,5,6,6],"right_children":[2,4,6,8,10,12,14,-1,-1,-1,-1,-1,-1,-1,-1],"split_conditions":[-6.9462955E-1,2.897382E-1,1.76E2,1.2743516E0,1.3860573E-2,5.383783E-4,1.2284399E0,1.3924087E1,1.2699987E1,3.6964348E-1,-2.1802018E0,-1.4303181E0,-7.5489655E0,5.315539E-1,1.7467552E1],"split_indices":[4101,3140,4099,866,2176,2904,3470,0,0,0,0,0,0,0,0],"split_type":[0,0,0,0,0,0,0,0,0,0,0,0,0,0,0],"sum_hessian":[2.07E3,2.5E2,1.82E3,2.12E2,3.8E1,6.68E2,1.152E3,2.9E1,1.83E2,2.4E1,1.4E1,2.49E2,4.19E2,1.139E3,1.3E1],"tree_param":{"num_deleted":"0","num_feature":"4105","num_nodes":"15","size_leaf_vector":"1"}},{"base_weights":[5.5978205E-2,1.1259722E2,-1.5380209E1,-6.0023417E0,1.3216537E2,-1.5123378E0,-8.287015E1,-1.987353E0,3.36866E-1,1.2687586E1,1.1574903E1,-3.287607E-1,1.6604153E1,-8.576336E0,-4.136078E0],"categories":[],"categories_nodes":[],"categories_segments":[],"categories_sizes":[],"default_left":[0,0,0,0,0,0,0,0,0,0,0,0,0,0,0],"id":6,"left_children":[1,3,5,7,9,11,13,-1,-1,-1,-1,-1,-1,-1,-1],"loss_changes":[3.560196E6,5.7382275E5,1.686718E6,5.6736504E3,3.11E2,6.192701E5,1.530265E5,0E0,0E0,0E0,0E0,0E0,0E0,0E0,0E0],"parents":[2147483647,0,0,1,1,2,2,3,3,4,4,5,5,6,6],"right_children":[2,4,6,8,10,12,14,-1,-1,-1,-1,-1,-1,-1,-1],"split_conditions":[-6.9462955E-1,1.4911531E-2,1.5362553E-2,2.3747747E-1,1.2743516E0,2.813616E-1,3.2385316E-1,-1.987353E0,3.36866E-1,1.2687586E1,1.1574903E1,-3.287607E-1,1.6604153E1,-8.576336E0,-4.136078E0],"split_indices":[4101,2194,3100,2499,866,3906,3058,0,0,0,0,0,0,0,0],"split_type":[0,0,0,0,0,0,0,0,0,0,0,0,0,0,0],"sum_hessian":[2.049E3,2.47E2,1.802E3,3.5E1,2.12E2,1.495E3,3.07E2,1.3E1,2.2E1,2.6E1,1.86E2,1.478E3,1.7E1,2.22E2,8.5E1],"tree_param":{"num_deleted":"0","num_feature":"4105","num_nodes":"15","size_leaf_vector":"1"}},{"base_weights":[-1.2453914E-1,-1.3817344E1,9.684039E1,-6.278469E1,3.5598328E0,1.2090556E2,6.7107387E0,-2.576606E0,-7.441084E0,8.315561E-1,-5.5547395E0,1.0572412E1,1.3381301E1,-1.0337536E0,9.240176E-1],"categories":[],"categories_nodes":[],"categories_segments":[],"categories_sizes":[],"default_left":[0,0,0,0,0,0,0,0,0,0,0,0,0,0,0],"id":7,"left_children":[1,3,5,7,9,11,13,-1,-1,-1,-1,-1,-1,-1,-1],"loss_changes":[2.7488855E6,1.5437629E6,5.555135E5,3.3793125E5,5.1557494E5,6.94E3,3.7122346E3,0E0,0E0,0E0,0E0,0E0,0E0,0E0,0E0],"parents":[2147483647,0,0,1,1,2,2,3,3,4,4,5,5,6,6],"right_children":[2,4,6,8,10,12,14,-1,-1,-1,-1,-1,-1,-1,-1],"split_conditions":[1.1665127E0,2.0990975E-2,-2.9297597E0,7.3799137E-3,4.4133168E-1,4.1706672E-1,9.5359005E-2,-2.576606E0,-7.441084E0,8.315561E-1,-5.5547395E0,1.0572412E1,1.3381301E1,-1.0337536E0,9.240176E-1],"split_indices":[866,2319,4103,2302,2305,474,2832,0,0,0,0,0,0,0,0],"split_type":[0,0,0,0,0,0,0,0,0,0,0,0,0,0,0],"sum_hessian":[2.07E3,1.814E3,2.56E2,4.75E2,1.339E3,2.02E2,5.4E1,1.83E2,2.92E2,1.231E3,1.08E2,1.92E2,1E1,9E0,4.5E1],"tree_param":{"num_deleted":"0","num_feature":"4105","num_nodes":"15","size_leaf_vector":"1"}},{"base_weights":[4.8107284E-1,9.511104E1,-1.3296732E1,-4.833705E0,1.1123616E2,-5.1353096E1,6.205372E0,2.3420419E-1,-1.5883446E0,1.1030721E1,9.638546E0,-1.719637E0,-6.289045E0,3.539035E-1,1.46375065E1],"categories":[],"categories_nodes":[],"categories_segments":[],"categories_sizes":[],"default_left":[0,0,0,0,0,0,0,0,0,0,0,0,0,0,0],"id":8,"left_children":[1,3,5,7,9,11,13,-1,-1,-1,-1,-1,-1,-1,-1],"loss_changes":[2.658921E6,4.178185E5,1.3212804E6,3.5456238E3,4.9635E3,3.7672975E5,4.140585E5,0E0,0E0,0E0,0E0,0E0,0E0,0E0,0E0],"parents":[2147483647,0,0,1,1,2,2,3,3,4,4,5,5,6,6],"right_children":[2,4,6,8,10,12,14,-1,-1,-1,-1,-1,-1,-1,-1],"split_conditions":[-6.9462955E-1,4.664223E-3,2.4353983E-1,1.4069287E-2,6.5356195E-1,2.5390053E-1,2.1351824E-2,2.3420419E-1,-1.5883446E0,1.1030721E1,9.638546E0,-1.719637E0,-6.289045E0,3.539035E-1,1.46375065E1],"split_indices":[4101,3157,3505,2215,1606,3068,2298,0,0,0,0,0,0,0,0],"split_type":[0,0,0,0,0,0,0,0,0,0,0,0,0,0,0],"sum_hessian":[2.039E3,2.59E2,1.78E3,3.6E1,2.23E2,6.03E2,1.177E3,2.3E1,1.3E1,3.5E1,1.88E2,2.29E2,3.74E2,1.161E3,1.6E1],"tree_param":{"num_deleted":"0","num_feature":"4105","num_nodes":"15","size_leaf_vector":"1"}},{"base_weights":[1.370454E0,8.640243E1,-1.0610962E1,-4.228024E0,1.0170499E2,5.3682594E0,-4.7632236E1,-1.4494815E0,2.1367662E-1,1.050477E1,8.74715E0,2.744242E-1,1.3624239E1,-8.1065327E-1,-5.487037E0],"categories":[],"categories_nodes":[],"categories_segments":[],"categories_sizes":[],"default_left":[0,0,0,0,0,0,0,0,0,0,0,0,0,0,0],"id":9,"left_children":[1,3,5,7,9,11,13,-1,-1,-1,-1,-1,-1,-1,-1],"loss_changes":[2.1133655E6,3.5538638E5,1.0756372E6,2.9978652E3,9.1045E3,4.281292E5,3.0018562E5,0E0,0E0,0E0,0E0,0E0,0E0,0E0,0E0],"parents":[2147483647,0,0,1,1,2,2,3,3,4,4,5,5,6,6],"right_children":[2,4,6,8,10,12,14,-1,-1,-1,-1,-1,-1,-1,-1],"split_conditions":[-6.9462955E-1,5.280439E-1,1.9611824E-1,1.465513E-1,1.2743516E0,2.813616E-1,2.1698603E-1,-1.4494815E0,2.1367662E-1,1.050477E1,8.74715E0,2.744242E-1,1.3624239E1,-8.1065327E-1,-5.487037E0],"split_indices":[4101,3447,3641,1556,866,3906,3175,0,0,0,0,0,0,0,0],"split_type":[0,0,0,0,0,0,0,0,0,0,0,0,0,0,0],"sum_hessian":[2.074E3,2.56E2,1.818E3,3.7E1,2.19E2,1.27E3,5.48E2,1.3E1,2.4E1,3.3E1,1.86E2,1.251E3,1.9E1,1.48E2,4E2],"tree_param":{"num_deleted":"0","num_feature":"4105","num_nodes":"15","size_leaf_vector":"1"}},{"base_weights":[1.0963113E-3,-2.763632E1,2.9950502E1,-5.7823246E1,-6.138803E0,1.0013993E1,9.1681114E1,-5.4100633E0,3.065667E-1,-2.8848714E-1,-4.010742E0,-2.9723003E0,1.5034704E0,8.606408E0,9.307724E-1],"categories":[],"categories_nodes":[],"categories_segments":[],"categories_sizes":[],"default_left":[0,0,0,0,0,0,0,0,0,0,0,0,0,0,0],"id":10,"left_children":[1,3,5,7,9,11,13,-1,-1,-1,-1,-1,-1,-1,-1],"loss_changes":[1.7112185E6,6.9766856E5,1.2209038E6,8.697375E4,7.0828E4,2.2660823E5,1.0502975E5,0E0,0E0,0E0,0E0,0E0,0E0,0E0,0E0],"parents":[2147483647,0,0,1,1,2,2,3,3,4,4,5,5,6,6],"right_children":[2,4,6,8,10,12,14,-1,-1,-1,-1,-1,-1,-1,-1],"split_conditions":[2.429204E-1,9.044772E-3,4.9390024E-1,3.0096045E-1,2.3295645E-1,6.95E3,4.742394E-1,-5.4100633E0,3.065667E-1,-2.8848714E-1,-4.010742E0,-2.9723003E0,1.5034704E0,8.606408E0,9.307724E-1],"split_indices":[1755,3443,294,3006,2305,4096,3548,0,0,0,0,0,0,0,0],"split_type":[0,0,0,0,0,0,0,0,0,0,0,0,0,0,0],"sum_hessian":[2.067E3,1.075E3,9.92E2,4.47E2,6.28E2,7.5E2,2.42E2,4.25E2,2.2E1,5.85E2,4.3E1,1.03E2,6.47E2,2.27E2,1.5E1],"tree_param":{"num_deleted":"0","num_feature":"4105","num_nodes":"15","size_leaf_vector":"1"}},{"base_weights":[2.0751067E-1,7.17776E1,-9.925717E0,8.4464035E1,-4.3838334E0,-3.69182E1,6.2393465E0,9.051451E0,7.240828E0,-1.4542011E0,2.2018042E-1,9.393535E-1,-4.1989355E0,-5.8707863E-1,1.607072E0],"categories":[],"categories_nodes":[],"categories_segments":[],"categories_sizes":[],"default_left":[0,0,0,0,0,0,0,0,0,0,0,0,0,0,0],"id":11,"left_children":[1,3,5,7,9,11,13,-1,-1,-1,-1,-1,-1,-1,-1],"loss_changes":[1.4746781E6,2.43741E5,7.772397E5,9.172625E3,2.9926716E3,3.3046294E5,1.702164E5,0E0,0E0,0E0,0E0,0E0,0E0,0E0,0E0],"parents":[2147483647,0,0,1,1,2,2,3,3,4,4,5,5,6,6],"right_children":[2,4,6,8,10,12,14,-1,-1,-1,-1,-1,-1,-1,-1],"split_conditions":[-6.9462955E-1,8.723644E-2,1.76E2,1.1665127E0,6.0815373E-3,7.777778E-1,2.2627132E-1,9.051451E0,7.240828E0,-1.4542011E0,2.2018042E-1,9.393535E-1,-4.1989355E0,-5.8707863E-1,1.607072E0],"split_indices":[4101,2845,4099,866,327,4100,1755,0,0,0,0,0,0,0,0],"split_type":[0,0,0,0,0,0,0,0,0,0,0,0,0,0,0],"sum_hessian":[2.033E3,2.52E2,1.781E3,2.16E2,3.6E1,6.67E2,1.114E3,2.9E1,1.87E2,1.3E1,2.3E1,1.2E2,5.47E2,5.35E2,5.79E2],"tree_param":{"num_deleted":"0","num_feature":"4105","num_nodes":"15","size_leaf_vector":"1"}},{"base_weights":[2.3652326E-1,-2.191942E1,2.6385826E1,-5.3095016E1,-8.600179E0,1.4278864E1,7.3991714E1,-5.3495936E0,-2.5362499E0,1.0108468E1,-9.351112E-1,9.588016E-1,8.373246E0,-1.7942944E0,6.9774766E0],"categories":[],"categories_nodes":[],"categories_segments":[],"categories_sizes":[],"default_left":[0,0,0,0,0,0,0,0,0,0,0,0,0,0,0],"id":12,"left_children":[1,3,5,7,9,11,13,-1,-1,-1,-1,-1,-1,-1,-1],"loss_changes":[1.191388E6,4.6214756E5,5.434172E5,5.8600188E4,1.859966E5,2.088717E5,8.452825E4,0E0,0E0,0E0,0E0,0E0,0E0,0E0,0E0],"parents":[2147483647,0,0,1,1,2,2,3,3,4,4,5,5,6,6],"right_children":[2,4,6,8,10,12,14,-1,-1,-1,-1,-1,-1,-1,-1],"split_conditions":[3.9852452E-1,1.02901505E-2,3.938444E-1,2.0226037E-4,1.8968856E-2,2.486868E-1,1.0584367E-1,-5.3495936E0,-2.5362499E0,1.0108468E1,-9.351112E-1,9.588016E-1,8.373246E0,-1.7942944E0,6.9774766E0],"split_indices":[1145,2411,2137,3314,2750,178,1771,0,0,0,0,0,0,0,0],"split_type":[0,0,0,0,0,0,0,0,0,0,0,0,0,0,0],"sum_hessian":[2.056E3,1.113E3,9.43E2,3.33E2,7.8E2,7.52E2,1.91E2,2.57E2,7.6E1,1.2E1,7.68E2,7.21E2,3.1E1,9E0,1.82E2],"tree_param":{"num_deleted":"0","num_feature":"4105","num_nodes":"15","size_leaf_vector":"1"}},{"base_weights":[-4.4388828E-1,-2.171994E1,2.2734236E1,-4.5289307E1,-4.3910522E0,8.013078E0,7.0244286E1,-4.2110863E0,1.2236758E0,-3.210697E0,-1.5877609E-1,-2.0966372E0,1.1990633E0,5.7110405E0,1.1884818E1],"categories":[],"categories_nodes":[],"categories_segments":[],"categories_sizes":[],"default_left":[0,0,0,0,0,0,0,0,0,0,0,0,0,0,0],"id":13,"left_children":[1,3,5,7,9,11,13,-1,-1,-1,-1,-1,-1,-1,-1],"loss_changes":[1.00273794E6,4.3297512E5,6.805429E5,5.82065E4,5.0550566E4,1.2957141E5,8.4291625E4,0E0,0E0,0E0,0E0,0E0,0E0,0E0,0E0],"parents":[2147483647,0,0,1,1,2,2,3,3,4,4,5,5,6,6],"right_children":[2,4,6,8,10,12,14,-1,-1,-1,-1,-1,-1,-1,-1],"split_conditions":[2.429204E-1,9.044772E-3,4.9390024E-1,4.5851064E-1,2.5455935E-3,1.386141E-2,4.6849053E-2,-4.2110863E0,1.2236758E0,-3.210697E0,-1.5877609E-1,-2.0966372E0,1.1990633E0,5.7110405E0,1.1884818E1],"split_indices":[1755,3443,294,842,2828,3309,3860,0,0,0,0,0,0,0,0],"split_type":[0,0,0,0,0,0,0,0,0,0,0,0,0,0,0],"sum_hessian":[2.033E3,1.06E3,9.73E2,4.49E2,6.11E2,7.43E2,2.3E2,4.33E2,1.6E1,4.6E1,5.65E2,1.1E2,6.33E2,2.11E2,1.9E1],"tree_param":{"num_deleted":"0","num_feature":"4105","num_nodes":"15","size_leaf_vector":"1"}},{"base_weights":[6.0984963E-1,-1.851837E1,2.2594479E1,-6.249529E0,-4.154433E1,9.048599E0,6.3422497E1,8.184935E0,-7.071674E-1,-1.2377095E0,-4.2126255E0,-2.7036526E0,9.582011E-1,5.972644E0,-1.4286001E0],"categories":[],"categories_nodes":[],"categories_segments":[],"categories_sizes":[],"default_left":[0,0,0,0,0,0,0,0,0,0,0,0,0,0,0],"id":14,"left_children":[1,3,5,7,9,11,13,-1,-1,-1,-1,-1,-1,-1,-1],"loss_changes":[8.534074E5,3.065176E5,5.2207475E5,1.2039245E5,6.180025E4,4.9251637E4,7.344956E4,0E0,0E0,0E0,0E0,0E0,0E0,0E0,0E0],"parents":[2147483647,0,0,1,1,2,2,3,3,4,4,5,5,6,6],"right_children":[2,4,6,8,10,12,14,-1,-1,-1,-1,-1,-1,-1,-1],"split_conditions":[3.9852452E-1,2.1508192E-1,4.9390024E-1,1.3963124E-2,4.2983726E-2,2.8080229E-2,3.724916E-1,8.184935E0,-7.071674E-1,-1.2377095E0,-4.2126255E0,-2.7036526E0,9.582011E-1,5.972644E0,-1.4286001E0],"split_indices":[1145,1453,294,3679,3276,3740,1882,0,0,0,0,0,0,0,0],"split_type":[0,0,0,0,0,0,0,0,0,0,0,0,0,0,0],"sum_hessian":[2.029E3,1.085E3,9.44E2,7.08E2,3.77E2,7.09E2,2.35E2,1.2E1,6.96E2,6.7E1,3.1E2,3E1,6.79E2,2.24E2,1.1E1],"tree_param":{"num_deleted":"0","num_feature":"4105","num_nodes":"15","size_leaf_vector":"1"}},{"base_weights":[4.9917623E-1,-1.7667303E1,1.9587294E1,-3.7897305E1,-3.5996993E0,6.782999E0,5.863637E1,-3.5860372E0,8.310924E-1,-4.249924E0,-1.8087015E-1,8.881976E-1,-3.119177E0,4.730075E0,9.955074E0],"categories":[],"categories_nodes":[],"categories_segments":[],"categories_sizes":[],"default_left":[0,0,0,0,0,0,0,0,0,0,0,0,0,0,0],"id":15,"left_children":[1,3,5,7,9,11,13,-1,-1,-1,-1,-1,-1,-1,-1],"loss_changes":[7.148112E5,3.005515E5,5.0251353E5,5.1944125E4,4.3076508E4,1.0269409E5,6.9470875E4,0E0,0E0,0E0,0E0,0E0,0E0,0E0,0E0],"parents":[2147483647,0,0,1,1,2,2,3,3,4,4,5,5,6,6],"right_children":[2,4,6,8,10,12,14,-1,-1,-1,-1,-1,-1,-1,-1],"split_conditions":[2.429204E-1,9.044772E-3,4.9390024E-1,6.7141415E-3,7.4728945E-5,1.9669014E-1,2.871801E-2,-3.5860372E0,8.310924E-1,-4.249924E0,-1.8087015E-1,8.881976E-1,-3.119177E0,4.730075E0,9.955074E0],"split_indices":[1755,3443,294,2103,3467,3562,3595,0,0,0,0,0,0,0,0],"split_type":[0,0,0,0,0,0,0,0,0,0,0,0,0,0,0],"sum_hessian":[2.061E3,1.056E3,1.005E3,4.33E2,6.23E2,7.57E2,2.48E2,4.11E2,2.2E1,2.1E1,6.02E2,7.03E2,5.4E1,2.26E2,2.2E1],"tree_param":{"num_deleted":"0","num_feature":"4105","num_nodes":"15","size_leaf_vector":"1"}},{"base_weights":[3.3408353E-1,-1.7024052E1,1.745606E1,-3.564681E1,-3.6021974E0,5.875119E0,5.047968E1,9.802519E-1,-3.3346922E0,-1.2183179E-1,-2.886466E0,-1.8880345E0,9.023106E-1,5.099326E0,-6.270583E-1],"categories":[],"categories_nodes":[],"categories_segments":[],"categories_sizes":[],"default_left":[0,0,0,0,0,0,0,0,0,0,0,0,0,0,0],"id":16,"left_children":[1,3,5,7,9,11,13,-1,-1,-1,-1,-1,-1,-1,-1],"loss_changes":[6.0760044E5,2.5372312E5,3.9355025E5,3.8798812E4,3.805702E4,8.901813E4,1.0790575E5,0E0,0E0,0E0,0E0,0E0,0E0,0E0,0E0],"parents":[2147483647,0,0,1,1,2,2,3,3,4,4,5,5,6,6],"right_children":[2,4,6,8,10,12,14,-1,-1,-1,-1,-1,-1,-1,-1],"split_conditions":[2.201811E-1,9.044772E-3,4.5364964E-1,7.741087E-2,2.3295645E-1,1.23E2,5.285887E-2,9.802519E-1,-3.3346922E0,-1.2183179E-1,-2.886466E0,-1.8880345E0,9.023106E-1,5.099326E0,-6.270583E-1],"split_indices":[1755,3443,294,3149,2305,4099,2986,0,0,0,0,0,0,0,0],"split_type":[0,0,0,0,0,0,0,0,0,0,0,0,0,0,0],"sum_hessian":[2.044E3,1.015E3,1.029E3,4.25E2,5.9E2,7.62E2,2.67E2,1.7E1,4.08E2,5.48E2,4.2E1,1.04E2,6.58E2,2.38E2,2.9E1],"tree_param":{"num_deleted":"0","num_feature":"4105","num_nodes":"15","size_leaf_vector":"1"}},{"base_weights":[6.749638E-1,4.2019238E1,-5.525831E0,4.913533E1,-1.6401967E0,-3.994108E1,-3.549728E-1,6.1961813E0,4.1895866E0,-8.9404356E-1,2.94662E-1,-3.4605734E0,-4.3043137E0,-1.2305636E-1,7.7932835E0],"categories":[],"categories_nodes":[],"categories_segments":[],"categories_sizes":[],"default_left":[0,0,0,0,0,0,0,0,0,0,0,0,0,0,0],"id":17,"left_children":[1,3,5,7,9,11,13,-1,-1,-1,-1,-1,-1,-1,-1],"loss_changes":[5.330809E5,8.427066E4,3.21775E5,8.5555625E3,1.6058638E3,1.5164375E3,1.432162E5,0E0,0E0,0E0,0E0,0E0,0E0,0E0,0E0],"parents":[2147483647,0,0,1,1,2,2,3,3,4,4,5,5,6,6],"right_children":[2,4,6,8,10,12,14,-1,-1,-1,-1,-1,-1,-1,-1],"split_conditions":[-6.9462955E-1,1.4214006E-1,8.6E1,5.9225567E-2,1.6882458E-1,2.2708165E-2,2.4735782E-1,6.1961813E0,4.1895866E0,-8.9404356E-1,2.94662E-1,-3.4605734E0,-4.3043137E0,-1.2305636E-1,7.7932835E0],"split_indices":[4101,2488,4099,350,306,2818,3906,0,0,0,0,0,0,0,0],"split_type":[0,0,0,0,0,0,0,0,0,0,0,0,0,0,0],"sum_hessian":[2.079E3,2.71E2,1.808E3,2.33E2,3.8E1,2.36E2,1.572E3,1.9E1,2.14E2,1.4E1,2.4E1,2.14E2,2.2E1,1.554E3,1.8E1],"tree_param":{"num_deleted":"0","num_feature":"4105","num_nodes":"15","size_leaf_vector":"1"}},{"base_weights":[-2.1937286E-2,-1.3880816E1,1.4950372E1,-3.706104E0,-2.8321236E1,7.1773524E0,4.1817837E1,6.5344577E0,-4.2869425E-1,-2.9677424E0,-5.806437E-1,-1.1857562E0,8.56177E-1,4.1030893E0,-1.4497449E0],"categories":[],"categories_nodes":[],"categories_segments":[],"categories_sizes":[],"default_left":[0,0,0,0,0,0,0,0,0,0,0,0,0,0,0],"id":18,"left_children":[1,3,5,7,9,11,13,-1,-1,-1,-1,-1,-1,-1,-1],"loss_changes":[4.3520462E5,1.6001075E5,2.104936E5,5.581593E4,5.032875E4,3.98092E4,5.8585375E4,0E0,0E0,0E0,0E0,0E0,0E0,0E0,0E0],"parents":[2147483647,0,0,1,1,2,2,3,3,4,4,5,5,6,6],"right_children":[2,4,6,8,10,12,14,-1,-1,-1,-1,-1,-1,-1,-1],"split_conditions":[3.5507298E-1,8.095238E-1,4.9390024E-1,1.4656524E-1,7.7853695E-2,4.314551E-1,5.251165E-2,6.5344577E0,-4.2869425E-1,-2.9677424E0,-5.806437E-1,-1.1857562E0,8.56177E-1,4.1030893E0,-1.4497449E0],"split_indices":[1145,4100,294,3285,2203,2972,2210,0,0,0,0,0,0,0,0],"split_type":[0,0,0,0,0,0,0,0,0,0,0,0,0,0,0],"sum_hessian":[2.097E3,1.089E3,1.008E3,6.39E2,4.5E2,7.82E2,2.26E2,9E0,6.3E2,3.64E2,8.6E1,8.4E1,6.98E2,2.1E2,1.6E1],"tree_param":{"num_deleted":"0","num_feature":"4105","num_nodes":"15","size_leaf_vector":"1"}},{"base_weights":[-1.1687263E-1,-1.3064321E1,1.38833275E1,-3.245857E1,-5.3608975E0,5.5250893E0,4.0773647E1,-3.1306844E0,-1.6423818E0,-1.17130525E-1,-2.2728467E0,7.179778E-1,-2.5420845E0,3.216636E0,7.644654E0],"categories":[],"categories_nodes":[],"categories_segments":[],"categories_sizes":[],"default_left":[0,0,0,0,0,0,0,0,0,0,0,0,0,0,0],"id":19,"left_children":[1,3,5,7,9,11,13,-1,-1,-1,-1,-1,-1,-1,-1],"loss_changes":[3.758347E5,1.6090045E5,2.2385542E5,1.1990875E4,6.31331E4,6.682428E4,4.776053E4,0E0,0E0,0E0,0E0,0E0,0E0,0E0,0E0],"parents":[2147483647,0,0,1,1,2,2,3,3,4,4,5,5,6,6],"right_children":[2,4,6,8,10,12,14,-1,-1,-1,-1,-1,-1,-1,-1],"split_conditions":[2.429204E-1,1.02901505E-2,4.9390024E-1,9.297629E-2,1.7021074E0,1.9669014E-1,4.6849053E-2,-3.1306844E0,-1.6423818E0,-1.17130525E-1,-2.2728467E0,7.179778E-1,-2.5420845E0,3.216636E0,7.644654E0],"split_indices":[1755,2411,294,3164,702,3562,3860,0,0,0,0,0,0,0,0],"split_type":[0,0,0,0,0,0,0,0,0,0,0,0,0,0,0],"sum_hessian":[2.073E3,1.077E3,9.96E2,3.06E2,7.71E2,7.6E2,2.36E2,2.54E2,5.2E1,6.43E2,1.28E2,7.07E2,5.3E1,2.15E2,2.1E1],"tree_param":{"num_deleted":"0","num_feature":"4105","num_nodes":"15","size_leaf_vector":"1"}},{"base_weights":[1.1741409E-1,-1.0033934E1,1.4460515E1,-2.1777344E1,5.890245E-1,7.595674E0,3.9088505E1,-2.1132958E0,2.5499976E0,4.4876003E0,-4.3011256E-2,5.1255983E-1,3.7199376E0,7.4143515E0,3.1837564E0],"categories":[],"categories_nodes":[],"categories_segments":[],"categories_sizes":[],"default_left":[0,0,0,0,0,0,0,0,0,0,0,0,0,0,0],"id":20,"left_children":[1,3,5,7,9,11,13,-1,-1,-1,-1,-1,-1,-1,-1],"loss_changes":[2.9693706E5,1.4897769E5,1.4283653E5,5.8848312E4,3.368868E4,4.1210293E4,2.5607062E4,0E0,0E0,0E0,0E0,0E0,0E0,0E0,0E0],"parents":[2147483647,0,0,1,1,2,2,3,3,4,4,5,5,6,6],"right_children":[2,4,6,8,10,12,14,-1,-1,-1,-1,-1,-1,-1,-1],"split_conditions":[5.217417E-1,1.19635E4,3.938444E-1,4.512763E-2,3.1568343E-3,6.4732563E-1,2.4852984E-2,-2.1132958E0,2.5499976E0,4.4876003E0,-4.3011256E-2,5.1255983E-1,3.7199376E0,7.4143515E0,3.1837564E0],"split_indices":[441,4096,2137,3040,1230,294,153,0,0,0,0,0,0,0,0],"split_type":[0,0,0,0,0,0,0,0,0,0,0,0,0,0,0],"sum_hessian":[2.039E3,1.194E3,8.45E2,5.67E2,6.27E2,6.61E2,1.84E2,5.45E2,2.2E1,1.3E1,6.14E2,6.28E2,3.3E1,1.2E1,1.72E2],"tree_param":{"num_deleted":"0","num_feature":"4105","num_nodes":"15","size_leaf_vector":"1"}},{"base_weights":[1.21727146E-1,-1.0784775E1,1.2129798E1,-2.5619444E1,-4.1003466E0,5.7524962E0,3.3021927E1,-7.558775E-1,-2.489086E0,6.0932817E0,-4.5320162E-1,-3.7488625E0,5.8619094E-1,3.1628819E0,-9.480129E-1],"categories":[],"categories_nodes":[],"categories_segments":[],"categories_sizes":[],"default_left":[0,0,0,0,0,0,0,0,0,0,0,0,0,0,0],"id":21,"left_children":[1,3,5,7,9,11,13,-1,-1,-1,-1,-1,-1,-1,-1],"loss_changes":[2.6970856E5,1.0699315E5,1.3055903E5,1.3958109E4,5.4742305E4,3.0946562E4,2.6498484E4,0E0,0E0,0E0,0E0,0E0,0E0,0E0,0E0],"parents":[2147483647,0,0,1,1,2,2,3,3,4,4,5,5,6,6],"right_children":[2,4,6,8,10,12,14,-1,-1,-1,-1,-1,-1,-1,-1],"split_conditions":[3.5507298E-1,1.02901505E-2,4.9390024E-1,3.0735139E-2,1.8968856E-2,6.391241E-3,5.251165E-2,-7.558775E-1,-2.489086E0,6.0932817E0,-4.5320162E-1,-3.7488625E0,5.8619094E-1,3.1628819E0,-9.480129E-1],"split_indices":[1145,2411,294,3532,2750,3140,2210,0,0,0,0,0,0,0,0],"split_type":[0,0,0,0,0,0,0,0,0,0,0,0,0,0,0],"sum_hessian":[2.059E3,1.079E3,9.8E2,3.35E2,7.44E2,7.51E2,2.29E2,4.2E1,2.93E2,1E1,7.34E2,1.3E1,7.38E2,2.16E2,1.3E1],"tree_param":{"num_deleted":"0","num_feature":"4105","num_nodes":"15","size_leaf_vector":"1"}},{"base_weights":[-5.184256E-2,-1.016015E1,1.0498479E1,-2.200881E1,-1.9706002E0,2.8593218E1,5.2200027E0,-2.0887208E0,8.352145E-1,-2.7341058E0,-8.877992E-2,-6.937021E-1,2.7650535E0,3.5826674E-1,5.39458E0],"categories":[],"categories_nodes":[],"categories_segments":[],"categories_sizes":[],"default_left":[0,0,0,0,0,0,0,0,0,0,0,0,0,0,0],"id":22,"left_children":[1,3,5,7,9,11,13,-1,-1,-1,-1,-1,-1,-1,-1],"loss_changes":[2.1930422E5,1.0189647E5,9.6074734E4,2.0818156E4,1.7373832E4,2.1401328E4,5.110586E4,0E0,0E0,0E0,0E0,0E0,0E0,0E0,0E0],"parents":[2147483647,0,0,1,1,2,2,3,3,4,4,5,5,6,6],"right_children":[2,4,6,8,10,12,14,-1,-1,-1,-1,-1,-1,-1,-1],"split_conditions":[2.201811E-1,9.044772E-3,-6.9462955E-1,6.7141415E-3,2.6381675E-2,6.592656E-4,2.813616E-1,-2.0887208E0,8.352145E-1,-2.7341058E0,-8.877992E-2,-6.937021E-1,2.7650535E0,3.5826674E-1,5.39458E0],"split_indices":[1755,3443,4101,2103,3462,2194,3906,0,0,0,0,0,0,0,0],"split_type":[0,0,0,0,0,0,0,0,0,0,0,0,0,0,0],"sum_hessian":[2.056E3,1.05E3,1.006E3,4.29E2,6.21E2,2.27E2,7.79E2,4.09E2,2E1,2E1,6.01E2,1.5E1,2.12E2,7.63E2,1.6E1],"tree_param":{"num_deleted":"0","num_feature":"4105","num_nodes":"15","size_leaf_vector":"1"}},{"base_weights":[5.9363924E-2,-1.1652792E1,7.770565E0,-1.4095163E0,-1.884099E1,3.9150445E0,3.1383307E1,2.1068184E0,-3.284266E-1,-1.9948517E0,-1.4388373E-1,3.7582326E0,2.7143455E-1,5.097685E0,2.3525243E0],"categories":[],"categories_nodes":[],"categories_segments":[],"categories_sizes":[],"default_left":[0,0,0,0,0,0,0,0,0,0,0,0,0,0,0],"id":23,"left_children":[1,3,5,7,9,11,13,-1,-1,-1,-1,-1,-1,-1,-1],"loss_changes":[1.8590188E5,6.016465E4,1.1297303E5,1.9473982E4,3.017075E4,3.5054734E4,2.179639E4,0E0,0E0,0E0,0E0,0E0,0E0,0E0,0E0],"parents":[2147483647,0,0,1,1,2,2,3,3,4,4,5,5,6,6],"right_children":[2,4,6,8,10,12,14,-1,-1,-1,-1,-1,-1,-1,-1],"split_conditions":[7.2537646E-2,2.1698603E-1,3.5895744E-1,7.649198E-4,5.2173972E-2,4.695182E-2,1.1665127E0,2.1068184E0,-3.284266E-1,-1.9948517E0,-1.4388373E-1,3.7582326E0,2.7143455E-1,5.097685E0,2.3525243E0],"split_indices":[2722,3175,3025,2228,3967,2510,866,0,0,0,0,0,0,0,0],"split_type":[0,0,0,0,0,0,0,0,0,0,0,0,0,0,0],"sum_hessian":[2.058E3,8.17E2,1.241E3,3.37E2,4.8E2,1.067E3,1.74E2,2.8E1,3.09E2,3.96E2,8.4E1,2.3E1,1.044E3,2.7E1,1.47E2],"tree_param":{"num_deleted":"0","num_feature":"4105","num_nodes":"15","size_leaf_vector":"1"}},{"base_weights":[2.4732167E-1,-8.7247715E0,9.13938E0,-2.2758245E1,-4.0423627E0,4.3840384E0,2.4444275E1,-3.5605621E0,-1.9243088E0,-1.9882089E-2,-1.2953178E0,4.944262E-1,-2.8710604E0,2.4902308E0,-2.5963855E-1],"categories":[],"categories_nodes":[],"categories_segments":[],"categories_sizes":[],"default_left":[0,0,0,0,0,0,0,0,0,0,0,0,0,0,0],"id":24,"left_children":[1,3,5,7,9,11,13,-1,-1,-1,-1,-1,-1,-1,-1],"loss_changes":[1.6030892E5,6.570483E4,7.342783E4,4.456297E3,3.0251508E4,3.3729E4,2.3793016E4,0E0,0E0,0E0,0E0,0E0,0E0,0E0,0E0],"parents":[2147483647,0,0,1,1,2,2,3,3,4,4,5,5,6,6],"right_children":[2,4,6,8,10,12,14,-1,-1,-1,-1,-1,-1,-1,-1],"split_conditions":[3.1231943E-1,1.1648507E-3,4.5364964E-1,6.955803E-3,4.5042473E-1,3.4127325E-1,5.251165E-2,-3.5605621E0,-1.9243088E0,-1.9882089E-2,-1.2953178E0,4.944262E-1,-2.8710604E0,2.4902308E0,-2.5963855E-1],"split_indices":[1145,2687,294,3533,2901,3315,2210,0,0,0,0,0,0,0,0],"split_type":[0,0,0,0,0,0,0,0,0,0,0,0,0,0,0],"sum_hessian":[2.009E3,1E3,1.009E3,2.5E2,7.5E2,7.7E2,2.39E2,1.4E1,2.36E2,5.51E2,1.99E2,7.46E2,2.4E1,2.11E2,2.8E1],"tree_param":{"num_deleted":"0","num_feature":"4105","num_nodes":"15","size_leaf_vector":"1"}},{"base_weights":[1.121547E-1,-7.9486356E0,8.408315E0,-9.002798E0,4.770409E0,2.3101948E1,4.049282E0,-1.461614E0,-1.0680788E-1,1.8876781E0,5.1322947E0,6.9520706E-1,-2.689358E-1],"categories":[],"categories_nodes":[],"categories_segments":[],"categories_sizes":[],"default_left":[0,0,0,0,0,0,0,0,0,0,0,0,0],"id":25,"left_children":[1,3,5,7,-1,9,11,-1,-1,-1,-1,-1,-1],"loss_changes":[1.3477558E5,6.661029E4,6.3595445E4,5.8601492E4,0E0,1.4134164E4,2.0561445E4,0E0,0E0,0E0,0E0,0E0,0E0],"parents":[2147483647,0,0,1,1,2,2,3,3,5,5,6,6],"right_children":[2,4,6,8,-1,10,12,-1,-1,-1,-1,-1,-1],"split_conditions":[4.9439654E-2,2.3544051E-1,-2.9297597E0,5.2173972E-2,4.770409E0,2.9136306E-1,3.0113763E-1,-1.461614E0,-1.0680788E-1,1.8876781E0,5.1322947E0,6.9520706E-1,-2.689358E-1],"split_indices":[3736,2570,4103,3967,0,1735,734,0,0,0,0,0,0],"split_type":[0,0,0,0,0,0,0,0,0,0,0,0,0],"sum_hessian":[2.015E3,1.022E3,9.93E2,1.005E3,1.7E1,2.27E2,7.66E2,5.13E2,4.92E2,2.16E2,1.1E1,4.99E2,2.67E2],"tree_param":{"num_deleted":"0","num_feature":"4105","num_nodes":"13","size_leaf_vector":"1"}},{"base_weights":[5.5723716E-2,8.513607E0,-6.810955E0,4.9235168E0,2.354216E1,-1.6118767E1,-5.983854E-1,3.3658534E-1,3.0669534E0,6.1957507E0,1.861321E0,-7.800072E-1,-1.7602926E0,-1.2525818E-1,2.9044743E0],"categories":[],"categories_nodes":[],"categories_segments":[],"categories_sizes":[],"default_left":[0,0,0,0,0,0,0,0,0,0,0,0,0,0,0],"id":26,"left_children":[1,3,5,7,9,11,13,-1,-1,-1,-1,-1,-1,-1,-1],"loss_changes":[1.1913904E5,4.957118E4,6.5467062E4,2.4816234E4,2.07015E4,1.2339766E4,1.8439143E4,0E0,0E0,0E0,0E0,0E0,0E0,0E0,0E0],"parents":[2147483647,0,0,1,1,2,2,3,3,4,4,5,5,6,6],"right_children":[2,4,6,8,10,12,14,-1,-1,-1,-1,-1,-1,-1,-1],"split_conditions":[2.4275815E-1,3.938444E-1,1.2586144E-1,1.1573375E0,1.1639436E-2,-6.45087E-1,9.122576E-1,3.3658534E-1,3.0669534E0,6.1957507E0,1.861321E0,-7.800072E-1,-1.7602926E0,-1.2525818E-1,2.9044743E0],"split_indices":[1949,2137,1240,294,1726,4101,410,0,0,0,0,0,0,0,0],"split_type":[0,0,0,0,0,0,0,0,0,0,0,0,0,0,0],"sum_hessian":[2.051E3,9.19E2,1.132E3,7.42E2,1.77E2,4.53E2,6.79E2,7.15E2,2.7E1,9E0,1.68E2,1.53E2,3E2,6.63E2,1.6E1],"tree_param":{"num_deleted":"0","num_feature":"4105","num_nodes":"15","size_leaf_vector":"1"}},{"base_weights":[-3.0955283E-3,-8.692823E0,5.724178E0,-1.655471E1,-2.4059498E0,2.8794072E0,2.1465574E1,-4.0842447E-1,-1.70748E0,1.6432524E0,-4.0614563E-1,1.9783385E-1,3.8794773E0,3.5057127E0,1.5440582E0],"categories":[],"categories_nodes":[],"categories_segments":[],"categories_sizes":[],"default_left":[0,0,0,0,0,0,0,0,0,0,0,0,0,0,0],"id":27,"left_children":[1,3,5,7,9,11,13,-1,-1,-1,-1,-1,-1,-1,-1],"loss_changes":[1.00999055E5,3.9839246E4,5.4762914E4,1.1523328E4,2.0403518E4,2.745529E4,1.3583953E4,0E0,0E0,0E0,0E0,0E0,0E0,0E0,0E0],"parents":[2147483647,0,0,1,1,2,2,3,3,4,4,5,5,6,6],"right_children":[2,4,6,8,10,12,14,-1,-1,-1,-1,-1,-1,-1,-1],"split_conditions":[7.2537646E-2,4.7011744E-2,3.5895744E-1,5.7257656E-2,5.444689E-2,8.544234E-3,1.317175E0,-4.0842447E-1,-1.70748E0,1.6432524E0,-4.0614563E-1,1.9783385E-1,3.8794773E0,3.5057127E0,1.5440582E0],"split_indices":[2722,4023,3025,2580,2988,2811,866,0,0,0,0,0,0,0,0],"split_type":[0,0,0,0,0,0,0,0,0,0,0,0,0,0,0],"sum_hessian":[2.029E3,8.06E2,1.223E3,3.58E2,4.48E2,1.036E3,1.87E2,6.6E1,2.92E2,4.2E1,4.06E2,1.02E3,1.6E1,3.4E1,1.53E2],"tree_param":{"num_deleted":"0","num_feature":"4105","num_nodes":"15","size_leaf_vector":"1"}},{"base_weights":[-2.9422495E-1,-5.700433E0,7.616609E0,-1.1738219E1,7.745022E-2,3.9228313E0,1.734778E1,-1.3130326E0,3.774971E-2,1.0444715E0,-1.5291896E-1,-2.9152504E-1,6.88753E-1,1.321299E0,5.3880897E0],"categories":[],"categories_nodes":[],"categories_segments":[],"categories_sizes":[],"default_left":[0,0,0,0,0,0,0,0,0,0,0,0,0,0,0],"id":28,"left_children":[1,3,5,7,9,11,13,-1,-1,-1,-1,-1,-1,-1,-1],"loss_changes":[8.777536E4,4.2532625E4,2.9935414E4,2.2232477E4,1.31378E4,1.67427E4,2.4205312E4,0E0,0E0,0E0,0E0,0E0,0E0,0E0,0E0],"parents":[2147483647,0,0,1,1,2,2,3,3,4,4,5,5,6,6],"right_children":[2,4,6,8,10,12,14,-1,-1,-1,-1,-1,-1,-1,-1],"split_conditions":[5.217417E-1,1.19635E4,4.5364964E-1,1.365253E-1,1.16645925E-1,9.680125E-1,4.6849053E-2,-1.3130326E0,3.774971E-2,1.0444715E0,-1.5291896E-1,-2.9152504E-1,6.88753E-1,1.321299E0,5.3880897E0],"split_indices":[441,4096,294,4024,225,4002,3860,0,0,0,0,0,0,0,0],"split_type":[0,0,0,0,0,0,0,0,0,0,0,0,0,0,0],"sum_hessian":[2.052E3,1.219E3,8.33E2,5.96E2,6.23E2,6.04E2,2.29E2,4.76E2,1.2E2,8.3E1,5.4E2,2.1E2,3.94E2,2.17E2,1.2E1],"tree_param":{"num_deleted":"0","num_feature":"4105","num_nodes":"15","size_leaf_vector":"1"}},{"base_weights":[-8.753435E-2,-5.548559E0,5.823388E0,-1.1924896E1,-1.3384615E0,6.4874535E0,-2.7998137E0,-9.0666704E-2,-1.2331215E0,4.044462E0,-1.7919588E-1,3.773208E-1,1.4756656E0],"categories":[],"categories_nodes":[],"categories_segments":[],"categories_sizes":[],"default_left":[0,0,0,0,0,0,0,0,0,0,0,0,0],"id":29,"left_children":[1,3,5,7,9,11,-1,-1,-1,-1,-1,-1,-1],"loss_changes":[6.608872E4,2.8564805E4,2.4449871E4,9.1226875E3,2.0537928E4,2.1888043E4,0E0,0E0,0E0,0E0,0E0,0E0,0E0],"parents":[2147483647,0,0,1,1,2,2,3,3,4,4,5,5],"right_children":[2,4,6,8,10,12,-1,-1,-1,-1,-1,-1,-1],"split_conditions":[3.5507298E-1,1.2270552E-2,1.13256395E-1,3.1195397E-2,2.3275847E-3,3.5725725E-1,-2.7998137E0,-9.0666704E-2,-1.2331215E0,4.044462E0,-1.7919588E-1,3.773208E-1,1.4756656E0],"split_indices":[1145,4046,3296,3276,2435,3025,0,0,0,0,0,0,0],"split_type":[0,0,0,0,0,0,0,0,0,0,0,0,0],"sum_hessian":[2.047E3,1.064E3,9.83E2,4.23E2,6.41E2,9.66E2,1.7E1,6.5E1,3.58E2,9E0,6.32E2,7.92E2,1.74E2],"tree_param":{"num_deleted":"0","num_feature":"4105","num_nodes":"13","size_leaf_vector":"1"}},{"base_weights":[-5.48403E-2,-5.5095387E0,5.927974E0,-1.3255033E1,-2.5402267E0,1.5920277E1,2.8470786E0,-9.8210377E-1,-2.3457644E0,3.2847145E0,-2.7181053E-1,1.2714058E0,3.9194543E0,5.4153E-1,-2.27135E-1],"categories":[],"categories_nodes":[],"categories_segments":[],"categories_sizes":[],"default_left":[0,0,0,0,0,0,0,0,0,0,0,0,0,0,0],"id":30,"left_children":[1,3,5,7,9,11,13,-1,-1,-1,-1,-1,-1,-1,-1],"loss_changes":[6.7141375E4,2.4744287E4,3.0197102E4,8.528578E3,1.6166502E4,1.0243445E4,1.3222124E4,0E0,0E0,0E0,0E0,0E0,0E0,0E0,0E0],"parents":[2147483647,0,0,1,1,2,2,3,3,4,4,5,5,6,6],"right_children":[2,4,6,8,10,12,14,-1,-1,-1,-1,-1,-1,-1,-1],"split_conditions":[5.285906E-2,2.3377955E-2,-2.9297597E0,5.6611456E-4,3.9757537E-3,2.9136306E-1,3.0113763E-1,-9.8210377E-1,-2.3457644E0,3.2847145E0,-2.7181053E-1,1.2714058E0,3.9194543E0,5.4153E-1,-2.27135E-1],"split_indices":[3736,3451,4103,3177,37,1735,734,0,0,0,0,0,0,0,0],"split_type":[0,0,0,0,0,0,0,0,0,0,0,0,0,0,0],"sum_hessian":[2.057E3,1.076E3,9.81E2,2.98E2,7.78E2,2.31E2,7.5E2,2.56E2,4.2E1,1E1,7.68E2,2.19E2,1.2E1,4.68E2,2.82E2],"tree_param":{"num_deleted":"0","num_feature":"4105","num_nodes":"15","size_leaf_vector":"1"}},{"base_weights":[1.3726813E-1,-4.8387594E0,5.509674E0,-5.524637E0,3.2568395E0,1.0684122E1,1.1417441E0,-9.444495E-1,-4.4049766E-2,3.352304E0,8.4554636E-1,4.649128E-1,-2.0333403E-1],"categories":[],"categories_nodes":[],"categories_segments":[],"categories_sizes":[],"default_left":[0,0,0,0,0,0,0,0,0,0,0,0,0],"id":31,"left_children":[1,3,5,7,-1,9,11,-1,-1,-1,-1,-1,-1],"loss_changes":[5.4438973E4,3.017124E4,2.2128656E4,2.6795094E4,0E0,1.39170625E4,7.4814683E3,0E0,0E0,0E0,0E0,0E0,0E0],"parents":[2147483647,0,0,1,1,2,2,3,3,5,5,6,6],"right_children":[2,4,6,8,-1,10,12,-1,-1,-1,-1,-1,-1],"split_conditions":[5.285906E-2,2.3544051E-1,3.435022E-1,5.2173972E-2,3.2568395E0,4.8194328E-1,3.8539384E-2,-9.444495E-1,-4.4049766E-2,3.352304E0,8.4554636E-1,4.649128E-1,-2.0333403E-1],"split_indices":[3736,2570,2581,3967,0,702,2052,0,0,0,0,0,0],"split_type":[0,0,0,0,0,0,0,0,0,0,0,0,0],"sum_hessian":[2.036E3,1.057E3,9.79E2,1.04E3,1.7E1,4.48E2,5.31E2,5.15E2,5.25E2,1.8E1,4.3E2,2.42E2,2.89E2],"tree_param":{"num_deleted":"0","num_feature":"4105","num_nodes":"13","size_leaf_vector":"1"}},{"base_weights":[-3.7373576E-2,4.1114855E0,-5.422021E0,2.0321083E0,1.50563755E1,-1.0269686E1,-6.458146E-1,-1.1850598E-1,5.470562E-1,4.8962526E0,1.1524433E0,-1.0456592E0,2.5285697E-1,-1.23832785E-1,1.1978143E0],"categories":[],"categories_nodes":[],"categories_segments":[],"categories_sizes":[],"default_left":[0,0,0,0,0,0,0,0,0,0,0,0,0,0,0],"id":32,"left_children":[1,3,5,7,9,11,13,-1,-1,-1,-1,-1,-1,-1,-1],"loss_changes":[4.6878082E4,2.696698E4,2.1141941E4,1.3878299E4,1.5533289E4,9.041969E3,4.889362E3,0E0,0E0,0E0,0E0,0E0,0E0,0E0,0E0],"parents":[2147483647,0,0,1,1,2,2,3,3,4,4,5,5,6,6],"right_children":[2,4,6,8,10,12,14,-1,-1,-1,-1,-1,-1,-1,-1],"split_conditions":[3.5318923E-1,3.9910853E-1,1.3726446E-1,6.726676E-3,2.7311897E-1,7.333822E-2,4.7108284E-1,-1.1850598E-1,5.470562E-1,4.8962526E0,1.1524433E0,-1.0456592E0,2.5285697E-1,-1.23832785E-1,1.1978143E0],"split_indices":[1949,2137,1240,2419,1023,3517,1863,0,0,0,0,0,0,0,0],"split_type":[0,0,0,0,0,0,0,0,0,0,0,0,0,0,0],"sum_hessian":[2.098E3,1.185E3,9.13E2,9.96E2,1.89E2,4.53E2,4.6E2,5.49E2,4.47E2,9E0,1.8E2,4.06E2,4.7E1,4.37E2,2.3E1],"tree_param":{"num_deleted":"0","num_feature":"4105","num_nodes":"15","size_leaf_vector":"1"}},{"base_weights":[1.1192535E-1,-4.2709823E0,4.355387E0,-8.600088E0,-5.938687E-1,3.8147416E0,5.2133274E0,-9.3343836E-1,-9.599427E-2,1.4600747E0,-9.616046E-2,-2.887563E-1,5.82761E-1],"categories":[],"categories_nodes":[],"categories_segments":[],"categories_sizes":[],"default_left":[0,0,0,0,0,0,0,0,0,0,0,0,0],"id":33,"left_children":[1,3,5,7,9,11,-1,-1,-1,-1,-1,-1,-1],"loss_changes":[3.7966977E4,1.5984098E4,3.0473338E4,6.6680547E3,4.545172E3,2.0016615E4,0E0,0E0,0E0,0E0,0E0,0E0,0E0],"parents":[2147483647,0,0,1,1,2,2,3,3,4,4,5,5],"right_children":[2,4,6,8,10,12,-1,-1,-1,-1,-1,-1,-1],"split_conditions":[2.1581545E-1,1.2586144E-1,7.384943E-2,2.0091832E-1,2.5486557E-2,1.4328215E-1,5.2133274E0,-9.3343836E-1,-9.599427E-2,1.4600747E0,-9.616046E-2,-2.887563E-1,5.82761E-1],"split_indices":[1755,1240,4019,2802,1114,3254,0,0,0,0,0,0,0],"split_type":[0,0,0,0,0,0,0,0,0,0,0,0,0],"sum_hessian":[2.041E3,1.004E3,1.037E3,4.61E2,5.43E2,1.027E3,1E1,3.67E2,9.4E1,1.5E1,5.28E2,2.88E2,7.39E2],"tree_param":{"num_deleted":"0","num_feature":"4105","num_nodes":"13","size_leaf_vector":"1"}},{"base_weights":[-6.44232E-3,-3.3013542E0,4.991759E0,-7.3275404E0,-5.943775E-1,5.918992E0,-2.1098768E1,7.777992E-1,-7.381115E-1,-1.6600104E-1,4.6245956E-1,4.1015954E0,4.8289886E-1,-1.1550183E0,-2.669404E0],"categories":[],"categories_nodes":[],"categories_segments":[],"categories_sizes":[],"default_left":[0,0,0,0,0,0,0,0,0,0,0,0,0,0,0],"id":34,"left_children":[1,3,5,7,9,11,13,-1,-1,-1,-1,-1,-1,-1,-1],"loss_changes":[3.3997434E4,1.3559136E4,1.986522E4,8.0190664E3,5.5224536E3,1.5110951E4,1.9733174E3,0E0,0E0,0E0,0E0,0E0,0E0,0E0,0E0],"parents":[2147483647,0,0,1,1,2,2,3,3,4,4,5,5,6,6],"right_children":[2,4,6,8,10,12,14,-1,-1,-1,-1,-1,-1,-1,-1],"split_conditions":[3.7821552E-1,3.1565116E-3,1.0822039E-1,1.9594382E-3,8.079048E-1,3.4148674E-3,1.8392112E-2,7.777992E-1,-7.381115E-1,-1.6600104E-1,4.6245956E-1,4.1015954E0,4.8289886E-1,-1.1550183E0,-2.669404E0],"split_indices":[268,3443,3296,3766,4021,3581,1573,0,0,0,0,0,0,0,0],"split_type":[0,0,0,0,0,0,0,0,0,0,0,0,0,0,0],"sum_hessian":[2.064E3,1.244E3,8.2E2,5E2,7.44E2,7.92E2,2.8E1,2.9E1,4.71E2,6.1E2,1.34E2,9E0,7.83E2,1.5E1,1.3E1],"tree_param":{"num_deleted":"0","num_feature":"4105","num_nodes":"15","size_leaf_vector":"1"}},{"base_weights":[-8.8300124E-2,-2.0803049E0,7.1134014E0,-6.2526164E0,1.2014648E0,6.0381904E0,5.20701E0,-6.4766526E-1,7.4210143E-1,3.8571063E-1,-1.6478437E-1,9.6964127E-1,9.899096E-3],"categories":[],"categories_nodes":[],"categories_segments":[],"categories_sizes":[],"default_left":[0,0,0,0,0,0,0,0,0,0,0,0,0],"id":35,"left_children":[1,3,5,7,9,11,-1,-1,-1,-1,-1,-1,-1],"loss_changes":[2.9873379E4,2.2336701E4,2.49603E4,1.1030318E4,8.794077E3,1.2825029E4,0E0,0E0,0E0,0E0,0E0,0E0,0E0],"parents":[2147483647,0,0,1,1,2,2,3,3,4,4,5,5],"right_children":[2,4,6,8,10,12,-1,-1,-1,-1,-1,-1,-1],"split_conditions":[4.4315213E-1,1.18875E4,4.850393E-2,7.1492803E-1,4.380318E-1,2.7264345E-1,5.20701E0,-6.4766526E-1,7.4210143E-1,3.8571063E-1,-1.6478437E-1,9.6964127E-1,9.899096E-3],"split_indices":[842,4096,3652,410,734,3251,0,0,0,0,0,0,0],"split_type":[0,0,0,0,0,0,0,0,0,0,0,0,0],"sum_hessian":[2.082E3,1.631E3,4.51E2,7.18E2,9.13E2,4.42E2,9E0,6.7E2,4.8E1,4.5E2,4.63E2,2.42E2,2E2],"tree_param":{"num_deleted":"0","num_feature":"4105","num_nodes":"13","size_leaf_vector":"1"}},{"base_weights":[-3.2839756E-2,-3.510567E0,3.2025056E0,-1.3908384E0,-8.530948E0,3.6083634E0,2.8437457E0,-1.609868E-1,2.4421806E0,-6.166225E-1,-2.0383744E0,-1.0247915E0,3.2055107E-1],"categories":[],"categories_nodes":[],"categories_segments":[],"categories_sizes":[],"default_left":[0,0,0,0,0,0,0,0,0,0,0,0,0],"id":36,"left_children":[1,3,5,7,9,-1,11,-1,-1,-1,-1,-1,-1],"loss_changes":[2.337393E4,1.0652003E4,1.444778E4,8.64923E3,6.7496016E3,0E0,1.1832236E4,0E0,0E0,0E0,0E0,0E0,0E0],"parents":[2147483647,0,0,1,1,2,2,3,3,4,4,6,6],"right_children":[2,4,6,8,10,-1,12,-1,-1,-1,-1,-1,-1],"split_conditions":[3.1188944E-1,5.042076E-1,9.957548E-3,3.218689E-1,8.9181755E-3,3.6083634E0,1.7197654E-2,-1.609868E-1,2.4421806E0,-6.166225E-1,-2.0383744E0,-1.0247915E0,3.2055107E-1],"split_indices":[441,1808,2416,22,2942,0,3016,0,0,0,0,0,0],"split_type":[0,0,0,0,0,0,0,0,0,0,0,0,0],"sum_hessian":[2.077E3,1.001E3,1.076E3,7.04E2,2.97E2,1E1,1.066E3,6.94E2,1E1,2.68E2,2.9E1,5.4E1,1.012E3],"tree_param":{"num_deleted":"0","num_feature":"4105","num_nodes":"13","size_leaf_vector":"1"}},{"base_weights":[-5.2457214E-3,-3.1179414E0,3.4208732E0,-3.5763845E0,2.5542698E0,1.7621528E0,1.0292732E1,-6.0957676E-1,-4.296451E-2,3.8309395E-1,-5.819447E-2,3.0057137E0,7.8053415E-1],"categories":[],"categories_nodes":[],"categories_segments":[],"categories_sizes":[],"default_left":[0,0,0,0,0,0,0,0,0,0,0,0,0],"id":37,"left_children":[1,3,5,7,-1,9,11,-1,-1,-1,-1,-1,-1],"loss_changes":[2.1802188E4,1.5692074E4,1.1089158E4,1.0763857E4,0E0,4.8497085E3,6.6056016E3,0E0,0E0,0E0,0E0,0E0,0E0],"parents":[2147483647,0,0,1,1,2,2,3,3,5,5,6,6],"right_children":[2,4,6,8,-1,10,12,-1,-1,-1,-1,-1,-1],"split_conditions":[5.285906E-2,2.3544051E-1,1.08572915E-1,4.923113E-2,2.5542698E0,1.0009385E-1,6.948973E-2,-6.0957676E-1,-4.296451E-2,3.8309395E-1,-5.819447E-2,3.0057137E0,7.8053415E-1],"split_indices":[3736,2570,3357,3967,0,2864,1081,0,0,0,0,0,0],"split_type":[0,0,0,0,0,0,0,0,0,0,0,0,0],"sum_hessian":[2.044E3,1.071E3,9.73E2,1.056E3,1.5E1,7.84E2,1.89E2,5.11E2,5.45E2,3.81E2,4.03E2,1.1E1,1.78E2],"tree_param":{"num_deleted":"0","num_feature":"4105","num_nodes":"13","size_leaf_vector":"1"}},{"base_weights":[3.8684797E-2,-1.3108708E0,6.189108E0,2.0144186E0,-3.5860448E0,1.7181465E1,4.7054095E0,3.1942332E0,1.1524678E-1,-9.7013795E-1,-2.2292297E-1,2.3350632E0,1.1716247E0,5.316819E-1,-4.53429E-1],"categories":[],"categories_nodes":[],"categories_segments":[],"categories_sizes":[],"default_left":[0,0,0,0,0,0,0,0,0,0,0,0,0,0,0],"id":38,"left_children":[1,3,5,7,9,11,13,-1,-1,-1,-1,-1,-1,-1,-1],"loss_changes":[1.716832E4,1.283411E4,6.05434E3,1.6745547E4,7.9374346E3,1.5384814E3,4.1590474E3,0E0,0E0,0E0,0E0,0E0,0E0,0E0,0E0],"parents":[2147483647,0,0,1,1,2,2,3,3,4,4,5,5,6,6],"right_children":[2,4,6,8,10,12,14,-1,-1,-1,-1,-1,-1,-1,-1],"split_conditions":[5.4227597E-1,6.559849E-2,1.2699687E-2,1.4009748E-1,1.639744E-1,1.2370832E-1,-2.465199E0,3.1942332E0,1.1524678E-1,-9.7013795E-1,-2.2292297E-1,2.3350632E0,1.1716247E0,5.316819E-1,-4.53429E-1],"split_indices":[4085,2067,1511,3548,3572,91,4102,0,0,0,0,0,0,0,0],"split_type":[0,0,0,0,0,0,0,0,0,0,0,0,0,0,0],"sum_hessian":[2.068E3,1.696E3,3.72E2,6.89E2,1.007E3,4.4E1,3.28E2,1.4E1,6.75E2,1.28E2,8.79E2,1.3E1,3.1E1,2.9E2,3.8E1],"tree_param":{"num_deleted":"0","num_feature":"4105","num_nodes":"15","size_leaf_vector":"1"}},{"base_weights":[5.8980826E-3,-4.417493E0,1.7873917E0,-3.7766953E0,-2.4000168E1,6.1965184E0,-1.4488441E-1,-5.912736E-1,-2.230326E-2,-2.4417603E0,-1.771691E0,9.497849E-1,9.599328E-2,-2.4111915E-1,1.9312413E-1],"categories":[],"categories_nodes":[],"categories_segments":[],"categories_sizes":[],"default_left":[0,0,0,0,0,0,0,0,0,0,0,0,0,0,0],"id":39,"left_children":[1,3,5,7,9,11,13,-1,-1,-1,-1,-1,-1,-1,-1],"loss_changes":[1.5787038E4,7.199963E3,1.2167989E4,5.675321E3,1.5337012E2,1.0039248E4,5.9369883E3,0E0,0E0,0E0,0E0,0E0,0E0,0E0,0E0],"parents":[2147483647,0,0,1,1,2,2,3,3,4,4,5,5,6,6],"right_children":[2,4,6,8,10,12,14,-1,-1,-1,-1,-1,-1,-1,-1],"split_conditions":[1.065551E-3,4.8478535E-1,4.6104673E-2,1.1914016E-2,3.9067793E-1,4.265671E-1,1.8572047E-1,-5.912736E-1,-2.230326E-2,-2.4417603E0,-1.771691E0,9.497849E-1,9.599328E-2,-2.4111915E-1,1.9312413E-1],"split_indices":[2803,4086,3896,3926,941,3114,218,0,0,0,0,0,0,0,0],"split_type":[0,0,0,0,0,0,0,0,0,0,0,0,0,0,0],"sum_hessian":[2.003E3,5.75E2,1.428E3,5.57E2,1.8E1,4.35E2,9.93E2,3.06E2,2.51E2,9E0,9E0,2.31E2,2.04E2,4.71E2,5.22E2],"tree_param":{"num_deleted":"0","num_feature":"4105","num_nodes":"15","size_leaf_vector":"1"}},{"base_weights":[-1.4652533E-2,-3.9990866E0,1.5024967E0,-6.2393403E0,4.13831E-3,9.14482E-1,1.3981382E1,-4.5285642E-1,-1.5066532E0,-6.7862384E-2,5.2475256E-1,2.600956E-1,-1.4947574E-1,3.388313E0,7.52526E-1],"categories":[],"categories_nodes":[],"categories_segments":[],"categories_sizes":[],"default_left":[0,0,0,0,0,0,0,0,0,0,0,0,0,0,0],"id":40,"left_children":[1,3,5,7,9,11,13,-1,-1,-1,-1,-1,-1,-1,-1],"loss_changes":[1.2279694E4,5.0240693E3,1.0792453E4,4.359247E3,9.1597784E2,7.3728115E3,8.749928E3,0E0,0E0,0E0,0E0,0E0,0E0,0E0,0E0],"parents":[2147483647,0,0,1,1,2,2,3,3,4,4,5,5,6,6],"right_children":[2,4,6,8,10,12,14,-1,-1,-1,-1,-1,-1,-1,-1],"split_conditions":[1.065551E-3,5.0537966E-2,3.7934417E-1,2.1913843E-4,1.2368834E-2,2.130653E-2,4.6919242E-1,-4.5285642E-1,-1.5066532E0,-6.7862384E-2,5.2475256E-1,2.600956E-1,-1.4947574E-1,3.388313E0,7.52526E-1],"split_indices":[2803,2879,3304,3653,1834,2798,613,0,0,0,0,0,0,0,0],"split_type":[0,0,0,0,0,0,0,0,0,0,0,0,0,0,0],"sum_hessian":[2.031E3,5.6E2,1.471E3,3.59E2,2.01E2,1.405E3,6.6E1,3.25E2,3.4E1,1.78E2,2.3E1,7.91E2,6.14E2,1.2E1,5.4E1],"tree_param":{"num_deleted":"0","num_feature":"4105","num_nodes":"15","size_leaf_vector":"1"}},{"base_weights":[-6.816203E-2,-1.411737E0,4.4329486E0,-4.023749E0,6.5155077E-1,2.420042E0,3.6685333E0,-4.2253292E-1,1.2587235E0,2.494893E-1,-1.1254531E-1,6.60713E-1,1.1171717E-2],"categories":[],"categories_nodes":[],"categories_segments":[],"categories_sizes":[],"default_left":[0,0,0,0,0,0,0,0,0,0,0,0,0],"id":41,"left_children":[1,3,5,7,9,-1,11,-1,-1,-1,-1,-1,-1],"loss_changes":[1.2369547E4,8.489795E3,8.193672E3,9.384184E3,3.6540745E3,0E0,6.0960903E3,0E0,0E0,0E0,0E0,0E0,0E0],"parents":[2147483647,0,0,1,1,2,2,3,3,4,4,6,6],"right_children":[2,4,6,8,10,-1,12,-1,-1,-1,-1,-1,-1],"split_conditions":[1.2703089E-2,1.18875E4,2.1920586E-2,1.8600915E-1,4.380318E-1,2.420042E0,-6.713679E-1,-4.2253292E-1,1.2587235E0,2.494893E-1,-1.1254531E-1,6.60713E-1,1.1171717E-2],"split_indices":[2638,4096,3586,2452,734,0,4101,0,0,0,0,0,0],"split_type":[0,0,0,0,0,0,0,0,0,0,0,0,0],"sum_hessian":[2.045E3,1.575E3,4.7E2,6.95E2,8.8E2,1.5E1,4.55E2,6.68E2,2.7E1,4.14E2,4.66E2,2.2E2,2.35E2],"tree_param":{"num_deleted":"0","num_feature":"4105","num_nodes":"13","size_leaf_vector":"1"}},{"base_weights":[3.3757813E-2,-2.1708062E0,2.032284E0,-2.4816573E0,1.3952557E1,1.6424277E0,1.7397085E1,-4.2956752E-1,-3.327419E-2,1.5769732E0,8.7242514E-1,1.7116764E-1,-1.4575424E0,3.0917192E0,3.8289887E-1],"categories":[],"categories_nodes":[],"categories_segments":[],"categories_sizes":[],"default_left":[0,0,0,0,0,0,0,0,0,0,0,0,0,0,0],"id":42,"left_children":[1,3,5,7,9,11,13,-1,-1,-1,-1,-1,-1,-1,-1],"loss_changes":[8.897131E3,4.818682E3,6.3387344E3,4.686433E3,2.5281836E2,5.372825E3,5.9517007E3,0E0,0E0,0E0,0E0,0E0,0E0,0E0,0E0],"parents":[2147483647,0,0,1,1,2,2,3,3,4,4,5,5,6,6],"right_children":[2,4,6,8,10,12,14,-1,-1,-1,-1,-1,-1,-1,-1],"split_conditions":[3.1188944E-1,5.724135E-2,3.524145E-1,1.8254852E-1,2.7546448E-1,7.760989E-1,4.0465105E-1,-4.2956752E-1,-3.327419E-2,1.5769732E0,8.7242514E-1,1.7116764E-1,-1.4575424E0,3.0917192E0,3.8289887E-1],"split_indices":[441,3040,1092,4104,1258,2291,418,0,0,0,0,0,0,0,0],"split_type":[0,0,0,0,0,0,0,0,0,0,0,0,0,0,0],"sum_hessian":[2.019E3,9.6E2,1.059E3,9.42E2,1.8E1,1.033E3,2.6E1,4.44E2,4.98E2,9E0,9E0,1.017E3,1.6E1,1.1E1,1.5E1],"tree_param":{"num_deleted":"0","num_feature":"4105","num_nodes":"15","size_leaf_vector":"1"}},{"base_weights":[-6.8182114E-4,-1.976657E-1,2.1293533E0,-5.59529E0,6.040073E-1,-1.5341287E0,-3.922163E-1,-1.1252645E-2,6.001303E-1],"categories":[],"categories_nodes":[],"categories_segments":[],"categories_sizes":[],"default_left":[0,0,0,0,0,0,0,0,0],"id":43,"left_children":[1,3,-1,5,7,-1,-1,-1,-1],"loss_changes":[9.407545E3,8.539009E3,0E0,3.4883857E3,7.738626E3,0E0,0E0,0E0,0E0],"parents":[2147483647,0,0,1,1,3,3,4,4],"right_children":[2,4,-1,6,8,-1,-1,-1,-1],"split_conditions":[2.3948044E-2,1.7197654E-2,2.1293533E0,1.7040279E-2,3.5895744E-1,-1.5341287E0,-3.922163E-1,-1.1252645E-2,6.001303E-1],"split_indices":[3715,3016,0,2249,3025,0,0,0,0],"split_type":[0,0,0,0,0,0,0,0,0],"sum_hessian":[1.989E3,1.973E3,1.6E1,2.55E2,1.718E3,2.3E1,2.32E2,1.536E3,1.82E2],"tree_param":{"num_deleted":"0","num_feature":"4105","num_nodes":"9","size_leaf_vector":"1"}},{"base_weights":[3.6743735E-3,2.3101504E0,-1.8167597E0,2.029783E0,2.6393092E0,-5.593539E-1,-5.144891E0,-6.681996E-2,3.8519478E-1,-9.361588E-2,5.9928536E-1,-1.7098616E0,-3.9718118E-1],"categories":[],"categories_nodes":[],"categories_segments":[],"categories_sizes":[],"default_left":[0,0,0,0,0,0,0,0,0,0,0,0,0],"id":44,"left_children":[1,3,5,7,-1,9,11,-1,-1,-1,-1,-1,-1],"loss_changes":[8.663695E3,6.9918267E3,4.8251895E3,5.8022305E3,0E0,3.0398325E3,2.9631914E3,0E0,0E0,0E0,0E0,0E0,0E0],"parents":[2147483647,0,0,1,1,2,2,3,3,5,5,6,6],"right_children":[2,4,6,8,-1,10,12,-1,-1,-1,-1,-1,-1],"split_conditions":[4.526216E-2,9.9243455E-2,5.15343E-1,1.19894385E-1,2.6393092E0,6.4092234E-2,1.7986837E-1,-6.681996E-2,3.8519478E-1,-9.361588E-2,5.9928536E-1,-1.7098616E0,-3.9718118E-1],"split_indices":[832,3162,1808,3366,0,3294,2834,0,0,0,0,0,0],"split_type":[0,0,0,0,0,0,0,0,0,0,0,0,0],"sum_hessian":[2.063E3,9.1E2,1.153E3,9.01E2,9E0,8.37E2,3.16E2,4.09E2,4.92E2,7.84E2,5.3E1,1.4E1,3.02E2],"tree_param":{"num_deleted":"0","num_feature":"4105","num_nodes":"13","size_leaf_vector":"1"}},{"base_weights":[-3.674902E-2,-3.1118846E0,1.1104594E0,-1.8733978E1,-2.3993452E0,3.061516E0,-9.048018E-1,-1.2853698E0,-1.9095461E0,-2.714854E-1,1.2017182E0,9.4354546E-1,2.1650273E-1,-1.1064179E-1,1.4588661E0],"categories":[],"categories_nodes":[],"categories_segments":[],"categories_sizes":[],"default_left":[0,0,0,0,0,0,0,0,0,0,0,0,0,0,0],"id":45,"left_children":[1,3,5,7,9,11,13,-1,-1,-1,-1,-1,-1,-1,-1],"loss_changes":[7.2087085E3,6.170986E3,5.8519707E3,2.2699219E2,5.6114756E3,3.5501226E3,4.3567026E3,0E0,0E0,0E0,0E0,0E0,0E0,0E0,0E0],"parents":[2147483647,0,0,1,1,2,2,3,3,4,4,5,5,6,6],"right_children":[2,4,6,8,10,12,14,-1,-1,-1,-1,-1,-1,-1,-1],"split_conditions":[1.659136E-1,3.5518957E-3,-2.3613503E0,6.685724E-3,1.1851877E-3,1.2699687E-2,4.3890707E-2,-1.2853698E0,-1.9095461E0,-2.714854E-1,1.2017182E0,9.4354546E-1,2.1650273E-1,-1.1064179E-1,1.4588661E0],"split_indices":[3743,3102,4102,1898,2103,1511,2298,0,0,0,0,0,0,0,0],"split_type":[0,0,0,0,0,0,0,0,0,0,0,0,0,0,0],"sum_hessian":[2.043E3,5.55E2,1.488E3,2.4E1,5.31E2,7.56E2,7.32E2,1E1,1.4E1,5.1E2,2.1E1,5.7E1,6.99E2,7.18E2,1.4E1],"tree_param":{"num_deleted":"0","num_feature":"4105","num_nodes":"15","size_leaf_vector":"1"}},{"base_weights":[-2.9227251E-2,1.8424831E1,-2.0053792E-1,2.9626107E0,4.0568012E-1,-1.5791419E0,1.9171127E0,-3.5390264E-1,-5.243717E-3,1.770328E0,1.4571229E-1],"categories":[],"categories_nodes":[],"categories_segments":[],"categories_sizes":[],"default_left":[0,0,0,0,0,0,0,0,0,0,0],"id":46,"left_children":[1,3,5,-1,-1,7,9,-1,-1,-1,-1],"loss_changes":[6.5954683E3,3.950854E3,6.0355176E3,0E0,0E0,4.5886875E3,4.0274363E3,0E0,0E0,0E0,0E0],"parents":[2147483647,0,0,1,1,2,2,5,5,6,6],"right_children":[2,4,6,-1,-1,8,10,-1,-1,-1,-1],"split_conditions":[5.6021713E-2,1.2178053E-1,8.00762E-3,2.9626107E0,4.0568012E-1,7.4284896E-2,2.2287115E-2,-3.5390264E-1,-5.243717E-3,1.770328E0,1.4571229E-1],"split_indices":[2317,958,2419,0,0,2157,248,0,0,0,0],"split_type":[0,0,0,0,0,0,0,0,0,0,0],"sum_hessian":[2.086E3,1.9E1,2.067E3,9E0,1E1,1.252E3,8.15E2,4.84E2,7.68E2,1.2E1,8.03E2],"tree_param":{"num_deleted":"0","num_feature":"4105","num_nodes":"11","size_leaf_vector":"1"}},{"base_weights":[-7.652662E-2,-1.9159284E-1,2.2557886E0,1.4115034E0,-1.8312863E0,3.1463858E-1,-6.651008E-2,-1.0080367E0,-1.1244125E-1],"categories":[],"categories_nodes":[],"categories_segments":[],"categories_sizes":[],"default_left":[0,0,0,0,0,0,0,0,0],"id":47,"left_children":[1,3,-1,5,7,-1,-1,-1,-1],"loss_changes":[6.0063853E3,5.3554263E3,0E0,4.7563555E3,5.4085596E3,0E0,0E0,0E0,0E0],"parents":[2147483647,0,0,1,1,3,3,4,4],"right_children":[2,4,-1,6,8,-1,-1,-1,-1],"split_conditions":[2.01948E-1,8.7379664E-2,2.2557886E0,-2.465199E0,4.3852306E-3,3.1463858E-1,-6.651008E-2,-1.0080367E0,-1.1244125E-1],"split_indices":[2638,2207,0,4102,3981,0,0,0,0],"split_type":[0,0,0,0,0,0,0,0,0],"sum_hessian":[2.046E3,2.037E3,9E0,1.03E3,1.007E3,5.18E2,5.12E2,5.6E1,9.51E2],"tree_param":{"num_deleted":"0","num_feature":"4105","num_nodes":"9","size_leaf_vector":"1"}},{"base_weights":[1.4835522E-2,-9.3885176E-2,2.1373332E0,-1.954721E0,1.2248725E0,-4.4573277E-1,-3.3673387E-2,3.0268785E-1,-1.8786805E-2],"categories":[],"categories_nodes":[],"categories_segments":[],"categories_sizes":[],"default_left":[0,0,0,0,0,0,0,0,0],"id":48,"left_children":[1,3,-1,5,7,-1,-1,-1,-1],"loss_changes":[5.3532495E3,4.994806E3,0E0,4.0824514E3,3.7442827E3,0E0,0E0,0E0,0E0],"parents":[2147483647,0,0,1,1,3,3,4,4],"right_children":[2,4,-1,6,8,-1,-1,-1,-1],"split_conditions":[2.8518286E-1,4.94335E-1,2.1373332E0,1.4242446E-2,-2.465199E0,-4.4573277E-1,-3.3673387E-2,3.0268785E-1,-1.8786805E-2],"split_indices":[1178,3506,0,2577,4102,0,0,0,0],"split_type":[0,0,0,0,0,0,0,0,0],"sum_hessian":[2.044E3,2.035E3,9E0,8.44E2,1.191E3,2.86E2,5.58E2,4.72E2,7.19E2],"tree_param":{"num_deleted":"0","num_feature":"4105","num_nodes":"9","size_leaf_vector":"1"}},{"base_weights":[3.8185958E-2,4.187755E0,-5.3831786E-1,1.4219362E1,2.1798568E0,1.912925E0,-6.5302163E-1,2.5104578E0,6.004194E-1,4.2483736E-2,5.345894E-1,-3.6561835E-1,7.4499897E-3],"categories":[],"categories_nodes":[],"categories_segments":[],"categories_sizes":[],"default_left":[0,0,0,0,0,0,0,0,0,0,0,0,0],"id":49,"left_children":[1,3,5,7,9,-1,11,-1,-1,-1,-1,-1,-1],"loss_changes":[4.847652E3,4.9727217E3,4.513421E3,4.2848965E3,1.348563E3,0E0,4.5261924E3,0E0,0E0,0E0,0E0,0E0,0E0],"parents":[2147483647,0,0,1,1,2,2,3,3,4,4,6,6],"right_children":[2,4,6,8,10,-1,12,-1,-1,-1,-1,-1,-1],"split_conditions":[3.8040403E-2,3.753087E-2,5.6021713E-2,6.7489943E-4,6.3474077E-1,1.912925E0,2.1463204E-2,2.5104578E0,6.004194E-1,4.2483736E-2,5.345894E-1,-3.6561835E-1,7.4499897E-3],"split_indices":[76,1193,2317,1378,1813,0,3451,0,0,0,0,0,0],"split_type":[0,0,0,0,0,0,0,0,0,0,0,0,0],"sum_hessian":[2.026E3,2.47E2,1.779E3,4.1E1,2.06E2,9E0,1.77E3,1.4E1,2.7E1,1.43E2,6.3E1,3.1E2,1.46E3],"tree_param":{"num_deleted":"0","num_feature":"4105","num_nodes":"13","size_leaf_vector":"1"}},{"base_weights":[3.493665E-2,6.5909038E0,-3.147684E-1,2.8790398E0,3.7790868E0,-5.6116796E0,1.7133342E-1,1.7301343E-1,1.0109078E0,-3.0538937E-1,-1.2846388E0,-1.0170405E-1,1.5648116E-1],"categories":[],"categories_nodes":[],"categories_segments":[],"categories_sizes":[],"default_left":[0,0,0,0,0,0,0,0,0,0,0,0,0],"id":50,"left_children":[1,3,5,-1,7,9,11,-1,-1,-1,-1,-1,-1],"loss_changes":[4.7169736E3,7.5544224E3,5.029464E3,0E0,1.307498E3,3.14904E3,3.75669E3,0E0,0E0,0E0,0E0,0E0,0E0],"parents":[2147483647,0,0,1,1,2,2,4,4,5,5,6,6],"right_children":[2,4,6,-1,8,10,12,-1,-1,-1,-1,-1,-1],"split_conditions":[4.467155E-2,8.0131225E-2,3.605898E-2,2.8790398E0,2.2648966E-1,9.265672E-3,4.0462367E-2,1.7301343E-1,1.0109078E0,-3.0538937E-1,-1.2846388E0,-1.0170405E-1,1.5648116E-1],"split_indices":[3149,997,3754,0,1980,2942,3079,0,0,0,0,0,0],"split_type":[0,0,0,0,0,0,0,0,0,0,0,0,0],"sum_hessian":[2.057E3,1.04E2,1.953E3,1E1,9.4E1,1.64E2,1.789E3,7.6E1,1.8E1,1.32E2,3.2E1,9.79E2,8.1E2],"tree_param":{"num_deleted":"0","num_feature":"4105","num_nodes":"13","size_leaf_vector":"1"}},{"base_weights":[-2.5567695E-2,1.5226842E0,-1.2302829E0,1.4192107E0,1.2741832E0,-6.2709074E0,-5.75172E-1,9.387796E-2,1.3782268E0,-8.5292715E-1,-4.6170477E-2,2.2087733E-1,-1.1332207E-1],"categories":[],"categories_nodes":[],"categories_segments":[],"categories_sizes":[],"default_left":[0,0,0,0,0,0,0,0,0,0,0,0,0],"id":51,"left_children":[1,3,5,-1,7,9,11,-1,-1,-1,-1,-1,-1],"loss_changes":[3.841151E3,3.2380452E3,3.823681E3,0E0,2.7239187E3,2.560976E3,2.208205E3,0E0,0E0,0E0,0E0,0E0,0E0],"parents":[2147483647,0,0,1,1,2,2,4,4,5,5,6,6],"right_children":[2,4,6,-1,8,10,12,-1,-1,-1,-1,-1,-1],"split_conditions":[1.9372667E-1,1.21E2,4.9549792E-2,1.4192107E0,8.06527E-1,4.685616E-4,1.5222253E-1,9.387796E-2,1.3782268E0,-8.5292715E-1,-4.6170477E-2,2.2087733E-1,-1.1332207E-1],"split_indices":[3122,4099,3823,0,1280,2054,3974,0,0,0,0,0,0],"split_type":[0,0,0,0,0,0,0,0,0,0,0,0,0],"sum_hessian":[2.059E3,9.01E2,1.158E3,1.5E1,8.86E2,1.33E2,1.025E3,8.73E2,1.3E1,8.4E1,4.9E1,1.91E2,8.34E2],"tree_param":{"num_deleted":"0","num_feature":"4105","num_nodes":"13","size_leaf_vector":"1"}},{"base_weights":[1.5892413E-2,2.1167657E0,-7.9217666E-1,4.6793523E0,2.8022492E-1,-1.0133739E0,9.142824E0,1.0662522E0,2.7791047E-1,2.943264E-3,7.9238856E-1,-2.4080878E-1,5.6336302E-2,1.9685361E0,3.4551898E-1],"categories":[],"categories_nodes":[],"categories_segments":[],"categories_sizes":[],"default_left":[0,0,0,0,0,0,0,0,0,0,0,0,0,0,0],"id":52,"left_children":[1,3,5,7,9,11,13,-1,-1,-1,-1,-1,-1,-1,-1],"loss_changes":[3.4723662E3,2.6736917E3,3.247806E3,2.6849043E3,7.077265E2,4.0543828E3,2.1874434E3,0E0,0E0,0E0,0E0,0E0,0E0,0E0,0E0],"parents":[2147483647,0,0,1,1,2,2,3,3,4,4,5,5,6,6],"right_children":[2,4,6,8,10,12,14,-1,-1,-1,-1,-1,-1,-1,-1],"split_conditions":[1.0672746E-1,1.8292198E-1,4.512763E-2,1.1387497E-1,7.026595E-1,1.18875E4,2.6237908E-1,1.0662522E0,2.7791047E-1,2.943264E-3,7.9238856E-1,-2.4080878E-1,5.6336302E-2,1.9685361E0,3.4551898E-1],"split_indices":[2256,3149,3040,1058,1385,4096,988,0,0,0,0,0,0,0,0],"split_type":[0,0,0,0,0,0,0,0,0,0,0,0,0,0,0],"sum_hessian":[2.045E3,5.68E2,1.477E3,2.37E2,3.31E2,1.445E3,3.2E1,4.1E1,1.96E2,3.22E2,9E0,7.11E2,7.34E2,9E0,2.3E1],"tree_param":{"num_deleted":"0","num_feature":"4105","num_nodes":"15","size_leaf_vector":"1"}},{"base_weights":[2.0785602E-2,3.7771838E0,-4.1552117E-1,1.5257219E0,2.7341018E0,-1.5301989E0,1.034958E0,1.7616819E-1,1.0908905E0,-4.8260742E-1,-8.717302E-2,1.3025548E-1,-3.6676466E-1],"categories":[],"categories_nodes":[],"categories_segments":[],"categories_sizes":[],"default_left":[0,0,0,0,0,0,0,0,0,0,0,0,0],"id":53,"left_children":[1,3,5,-1,7,9,11,-1,-1,-1,-1,-1,-1],"loss_changes":[3.326104E3,2.947866E3,2.9399897E3,0E0,1.3985118E3,2.199904E3,1.7724756E3,0E0,0E0,0E0,0E0,0E0,0E0],"parents":[2147483647,0,0,1,1,2,2,4,4,5,5,6,6],"right_children":[2,4,6,-1,8,10,12,-1,-1,-1,-1,-1,-1],"split_conditions":[2.6961645E-2,1.759768E-2,1.8265969E-1,1.5257219E0,3.6070436E-1,1.4738939E-3,-6.02271E-1,1.7616819E-1,1.0908905E0,-4.8260742E-1,-8.717302E-2,1.3025548E-1,-3.6676466E-1],"split_indices":[1475,2545,1989,0,3800,3186,4101,0,0,0,0,0,0],"split_type":[0,0,0,0,0,0,0,0,0,0,0,0,0],"sum_hessian":[2.029E3,2.11E2,1.818E3,1.5E1,1.96E2,1.028E3,7.9E2,1.82E2,1.4E1,1.26E2,9.02E2,7.29E2,6.1E1],"tree_param":{"num_deleted":"0","num_feature":"4105","num_nodes":"13","size_leaf_vector":"1"}},{"base_weights":[-2.6307834E-2,-1.055267E0,1.3568801E0,4.594588E0,-1.4234809E0,-3.9262205E-1,2.5979788E0,1.4801475E0,2.1009E-1,-4.8689336E-1,-7.776493E-2,-9.03155E-2,7.8183705E-1,1.1511608E0,1.9458686E-1],"categories":[],"categories_nodes":[],"categories_segments":[],"categories_sizes":[],"default_left":[0,0,0,0,0,0,0,0,0,0,0,0,0,0,0],"id":54,"left_children":[1,3,5,7,9,11,13,-1,-1,-1,-1,-1,-1,-1,-1],"loss_changes":[2.926721E3,2.4542866E3,1.9048925E3,1.9352974E3,2.460173E3,2.0994062E3,2.1470845E3,0E0,0E0,0E0,0E0,0E0,0E0,0E0,0E0],"parents":[2147483647,0,0,1,1,2,2,3,3,4,4,5,5,6,6],"right_children":[2,4,6,8,10,12,14,-1,-1,-1,-1,-1,-1,-1,-1],"split_conditions":[1.8265969E-1,1.1533338E-2,4.1935164E-3,3.9025687E-2,1.4738939E-3,6.602291E-1,8.237009E-3,1.4801475E0,2.1009E-1,-4.8689336E-1,-7.776493E-2,-9.03155E-2,7.8183705E-1,1.1511608E0,1.9458686E-1],"split_indices":[1989,536,2419,1464,3186,1738,1748,0,0,0,0,0,0,0,0],"split_type":[0,0,0,0,0,0,0,0,0,0,0,0,0,0,0],"sum_hessian":[2.056E3,1.179E3,8.77E2,7.2E1,1.107E3,3.64E2,5.13E2,1.1E1,6.1E1,1.31E2,9.76E2,3.41E2,2.3E1,1.9E1,4.94E2],"tree_param":{"num_deleted":"0","num_feature":"4105","num_nodes":"15","size_leaf_vector":"1"}},{"base_weights":[6.7984704E-3,1.820086E-1,-7.167236E0,3.2558532E0,-2.341322E-1,-9.146454E0,-5.6306033E0,1.7434046E0,2.3072025E-1,-3.5002623E-2,5.4991186E-1,-7.240262E-1,-9.1004616E-1,-5.7771784E-1,-3.704871E-1],"categories":[],"categories_nodes":[],"categories_segments":[],"categories_sizes":[],"default_left":[0,0,0,0,0,0,0,0,0,0,0,0,0,0,0],"id":55,"left_children":[1,3,5,7,9,11,13,-1,-1,-1,-1,-1,-1,-1,-1],"loss_changes":[2.5934233E3,2.576674E3,1.3950269E2,2.5683577E3,1.8325106E3,6.930664E0,3.0767578E1,0E0,0E0,0E0,0E0,0E0,0E0,0E0,0E0],"parents":[2147483647,0,0,1,1,2,2,3,3,4,4,5,5,6,6],"right_children":[2,4,6,8,10,12,14,-1,-1,-1,-1,-1,-1,-1,-1],"split_conditions":[5.015717E-1,3.8040403E-2,1.8946072E-3,6.713179E-3,4.959073E-2,1.0825564E-1,5.6839775E-2,1.7434046E0,2.3072025E-1,-3.5002623E-2,5.4991186E-1,-7.240262E-1,-9.1004616E-1,-5.7771784E-1,-3.704871E-1],"split_indices":[3513,76,1740,1193,3530,642,1578,0,0,0,0,0,0,0,0],"split_type":[0,0,0,0,0,0,0,0,0,0,0,0,0,0,0],"sum_hessian":[2.063E3,2.014E3,4.9E1,2.4E2,1.774E3,2.1E1,2.8E1,9E0,2.31E2,1.731E3,4.3E1,1.2E1,9E0,1.7E1,1.1E1],"tree_param":{"num_deleted":"0","num_feature":"4105","num_nodes":"15","size_leaf_vector":"1"}},{"base_weights":[6.741211E-2,-1.3173503E-2,1.5829685E0,-6.911447E0,1.8705173E-1,-1.3068737E0,-2.8796574E-1,-6.256915E-2,1.2713665E-1],"categories":[],"categories_nodes":[],"categories_segments":[],"categories_sizes":[],"default_left":[0,0,0,0,0,0,0,0,0],"id":56,"left_children":[1,3,-1,5,7,-1,-1,-1,-1],"loss_changes":[2.917921E3,2.8003835E3,0E0,1.6300659E3,2.1917388E3,0E0,0E0,0E0,0E0],"parents":[2147483647,0,0,1,1,3,3,4,4],"right_children":[2,4,-1,6,8,-1,-1,-1,-1],"split_conditions":[2.01948E-1,5.498597E-3,1.5829685E0,3.4264708E-1,7.829516E-3,-1.3068737E0,-2.8796574E-1,-6.256915E-2,1.2713665E-1],"split_indices":[2638,2232,0,1606,2419,0,0,0,0],"split_type":[0,0,0,0,0,0,0,0,0],"sum_hessian":[2.036E3,2.027E3,9E0,5.7E1,1.97E3,1.8E1,3.9E1,1.148E3,8.22E2],"tree_param":{"num_deleted":"0","num_feature":"4105","num_nodes":"9","size_leaf_vector":"1"}},{"base_weights":[3.987887E-2,-1.3070181E-1,7.3320932E0,-1.0976725E0,9.488732E-1,3.2817261E0,1.6772189E0,-1.3886383E-1,2.14145E-1,7.1649596E-2,1.3678153E0,5.146977E-1,-4.6584632E-2],"categories":[],"categories_nodes":[],"categories_segments":[],"categories_sizes":[],"default_left":[0,0,0,0,0,0,0,0,0,0,0,0,0],"id":57,"left_children":[1,3,5,7,9,11,-1,-1,-1,-1,-1,-1,-1],"loss_changes":[2.5680293E3,2.105979E3,2.2005835E3,1.7496161E3,1.943203E3,3.384547E2,0E0,0E0,0E0,0E0,0E0,0E0,0E0],"parents":[2147483647,0,0,1,1,2,2,3,3,4,4,5,5],"right_children":[2,4,6,8,10,12,-1,-1,-1,-1,-1,-1,-1],"split_conditions":[4.512643E-2,5.285906E-2,2.9236817E-1,2.3247208E-1,9.949518E-1,7.1888514E-2,1.6772189E0,-1.3886383E-1,2.14145E-1,7.1649596E-2,1.3678153E0,5.146977E-1,-4.6584632E-2],"split_indices":[2298,3736,1572,3265,1203,1889,0,0,0,0,0,0,0],"split_type":[0,0,0,0,0,0,0,0,0,0,0,0,0],"sum_hessian":[2.064E3,2.017E3,4.7E1,1.064E3,9.53E2,3.5E1,1.2E1,9.39E2,1.25E2,9.44E2,9E0,2.1E1,1.4E1],"tree_param":{"num_deleted":"0","num_feature":"4105","num_nodes":"13","size_leaf_vector":"1"}},{"base_weights":[-7.057916E-3,1.15079634E-1,-8.52809E0,3.977785E-1,-3.6509097E0,-1.0996196E0,-5.0459194E-1,1.5890156E-1,-4.7215357E-2,-4.8966423E-1,-1.14982136E-1],"categories":[],"categories_nodes":[],"categories_segments":[],"categories_sizes":[],"default_left":[0,0,0,0,0,0,0,0,0,0,0],"id":58,"left_children":[1,3,5,7,9,-1,-1,-1,-1,-1,-1],"loss_changes":[2.1497175E3,2.1680027E3,3.0689307E2,2.4557178E3,6.2446484E2,0E0,0E0,0E0,0E0,0E0,0E0],"parents":[2147483647,0,0,1,1,2,2,3,3,4,4],"right_children":[2,4,6,8,10,-1,-1,-1,-1,-1,-1],"split_conditions":[2.0314834E-1,5.8771056E-1,4.184758E-2,3.704261E-3,8.6513005E-2,-1.0996196E0,-5.0459194E-1,1.5890156E-1,-4.7215357E-2,-4.8966423E-1,-1.14982136E-1],"split_indices":[3291,3004,1613,2113,1153,0,0,0,0,0,0],"split_type":[0,0,0,0,0,0,0,0,0,0,0],"sum_hessian":[2.065E3,2.036E3,2.9E1,1.894E3,1.42E2,1.2E1,1.7E1,7.58E2,1.136E3,7.9E1,6.3E1],"tree_param":{"num_deleted":"0","num_feature":"4105","num_nodes":"11","size_leaf_vector":"1"}},{"base_weights":[5.3717443E-3,4.847515E0,-2.5432545E-1,1.9708678E0,2.7737699E0,-3.7158513E0,8.9453496E-2,3.4556255E-2,4.8509973E-1,-7.0266914E-1,-1.5606822E-1,-6.400763E-2,9.385494E-2],"categories":[],"categories_nodes":[],"categories_segments":[],"categories_sizes":[],"default_left":[0,0,0,0,0,0,0,0,0,0,0,0,0],"id":59,"left_children":[1,3,5,-1,7,9,11,-1,-1,-1,-1,-1,-1],"loss_changes":[2.5985625E3,3.7773794E3,2.333968E3,0E0,6.047496E2,1.4551702E3,1.4020361E3,0E0,0E0,0E0,0E0,0E0,0E0],"parents":[2147483647,0,0,1,1,2,2,4,4,5,5,6,6],"right_children":[2,4,6,-1,8,10,12,-1,-1,-1,-1,-1,-1],"split_conditions":[4.467155E-2,8.0131225E-2,3.605898E-2,1.9708678E0,2.0921374E-2,1.2541033E-1,4.0462367E-2,3.4556255E-2,4.8509973E-1,-7.0266914E-1,-1.5606822E-1,-6.400763E-2,9.385494E-2],"split_indices":[3149,997,3754,0,172,3823,3079,0,0,0,0,0,0],"split_type":[0,0,0,0,0,0,0,0,0,0,0,0,0],"sum_hessian":[2.066E3,1.05E2,1.961E3,1.1E1,9.4E1,1.77E2,1.784E3,5E1,4.4E1,5.6E1,1.21E2,9.71E2,8.13E2],"tree_param":{"num_deleted":"0","num_feature":"4105","num_nodes":"13","size_leaf_vector":"1"}},{"base_weights":[-7.97514E-4,-1.2879464E-1,7.5841746E0,-7.671421E0,6.47262E-4,1.7682325E0,1.5615194E0,-8.9711106E-1,-1.5316972E-1,1.1557029E-2,-5.0688535E-1,5.575547E-2,2.6318127E-1],"categories":[],"categories_nodes":[],"categories_segments":[],"categories_sizes":[],"default_left":[0,0,0,0,0,0,0,0,0,0,0,0,0],"id":60,"left_children":[1,3,5,7,9,-1,11,-1,-1,-1,-1,-1,-1],"loss_changes":[2.0001407E3,1.9784269E3,2.536888E3,4.9291406E2,1.4762655E3,0E0,2.996695E1,0E0,0E0,0E0,0E0,0E0,0E0],"parents":[2147483647,0,0,1,1,2,2,3,3,4,4,6,6],"right_children":[2,4,6,8,10,-1,12,-1,-1,-1,-1,-1,-1],"split_conditions":[3.6676195E-1,4.9326316E-2,3.686405E-1,6.18589E-2,5.015717E-1,1.7682325E0,2.909231E-1,-8.9711106E-1,-1.5316972E-1,1.1557029E-2,-5.0688535E-1,5.575547E-2,2.6318127E-1],"split_indices":[1092,3572,418,730,3513,0,318,0,0,0,0,0,0],"split_type":[0,0,0,0,0,0,0,0,0,0,0,0,0],"sum_hessian":[2.06E3,2.026E3,3.4E1,3.4E1,1.992E3,1.1E1,2.3E1,2.4E1,1E1,1.948E3,4.4E1,1.4E1,9E0],"tree_param":{"num_deleted":"0","num_feature":"4105","num_nodes":"13","size_leaf_vector":"1"}},{"base_weights":[-2.8820695E-2,1.148289E0,-7.475313E-1,9.338154E0,8.519341E-1,-6.590652E-1,-1.1467844E0,1.5365584E0,4.617084E-1,4.5551695E-2,5.137817E-1,-2.7721407E-2,-3.222974E-1],"categories":[],"categories_nodes":[],"categories_segments":[],"categories_sizes":[],"default_left":[0,0,0,0,0,0,0,0,0,0,0,0,0],"id":61,"left_children":[1,3,5,7,9,11,-1,-1,-1,-1,-1,-1,-1],"loss_changes":[1.7388441E3,1.8894155E3,1.3733726E3,8.796919E2,1.2567465E3,1.3058849E3,0E0,0E0,0E0,0E0,0E0,0E0,0E0],"parents":[2147483647,0,0,1,1,2,2,3,3,4,4,5,5],"right_children":[2,4,6,8,10,12,-1,-1,-1,-1,-1,-1,-1],"split_conditions":[2.988321E-2,1.0694972E-3,7.436225E-1,1.9001347E-3,2.722945E-1,4.1477764E-1,-1.1467844E0,1.5365584E0,4.617084E-1,4.5551695E-2,5.137817E-1,-2.7721407E-2,-3.222974E-1],"split_indices":[339,1829,141,69,3697,2599,0,0,0,0,0,0,0],"split_type":[0,0,0,0,0,0,0,0,0,0,0,0,0],"sum_hessian":[2.055E3,7.79E2,1.276E3,2.7E1,7.52E2,1.267E3,9E0,9E0,1.8E1,7.04E2,4.8E1,1.135E3,1.32E2],"tree_param":{"num_deleted":"0","num_feature":"4105","num_nodes":"13","size_leaf_vector":"1"}},{"base_weights":[9.0650044E-2,1.2939199E0,-6.4952254E-1,1.0705988E0,1.1149837E0,-7.489447E-1,6.277375E-1,-6.744103E-1,1.1994403E-1,-9.4217904E-2,1.2814002E-1],"categories":[],"categories_nodes":[],"categories_segments":[],"categories_sizes":[],"default_left":[0,0,0,0,0,0,0,0,0,0,0],"id":62,"left_children":[1,3,5,7,-1,9,-1,-1,-1,-1,-1],"loss_changes":[1.8314729E3,1.9694775E3,9.789402E2,1.8789094E3,0E0,8.643423E2,0E0,0E0,0E0,0E0,0E0],"parents":[2147483647,0,0,1,1,2,2,3,3,5,5],"right_children":[2,4,6,8,-1,10,-1,-1,-1,-1,-1],"split_conditions":[7.7478275E-2,3.6574417E-1,5.1122624E-1,4.9326316E-2,1.1149837E0,2.2427483E-1,6.277375E-1,-6.744103E-1,1.1994403E-1,-9.4217904E-2,1.2814002E-1],"split_indices":[484,2180,1180,3572,0,2664,0,0,0,0,0],"split_type":[0,0,0,0,0,0,0,0,0,0,0],"sum_hessian":[2.056E3,7.83E2,1.273E3,7.68E2,1.5E1,1.257E3,1.6E1,2.4E1,7.44E2,1.1E3,1.57E2],"tree_param":{"num_deleted":"0","num_feature":"4105","num_nodes":"11","size_leaf_vector":"1"}},{"base_weights":[2.5886621E-2,1.5909895E0,-5.0430894E-1,1.0826577E1,1.2416198E0,-3.0302286E0,-1.9614774E-1,1.5890887E0,2.43051E-1,7.681999E-2,4.7762236E-1,-4.7688323E-1,-3.1077364E-2,-7.990126E-2,8.97373E-2],"categories":[],"categories_nodes":[],"categories_segments":[],"categories_sizes":[],"default_left":[0,0,0,0,0,0,0,0,0,0,0,0,0,0,0],"id":63,"left_children":[1,3,5,7,9,11,13,-1,-1,-1,-1,-1,-1,-1,-1],"loss_changes":[1.7288309E3,1.6982031E3,1.2111293E3,1.0902708E3,7.896427E2,1.0633466E3,1.1809353E3,0E0,0E0,0E0,0E0,0E0,0E0,0E0,0E0],"parents":[2147483647,0,0,1,1,2,2,3,3,4,4,5,5,6,6],"right_children":[2,4,6,8,10,12,14,-1,-1,-1,-1,-1,-1,-1,-1],"split_conditions":[3.0052213E-2,2.2287115E-2,1.4738939E-3,5.596122E-4,2.4892975E-2,9.372909E-2,2.4346089E-2,1.5890887E0,2.43051E-1,7.681999E-2,4.7762236E-1,-4.7688323E-1,-3.1077364E-2,-7.990126E-2,8.97373E-2],"split_indices":[771,248,3186,3,1530,1153,2983,0,0,0,0,0,0,0,0],"split_type":[0,0,0,0,0,0,0,0,0,0,0,0,0,0,0],"sum_hessian":[2.083E3,5.27E2,1.556E3,1.9E1,5.08E2,1.69E2,1.387E3,1E1,9E0,4.66E2,4.2E1,9E1,7.9E1,8.76E2,5.11E2],"tree_param":{"num_deleted":"0","num_feature":"4105","num_nodes":"15","size_leaf_vector":"1"}},{"base_weights":[2.9990874E-2,-1.0656309E-1,5.443541E0,2.3909595E0,-3.9973137E-1,1.3465067E0,2.7063272E0,4.7305793E-1,8.3840646E-2,-2.7610475E-2,-7.328986E-1,3.9594135E-1,-1.2404342E-1],"categories":[],"categories_nodes":[],"categories_segments":[],"categories_sizes":[],"default_left":[0,0,0,0,0,0,0,0,0,0,0,0,0],"id":64,"left_children":[1,3,5,7,9,-1,11,-1,-1,-1,-1,-1,-1],"loss_changes":[1.5380063E3,1.4858911E3,1.3561726E3,9.057943E2,1.2623053E3,0E0,2.9122202E2,0E0,0E0,0E0,0E0,0E0,0E0],"parents":[2147483647,0,0,1,1,2,2,3,3,4,4,6,6],"right_children":[2,4,6,8,10,-1,12,-1,-1,-1,-1,-1,-1],"split_conditions":[4.6521693E-2,8.862086E-3,1.0551921E-1,1.094995E-2,-1.8651364E0,1.3465067E0,2.8101945E-1,4.7305793E-1,8.3840646E-2,-2.7610475E-2,-7.328986E-1,3.9594135E-1,-1.2404342E-1],"split_indices":[3040,771,463,1728,4102,0,311,0,0,0,0,0,0],"split_type":[0,0,0,0,0,0,0,0,0,0,0,0,0],"sum_hessian":[2.08E3,2.029E3,5.1E1,2.13E2,1.816E3,1.1E1,4E1,7E1,1.43E2,1.796E3,2E1,2.8E1,1.2E1],"tree_param":{"num_deleted":"0","num_feature":"4105","num_nodes":"13","size_leaf_vector":"1"}},{"base_weights":[3.759727E-2,1.7250335E0,-3.9083055E-1,1.1797253E0,1.4629478E0,-7.636877E-1,1.8466086E0,2.639456E-1,2.9406486E-2,-8.09474E-2,4.624312E-1,1.1855753E-1,9.8554677E-1],"categories":[],"categories_nodes":[],"categories_segments":[],"categories_sizes":[],"default_left":[0,0,0,0,0,0,0,0,0,0,0,0,0],"id":65,"left_children":[1,3,5,-1,7,9,11,-1,-1,-1,-1,-1,-1],"loss_changes":[1.4859485E3,1.2586019E3,1.3677244E3,0E0,6.967155E2,1.2518732E3,1.1033096E3,0E0,0E0,0E0,0E0,0E0,0E0],"parents":[2147483647,0,0,1,1,2,2,4,4,5,5,6,6],"right_children":[2,4,6,-1,8,10,12,-1,-1,-1,-1,-1,-1],"split_conditions":[3.4321904E-2,1.2955683E-1,4.0386888E-1,1.1797253E0,2.7893936E-2,4.8972785E-2,7.34552E-1,2.639456E-1,2.9406486E-2,-8.09474E-2,4.624312E-1,1.1855753E-1,9.8554677E-1],"split_indices":[1759,2694,1109,0,525,3530,1280,0,0,0,0,0,0],"split_type":[0,0,0,0,0,0,0,0,0,0,0,0,0],"sum_hessian":[2.055E3,4.16E2,1.639E3,9E0,4.07E2,1.405E3,2.34E2,1.74E2,2.33E2,1.371E3,3.4E1,2.22E2,1.2E1],"tree_param":{"num_deleted":"0","num_feature":"4105","num_nodes":"13","size_leaf_vector":"1"}},{"base_weights":[3.41909E-4,-9.6881315E-2,8.024749E0,-6.1922145E0,3.789492E-2,1.2035353E0,3.4899792E-1,-9.986569E-1,-3.033015E-1,-4.073706E-2,1.2235236E-1],"categories":[],"categories_nodes":[],"categories_segments":[],"categories_sizes":[],"default_left":[0,0,0,0,0,0,0,0,0,0,0],"id":66,"left_children":[1,3,5,7,9,-1,-1,-1,-1,-1,-1],"loss_changes":[1.5764144E3,1.6400804E3,5.380023E2,5.9913416E2,1.3029242E3,0E0,0E0,0E0,0E0,0E0,0E0],"parents":[2147483647,0,0,1,1,2,2,3,3,4,4],"right_children":[2,4,6,8,10,-1,-1,-1,-1,-1,-1],"split_conditions":[8.7716386E-2,5.498597E-3,6.8863675E-2,3.4264708E-1,1.2106804E-2,1.2035353E0,3.4899792E-1,-9.986569E-1,-3.033015E-1,-4.073706E-2,1.2235236E-1],"split_indices":[3162,2232,662,1606,2419,0,0,0,0,0,0],"split_type":[0,0,0,0,0,0,0,0,0,0,0],"sum_hessian":[2.02E3,1.996E3,2.4E1,4.3E1,1.953E3,1E1,1.4E1,1.5E1,2.8E1,1.425E3,5.28E2],"tree_param":{"num_deleted":"0","num_feature":"4105","num_nodes":"11","size_leaf_vector":"1"}},{"base_weights":[-5.4488227E-2,3.600903E0,-2.4413528E-1,1.4662223E0,2.132358E0,-5.413808E0,-1.1743581E-1,6.970525E-1,9.404231E-2,-2.231106E-1,-8.090545E-1,1.7646266E-2,-1.7890128E-1],"categories":[],"categories_nodes":[],"categories_segments":[],"categories_sizes":[],"default_left":[0,0,0,0,0,0,0,0,0,0,0,0,0],"id":67,"left_children":[1,3,5,-1,7,9,11,-1,-1,-1,-1,-1,-1],"loss_changes":[1.408171E3,1.8952826E3,1.2646592E3,0E0,5.518993E2,4.9174988E2,1.1331278E3,0E0,0E0,0E0,0E0,0E0,0E0],"parents":[2147483647,0,0,1,1,2,2,4,4,5,5,6,6],"right_children":[2,4,6,-1,8,10,12,-1,-1,-1,-1,-1,-1],"split_conditions":[4.467155E-2,8.0131225E-2,2.2348778E-3,1.4662223E0,3.6162603E-1,2.272277E-3,7.720946E-2,6.970525E-1,9.404231E-2,-2.231106E-1,-8.090545E-1,1.7646266E-2,-1.7890128E-1],"split_indices":[3149,997,3119,0,1326,1321,3030,0,0,0,0,0,0],"split_type":[0,0,0,0,0,0,0,0,0,0,0,0,0],"sum_hessian":[2.031E3,1E2,1.931E3,1E1,9E1,4.6E1,1.885E3,1.4E1,7.6E1,2.6E1,2E1,1.616E3,2.69E2],"tree_param":{"num_deleted":"0","num_feature":"4105","num_nodes":"13","size_leaf_vector":"1"}},{"base_weights":[2.6299255E-3,-2.9000068E-1,2.062411E0,6.7700636E-1,-1.1112107E0,1.3738257E0,6.845391E0,4.9408412E-1,2.8447265E-2,-3.8832805E-1,-6.973281E-2,2.54254E-2,2.732889E-1,4.9340454E-1,8.4341717E-1],"categories":[],"categories_nodes":[],"categories_segments":[],"categories_sizes":[],"default_left":[0,0,0,0,0,0,0,0,0,0,0,0,0,0,0],"id":68,"left_children":[1,3,5,7,9,11,13,-1,-1,-1,-1,-1,-1,-1,-1],"loss_changes":[1.2413439E3,1.4320938E3,8.4177246E2,1.4434281E3,1.0346793E3,4.158848E2,9.959631E1,0E0,0E0,0E0,0E0,0E0,0E0,0E0,0E0],"parents":[2147483647,0,0,1,1,2,2,3,3,4,4,5,5,6,6],"right_children":[2,4,6,8,10,12,14,-1,-1,-1,-1,-1,-1,-1,-1],"split_conditions":[2.2427483E-1,1.648658E-1,2.293384E-1,7.834117E-3,7.471305E-2,1.5777369E-1,1.2917371E-1,4.9408412E-1,2.8447265E-2,-3.8832805E-1,-6.973281E-2,2.54254E-2,2.732889E-1,4.9340454E-1,8.4341717E-1],"split_indices":[2664,2328,3697,3568,34,2881,1680,0,0,0,0,0,0,0,0],"split_type":[0,0,0,0,0,0,0,0,0,0,0,0,0,0,0],"sum_hessian":[2.059E3,1.803E3,2.56E2,8.28E2,9.75E2,2.24E2,3.2E1,5.6E1,7.72E2,8.8E1,8.87E2,1.37E2,8.7E1,2.2E1,1E1],"tree_param":{"num_deleted":"0","num_feature":"4105","num_nodes":"15","size_leaf_vector":"1"}},{"base_weights":[-8.837697E-3,3.6611003E-1,-1.4177555E0,-9.3146905E-2,1.9959857E0,-4.6217427E0,-8.153993E-1,-1.650206E-2,9.1462076E-1,5.702227E-1,1.3921584E-1,-3.0426997E-1,-8.078464E-1,-5.5358257E-2,-7.2449696E-1],"categories":[],"categories_nodes":[],"categories_segments":[],"categories_sizes":[],"default_left":[0,0,0,0,0,0,0,0,0,0,0,0,0,0,0],"id":69,"left_children":[1,3,5,7,9,11,13,-1,-1,-1,-1,-1,-1,-1,-1],"loss_changes":[1.083707E3,1.2128456E3,8.313207E2,1.2221686E3,6.711708E2,3.5820947E2,5.0958768E2,0E0,0E0,0E0,0E0,0E0,0E0,0E0,0E0],"parents":[2147483647,0,0,1,1,2,2,3,3,4,4,5,5,6,6],"right_children":[2,4,6,8,10,12,14,-1,-1,-1,-1,-1,-1,-1,-1],"split_conditions":[8.16949E-3,1.0808481E-1,7.783229E-5,3.6574417E-1,1.3567434E-1,1.794711E-1,2.56603E0,-1.650206E-2,9.1462076E-1,5.702227E-1,1.3921584E-1,-3.0426997E-1,-8.078464E-1,-5.5358257E-2,-7.2449696E-1],"split_indices":[3657,3261,3407,2180,372,179,1630,0,0,0,0,0,0,0,0],"split_type":[0,0,0,0,0,0,0,0,0,0,0,0,0,0,0],"sum_hessian":[2.051E3,1.62E3,4.31E2,1.264E3,3.56E2,6.8E1,3.63E2,1.253E3,1.1E1,3.1E1,3.25E2,5.4E1,1.4E1,3.54E2,9E0],"tree_param":{"num_deleted":"0","num_feature":"4105","num_nodes":"15","size_leaf_vector":"1"}},{"base_weights":[-2.2600217E-2,-1.0632732E-1,6.262404E0,-5.0173264E0,2.3285146E-3,1.04706E0,3.395917E0,-8.0789715E-1,-2.532315E-1,2.9185861E-2,-1.2186362E-1,2.0872301E-1,3.8725296E-1],"categories":[],"categories_nodes":[],"categories_segments":[],"categories_sizes":[],"default_left":[0,0,0,0,0,0,0,0,0,0,0,0,0],"id":70,"left_children":[1,3,5,7,9,-1,11,-1,-1,-1,-1,-1,-1],"loss_changes":[1.0883038E3,1.0893247E3,4.2402026E2,3.8570386E2,8.981257E2,0E0,1.6289688E1,0E0,0E0,0E0,0E0,0E0,0E0],"parents":[2147483647,0,0,1,1,2,2,3,3,4,4,6,6],"right_children":[2,4,6,8,10,-1,12,-1,-1,-1,-1,-1,-1],"split_conditions":[8.7716386E-2,5.498597E-3,1.1572921E-4,3.4904275E-2,1.8332218E-1,1.04706E0,7.7289355E-4,-8.0789715E-1,-2.532315E-1,2.9185861E-2,-1.2186362E-1,2.0872301E-1,3.8725296E-1],"split_indices":[3162,2232,1286,563,514,0,2037,0,0,0,0,0,0],"split_type":[0,0,0,0,0,0,0,0,0,0,0,0,0],"sum_hessian":[2.068E3,2.041E3,2.7E1,4.4E1,1.997E3,9E0,1.8E1,1.5E1,2.9E1,1.614E3,3.83E2,9E0,9E0],"tree_param":{"num_deleted":"0","num_feature":"4105","num_nodes":"13","size_leaf_vector":"1"}},{"base_weights":[2.474418E-2,3.568514E-1,-1.3400534E0,-1.411384E0,7.2528803E-1,-9.511483E-1,-6.739379E0,2.2877926E-1,-1.826462E-1,6.6116506E-1,5.544792E-2,-2.197117E-1,2.7534213E-2,-4.7131562E-1,-8.355119E-1],"categories":[],"categories_nodes":[],"categories_segments":[],"categories_sizes":[],"default_left":[0,0,0,0,0,0,0,0,0,0,0,0,0,0,0],"id":71,"left_children":[1,3,5,7,9,11,13,-1,-1,-1,-1,-1,-1,-1,-1],"loss_changes":[9.383975E2,1.0850178E3,8.494218E2,7.434933E2,9.276214E2,7.2827075E2,9.407312E1,0E0,0E0,0E0,0E0,0E0,0E0,0E0,0E0],"parents":[2147483647,0,0,1,1,2,2,3,3,4,4,5,5,6,6],"right_children":[2,4,6,8,10,12,14,-1,-1,-1,-1,-1,-1,-1,-1],"split_conditions":[-6.209928E-1,7.712438E-3,5.701386E-2,1.2356157E-2,2.2287115E-2,2.2143805E-1,3.1060077E-2,2.2877926E-1,-1.826462E-1,6.6116506E-1,5.544792E-2,-2.197117E-1,2.7534213E-2,-4.7131562E-1,-8.355119E-1],"split_indices":[4101,3622,2979,1634,248,4029,1610,0,0,0,0,0,0,0,0],"split_type":[0,0,0,0,0,0,0,0,0,0,0,0,0,0,0],"sum_hessian":[2.07E3,1.665E3,4.05E2,2.87E2,1.378E3,3.78E2,2.7E1,4E1,2.47E2,2E1,1.358E3,1.71E2,2.07E2,1.8E1,9E0],"tree_param":{"num_deleted":"0","num_feature":"4105","num_nodes":"15","size_leaf_vector":"1"}},{"base_weights":[-4.87248E-3,-1.206943E-1,4.356734E0,-1.5361428E0,1.7293063E-1,1.1388032E0,2.0869644E0,-2.5440928E-1,-2.3296712E-2,-9.462846E-3,1.6854635E-1,3.2767835E-1,-1.3291036E-1],"categories":[],"categories_nodes":[],"categories_segments":[],"categories_sizes":[],"default_left":[0,0,0,0,0,0,0,0,0,0,0,0,0],"id":72,"left_children":[1,3,5,7,9,-1,11,-1,-1,-1,-1,-1,-1],"loss_changes":[1.038716E3,8.326318E2,1.0186454E3,5.8370135E2,8.014667E2,0E0,2.4425095E2,0E0,0E0,0E0,0E0,0E0,0E0],"parents":[2147483647,0,0,1,1,2,2,3,3,4,4,6,6],"right_children":[2,4,6,8,10,-1,12,-1,-1,-1,-1,-1,-1],"split_conditions":[4.6521693E-2,9.545659E-3,4.5868665E-2,8.041151E-2,2.2427483E-1,1.1388032E0,6.7688E-2,-2.5440928E-1,-2.3296712E-2,-9.462846E-3,1.6854635E-1,3.2767835E-1,-1.3291036E-1],"split_indices":[3040,3205,941,3936,2664,0,1106,0,0,0,0,0,0],"split_type":[0,0,0,0,0,0,0,0,0,0,0,0,0],"sum_hessian":[2.056E3,2.003E3,5.3E1,3.44E2,1.659E3,1.1E1,4.2E1,1.68E2,1.76E2,1.428E3,2.31E2,2.9E1,1.3E1],"tree_param":{"num_deleted":"0","num_feature":"4105","num_nodes":"13","size_leaf_vector":"1"}},{"base_weights":[-1.2357306E-2,3.5287743E0,-1.3973872E-1,1.3729073E0,1.7519568E0,-5.769536E0,-4.6646483E-2,3.178934E-1,-1.204034E-1,-3.2752556E-1,-8.087369E-1,5.377263E-2,-6.023398E-2],"categories":[],"categories_nodes":[],"categories_segments":[],"categories_sizes":[],"default_left":[0,0,0,0,0,0,0,0,0,0,0,0,0],"id":73,"left_children":[1,3,5,-1,7,9,11,-1,-1,-1,-1,-1,-1],"loss_changes":[9.247954E2,1.5059978E3,1.0370765E3,0E0,3.5525635E2,2.1717505E2,8.0414215E2,0E0,0E0,0E0,0E0,0E0,0E0],"parents":[2147483647,0,0,1,1,2,2,4,4,5,5,6,6],"right_children":[2,4,6,-1,8,10,12,-1,-1,-1,-1,-1,-1],"split_conditions":[1.4361507E-3,1.8042305E-2,4.9326316E-2,1.3729073E0,1.3413846E-1,1.496648E-1,1.3785282E-1,3.178934E-1,-1.204034E-1,-3.2752556E-1,-8.087369E-1,5.377263E-2,-6.023398E-2],"split_indices":[4068,245,3572,0,1364,367,3171,0,0,0,0,0,0],"split_type":[0,0,0,0,0,0,0,0,0,0,0,0,0],"sum_hessian":[2.05E3,7.1E1,1.979E3,9E0,6.2E1,3.2E1,1.947E3,3.9E1,2.3E1,2E1,1.2E1,9.58E2,9.89E2],"tree_param":{"num_deleted":"0","num_feature":"4105","num_nodes":"13","size_leaf_vector":"1"}},{"base_weights":[2.1744758E-2,1.1376145E0,-3.3789283E-1,4.2969017E0,4.5887953E-1,-1.1509632E0,3.6803135E-1,9.250385E-1,2.3705623E-1,-2.9704723E-1,7.370356E-2,-7.7476114E-2,-4.3294948E-1,1.0833624E-2,3.177938E-1],"categories":[],"categories_nodes":[],"categories_segments":[],"categories_sizes":[],"default_left":[0,0,0,0,0,0,0,0,0,0,0,0,0,0,0],"id":74,"left_children":[1,3,5,7,9,11,13,-1,-1,-1,-1,-1,-1,-1,-1],"loss_changes":[8.12016E2,1.057062E3,8.7837616E2,8.6284094E2,5.7598505E2,7.3514325E2,6.47402E2,0E0,0E0,0E0,0E0,0E0,0E0,0E0,0E0],"parents":[2147483647,0,0,1,1,2,2,3,3,4,4,5,5,6,6],"right_children":[2,4,6,8,10,12,14,-1,-1,-1,-1,-1,-1,-1,-1],"split_conditions":[5.3580827E-1,2.9075516E-3,7.8981176E-2,1.27310315E-2,3.5232042E-3,5.827086E-1,7.829125E-2,9.250385E-1,2.3705623E-1,-2.9704723E-1,7.370356E-2,-7.7476114E-2,-4.3294948E-1,1.0833624E-2,3.177938E-1],"split_indices":[1630,685,3035,1545,226,3062,4077,0,0,0,0,0,0,0,0],"split_type":[0,0,0,0,0,0,0,0,0,0,0,0,0,0,0],"sum_hessian":[2.023E3,4.93E2,1.53E3,8.7E1,4.06E2,7.11E2,8.19E2,1.8E1,6.9E1,3.6E1,3.7E2,6.62E2,4.9E1,7.61E2,5.8E1],"tree_param":{"num_deleted":"0","num_feature":"4105","num_nodes":"15","size_leaf_vector":"1"}},{"base_weights":[5.526251E-2,9.025038E-1,-4.619747E-1,7.420226E-1,7.875606E-1,5.2897286E-1,-9.469709E-1,2.2315465E-2,2.302126E-1,2.1637635E-2,4.7399858E-1,-6.2048867E-2,-3.4734997E-1],"categories":[],"categories_nodes":[],"categories_segments":[],"categories_sizes":[],"default_left":[0,0,0,0,0,0,0,0,0,0,0,0,0],"id":75,"left_children":[1,3,5,7,-1,9,11,-1,-1,-1,-1,-1,-1],"loss_changes":[8.915217E2,9.857355E2,6.07201E2,6.8718695E2,0E0,5.694193E2,6.2244006E2,0E0,0E0,0E0,0E0,0E0,0E0],"parents":[2147483647,0,0,1,1,2,2,3,3,5,5,6,6],"right_children":[2,4,6,8,-1,10,12,-1,-1,-1,-1,-1,-1],"split_conditions":[7.7478275E-2,5.3437227E-1,2.6787499E-2,4.0428337E-2,7.875606E-1,4.6194002E-1,2.580835E-1,2.2315465E-2,2.302126E-1,2.1637635E-2,4.7399858E-1,-6.2048867E-2,-3.4734997E-1],"split_indices":[484,178,339,4077,0,1548,1608,0,0,0,0,0,0],"split_type":[0,0,0,0,0,0,0,0,0,0,0,0,0],"sum_hessian":[2.034E3,7.71E2,1.263E3,7.56E2,1.5E1,4.15E2,8.48E2,5.98E2,1.58E2,3.92E2,2.3E1,7.83E2,6.5E1],"tree_param":{"num_deleted":"0","num_feature":"4105","num_nodes":"13","size_leaf_vector":"1"}},{"base_weights":[-1.9165065E-2,2.0567625E0,-2.0121422E-1,8.465997E0,1.1688116E0,-1.9414103E0,4.0541224E-2,9.614507E-1,4.788484E-1,6.320072E-2,4.791502E-1,6.794991E-2,-2.682349E-1,1.5887206E-2,-2.7976614E-1],"categories":[],"categories_nodes":[],"categories_segments":[],"categories_sizes":[],"default_left":[0,0,0,0,0,0,0,0,0,0,0,0,0,0,0],"id":76,"left_children":[1,3,5,7,9,11,13,-1,-1,-1,-1,-1,-1,-1,-1],"loss_changes":[7.789978E2,9.4368365E2,7.9737225E2,1.3553821E2,2.8148257E2,6.7826465E2,7.368083E2,0E0,0E0,0E0,0E0,0E0,0E0,0E0,0E0],"parents":[2147483647,0,0,1,1,2,2,3,3,4,4,5,5,6,6],"right_children":[2,4,6,8,10,12,14,-1,-1,-1,-1,-1,-1,-1,-1],"split_conditions":[3.428975E-3,1.0497396E-1,1.8029486E-1,1.271736E-1,9.325848E-2,1.2749912E-4,2.2655782E-1,9.614507E-1,4.788484E-1,6.320072E-2,4.791502E-1,6.794991E-2,-2.682349E-1,1.5887206E-2,-2.7976614E-1],"split_indices":[1828,3163,230,1246,763,691,2748,0,0,0,0,0,0,0,0],"split_type":[0,0,0,0,0,0,0,0,0,0,0,0,0,0,0],"sum_hessian":[2.061E3,1.66E2,1.895E3,2E1,1.46E2,2.31E2,1.664E3,1.1E1,9E0,1.32E2,1.4E1,6.6E1,1.65E2,1.595E3,6.9E1],"tree_param":{"num_deleted":"0","num_feature":"4105","num_nodes":"15","size_leaf_vector":"1"}},{"base_weights":[-1.855796E-2,3.0286043E0,-1.2598042E-1,1.0712013E0,1.486925E0,-1.490645E0,1.4231944E-1,-2.654122E-1,2.2179528E-1,-2.2884676E-1,3.901306E-2,-3.7964642E-2,6.647376E-2],"categories":[],"categories_nodes":[],"categories_segments":[],"categories_sizes":[],"default_left":[0,0,0,0,0,0,0,0,0,0,0,0,0],"id":77,"left_children":[1,3,5,-1,7,9,11,-1,-1,-1,-1,-1,-1],"loss_changes":[6.746955E2,9.7540576E2,7.291265E2,0E0,2.7469757E2,6.884232E2,5.763448E2,0E0,0E0,0E0,0E0,0E0,0E0],"parents":[2147483647,0,0,1,1,2,2,4,4,5,5,6,6],"right_children":[2,4,6,-1,8,10,12,-1,-1,-1,-1,-1,-1],"split_conditions":[1.4361507E-3,1.8042305E-2,9.646757E-3,1.0712013E0,2.4387399E-2,2.7350314E-2,1.2479267E-1,-2.654122E-1,2.2179528E-1,-2.2884676E-1,3.901306E-2,-3.7964642E-2,6.647376E-2],"split_indices":[4068,245,3321,0,1616,2660,3587,0,0,0,0,0,0],"split_type":[0,0,0,0,0,0,0,0,0,0,0,0,0],"sum_hessian":[2.061E3,7E1,1.991E3,1E1,6E1,3.27E2,1.664E3,1.1E1,4.9E1,2.09E2,1.18E2,8.58E2,8.06E2],"tree_param":{"num_deleted":"0","num_feature":"4105","num_nodes":"13","size_leaf_vector":"1"}},{"base_weights":[2.248198E-2,1.7864412E-1,-2.0671728E0,1.3617343E0,-1.1416247E-1,8.072263E-1,-2.9987066E0,6.084542E-1,9.7631074E-2,4.1312426E-1,-1.8036732E-2,2.3368694E-1,-8.220047E-2,-1.4388588E-1,-4.0647617E-1],"categories":[],"categories_nodes":[],"categories_segments":[],"categories_sizes":[],"default_left":[0,0,0,0,0,0,0,0,0,0,0,0,0,0,0],"id":78,"left_children":[1,3,5,7,9,11,13,-1,-1,-1,-1,-1,-1,-1,-1],"loss_changes":[6.719869E2,6.638603E2,3.8391473E2,5.439544E2,6.538943E2,1.1201099E2,2.3434119E2,0E0,0E0,0E0,0E0,0E0,0E0,0E0,0E0],"parents":[2147483647,0,0,1,1,2,2,3,3,4,4,5,5,6,6],"right_children":[2,4,6,8,10,12,14,-1,-1,-1,-1,-1,-1,-1,-1],"split_conditions":[1.0593418E0,-6.654059E-1,1.4986882E-2,4.3557648E-2,4.467155E-2,2.995303E-1,3.0917904E-1,6.084542E-1,9.7631074E-2,4.1312426E-1,-1.8036732E-2,2.3368694E-1,-8.220047E-2,-1.4388588E-1,-4.0647617E-1],"split_indices":[3089,4101,1700,600,3149,647,1692,0,0,0,0,0,0,0,0],"split_type":[0,0,0,0,0,0,0,0,0,0,0,0,0,0,0],"sum_hessian":[2.059E3,1.916E3,1.43E2,3.8E2,1.536E3,3.5E1,1.08E2,1.7E1,3.63E2,2.8E1,1.508E3,1.7E1,1.8E1,5.8E1,5E1],"tree_param":{"num_deleted":"0","num_feature":"4105","num_nodes":"15","size_leaf_vector":"1"}},{"base_weights":[2.1550085E-2,8.6734146E-1,-3.2890785E-1,-5.271343E-2,2.0755026E0,-1.208422E0,1.3568738E-1,2.2358691E-2,-3.9118907E-1,4.2640114E-1,7.483548E-2,-2.6392424E-1,-4.0789805E-2,-5.3227767E-3,2.215106E-1],"categories":[],"categories_nodes":[],"categories_segments":[],"categories_sizes":[],"default_left":[0,0,0,0,0,0,0,0,0,0,0,0,0,0,0],"id":79,"left_children":[1,3,5,7,9,11,13,-1,-1,-1,-1,-1,-1,-1,-1],"loss_changes":[6.0421576E2,6.6389154E2,5.8895374E2,4.5083133E2,8.679308E2,6.586613E2,4.360191E2,0E0,0E0,0E0,0E0,0E0,0E0,0E0,0E0],"parents":[2147483647,0,0,1,1,2,2,3,3,4,4,5,5,6,6],"right_children":[2,4,6,8,10,12,14,-1,-1,-1,-1,-1,-1,-1,-1],"split_conditions":[4.516084E-2,1.3887544E-2,1.3949768E-2,1.2068666E-1,9.464987E-3,3.5434994E-1,5.2760545E-2,2.2358691E-2,-3.9118907E-1,4.2640114E-1,7.483548E-2,-2.6392424E-1,-4.0789805E-2,-5.3227767E-3,2.215106E-1],"split_indices":[484,2845,2679,1,1155,3507,4093,0,0,0,0,0,0,0,0],"split_type":[0,0,0,0,0,0,0,0,0,0,0,0,0,0,0],"sum_hessian":[2.038E3,5.97E2,1.441E3,3.39E2,2.58E2,4.98E2,9.43E2,3.17E2,2.2E1,8E1,1.78E2,1.48E2,3.5E2,8.71E2,7.2E1],"tree_param":{"num_deleted":"0","num_feature":"4105","num_nodes":"15","size_leaf_vector":"1"}},{"base_weights":[1.46213295E-2,3.3902895E-1,-8.817169E-1,2.4152747E-1,4.810732E0,-1.9829521E0,-1.4339666E-1,-1.695086E-2,1.0731824E-1,1.673142E-1,1.0722462E0,-1.4705934E-1,-7.089736E-1,3.7407222E-1,-3.948481E-2],"categories":[],"categories_nodes":[],"categories_segments":[],"categories_sizes":[],"default_left":[0,0,0,0,0,0,0,0,0,0,0,0,0,0,0],"id":80,"left_children":[1,3,5,7,9,11,13,-1,-1,-1,-1,-1,-1,-1,-1],"loss_changes":[5.976484E2,6.5765607E2,4.439794E2,6.189817E2,6.8045654E2,4.2532697E2,4.3083716E2,0E0,0E0,0E0,0E0,0E0,0E0,0E0,0E0],"parents":[2147483647,0,0,1,1,2,2,3,3,4,4,5,5,6,6],"right_children":[2,4,6,8,10,12,14,-1,-1,-1,-1,-1,-1,-1,-1],"split_conditions":[4.28197E-3,8.177681E-2,1.0709236E-1,1.8021075E-2,1.2946698E-1,3.152477E-1,2.738242E-1,-1.695086E-2,1.0731824E-1,1.673142E-1,1.0722462E0,-1.4705934E-1,-7.089736E-1,3.7407222E-1,-3.948481E-2],"split_indices":[3657,3595,669,3017,1268,1284,3336,0,0,0,0,0,0,0,0],"split_type":[0,0,0,0,0,0,0,0,0,0,0,0,0,0,0],"sum_hessian":[2.055E3,1.509E3,5.46E2,1.477E3,3.2E1,2.19E2,3.27E2,1.021E3,4.56E2,2.3E1,9E0,2.08E2,1.1E1,2.1E1,3.06E2],"tree_param":{"num_deleted":"0","num_feature":"4105","num_nodes":"15","size_leaf_vector":"1"}},{"base_weights":[-2.6243653E-2,-7.928496E-2,5.0398874E0,-3.0777812E0,1.4167224E-2,8.832405E-1,1.1105314E-1,-1.4899793E-1,-5.886076E-1,-1.9807464E-3,6.8995523E-1],"categories":[],"categories_nodes":[],"categories_segments":[],"categories_sizes":[],"default_left":[0,0,0,0,0,0,0,0,0,0,0],"id":81,"left_children":[1,3,5,7,9,-1,-1,-1,-1,-1,-1],"loss_changes":[5.4952185E2,5.6729553E2,3.9209375E2,3.0206305E2,5.5660474E2,0E0,0E0,0E0,0E0,0E0,0E0],"parents":[2147483647,0,0,1,1,2,2,3,3,4,4],"right_children":[2,4,6,8,10,-1,-1,-1,-1,-1,-1],"split_conditions":[5.0090927E-1,1.0096739E-1,1.1161247E-2,7.028793E-2,9.949518E-1,8.832405E-1,1.1105314E-1,-1.4899793E-1,-5.886076E-1,-1.9807464E-3,6.8995523E-1],"split_indices":[1793,3572,1544,63,1203,0,0,0,0,0,0],"split_type":[0,0,0,0,0,0,0,0,0,0,0],"sum_hessian":[2.045E3,2.024E3,2.1E1,6.1E1,1.963E3,9E0,1.2E1,4.4E1,1.7E1,1.954E3,9E0],"tree_param":{"num_deleted":"0","num_feature":"4105","num_nodes":"11","size_leaf_vector":"1"}},{"base_weights":[-1.5908483E-2,2.990861E-1,-8.9022654E-1,-1.4377161E0,5.3528225E-1,-2.059455E0,-1.5645505E-1,-4.728037E-2,-4.601191E-1,2.3213693E-1,3.0324535E-2,-1.526113E-1,-7.144218E-1,-4.6196435E-2,2.3764633E-1],"categories":[],"categories_nodes":[],"categories_segments":[],"categories_sizes":[],"default_left":[0,0,0,0,0,0,0,0,0,0,0,0,0,0,0],"id":82,"left_children":[1,3,5,7,9,11,13,-1,-1,-1,-1,-1,-1,-1,-1],"loss_changes":[5.669016E2,6.2087195E2,4.6762628E2,6.139894E2,5.3612854E2,4.2412793E2,3.4656613E2,0E0,0E0,0E0,0E0,0E0,0E0,0E0,0E0],"parents":[2147483647,0,0,1,1,2,2,3,3,4,4,5,5,6,6],"right_children":[2,4,6,8,10,12,14,-1,-1,-1,-1,-1,-1,-1,-1],"split_conditions":[4.28197E-3,9.476549E-3,9.8725066E-2,1.3644402E-1,1.4242019E-2,1.2700981E0,1.3562325E-1,-4.728037E-2,-4.601191E-1,2.3213693E-1,3.0324535E-2,-1.526113E-1,-7.144218E-1,-4.6196435E-2,2.3764633E-1],"split_indices":[3657,3362,669,1368,3254,2622,3415,0,0,0,0,0,0,0,0],"split_type":[0,0,0,0,0,0,0,0,0,0,0,0,0,0,0],"sum_hessian":[2.058E3,1.513E3,5.45E2,1.81E2,1.332E3,2.1E2,3.35E2,1.46E2,3.5E1,1.13E2,1.219E3,1.99E2,1.1E1,2.97E2,3.8E1],"tree_param":{"num_deleted":"0","num_feature":"4105","num_nodes":"15","size_leaf_vector":"1"}},{"base_weights":[4.028902E-3,4.284614E0,-5.4785904E-2,1.6193338E-2,9.3235606E-1,3.935497E0,-1.12390086E-1,6.055482E-1,2.093238E-1,-1.5413219E-2,3.163495E-1],"categories":[],"categories_nodes":[],"categories_segments":[],"categories_sizes":[],"default_left":[0,0,0,0,0,0,0,0,0,0,0],"id":83,"left_children":[1,3,5,-1,-1,7,9,-1,-1,-1,-1],"loss_changes":[5.2361115E2,7.194306E2,4.7146732E2,0E0,0E0,1.2970697E2,4.5672583E2,0E0,0E0,0E0,0E0],"parents":[2147483647,0,0,1,1,2,2,5,5,6,6],"right_children":[2,4,6,-1,-1,8,10,-1,-1,-1,-1],"split_conditions":[2.2287115E-2,4.7930464E-2,6.9612704E-2,1.6193338E-2,9.3235606E-1,9.307471E-2,6.154127E-2,6.055482E-1,2.093238E-1,-1.5413219E-2,3.163495E-1],"split_indices":[248,635,3069,0,0,1619,3530,0,0,0,0],"split_type":[0,0,0,0,0,0,0,0,0,0,0],"sum_hessian":[2.079E3,2.8E1,2.051E3,1.7E1,1.1E1,2.9E1,2.022E3,1E1,1.9E1,1.989E3,3.3E1],"tree_param":{"num_deleted":"0","num_feature":"4105","num_nodes":"11","size_leaf_vector":"1"}},{"base_weights":[7.220595E-3,6.3227886E-1,-4.1870633E-1,3.5220947E0,3.858088E-1,-3.606623E-1,-7.0296437E-1,5.6413E-1,8.8323124E-2,1.4155105E-1,-4.3653934E-3,-1.3040793E-1,-3.2205535E-3],"categories":[],"categories_nodes":[],"categories_segments":[],"categories_sizes":[],"default_left":[0,0,0,0,0,0,0,0,0,0,0,0,0],"id":84,"left_children":[1,3,5,7,9,11,-1,-1,-1,-1,-1,-1,-1],"loss_changes":[5.368236E2,5.816902E2,5.2177045E2,4.5885657E2,3.9655243E2,4.2830905E2,0E0,0E0,0E0,0E0,0E0,0E0,0E0],"parents":[2147483647,0,0,1,1,2,2,3,3,4,4,5,5],"right_children":[2,4,6,8,10,12,-1,-1,-1,-1,-1,-1,-1],"split_conditions":[3.311919E-2,1.6157694E-2,7.436225E-1,9.2503175E-2,8.650001E-3,2.5686244E-2,-7.0296437E-1,5.6413E-1,8.8323124E-2,1.4155105E-1,-4.3653934E-3,-1.3040793E-1,-3.2205535E-3],"split_indices":[339,3351,141,1600,2249,3366,0,0,0,0,0,0,0],"split_type":[0,0,0,0,0,0,0,0,0,0,0,0,0],"sum_hessian":[2.016E3,8.17E2,1.199E3,6.4E1,7.53E2,1.19E3,9E0,3E1,3.4E1,1.99E2,5.54E2,2.69E2,9.21E2],"tree_param":{"num_deleted":"0","num_feature":"4105","num_nodes":"13","size_leaf_vector":"1"}},{"base_weights":[-2.0721087E-2,5.920029E-1,-4.1002017E-1,5.928069E-1,4.7338772E-1,-3.7161584E0,-3.0884016E-1,2.9460343E-2,3.07343E-1,9.399421E-2,-5.5809486E-1,-9.725348E-3,-1.8271196E-1],"categories":[],"categories_nodes":[],"categories_segments":[],"categories_sizes":[],"default_left":[0,0,0,0,0,0,0,0,0,0,0,0,0],"id":85,"left_children":[1,3,5,-1,7,9,11,-1,-1,-1,-1,-1,-1],"loss_changes":[4.8884024E2,5.745115E2,4.1889255E2,0E0,3.2977673E2,4.5892462E2,4.2412524E2,0E0,0E0,0E0,0E0,0E0,0E0],"parents":[2147483647,0,0,1,1,2,2,4,4,5,5,6,6],"right_children":[2,4,6,-1,8,10,12,-1,-1,-1,-1,-1,-1],"split_conditions":[2.5704682E-1,2.2287115E-2,5.9646986E-2,5.928069E-1,1.8830097E-1,1.0023651E-2,2.5370392E-1,2.9460343E-2,3.07343E-1,9.399421E-2,-5.5809486E-1,-9.725348E-3,-1.8271196E-1],"split_indices":[1224,248,3227,0,3684,406,3839,0,0,0,0,0,0],"split_type":[0,0,0,0,0,0,0,0,0,0,0,0,0],"sum_hessian":[2.049E3,7.96E2,1.253E3,1.5E1,7.81E2,3.7E1,1.216E3,7.46E2,3.5E1,1.3E1,2.4E1,1.092E3,1.24E2],"tree_param":{"num_deleted":"0","num_feature":"4105","num_nodes":"13","size_leaf_vector":"1"}},{"base_weights":[-2.4506237E-2,-3.255829E-1,7.3694557E-1,5.538551E-1,-3.675345E-1,3.8364084E0,3.9924058E-1,-3.9206037E-1,-2.644455E-2,4.4944397E-1,3.985202E-2,1.7447298E-2,3.8535497E-1],"categories":[],"categories_nodes":[],"categories_segments":[],"categories_sizes":[],"default_left":[0,0,0,0,0,0,0,0,0,0,0,0,0],"id":86,"left_children":[1,3,5,-1,7,9,11,-1,-1,-1,-1,-1,-1],"loss_changes":[4.6294482E2,3.9916263E2,5.985165E2,0E0,4.0405795E2,2.336792E2,4.1219763E2,0E0,0E0,0E0,0E0,0E0,0E0],"parents":[2147483647,0,0,1,1,2,2,4,4,5,5,6,6],"right_children":[2,4,6,-1,8,10,12,-1,-1,-1,-1,-1,-1],"split_conditions":[1.5484741E-1,3.358716E-2,4.6236613E-1,5.538551E-1,4.9326316E-2,1.969854E-2,1.5126996E-1,-3.9206037E-1,-2.644455E-2,4.4944397E-1,3.985202E-2,1.7447298E-2,3.8535497E-1],"split_indices":[909,3192,1326,0,3572,2800,3684,0,0,0,0,0,0],"split_type":[0,0,0,0,0,0,0,0,0,0,0,0,0],"sum_hessian":[2.019E3,1.447E3,5.72E2,9E0,1.438E3,5.6E1,5.16E2,2.4E1,1.414E3,4.1E1,1.5E1,4.91E2,2.5E1],"tree_param":{"num_deleted":"0","num_feature":"4105","num_nodes":"13","size_leaf_vector":"1"}},{"base_weights":[6.509721E-2,2.486056E0,-1.901858E-2,8.277442E-1,1.432634E0,-9.082913E-2,2.7580185E0,1.5047713E-2,3.0559072E-1,-1.1085157E-1,7.7114524E-3,3.0641532E-1,2.3877995E-2],"categories":[],"categories_nodes":[],"categories_segments":[],"categories_sizes":[],"default_left":[0,0,0,0,0,0,0,0,0,0,0,0,0],"id":87,"left_children":[1,3,5,-1,7,9,11,-1,-1,-1,-1,-1,-1],"loss_changes":[4.1960965E2,4.9619818E2,3.9706415E2,0E0,1.528013E2,3.9999414E2,8.674927E1,0E0,0E0,0E0,0E0,0E0,0E0],